0.8412666666666667
[[1.0073199846688947, 0.24686494921957608, 0.17243456156669865, -0.5870654914426655, 0.49677395696675986, -0.56871317511473, -1.1182870563555098, 1.4292755350132809, -1.01725447809748, -0.5808078138967588, -1.543904530167627, 1.4574713054673534, -0.7000778234393092, -0.9324198827660273, -1.0578042488734798, -0.2716085918684157, 1.0784101695746378, -0.18687795625983142, 0.6102516991791898, 0.5482548416793317, 0.050575437167425116, -0.34255651312712465, 0.861967358279565, 0.32211799927891105, 1.4685540101577463, -0.30449194787794626, -0.4235532589201445, -0.8038307284476095, -0.4593059333234624, -0.12472274168339666, -1.08253862934752, -0.850159305480062, 2.564013357190327, -0.05679046171587055, -0.9437093175299266, 0.2946698189196278, -0.5687479088710994, 1.1508700300651091, -0.2740768308799013, -2.0053096351569204, -0.27168258994201455, -0.07854178776871101, -1.299437490579613, -0.008574134080743376, 0.350473652890459, -0.9471357988796835, -0.044343391762005975, 1.1871151593214588, 0.4732079581739265, 0.625002812244672, -0.3861748548170659, -1.6867202530299716, -0.9415942871697518, 1.0321012216645817, 2.542016612191551, -1.8847612125337576, -0.27968582195197994, -0.5162408748375442, -0.9496167893040767, 0.25920437482073694, -0.33602813757560696, -0.7965049478078018, -0.28214460227748644, -2.6310767698771373, -2.560257303525635, -3.4577900251558193, -3.170433764962133, -3.979143940566865, -4.945065095816167, -7.2481838049379945, -4.744518132655102, -4.818775673777244, -5.771887413015209, -6.328887175655878, -3.6973363706412994, -3.0034004565771837, -3.1258943910152586, -4.187101542884343, 0.5948400892475076, -0.48113408267367863, 0.3453651995373598, 0.8096295095505368, 0.7158560530172672, -1.460007896521825, -1.9882062672956013, -0.605539200859779, -0.7344823485605738, 1.0196790712818202, -0.3934311297831417, -0.637400129860986, -2.8474919173217126, -4.163068324748584, -2.137716786068158, -3.637052401661447, -9.600342229802717, -8.065179183192678, -16.476017097052534, -17.952318166568322, -23.35188976317887, -18.98328572916684, -14.522499707559291, -18.016924616493906, -20.261533783625406, -15.39828415461506, -17.094622775079152, -10.584921457072072, -8.124441896388689, -3.517760982840956, -0.27256140649417987, 0.6411326273505066, -1.641782528280435, 0.9753811817585645, -1.0697009441138172, 1.0808541899238395, -1.10591997950518, -0.3765426751976196, 0.33686613513916086, -6.695977864804812, -9.999811956826614, -12.210144041391684, -21.271251106569096, -24.406569250301246, -37.1279920437506, -39.820939633413296, -43.39217275345325, -41.20029139857284, -39.42774643081859, -25.577305929568478, -9.95983811020299, 0.9664816751028049, -2.0536892000979132, -5.104942666687444, -6.031919381760978, -10.557382042462129, -5.1611483692371545, -0.8570844929520747, -0.13207170881481536, 0.4088949810433482, -1.0098279112203854, -0.8553323082970268, -0.17900629121107195, 1.3046182399462205, 0.25724277419501673, -1.371467670326665, -8.484071459158995, -15.738359865123934, -23.651824595202793, -23.707698540556848, -25.277341920899637, -25.321344876884314, -34.21294550777317, -42.014632838421974, -40.670725818824096, -34.78499473253279, -22.485460851354897, -6.642235276144811, 25.398937440930364, 64.75231866720726, 64.30464608823884, 42.99199381202065, 26.283123313245454, 26.331748611112562, 31.081031190132105, 24.879021097471654, 10.240353415465538, 1.7607439655385306, -0.8052945069265551, 0.32366305973850124, -0.5548694769897722, -0.6650058239832907, -1.0499357618339522, -1.8301317069764633, -9.527811053721322, -14.005736066619306, -9.273472303099426, 3.0954121273870427, 11.637428254000229, 7.849816253997942, -2.810373804665971, -25.830773107979162, -65.07098483685628, -126.79077771511913, -186.03647234977151, -201.44730937004775, -160.73885034821635, -83.94843360551437, -27.289620107715134, 19.309774674659476, 40.40322133908722, 65.38789722314516, 80.00583372664347, 57.07066790344054, 21.690337643564575, 1.5384230082028052, -1.0234754293250168, -0.5589759569954097, 1.8373794033644548, -0.038797219695528296, 5.9944502267840365, 3.9971535007138232, -2.1166728851167123, 8.894659859963426, 29.8110356982111, 52.044773220097575, 60.39156721699596, 78.5940221363315, 63.64911098585163, 18.00250404210913, -56.85279903892407, -128.29908755710886, -219.8159801740654, -261.10729709453267, -195.82030200345721, -88.99190500819496, -16.72089240645771, 34.76216896987696, 57.0303287665051, 78.38026160607333, 106.39604433573355, 76.99627168326508, 26.326593629610564, 0.5409925578487124, -2.302802621725164, 0.48571966531656763, -0.26597343275369856, 2.9390609709292153, 9.242828813430961, 16.404218496601445, 17.661272307558146, 32.06105246704141, 48.21543617418765, 80.20688575974685, 91.92301219979763, 117.1869345206203, 106.0798318473593, 72.17072529698399, 27.91772538428356, -41.09898798462072, -95.42703234184468, -117.17374932499946, -51.52691166562344, 17.925518329105625, 44.359515579609315, 59.476852853483386, 67.8119762108797, 72.41982686683743, 98.89397499190862, 81.45170453504048, 22.024825677986488, -1.5303216518990854, -2.3587559201081576, -0.9477692668353362, 0.4334245714886512, 3.2849133001067607, 13.09461673098477, 27.266782725663095, 38.68816614589697, 46.23547365764719, 38.57859025128745, 45.168911725997226, 61.94293940383014, 89.72734020314607, 101.47552850919521, 103.25699119220928, 83.62160616918537, 46.377644344570975, 2.9274268100982876, -18.302444458465903, 40.74217446513749, 89.36424510031455, 86.66546719084221, 79.5807572330354, 59.706423626067675, 67.96094972058746, 81.87381995370477, 67.22203577384978, 20.6184876092482, 0.4552056683120024, -0.6292441336591219, -2.0712142013864394, 0.9382014244885748, 2.70944075397172, 14.576920131412368, 32.84164640738925, 39.65181663950522, 34.68032038356514, 10.946695657432901, 7.646472109695582, 17.492150255910836, 70.50066237142569, 90.26074709474767, 97.2694270142436, 86.61268762595333, 37.1144681486008, -25.916098724786657, -50.85472433331002, 8.62790088183891, 69.11267140830742, 73.23447559369038, 46.786936350441486, 39.99082491634856, 38.61735132528843, 56.51741915208093, 38.258504637138884, 8.561337327028227, -3.5280603476145487, -0.45979656656477746, -0.35445802384096653, -0.49392122498629876, 4.14733784970129, 15.465617778850216, 25.46422102002552, 23.08132995951798, -2.649666159124595, -21.767344805209614, -29.847029261189505, -10.6390158390887, 36.60501842151306, 70.56038979168457, 96.70748645581486, 67.11944595619339, -22.292044444744356, -146.17192937726975, -194.724616020196, -109.99289250661293, -36.85787889266247, -32.46663372886866, -40.77064107903794, -29.09477814008739, 0.3824331864746895, 16.170716342371904, 15.644272837267861, -1.8744917526432738, -5.711972067130817, -2.7447187320390993, -0.278177921514671, 0.34458946773801846, 1.0082942475404, 13.52250416639509, 18.340365383112587, 0.12789654082345736, -25.407381495964238, -46.01131700012783, -40.52353264776114, -19.592907606752515, 1.2261742467619912, 33.690151119479694, 54.64708480954701, -5.927889173805187, -176.3007562904548, -347.3319117328929, -348.33049959529365, -223.0757891242914, -138.36656307911048, -120.7709553913127, -106.87149459762198, -71.50492236213111, -18.468666528207724, 11.69213400787511, 14.754994097880886, 8.677179803484638, -1.733932472616029, 0.7463475837816494, 0.8376815402632841, -0.25653818871346606, 1.0789378751595156, 8.829850688418913, 5.383637025056122, -14.070512046357283, -39.232122696537154, -56.29476417051985, -45.313491536248584, -36.46625081740164, -13.593103313901508, 5.24954267051875, -36.327432948782665, -173.27349500687086, -360.0176243191138, -473.8248003564849, -417.52483273200244, -269.3140399883548, -169.18903510115715, -124.89261154109816, -101.53276355862606, -50.57710917911804, 12.663591896498765, 45.79840106846265, 40.84338606739114, 21.06413916742392, 3.367415930789785, 1.8022911407923108, -0.010218674120315387, -1.5932630640692034, 0.5496758917237374, 4.440740325025344, -0.3414820455241509, -18.128346563673375, -32.98611505216309, -40.55775402489128, -22.777802104792112, -23.015564933080867, -26.707950200892476, -52.81278034312617, -147.2759246287122, -297.94905653258047, -414.07827966300187, -433.9951045823877, -317.05353206869313, -207.82854122260514, -114.70366670413134, -58.86394153497829, -11.424105441290475, 24.458060464356585, 57.543209517294976, 75.77226751766625, 67.81009930673277, 32.61092754474516, 5.6884289880160415, 4.497233640732052, 1.3991550901427987, 0.16182794896748903, -0.5671358004836783, 1.1127545906483747, -2.771561657690267, -17.019698151619593, -13.982011193529122, -12.777975304655538, -8.25029022325582, -3.7859539855072173, -13.57257398073244, -78.10785395763257, -199.55683624996843, -300.9640285776528, -323.6524408488033, -268.3473584720408, -161.68953171051288, -110.75082751405502, -28.49633676287976, 13.01897055622768, 48.088016432622666, 61.07422739600668, 81.45281304656446, 82.71936195370299, 71.38332976008, 39.76938102391321, 10.829256014157625, 4.6367091534326725, -0.09066344525888684, -1.6814396796975557, -0.52501475067319, -2.488314665461733, -8.87749798477611, -9.125495949540428, 7.878176454994288, 16.41398841807262, 11.319414308147318, 15.769718749139942, -4.309194581672794, -65.49733646826284, -157.8446691071007, -191.1663048899065, -164.13075747350902, -103.52467715286774, -27.62945412368989, -14.746938845227621, 15.952833122387974, 29.379091458855235, 50.94548471192971, 52.66453028228651, 64.96181872269275, 56.49516744486, 52.255758054522914, 33.359318966133095, 15.777948230445858, 4.459478014332509, 1.1646144592947687, 0.2680963632059475, 0.47998517879892316, -1.8864970456785601, -14.346334980800265, -8.037851566190954, 24.85343122937281, 28.77842686453248, 21.18230079004978, 8.430430240695332, 3.378310667771523, -36.12929243437317, -72.97466043694479, -74.37796234688213, -46.255845919375545, 5.030098579764201, 22.356998392722865, 7.401511752563055, 0.008321740287097446, -0.9260539367827505, -5.644549882725507, 0.4026683684211111, 11.097861512361149, 21.83465228247881, 34.40695915347846, 35.35394032092185, 15.909739502270215, 5.440433387858464, -1.1709951053652603, 0.5074496497558338, -0.8198298911857084, -4.862430410150203, -22.788066198511903, -16.114970644482135, 14.548284657427331, 27.947005923469003, 34.500554672126725, 24.622717146575283, 19.221681199264996, -7.690168503881801, -16.17165005051569, 6.258209027336639, 32.061179843322755, 44.85086641244174, 27.2037546416625, -15.612280218374856, -32.39684885407925, -44.08769545178601, -60.380723756096955, -49.74321270557729, -23.65552894522114, 3.26672901662458, 27.99949677460354, 30.153279736616717, 15.503904441110267, 3.951096911461232, 1.568916638547025, -1.0898372692459988, 0.06557725272279735, -4.50137163749049, -24.613918817761697, -22.96675139039011, 3.0465887245659204, 22.401839164040837, 30.070500608737092, 36.538251605709284, 39.35540331661114, 55.016307923836195, 67.11014909628436, 77.08570898445961, 64.71300590459018, 52.71400916706267, 19.089894908948555, -24.48163333743542, -38.66189759896176, -60.890797855776825, -82.15610966619907, -70.00612154555256, -34.641727980170124, -4.3326258524073165, 23.328129906336276, 23.686631070779946, 10.833104169354453, 3.9734557967503594, 0.12302874703558894, -0.2717620397962452, -1.9215100069584268, -1.616891466276131, -25.328624496067075, -28.694757899118308, -13.628551271195972, 2.9788062535268853, 10.931051179229382, 23.421736882706103, 49.330211089406056, 84.29569804345364, 102.49460143062387, 93.67730023421744, 43.44758109233893, 21.23229711312582, 4.178093629122516, -20.19441492208141, -49.31189532030128, -79.54503245529735, -95.36461620008328, -80.17377901386158, -31.594120255442817, -0.7917671410434322, 18.729481370495304, 18.014578712137546, 5.797171101915466, 1.7867288913687607, -0.103029506154849, -1.6219588609523174, 0.8238801073461933, -3.046273046179104, -18.280489847634122, -30.690624767785838, -29.078452269089414, -18.191813330462868, -2.5229469068589947, 11.34204293711192, 49.15237493208645, 74.42623876342329, 98.06873670592948, 70.3577345471511, 24.76934601101232, 17.214483100976043, 17.272850559128738, -10.246808838276584, -47.602058067786146, -77.29327405010298, -92.97080667958068, -70.68747730621618, -28.568804999651032, -2.4750789554769574, 11.243429961441112, 9.612875506710822, 1.8376941173689605, 1.3444041948876453, 1.1945827325493796, -0.6870124826611462, 0.4676443212834251, -3.144190988608387, -12.642389203173366, -28.339076984069216, -27.995954632992646, -21.615164242912005, -2.4642697459421163, 30.61031809675581, 49.41687602796073, 73.04106302174773, 94.393862515177, 86.72754724658807, 73.6253012960107, 68.60188843826042, 61.174009090871955, 9.588255593431436, -44.91647262328459, -84.42346269349405, -86.36167208181276, -69.70667724743326, -39.00871674577465, -15.867228953126727, -3.638288571607183, 3.091834643056907, 1.1223132648888203, 0.5397819341039047, -0.20542132657602027, -0.7878192413022331, -0.26136375561263503, -2.394756810913993, -6.410065655686139, -19.287977384491114, -27.99856665089297, -31.05069609500344, -17.166853781196515, 1.2313432387884335, 38.06865462512551, 76.3498637091027, 105.20205924981882, 105.86694477191253, 93.26516430900963, 100.39415639588108, 65.44665565427866, -0.20144836082511958, -52.336477257134725, -92.01585920545492, -100.52135968976927, -80.09968008613608, -53.48342894169566, -27.591264703765034, -14.613072419951266, -3.628272347715803, 0.06265968061483876, 0.11719350279621223, 0.6387337085405136, -1.5835083037457165, -1.5920179663369565, -1.0557566028724918, -2.1572440666085932, -3.8672714811862408, -6.515281947458938, -12.739635192560492, -20.151945356257798, -21.568893871523414, -12.434528856541837, 2.8841234894677323, 23.86327748743874, 44.153581090632144, 54.35931966327967, 61.26289539951399, 26.762917829427, -24.148124904500744, -61.29400918606113, -87.55563341729619, -97.34819441176276, -81.99706315471194, -59.00769253087027, -33.8784490935608, -17.05813323163511, -2.574272358917314, -0.08618151464462408, -1.6912942579852084, 1.9649417667617293, -0.9650199245068686, 1.128303050332372, 0.6766746750747432, -0.6762115210184141, 2.9164721058039347, 2.392818527119746, 5.326857929522019, 7.686823613371127, -0.5763718469342699, -13.993926080989151, -24.75889716407011, -17.743099501853536, -22.955118278306394, -11.886316992526213, 4.0457332431184705, 1.6839845987306798, -23.970427681061395, -42.08674065717178, -60.97339067126089, -69.01811703463812, -60.62612098773021, -40.698003272091924, -16.472012777262233, -8.450345324827621, -2.5187476365159274, -2.294579227246659, -0.5225670772825018, -0.6635440550328885, 0.6708371685449164, 1.0175830053685035, -0.05127613637475548, 0.4418440236445127, 0.6673172715355945, -1.256781045107894, -0.2825606971268353, 5.9619018837414, 3.4157447508526797, 0.6722748223104049, 11.137401876103887, 18.696293303816006, 16.099523118762555, 31.031356704574524, 32.044864868837095, 30.77346896462902, 31.041400134744677, 23.682277899275277, 8.602530754700242, -5.5856502336150236, -16.81967175780276, -9.48289545017207, -2.460512183675813, -1.0441054518287534, -0.42041698641895614, -0.5545812863848746, 0.25194061184820443, -1.6889356514528837, 0.11341344024261446, 1.0509963700290275, 0.9267433320968063, -0.524602817008828, 0.06367955117131148, -1.0996166805096586, 0.20565605732668912, -2.419813871750213, -0.04770681916611263, 1.3351403162923607, 1.4015327547210508, 0.748183219739702, 2.8950635857367955, 4.000619308578782, 4.061451570505712, 7.184695447742669, 14.621461964848072, 14.291398944687339, 8.518107808718215, 2.7302109780463617, -2.708941535612452, -1.3616284590687178, -0.6128984799320781, 0.5818526046531215, -1.4416331117987033, -1.055125756045502, 0.06917858456442562, 0.44820385581749633],
[-0.996754452034202, 0.16861361541851558, -0.6289301366600744, 0.8045640324702978, 0.4841050488312265, 0.2717815486519755, -0.157727663022949, 0.5076492692363882, 0.3093703044471171, 1.8130139213351728, 0.8778596894385423, -0.9092612175039131, -0.25124243457867285, -1.5260154626911357, -1.9321657461485149, 0.6926669301119861, -2.8387202339698225, -0.012452475371328535, -0.9921858784865611, -1.2423482873717582, 0.9711584338596541, 2.259450045106577, 1.960751361676688, -1.0217774826766337, -1.0330775099797693, -0.7213216292545344, 0.5519086171429979, 0.3037713258173916, -0.3539137244150369, 0.5411092431941483, -0.04220631240829384, 0.6034128086023897, 0.5007837413295158, 0.4166646587242556, 0.4410210086621558, 0.32136306937898235, 0.483913936635826, 0.018740929803361575, -0.016722981569674764, 0.7407121213834462, 0.18580610784432536, -1.299884140532799, 0.3999385119403379, 1.4843524545872424, 0.6479034386872614, 0.41812324468909806, 0.9693115365800856, -1.0695893522993936, 0.6660690971215152, 0.30046714638700855, -2.629613393904473, -0.6826660749055158, 0.3356846779764446, 0.283580548387769, 0.20304071747738955, 0.3141536282618733, 1.2775375353611838, -1.0488157753969432, 0.8228618254392996, 1.8497192141478551, 0.7121587738093844, 0.994668999875894, -1.1528813338498736, -0.7863366168707887, -3.397556005173723, -3.0049952631958794, -6.062962098916055, -1.9764276643033576, -4.228764254629936, -6.295324275782762, -7.6661068497779565, -6.201484067932549, -7.594843801936772, -8.5475795674548, -9.231697292588175, -9.230848834581401, -8.310323463937705, -8.129323219618616, -4.956830911972497, -0.1506539707697904, -0.217256164642509, -0.7584349137449133, -2.7322988379344193, 1.1528577962540176, -0.6019121881737162, -0.16834814122201255, 1.1800499093905417, 0.13169393106899055, 0.49988947949726137, -1.2141847210970373, -2.4938231912950517, -5.890267771656827, -5.69046055881082, -11.817923175889453, -9.248071744758175, -1.9729006607240784, 1.0941722266635596, -7.4454729820775825, -12.668776928582254, -13.500941947805137, -15.111152286692482, -17.566004723330817, -25.92709995205529, -26.69412035736904, -27.803124832279696, -25.972873114259713, -19.81088478540453, -11.441216526140837, -4.63945030230001, -0.40139757005936927, -0.18391109211390075, 0.26879609956072376, 1.2827637939617471, -1.0802510994702101, -0.17531917747116474, 1.7983557472400848, 0.6111816892124963, -2.0203011949911893, -0.621849530621852, -5.0894653802516405, -11.502338962236566, -9.740363748664658, -6.51115181334763, 4.089929110928179, -3.0406665729231843, -11.557572845109727, -25.843847953493622, -31.81951752179822, -48.984040067894405, -52.93314506215545, -55.96676178283512, -75.73608068075319, -86.42839579596394, -74.92861473138183, -61.18901896130559, -38.532467390587215, -14.402728745138615, -3.0958027806477224, -0.8954408597395183, -2.0749691760324174, 0.4438216492604641, 1.3806235614786517, 0.12944757686349823, 0.8631747951065608, -0.2880053920404762, -2.2286191052943995, -3.544332430944556, -15.407515758167321, -26.876142317519434, -33.33478136557548, -27.5495837524885, -13.953203267232935, -7.523750647231074, 7.572859490301993, -15.978494086569597, -30.07815168764522, -73.04510996812196, -112.10467053562897, -156.32663757928546, -187.713713400777, -187.30854915343232, -171.21897252144498, -147.41977657585602, -111.81155822281998, -52.31409909641348, -12.461679578372166, -1.7025579666968649, -0.9043175700608421, -0.1321122189713433, 0.7127185434067882, 0.5144371709042926, 1.258495009023397, -0.98125853012925, -5.528009530898911, -9.154302962189336, -33.17784761955286, -47.198865082236765, -35.10850549057495, -9.85239187671692, 36.64628770968698, 88.64818586320351, 187.16837542953752, 262.7288118212638, 277.14288554057646, 249.4125913345616, 168.465784684907, 76.24156277174345, -58.070598403031255, -127.3345941601706, -175.20977223521638, -188.92768767381497, -160.37803613731054, -80.93391404452436, -23.589227289836813, -5.549565497234048, -0.5580194703737986, 0.6784333598870389, 2.1476364474769527, 0.4318378878958312, 0.608666151049577, -2.658085502419791, -15.196346489938144, -23.048889511455762, -49.57636397189159, -53.14331373092524, -22.39956730969743, 22.694058436597995, 86.52916913196358, 187.57443425738944, 291.1454707010006, 409.63750422925716, 462.2956378626961, 414.39354600885247, 282.5761251348681, 161.28645246959326, 36.853816904924834, -41.519576659033106, -111.78038617747401, -154.68127458142786, -137.5116161336177, -77.8361513274416, -24.754987225807703, -4.720607762237329, 0.4375350737419728, -0.47870100741045085, -1.12185683274987, 0.0900134437351893, -2.687825036975316, -6.689352360940493, -21.26992829284446, -29.347294347847527, -56.96622108320102, -34.4392013473931, -22.858895386399762, 26.75096630518101, 73.96167100998854, 141.1645098617579, 237.8503680252832, 362.1509041793369, 387.6169930039459, 296.3604174698162, 166.91127528402347, 92.57724182830435, 26.888737288654003, -12.559585810850336, -41.066849203416666, -74.47536561380517, -78.33109098713669, -46.16771199440331, -9.551439678544055, -2.5092127171005667, -0.43963583334075007, -0.11395837249996782, 0.5338094408722158, -0.18952417109773118, 0.660486839318509, -3.865936548622168, -14.526058079102292, -16.319680098244447, -33.21214162521738, -20.95377026403634, 1.5456487502925387, 28.001875656904122, 42.86085071801444, 78.43320913278544, 151.2396280003227, 243.12891618506578, 247.20359702752174, 132.33265439748578, 56.092785428223664, 29.52792164690811, 18.11858514169787, 21.64174252102097, 5.19237216080269, -16.73834734588839, -27.753686342776493, -6.176583622404038, 6.391269322240235, 2.548558183736209, 0.19099120329090175, 1.795148455174305, -1.017831900334795, 0.7744529263402519, 4.741626815991348, -3.2786963754570952, 0.3221719282159987, 9.63876860592759, -6.458911336042348, 9.720239066327775, -5.632670991706424, 5.049449952095351, 15.329329120222779, 0.35148490194920695, 55.22818356328459, 134.1960451768453, 120.1488001933199, 52.20148239581514, 12.257054378716926, 32.6200190386479, 52.77684288121744, 84.17844007093095, 58.20271717913853, 13.631111117124394, -0.4880573470616203, 2.7892042911419037, 6.23181874824827, 0.5945016876960896, 0.09809568761076648, -0.09159110027939833, -0.784617624753085, 2.907672614386347, 3.783955631789828, 6.137047368995354, 21.404289975169355, 27.937420243735477, 22.766549365352358, 19.199190914843072, -16.62350866840057, -24.35344931377647, -47.24265770603603, -77.75072821137923, -18.42711531897405, 58.93219990054285, 77.22603540834376, 16.96207461109629, 31.954062497206532, 78.46888990868615, 113.24738699710443, 132.54031062842952, 72.66814645742964, 20.7423782514334, -14.136154405507565, -11.183705104487316, -2.990882795454895, -0.7916191145767769, -1.5331581041346187, -0.15566437826332447, -0.14356264090744644, -2.556269773960545, 3.479166937829228, 21.868717393301875, 44.67746122017154, 31.75025629636308, 10.66894048251104, -9.522236676038748, -39.05514740369419, -60.942807817390225, -115.66931440279734, -138.22585453314625, -49.074066313529165, 57.11050548438985, 60.65164066940865, -4.749154442377732, 27.94138578114129, 112.92853852555886, 158.0226667768631, 121.52156219126428, 52.07813435010065, 5.102283485402213, -31.562419522137553, -30.408914779373802, -6.084006287002674, -0.4039010685797248, 1.8965632613869063, -0.05502055713117299, -1.8815355789640265, 0.2595729325354871, 5.335971249607833, 35.61585850219648, 41.38336607262456, 5.10908846884386, -20.114656168500705, -48.12311106609606, -71.31497507045833, -108.51898894950227, -162.2181686471907, -135.35217845051685, -28.038602071199083, 54.437501183120915, 24.743554152466945, -17.69493728022843, 31.865897905467037, 118.48513057039722, 124.38024436282008, 70.61327625984102, 26.91679511094303, -22.50744694511731, -47.709825022260695, -34.25206607867092, -5.801079564177358, 2.3281236288679468, 1.029149483965715, -0.963446189872051, -0.4946042139638042, -0.05901611240566766, 5.31614880437775, 25.58384487191367, 14.604604848489439, -30.020806540378516, -65.49864375873688, -89.16756566199142, -96.8167453771799, -128.43175213147921, -165.57036645119348, -140.85600650670673, -72.9129537164177, -30.583101357335536, -71.05158603918856, -60.960783130030556, 26.114630573252878, 57.655954402240596, 12.425693960628214, -1.7214662980013375, -15.947314716178294, -42.130677464823854, -54.62890911153058, -32.04518451912182, -5.765601329492658, 1.8202104107733226, -0.025391105258566762, -0.05496438752333229, 0.2710099823079689, -2.1346919231169026, 3.177035821047025, 17.446292688354493, -10.625295747345728, -58.81497241623388, -91.48768840666585, -105.81231661543836, -96.72075039525319, -101.20717654861538, -151.27776207372494, -178.03502977374302, -183.00164200328723, -198.60488301773327, -178.02049158665966, -90.7519378178563, 3.5931664420172176, -5.073072529534408, -45.67352884489774, -28.11372914627406, -34.999792668963494, -41.78510714891689, -49.38680741314666, -23.872498142623897, -6.055064359373354, 1.683273213157098, 1.1412785075493823, -0.7004617129203966, 0.07141305124525037, 1.5278300737781578, 3.9813494193434504, 22.960144677400365, -8.222708308992788, -65.9057301774947, -79.85115101530306, -70.89771205634088, -69.9347980705758, -79.0921655218543, -145.29865699372363, -201.2225153255437, -234.73781661221338, -252.1675252236115, -188.32304044741693, -87.33536844061838, -27.87225027421286, -32.831821238835666, -33.88403885265401, -29.522447749170933, -39.832793564035434, -30.211529970391688, -41.500918968879255, -23.887923681687692, -4.468610304955846, 2.449819617531844, 0.7384586811603208, 1.0203460661250419, 0.4192496134220649, 0.5399883088332258, 11.833297839663617, 21.879108277150983, 5.863110181736686, -21.75579195671997, -49.24386376070615, -50.92466864244616, -33.1520831285785, -68.51806507297263, -136.64859692444227, -189.30036281767, -209.97715457145236, -212.38827554484212, -118.64566932011233, -57.27451863201601, -15.268203905964222, -12.03570673525573, 5.342316392376555, 1.8175537977672265, -12.645016630580507, -12.08093163490818, -28.52017314514462, -14.547618112681201, 1.3973497706968125, 1.1786066712581345, 0.6774181112652262, 0.5573477234654325, 0.18314563159413522, 0.9817723238606259, 13.767075496870651, 26.609553068557247, 18.332230205512502, 7.681548476818528, -33.36315490474377, -61.88363854464573, -78.6361159592507, -93.5617351956753, -142.29975679473648, -190.4430990356663, -162.72070230440195, -115.2397855981, -60.40051920127405, -29.472871094804432, 1.9176557041163713, 7.418887965738933, 35.90381872238585, 20.986209514438386, 2.714529830675739, -5.791538215242546, -18.660083387346297, -10.414822028598127, 2.4560483506207005, -2.352163576295826, 1.3143467272482217, -0.09212040144564525, -2.6222288784142784, 0.8940971766531118, 13.723888950569522, 26.659527027739223, 31.344323468570664, 14.004370708122709, -26.004955363735824, -59.37119773464035, -110.2124768268731, -135.71887478838894, -153.25841120184253, -142.81194351916724, -102.29319315810022, -63.30584826234778, -69.93460988081962, -47.33488588434927, -22.874971969400246, -7.67919571833947, 22.378256427612822, 17.076550313701535, -7.240811232052932, -7.828766253523766, -9.37197221492392, -3.2431977915116605, 3.7019670025973084, -1.1690098961115378, -0.4696395681289717, -0.5615275875877567, 1.5582594571136867, 0.43878610515101873, 14.223755329837179, 21.567756527761365, 37.254220273314765, 8.409734165945506, -33.40184027019678, -65.38534736464965, -100.58261652332759, -116.52942742088128, -119.59777813607027, -104.50962791772328, -56.51549592488489, -61.56721637742391, -78.26731770686109, -63.01763257207202, -53.714474275522704, -46.055733446832605, -5.293442184591482, -0.4329779521865972, -9.434291600746674, -6.204630717224389, -4.806158601734557, 2.831539733332963, 2.589851396717496, -0.7956619238580228, 0.650071165543057, 0.5497827039595573, -1.389784323519224, -1.3728850382901003, 5.26902902171344, 17.40468952111308, 19.203542681045317, 3.960860920503246, -26.060324396369136, -59.639325747738546, -75.93865911243718, -75.10277561652461, -84.91275770851482, -76.73011488939942, -79.03381053205307, -87.41366116916791, -86.34198811829218, -62.89265104250951, -89.68436761255761, -69.7062384414238, -32.12898063548919, -6.5530907926234585, -2.7882455317634576, 1.1188804641935288, 1.7408966638474168, 6.601488635179852, 2.7099280763804527, -2.0669814122144285, -0.22731775615424393, 0.4296832372883519, 0.43838582155436834, -0.09611749424390577, 3.5474274818111944, 5.9117667784683405, 5.505456380160117, -7.024880811113643, -18.90912646018203, -19.62306816065345, -14.314677199082706, -18.565032692031412, -24.443049415382603, -36.699962525183665, -59.890707533843695, -68.89375894925067, -81.64062786848689, -67.11757700843629, -75.34846230566285, -66.33748063415493, -38.09599227088616, -10.099455015958682, -5.034666799247404, 11.410116672610448, 14.438088062626683, 7.035046267541183, 1.618316406106817, 0.03264662998244365, 0.9688349655223193, 0.7320879972774469, 0.31512483373666433, -0.9088528703344909, 0.21693873636859912, 7.558603858968225, 11.83555163798012, 13.094911618377303, 15.388635480867155, 19.073031576958087, 20.977738061434692, 27.772935978053813, 4.088707933249178, -17.50216276373278, -27.768483868066973, -49.308865069593544, -72.24536746713316, -47.88356924295645, -45.28972052602252, -39.864397389038956, -20.533952311283386, 0.4511110917904188, 19.715586128082553, 22.915773171294486, 15.594157068941586, 7.934036666893914, -1.3766038765084432, -0.17887566114378187, -0.3948842277440664, -0.6759426375926842, 0.6995733476983598, 0.12018155930388294, 1.541825580265023, 9.823179000148365, 25.817698580420867, 47.589839213932194, 65.82831618091838, 79.94735330991325, 79.52117360105065, 77.28241302576521, 44.59433681573267, 38.46459189419132, 32.13404230414428, -4.743474575410972, -0.5547154778429432, 26.287858954655558, 47.988531771328454, 34.20696281324886, 37.811314283108004, 48.8720953220126, 48.437145098466914, 26.982084351852684, 15.458460025217203, 1.3309100261377598, -0.9747731136642567, -1.3240943799482263, 0.7880198076513932, -0.9198078171954055, -0.007912660240660355, 1.187532941867795, 0.2724652197309786, 6.8272717330482156, 22.58313835883807, 39.48433511448181, 71.00438428974223, 110.3805441869416, 142.21047462382379, 148.20064848124989, 150.5752932807486, 154.13332237292664, 134.2922432442231, 101.3746158413074, 96.92856992849849, 112.3454814225352, 113.7161190778884, 103.80879632528678, 83.70182710982523, 66.49111683728556, 42.08578732674382, 18.01026308359964, 8.739060831976579, 0.7481820038456268, 0.3593993370887139, -0.8657151831103533, 0.1604289423348455, -0.811688756524605, 0.10420131895324249, -2.192071242352766, -0.8737322620491731, 5.024267693672992, 6.93573313196112, 12.78378879572014, 19.793244305718165, 32.863008774387, 47.22021086322377, 43.97114133086046, 50.09018683952427, 57.05036407165655, 50.731601796911406, 51.808582292262024, 49.24621945228592, 40.78047043915499, 31.97998586862526, 32.79359738950981, 26.661214614916656, 21.55912473975971, 11.672966285371187, 2.136331750023269, 0.4683784686667561, -1.303159283528044, 0.3121701018157028, 0.30245658834027306, -0.5836292347896829, 0.3230923480913179, -0.3987925974348389, 0.42674882112681234, -0.20064602923864244, 0.19638304261899892, 0.8021683142197141, -0.46043751255830123, 0.7172409201740448, 4.01521249266969, 1.6483009937727633, 0.6301758190888048, 3.069407195185714, 2.7296104598120334, 2.620784260556861, 6.605726996475397, 0.27076918051353066, 0.6108431043661817, -0.9852935765899334, 0.49697230032349826, 2.2984785941889982, 2.216630025550848, 2.131544003408678, 0.7009324521332175, 0.4738309987159112, -1.0098681605357713, 0.5930257749722628, -1.7448359907183033, 0.6007851188312898],
[2.2384704888957088, -0.6324782857678611, -1.8568751439220703, -1.4863299936327607, 0.5787268224108075, 0.48086118511462433, -0.25868592075699814, -0.18699618335180188, -1.7252897989141847, -0.15600375991985682, 0.12453024048495583, -0.3288881282735936, 0.6497719240756118, -0.03433359507387591, 0.8760577379495645, -1.4686138570619387, 0.04988859105290639, 0.7042069918802976, 0.508781230197373, 0.0929910325848901, 1.9887375317756188, 0.49010955564399566, -0.41892743162563256, -0.5574098661147654, 0.7765605835296584, -1.760369972133218, -0.7340206987355297, -1.177466711064986, 0.45397423474121285, -0.4784592513379074, -0.4011956257456793, -1.1328508832395592, -0.23559402568578533, -1.271405503701733, 1.3072346484065682, 0.18541739109175812, 0.2493862035707725, -0.27041445712837303, 0.5073523901935425, 0.7071384688858865, -1.1461600063136839, -1.6771994437202349, 0.796699227946162, 0.6346591373532156, -0.47412665623540134, 0.45320204979738155, 0.020601926609266425, -0.8483306262579918, 0.38916283954401343, 0.12752726929171435, 0.33331462610986956, -0.07447585805518167, 0.7878872800395084, -0.0908793593345023, 1.1798653598432147, 0.5309549316561396, -0.049634341853745476, -0.15633361125028333, -0.1509728817379605, 0.3507065779840982, -0.11826524191624407, -0.4414166435335179, -0.6461572824186381, -2.7104073153902264, -1.227250027674567, -0.7439181641746324, -2.1448115549960627, 0.5681580249399713, -0.22240712290010303, -1.0899497056562764, -0.1152409959173856, 0.9190312450767337, 2.7296322579664247, 1.4892273418129456, 0.7016809635469038, 0.6296422504854662, -0.3970316808253532, -1.952719463202976, -2.0396522477037626, 0.23439611553355486, 0.38201604077950846, 0.7389471796211231, 0.48348135261182573, -0.16498745534128134, 0.8216991618876621, 1.158931223783425, 0.28727869777607434, 1.2660102174367662, 0.6521080366454032, 0.7263098039062963, -1.1989644160177586, -0.859390679347084, -4.781575825477722, -7.7230272853636475, -5.281630086245327, 0.8220797875519097, 3.246509362120694, -1.4223130726850768, 5.198755579466801, 3.8287041650786526, 5.344688279537987, 6.324946696974789, 7.905860754479958, 7.28036273392486, -0.05549232318627206, -4.765141126495958, -4.225932129047736, -5.157050700553474, -2.177551078422324, 1.052039668819035, -0.37663466198813866, 1.7439573559350179, 1.01364250304521, 0.563258682293174, 0.2626938075580613, -0.40215100085999345, 2.7226330951246025, 2.704577155610132, 5.1797319606523455, 4.7907660182074245, 5.990795034178433, 8.334240463165033, 16.107404884945836, 21.53382038693633, 7.79061551132538, -4.53228335974832, -16.739016983576736, -19.875426533475164, -17.98310214235953, -13.070617562079253, 2.7301768552553662, -4.80325750611467, -15.634257395771819, -12.402696516964856, -6.889465744787188, -1.979173554247992, 4.887572155149868, 1.8715709806433436, 0.48674040157735504, -0.6381384306026125, -0.18835290679085975, -1.321261972842309, -1.0396292973053298, 1.9679398824340832, 4.128091370055684, 9.840007481107527, 14.625068829376703, 20.047121351430867, 19.71818852382628, 29.467070186452005, 34.15307264472578, 21.725056863157445, -3.72343169913775, -29.133547410568397, -65.4734061561183, -71.23865948034023, -60.38487043362005, -46.12301540810269, -27.711512972275525, -13.533309329921163, -7.055306220311046, -9.147243690203076, -2.1534974844578896, 2.476519380343626, 11.704280000757741, 3.938487555920369, 1.8589258417818655, 0.5495132483239193, -0.29781538745569713, -2.0455702170939527, -0.38470168801043936, 1.9128130497734754, 8.279916442623179, 17.995136891798623, 23.793027293729878, 21.904310677864647, 26.865142093268634, 43.81447556453389, 44.08715539146835, 31.34753652102744, 12.123119155274471, 0.11381344237322401, -18.40739091417007, -33.567667790558524, -31.79121387826036, -17.410561974178457, 3.627004094692951, -7.1670121389194685, -6.791516378170279, -9.68239112657463, -5.24281270831093, 8.273473206363139, 21.968694215645638, 12.633243379321861, 5.069562489195428, 0.9162421097672317, 1.4074148511100084, 1.0365916819242509, 1.456027955028023, 0.8019338703097031, 13.025467151687565, 19.667417682431196, 21.367968485956787, 12.832744972592028, 14.436034401242306, 24.480999298519016, 29.54269927346734, 33.45341587523447, 32.95427970368803, 20.51828298012527, 24.98082767403211, 7.357809201146509, -2.6272204375759074, 3.9863907367514066, -7.368895292332646, -14.218578315445306, -15.049888748468739, -22.181897385103586, -16.293911114993016, 2.892970965975312, 31.035734658551906, 26.803200904910792, 5.455074584594294, -1.0762000532236136, -0.34699007218425676, 0.9184671464056055, -1.0576892857092508, -0.4076276472043493, 8.082297371592094, 12.979745543112312, 5.589553870644847, -15.185799173508846, -12.27653921524838, -15.68422289690753, -11.124882136375373, -0.05413189568479999, -6.292899280481623, -23.71990229949119, -11.167596062540552, -14.362889900353123, -26.730352077351732, -34.0467436310418, -33.96259545691813, -34.100228724779306, -22.098517478648628, -18.222896118260756, -21.988347672175298, -2.642243991429578, 34.28973804069394, 33.71186710688873, 7.878811263953035, 0.06908793046642467, -0.9402285723596989, 2.2172311992992118, 0.14177672689024395, -1.9237484841123333, 4.57458587971283, -1.885483077368594, -16.178851422381648, -38.22600570290542, -40.75671383552364, -39.441448744034126, -47.78398069364811, -49.654707575474525, -61.10614861418208, -52.58614470738296, -40.54986496756739, -19.95324679928561, -36.692587072663365, -42.69405130917804, -52.79747837342395, -56.01415577447249, -36.68203268996181, -38.57018288746791, -39.87181109584588, -11.906768414340972, 39.80757466664629, 40.426463292628995, 6.881277497923985, -0.1511324044622851, -0.5210671500566276, 0.11440734237583591, 0.024365637477604285, 2.822735555697913, -2.647040598807438, -19.177992063108384, -42.898150657024, -61.60458090706297, -61.47250498262013, -65.22328535891835, -69.31862703743775, -70.53483571053539, -53.88208203057459, -27.330741204012796, -7.337587256604879, -1.7923616454546802, -7.357871461515247, -25.015824208938685, -51.585480629796955, -77.73960685097575, -75.81768503828128, -90.79728532373645, -87.40516148470927, -38.31782457635603, 19.7940108965671, 26.334340596003294, 4.044640801962171, -0.37231034013129083, -0.36099829065662903, 0.5794038064692484, -2.0172406654111903, 0.2301036116246708, -7.97438493255126, -34.59135243613303, -57.75489161906206, -73.34757429866627, -68.34964916099129, -69.05538001814777, -54.31623743750074, -24.066276080862767, -6.768478683356964, 16.20184631604401, 27.746025201649932, 25.537399878820597, 6.781518174138854, -16.652035583144407, -70.28164293184663, -119.88996055565575, -139.3846839187228, -155.4046467049959, -127.48674234733363, -69.61475539816254, -14.852896507290795, 6.1250800287935405, 0.823045489589053, 0.051374994554498815, 1.4404161225193708, 1.1814397182125522, -3.993684178476852, -2.0062584238275445, -12.126323005525457, -40.940749997042296, -56.927795234792235, -55.44634072290099, -36.76207059305101, -20.93982630310704, 17.943520916968264, 37.849033998531596, 49.34103380961448, 58.698176939806096, 60.549778287661915, 26.619127326082115, -11.09435162420355, -45.243239160718815, -77.51695224658674, -120.70599254521191, -143.6170302367917, -147.45931346846425, -118.80505658352975, -78.43635179902292, -33.356328704212785, -4.798278739843932, -0.1040119222307954, 0.40561452390278446, -0.7818314900469427, -0.049089625990713585, -3.095795142139862, -3.6067991472919836, -9.476307777422294, -34.0413129410601, -48.06058291549134, -35.12929767467755, -5.2650978014019065, 33.92328327792552, 54.54640077349036, 60.500174766160455, 69.2203668147561, 70.2019825349609, 45.201991113190985, -11.96350037200526, -37.48292674391145, -40.81540762818208, -47.13937799400223, -67.23122293956042, -72.66870545569459, -72.71465226934214, -75.77630433740023, -60.729991110877805, -30.507655057419534, -5.598224289436906, -2.7530466055532177, -1.9065963476574614, 0.7119577478024564, 0.05577468930299251, -1.612723603464598, -0.906882222166144, -7.337001042249508, -32.6693054546982, -49.611755017102666, -42.90452038567407, 0.7707880693904139, 45.9829528623958, 59.90314983076763, 45.24452457975542, 52.84315731362189, 30.70611248007403, -4.983634925903204, -44.602216842208286, -48.461796434656875, -17.15955690785096, -3.4792404449619, -8.561715027968924, 8.02001635353852, -0.47576437769417246, -24.596368973369756, -38.496977926024776, -24.778099064908826, -8.74457468048396, -1.2927983134383678, 0.15976937628058435, 0.1183274985265363, 1.5739954376817014, 1.85387522417358, 2.624573439015073, -7.387774060073443, -30.346778599169046, -55.482960245272395, -66.21462196505951, -39.98110249939115, -5.706179516218095, 5.081190212526508, -3.8555583271368388, -21.68595065509374, -53.65452953406491, -88.90307059027494, -93.16578591892214, -49.25833513168486, 7.6204589214112355, 25.77007103198555, 43.66797688272151, 57.08214619680558, 35.61255147572556, 8.13153774847201, -14.979496507324672, -18.7431677789693, -6.718167913490989, 0.11575304798675251, -0.12848263172116106, 1.4005685705974493, -0.7035940680200936, 1.9775275174682934, 6.631988811264789, 0.47512949820164424, -26.203873115752458, -51.004283781303194, -84.14854976286664, -109.16116669303688, -104.82518037205513, -117.45025213114944, -138.6409842141339, -160.82851388055968, -172.97951259391903, -164.9527192229411, -113.90946855795525, -50.730718930489545, 4.043332380890052, 42.78245371021718, 70.21962549337948, 72.70168527495703, 45.271993628241034, 18.893771496212537, -9.352040216346603, -15.405535511795934, -10.522581963538448, -3.700394706367794, -0.6949797365199859, 1.4361834244415328, 0.15808961268698177, 3.173740799674822, 13.775739699432162, 9.488932629603191, -5.612707341726294, -16.089987053734806, -75.18609235249869, -138.73523321133345, -204.70947469338049, -257.8082373571125, -287.9009723155384, -295.4385530536763, -258.6228905777763, -193.30904911705542, -98.0936646178423, -27.856146662298954, 21.675901813178896, 47.636909707431435, 74.28466090900992, 65.85885211953394, 50.488351439255716, 20.57094554246433, -7.015653299568758, -19.484706296749557, -12.81528910028175, -2.6847941143022496, 0.4132265745282422, 0.5311403478554761, 0.7417273002913393, 4.246494872460081, 23.71273559030015, 28.854485044297842, 23.658898508445724, 19.846594274411984, -47.19538813351543, -139.26291173522097, -230.27275285272972, -287.47742841628195, -303.25139560924185, -290.2260832614676, -225.47771934834006, -146.49145903116482, -61.771759734731155, 1.792062111218505, 41.209778157741404, 54.89434538897199, 64.01397827280081, 58.170663849754234, 41.73078267631998, 12.798586919935953, -11.14127347178226, -23.141388745347545, -13.808470346932076, -2.946292877622313, -0.0075578900201478255, -0.49902376687025113, 0.4111708508699099, 7.06078052143426, 30.301048131320645, 42.699260931022756, 44.45907204293922, 35.469497591521716, -22.109442476566713, -93.08244524972636, -165.42889303612142, -202.06465197857796, -202.1687652388766, -176.9080589323435, -124.51067411389376, -75.09990871081256, -28.757024310875526, 13.841819018625431, 47.223324507773135, 54.09799518768838, 50.563556223453745, 37.34072367328805, 19.782526977795047, -4.111055166882571, -17.51883136720308, -19.591156463514995, -11.401413182372847, -1.0203377668864628, 1.405951207783965, -1.14845567745509, 0.6294638026394097, 4.715970475132614, 30.21575033505337, 43.6565250819051, 50.88135285903368, 30.33292977785088, -7.055482080279774, -38.84763732064163, -70.67279673828402, -93.02833211095752, -80.29011976842857, -76.65818143398937, -44.523461696499886, -28.13682915912735, -4.543587968801037, 27.00516309521644, 41.764009060771436, 39.98076463452937, 23.908488154046218, 20.718278995649026, -2.6231675508002, -11.63148185225817, -16.46264084615875, -14.430564020429657, -6.676469446435209, -2.3649773716308826, 0.19119183811376556, 0.8723293480305176, 0.2610104314102384, 3.502239987065066, 23.17127472085027, 38.68585639909175, 38.60156437110682, 16.13362466481173, -0.604355096063727, -21.94845331183185, -42.400731248717, -44.14539310465796, -37.57639361611479, -28.97894661033894, -15.218115665210554, 3.9350700062562423, 23.73291305493123, 34.745849038744744, 28.211997254250402, 11.554426060877546, 9.063969247500149, 1.9166202803309322, -6.883857322513823, -15.55285147323371, -13.137581094632562, -7.412061083521647, -2.058914049577564, -0.9361084126904665, -0.6038430151044296, -0.5147916407381329, 0.5431191442147715, 4.677736640881975, 15.488249257520836, 32.07273902469423, 29.592688863660065, 4.698508865181991, -9.378785247755658, -21.051180024532616, -13.591494436519852, -16.57726319988861, -11.299106021737186, -19.747601350942222, -5.055347393622134, 3.8204496742898266, 24.287853690946726, 28.193748971304526, 10.56074225492461, -6.298721830609527, -5.005354137230656, -9.132522483082635, -19.501295760634264, -12.111543959569804, -4.814627013683265, -1.1078779980107978, 0.3565201160302265, -0.6777563574567087, 0.7646468309109733, -0.34000035009279916, -1.8812527971083555, 1.343230621925406, 10.242510602839342, 21.71810613171128, 31.2387479333653, 27.760390248563716, 17.769759392983417, 3.1795085334878026, 3.4943052580306126, 10.427305215497547, 6.985514668401962, 1.0618904511643295, 1.0974765930211876, 3.20846409312786, 1.0241019435845515, -3.230237172426391, -11.177867303777413, -14.971615302628654, -20.36990773598516, -25.71058615952584, -18.495567812379242, -9.414168924250438, -2.6399050897600307, -0.40986297653316517, -0.1430490790835842, 0.010099951350780435, -0.40171900459380805, 0.39308314007452194, -0.19807743969252176, 0.9641696856907432, 4.992437618449423, 10.685676440420899, 19.561262858174974, 26.123379810380378, 36.7154900311751, 39.6699788768783, 42.64078619515504, 46.94333760231237, 39.90327931453652, 26.751036766193735, 21.388293058795714, 3.3955716793324657, -8.848596186166358, -9.202505865657946, -5.973037661116379, -19.87580297366541, -20.897546293395163, -12.496905905481848, -7.3078322994940565, -3.4073519139533324, -0.7478740724699097, -1.806300138309128, -1.1298738953020706, -0.30915520836929217, -0.9889476048006428, -0.7288339951095578, 0.16767324734095757, -1.6629793142913316, 0.4564929713672802, 3.571353305510114, 2.8242185509990363, 6.876392351229538, 16.196212855879978, 28.265878431645184, 44.03559953204897, 52.11848689677963, 58.098081748915185, 59.00251335134829, 43.919881905881354, 22.953076022155788, 12.591714578452493, 9.633484720300784, 4.081252525287964, 2.1049047691932654, 2.7477469891546953, -1.9299358061568577, -2.2543727238675997, 0.8742880026421513, 0.9698540222985137, -0.0054214208968379534, 1.0492555057705462, -0.35313259567939864, -0.03811543574661142, 0.06192087901264621, 1.8272728985932267, -0.8201340700503262, 0.18954856731068045, 1.4452593177512936, -0.5975813357553275, 1.8363219798487014, 1.090878368077565, 1.1635207804539751, 3.143910856318636, 7.04463538773296, 10.878612257755242, 13.863447957013605, 11.244232033010492, 3.427445379358048, -0.9296241170058379, -0.7958171957513688, 0.9943636703722957, 1.71422337744473, 4.349443530735698, 3.0719712070779033, 2.0911387287242214, -0.9323406353984096, -0.013281754520911576, -0.7855823616091413, -1.453402348554213, 2.6546606972693567, -0.3042781919904674, 0.041536408106380956, -0.05964214263215841, -0.3093871076023466, -0.4549601839515909, 0.7401094642442536, 0.4739669949308483, 0.9341163918864457, 0.2058102585062973, -0.16910817560695637, -0.2942692855607628, -1.3725983833327773, 0.3210928431863622, -0.6669795336347127, -1.721885162176354, 0.04521713540748296, 0.3408641387988858, -2.866848073628066, -1.281292514291166, -2.387735870129339, -0.2616874173486258, -1.0599556268836914, -1.9337047888921703, 1.0710108461741656, -0.8165055707227383, 0.42409536654551316, -0.6700353479542553, 0.11419851790106231, -0.4517440747230061],
[1.6425779776543237, 0.45390317763797017, 0.14028539988511757, -0.3363921568256017, -1.9260650909771544, -1.653023154009945, 0.6818287312153943, 0.07364259217762513, 0.32177772715789627, 0.4081873107027067, 1.1587642730251868, -2.6171988949493623, -0.12486223699395659, -0.0947913118193171, -0.46455885817433595, -0.3384684536966438, 0.39312305223412314, 0.973763191512131, 0.6748525285399449, -1.6706095187618708, -0.11608853203494116, -0.3416099830003222, 0.28125256497836976, -0.5314649814971333, -2.6741110124832264, -1.1394771013048806, -0.21611400841549358, -1.1413779349422972, -0.4820407603367742, 0.5060419901334895, 0.0546233193892251, -0.9457275968851602, -0.030417728546944283, 0.7634365534029629, -0.7906533703230785, -0.24198636201082743, 1.9101592966525156, 1.4290213943959813, 0.5742532083364822, 2.113609124517685, 6.321269443090299, 1.5328731711039059, -0.5791057683658537, 0.048734142463886486, 2.933892544718354, 3.644894300059306, 3.269794360002, 0.8122541874638076, 0.897452933571523, -0.33607968299192187, -0.8675823471862982, 0.7697762412344163, -0.2877969575052369, 0.31758828827369473, -1.0387634304995572, -2.99778984158699, 1.682786845272984, -1.7750988510877013, -1.5878851460942138, 0.7717736696216054, -0.08877478596232961, -0.00684137735987581, 1.5276992154293003, 1.6458467678144282, 3.0076083042851915, 6.975741565234915, 8.389158135763482, 9.923575692007299, 14.341624946229683, 13.704080269540851, 11.07961529989247, 5.100789686606672, 3.6535517618295725, 2.8794219767667526, 5.676487125257138, 4.783663793789601, 5.367368637011925, 5.314542618355097, 6.516335506038132, 1.1019977929336309, 1.0774674807355253, -0.7197229440635506, -1.198355641560469, -0.9775657966142453, 0.19580902458047006, 0.5976866396590508, -0.8712131317502082, 1.0720034879875404, 0.7592476157089726, 2.3948046614614293, 0.7337643126090759, 5.792619206396113, 13.372781171812541, 18.801192069711146, 29.63995889695837, 36.697708177222744, 47.77027518616634, 56.752241057405335, 57.54438452827738, 54.22565448784143, 50.37415125916612, 43.90331998957052, 32.770383106302916, 25.633520399155092, 21.262761917019954, 13.876277397878775, 6.7555104324302215, 6.434127998402945, 2.1202238994296203, 1.573774711908214, -0.6736016020063136, -2.289519142802861, 0.070759197771571, 1.398834875322848, -0.8683274233278572, -1.7235040891965585, 0.9450450244885199, 5.6398988773124605, 10.08663616894981, 22.029539396587527, 40.440988563900774, 59.94612203918371, 75.19330676835537, 86.39086827881844, 101.51333309737048, 117.255899349219, 117.15297654756976, 107.15574136913074, 87.60560563980067, 69.32633761623401, 48.87599148918751, 29.99018653496364, 11.397080879381317, -11.218214704998836, -17.08238470384343, -19.92338272453855, -8.879650071694698, -4.497258329985734, -0.3603765554376146, 2.6073957685573044, 0.1608147218157594, 0.30192256842635484, -1.207063768598197, 0.8306345252202694, 6.860512882880211, 15.629156455667074, 29.5559269798243, 46.73672214277362, 70.13223829450607, 95.6327102111594, 108.18176318754102, 108.8060372967619, 126.64548666641322, 147.93465570732286, 147.05891664584257, 145.47465114712358, 140.04987465949398, 127.0563735347, 92.14940604564521, 45.87376892804901, -4.223790752649996, -44.75678768614461, -58.103979109212034, -55.47711771444274, -32.39278955069569, -10.673789705747502, -2.7701326093074545, 1.7470998620059264, 0.3790890568417721, -1.0311280655282153, 0.9763537095325752, 2.6068688895672985, 15.196810793087057, 24.690710703160207, 38.807553254787905, 55.72257560211893, 75.22616794005661, 83.69560274512614, 75.93120600686078, 73.70730792352735, 93.43192428221788, 115.5358857197983, 127.45908733490448, 141.1080392528918, 145.35581199136547, 134.686513202348, 83.3491292147865, 19.34348107747024, -25.434124808554945, -53.60597028147249, -69.90253999217477, -80.05140015015016, -62.64031467693377, -25.426060663630384, -7.644599242280591, -1.5354660096705721, -0.25311931112015446, 2.082432197002186, -1.891560740445715, 0.03547519632866626, 16.84839275928664, 24.722850088024238, 22.342150725526977, 28.596852465509045, 23.61213276469877, 15.762575968419316, -11.341515575780068, -2.7323881453596903, 16.829290390914828, 44.60883668883987, 64.31698526900479, 74.5145048148502, 66.79777522812135, 62.47047779146628, 32.98272083064215, -19.64478239987449, -67.4996342100636, -77.5386473636326, -81.15052579286515, -98.16028048373998, -82.6228470636788, -40.86508043502685, -9.371532517114572, -0.893380570787242, 0.8091625753587681, 0.7101535405264299, -4.868729504160568, -7.489787143675043, -1.5653912437880249, 3.245995199970112, -7.193309010273357, -22.588538176027125, -52.816036146688695, -69.09997651589372, -78.99388686840184, -84.74020085007288, -62.13599960949952, -48.373326318890186, -46.383409198719185, -40.708683565576926, -16.761026540638202, -9.61653731020305, -4.933089350327497, -24.690242416223583, -47.174372617819735, -56.27263034788357, -65.30302102451935, -92.41234594538845, -92.55703050040113, -50.75842602451388, -8.864940812700983, -0.41426869337835176, 0.6147646554754109, -1.2732390535748095, -9.186564460899149, -16.790455319221802, -24.16713572643351, -31.07602720015497, -39.0928042196688, -60.64403614177608, -101.13798104563953, -120.40109865890003, -128.5091788857005, -153.48065052224584, -124.55246997265364, -108.59251659070715, -113.24233871901781, -111.50351795986549, -73.423947031473, -39.74018158967138, -11.45436770170383, 4.805249945827028, -3.3532497620192596, -16.950161188137155, -32.43740300875875, -51.262670070170145, -69.98860523725425, -47.016946514470014, -9.318105463763157, -1.5492902610304713, 0.950951831259783, -1.4901346974228662, -7.748736241537629, -21.494371467577924, -38.515025746112286, -59.1290960906304, -63.46833341957022, -93.42295814869837, -132.0605522434075, -150.41961162528872, -160.90756657496192, -160.84653521613959, -132.59938384484164, -114.84867486624259, -134.87834623617883, -137.37145978986985, -98.13071181987138, -18.73544170239587, 23.4472811001928, 37.29400828342873, 48.19128238690611, 27.115500303578298, 29.22748953491118, 14.898451250521875, -25.65863951930095, -33.33552739592369, -10.837212632600151, -0.8522945274372855, -2.1534771963082164, -2.009380631098172, -8.933451078634198, -17.72288599217166, -46.365056111386444, -62.59986261328082, -73.88961648765442, -109.06892989156707, -138.6533827435897, -132.3924736766127, -132.0761979260142, -122.08751977853954, -90.6253505454388, -87.69434392277428, -130.82877840570237, -145.29624011114467, -91.47950744063239, -15.750298067001737, 19.698766568075705, 66.34640472840395, 75.08512803479893, 74.48213835738237, 85.82289046081877, 82.33547173377515, 21.136866971305064, -11.652148357439668, -2.416537890388094, 0.1634247008213589, 0.7125427953249798, -1.7345571607555441, -10.141251749121427, -21.741130927982788, -49.26998850302445, -58.52084104604785, -65.51649844303525, -91.66115415724259, -102.41143939275246, -60.06440637476858, -33.60178112758997, 9.024698386192396, 43.656103449164085, 2.05067076819463, -58.4061145891607, -77.0485907724646, -47.250513535789466, -37.13349712545706, -16.9185295136874, 32.10120614348457, 50.26991875692339, 94.21102735491296, 132.75831516600292, 126.61818498393228, 56.419853308189396, 0.7501803595532256, -1.4405441330548976, 1.0420366094081428, -1.4133404586540579, -1.5377797758450842, -3.9145861828456634, -16.491267169098858, -41.699028155459054, -36.81281177045998, -30.845020157858507, -25.74955411182725, -10.57130031123995, 33.82814129582569, 92.82934206920223, 170.0582789067922, 177.19839478543298, 93.45922554500976, 10.869647198168787, -25.59305861158355, -50.09722357572949, -55.288380574876015, -53.00334566477229, -21.821748715508328, 16.781278599657597, 90.81388970186454, 135.15202441279155, 126.33639730091272, 65.32893096779802, 5.09815627569717, 0.16995867493474764, 0.2591280783367603, 0.8176155995187054, 0.6734720319411337, -1.55228028918926, -9.906230560053032, -25.228864957078283, 1.2717128163915643, 19.587629835247363, 50.650498662081596, 85.18056215082235, 142.3073735383401, 207.81272856265048, 268.22955695743866, 220.03628355901228, 118.46784846952607, 21.086266537780308, -56.66167376287432, -80.56356989174576, -42.59483957682838, -43.77264122911725, -26.991870918907292, 23.84952650035319, 80.445324827662, 101.42448883405824, 106.86823617156237, 62.19798955305117, 5.812806614039103, -1.8155527503158617, 0.014532438482704215, -0.9570784390855834, -0.13949855089244523, -1.0969868497685966, -4.216516816998022, 0.22895983342099194, 46.983662864693514, 63.87533152248664, 100.36226598318703, 134.5668115731909, 189.7968784884396, 231.7312591889868, 214.93895723253013, 146.80516246930844, 44.91883485638638, -52.6174039273035, -119.0191438131926, -89.53425009939303, -44.265189012334254, -26.47133145941883, 2.061193951239106, 49.024125550929384, 69.99590775776447, 83.76830962878161, 85.92744925984837, 53.13479181260313, 8.184399115001703, -0.49599512053840134, -0.9009990420507858, 1.0907460134750198, -0.49725868887327807, 3.4732818007864665, 4.329811403309374, 23.950218333007374, 80.09187991925218, 94.146734071138, 120.38655558701704, 144.95347325006702, 167.02532592301992, 158.1285085900607, 100.45272465541169, 1.9746815766796753, -100.93074290808526, -168.8476570344027, -167.82128279880695, -91.5452474441664, -7.4689955576454174, 33.10262316903995, 55.52906454951512, 75.56864113224505, 88.96979746042064, 96.54172272189041, 85.66063577150257, 49.79945093416821, 11.634917545912934, 0.7821082203929215, 0.2884625550199241, 2.08006602067066, 0.15848240771493816, 3.6695770549684004, 11.191828729095983, 43.7172402417004, 91.07924599695266, 99.62661893759683, 139.7111589385428, 146.3531037498355, 121.76425139986065, 91.50060023045165, 15.665751352101134, -80.42189831334348, -180.2364759432604, -220.15923611964197, -157.8417307821967, -32.491272849223925, 57.215000818056524, 79.7620628823259, 108.33728786823406, 108.83347331353664, 126.53148596108997, 123.27542339467033, 81.54326694907218, 32.522498347612604, 9.569391119326761, 1.106584837185514, -2.0055680394886637, -1.385197593722847, 0.41152134613901464, 2.078314112839586, 18.3849537007252, 55.91541497446077, 99.73472686030718, 107.60575579564292, 150.32843199085528, 173.66850656475535, 148.72892146679203, 119.88828419380518, 46.1805755518122, -50.191652940471, -151.44814327721852, -171.0034923060676, -68.75075862177536, 56.792760459364274, 107.21998135233862, 135.16069627811672, 142.01245625573586, 134.10770982417043, 150.3646919861579, 125.24276509901826, 63.340043994358886, 17.93116986883178, 8.534544485517902, -0.7894632653034445, -0.6215963961218036, -0.44498473205806766, 0.5606882504800323, 2.686367270106893, 23.09599078438671, 61.972052067769866, 104.46591917779647, 109.19827158375249, 139.06371688985686, 175.22684148134303, 182.98188091902267, 174.6405243812526, 124.52937337555866, 42.309395217486546, -50.067044251723644, -55.491431154471755, 29.38881967942059, 98.57074613676431, 132.977843252498, 150.09904913622756, 147.2645263489198, 151.1589025956785, 149.94904106830063, 98.03688936871922, 34.921758740106156, 6.559518452927808, -0.47796978704733956, -0.15893451297838043, 1.0609259887598534, -0.41374278896503386, -0.8144412179235673, 4.758465242569167, 27.34585227228834, 62.80725595463444, 91.6258807426856, 89.15072668257778, 103.22914267136932, 120.52929958639675, 148.3194031199406, 156.51496297992236, 130.35830356454593, 85.1304753875854, 38.12718025810093, 39.30859545004416, 81.88597393146702, 91.41745953259814, 105.21203679376174, 132.18204816949628, 135.02703361989106, 139.53043436603448, 103.23652115962389, 43.89912112197029, 8.057607231063423, -3.115068318324474, -0.709630439768986, 0.4388947466272191, 0.7498980518237314, -0.17726798574481217, 2.139409361194562, 4.25285362638437, 21.379224125145495, 47.183796462902755, 63.96877326642921, 61.614485450216605, 44.87306181525625, 39.51993324938144, 56.82237737470039, 74.4538542888703, 78.052010021786, 77.14182900981349, 75.45138284893724, 65.89813607662086, 63.7802903574307, 59.54593712968012, 75.64604870255225, 100.06322184788641, 106.63444619081744, 73.47963293926432, 33.21248081335453, 13.817458605722633, -0.4693057106699242, -3.3917809027794736, -1.802154860058365, 0.24276149657291107, 0.3601478730710235, -2.6757931715755627, 0.22844211072051473, 4.706164025572519, 14.754444980606774, 24.60780088682228, 36.9186021389796, 41.14363724709921, 22.30467390733309, -7.621285608993287, -12.375441869836967, 1.5123190925659968, 27.137791948673687, 48.96556654906313, 54.84340617060425, 31.16682722598108, 22.412760804370606, 18.003798797234307, 27.248839070974473, 34.650926319896506, 35.1323849385167, 10.3000303201001, -3.5824619861346436, -1.063846083292566, 0.4250203418713891, -2.352656654227295, -1.7478856545662949, 0.8609416365793784, -2.1061262592653724, -0.1334789015757429, -0.2914164314807411, 2.316445163050703, 9.328774026823538, 9.947604211997357, 7.53193735494059, 4.883073072604198, -0.2259342033340465, -25.96315742010279, -42.37052851321365, -42.708629439419575, -29.575981091086888, -13.052368813512341, -2.977284154782326, -21.539061020502338, -30.199001685920106, -31.903923839973768, -23.73461662966471, -4.540739224634161, -10.403566643590494, -21.694170270944003, -16.43305566474606, -10.25878623927212, -3.0899025686778567, -3.1468761743207385, 0.9807885143865723, 0.2768013486236022, 0.10130476647838108, 0.372254910159071, 0.7966582664400003, 1.4330956315133532, 1.4997811082529144, 3.1422545786470613, -8.514449260994684, -20.76677516266999, -28.612961421601344, -37.56163939698213, -44.477173791049346, -44.26239770561558, -41.79533554655257, -31.704313989784502, -31.5442657879362, -33.45583669888754, -40.94929466648045, -33.36744457261472, -44.57156046964326, -34.23712369911357, -31.905401369933816, -26.294299986815723, -19.843422639593086, -9.682381651021347, -3.986846667378317, 0.2941086568608054, 0.41240903502305654, -0.8549833508291453, -0.37004214164044974, 0.8223327707020169, 0.16365635762332378, 0.3390903177106755, -0.54032698878296, -3.9183399776455516, -12.473775676321782, -25.77657015748198, -42.57352788330719, -59.887915659825694, -71.27752618344631, -64.12085425873002, -63.50798556643834, -56.370115037175744, -56.066216464424315, -60.28251282426545, -58.799361238160515, -53.476626730962465, -54.591662790071666, -39.17485584046945, -22.74284942535099, -15.127529216232412, -11.440810698132367, -8.795911977117878, -2.5672893835430988, -2.394862006817213, 0.43583766429892357, 0.8875195553338783, -0.18382236598379198, -1.071710467103198, -0.3852891213376182, 0.5472714048240408, 0.08357452012400245, -1.6157281917142035, -3.657310453956161, -9.792760166160463, -16.25633396773819, -26.96732121684115, -38.80671474810933, -41.80968840283205, -44.95088696159838, -39.28749777373794, -47.83116379662032, -51.12276800854726, -51.205606355688666, -43.52208661733641, -32.81600096925771, -20.39363875609851, -11.520474630999159, -3.052733220725318, -4.804950314126018, -2.2737054997816717, -0.8099566023831668, -0.9553805560191364, 0.2510755298909774, -0.7149239184076952, 2.091603539076617, -0.673963372515265, -0.345943627236804, -1.3574641673709764, -1.182786728096664, 0.8857111015134337, 0.1261462681932877, 0.5423201222844157, -1.7505887601981789, -3.195466185060442, -1.3256400938924322, -2.248280628550745, -3.2535971898474063, -4.770870611458748, -6.510024686192517, -5.469615982432802, -5.257260889243354, -10.188736846855663, -9.333135277370715, -6.544649637535594, -2.997093434010665, 0.5253735417741896, -1.270600794996142, -3.2490855343487013, -1.0900359699196895, 0.61046487262099, -0.7027951230369217, 0.5737757583842644, 0.3075578107345387],
[-1.2085501211635261, -0.3831620854588735, 0.9315454082272169, 0.5013008038499106, 0.24795377284470832, -1.021163580063615, -0.8406351549814806, -1.223748998143153, -1.7438618505545271, 0.7348990708500099, -0.7657589425720629, -0.1505591081845373, 0.15788898137482843, -0.31661846238939495, -0.48130554293021593, 2.264182635562788, 1.1260277948037531, 0.42940443170842946, 0.09408642704400137, 0.9035028612384851, -0.7707994726739941, 0.8860403029979886, -0.48032241836319667, 1.0971892908344014, 1.3382569443672747, -0.22602150505857682, -1.2636798241202996, 0.5845059032868227, 0.8987352236519062, 0.6311380886602418, 0.6483126573157193, 1.4123020542381912, 1.3021957979606695, -1.9185223430652807, -0.04562077885098895, 2.8155721228455426, 2.4050711405943486, 3.704507236800601, 5.329026732706339, 6.032006208339923, 9.216826962023088, 4.698955836216062, 1.948630404547611, 3.142468216659025, 1.472860075608621, 3.5435546106423135, 1.3216783704208108, 3.4927895231491086, 1.5548310567991381, 1.8888825308570405, 2.5317049675058367, -0.23623635631710393, -0.6644147913486377, -0.266514602255957, -0.8491604892167448, 0.561611297240326, 1.443339971437336, 0.7941672862715057, 0.23578571801726117, 1.2488801166021832, -0.1353016782791292, -1.011660996313047, 1.359131674578093, 5.642290721294076, 9.530831781858264, 16.29708512429272, 24.250335692439275, 29.883248551237006, 42.061890974675194, 45.41168553656296, 40.46110834860218, 39.577302948964785, 37.86948820111546, 35.202923139586574, 30.430005652078055, 25.006592052415716, 18.93847387316898, 14.536684598448964, 9.43916593209769, 3.588115456402489, 2.836876617522064, -0.08603587005831162, -0.738778056516592, 1.5543313737259163, -0.5065781997207717, -0.6880303155482402, -0.5465569466299293, 0.4764045283889305, 3.044233782738016, 1.6746039728804814, 4.957321741742546, 12.967629696218777, 20.127187444219608, 30.772115700719016, 45.2072960016417, 59.398256196083416, 82.3713899764022, 97.63503727901613, 104.67141156394887, 102.72403133983767, 91.22736209428035, 83.22691187769735, 81.48142592388396, 71.89549522587637, 58.754640059576566, 42.75808442421329, 24.91743311139536, 15.594220731997085, 5.632413968388867, 0.8055794610057685, 0.6482606038851817, -1.548036793033298, 1.152716411828441, 2.295409815575177, 0.6983650837135202, -0.08269227106779793, 1.5243433806271705, 5.7744479695206845, 7.108117612886745, 12.007753979814947, 28.621570923102468, 48.34342466907082, 68.52443121558733, 72.66958794138237, 91.39905231039096, 112.35798250307622, 124.3479631726282, 120.19371620331856, 126.05681082817553, 108.74296676924234, 109.97161614377626, 101.95620680740372, 83.18543472678274, 63.898615968330915, 43.068486685868145, 18.944772888384573, 2.834909597869318, -0.024719225693063368, -0.3327474919528635, -0.2551595595156251, -2.7194014027920654, 0.7772318952758136, -0.48242357910608813, 0.7327191469889957, -0.32356518135140555, 3.810514513837535, 8.245889214935579, 12.206110485788509, 22.457778220054518, 38.38094788880103, 57.20714185377203, 38.11521840677296, 43.554740634446425, 54.08659425519476, 64.83991723379175, 52.42356437215869, 46.96404369321593, 35.50098993997803, 49.77852665824809, 57.70773131015048, 51.893282386246355, 40.49750932897512, 14.353081463625015, -4.705150207979984, -7.479785124862521, -5.478061886263616, -1.2512561507668478, 0.536699714068382, -0.5900066399165574, 0.41817897696089523, 0.47012432061746284, 2.744507536687392, 3.151899250439059, 1.6597338933210926, 2.727764176888439, 2.922010233245859, 2.6883837034160805, 3.567530498490895, -5.629443669726554, -19.3426473255921, -13.962894486551216, -17.477715873565295, -23.040254329895195, -54.66917994740469, -81.37878686161491, -84.32719423083684, -57.97240197729101, -45.85339414938627, -32.25858655108003, -38.091807799443416, -55.002044730519465, -59.96434186951376, -33.73678769543379, -12.473273831264429, -0.8446175755142437, 0.8347728260271221, -0.7209166369488356, 1.2225221822124104, 0.20911896597423857, 1.1080558911135243, 3.1842557114030052, 0.8947864662336654, -1.6127056227831222, -8.720840470959343, -27.374014262029196, -36.727789170473535, -53.44538576642846, -50.124603347427254, -36.8080524235298, -33.14471955220084, -10.620317267239086, -32.12082858167345, -93.85834231954925, -125.74842628201971, -135.74384698675445, -119.90035509519977, -107.25768144132, -111.22206670680872, -122.62549302696303, -111.73634731170367, -51.05266134161047, -12.036390835744399, -3.220246417312247, -0.6781708476942526, -1.003537656475893, -0.19671791456977603, 0.6629983562587685, 1.9680313605595388, 3.8200769763072566, -5.4809926036489225, -18.457833129869993, -32.678045965442486, -48.44486821979169, -76.11287263895187, -85.54089485935337, -55.969233146726395, -32.16365661050698, -3.997707488389698, 39.397528344732294, 24.516295254180317, -69.08729013148174, -145.91950534065236, -197.97534352170956, -186.88181673858537, -165.38305895359383, -161.2490001724288, -158.45790866048668, -127.4569890248701, -59.70381385158037, -12.647265664870782, -0.7083108210672778, 0.7061642495825943, 1.43718162006298, 0.01921174654034542, 2.0964323834395566, 5.442970591925448, 4.592103898535884, -11.81718526600206, -32.63160573566715, -51.948618037213954, -73.72628247524293, -112.65760796844572, -111.71993538009568, -83.09777363123916, -41.849398497969716, 24.922921008234873, 84.8474658722846, 62.85624108463537, -47.34568500570333, -172.73699606614468, -225.1817268504141, -219.0104768968529, -186.7961115365916, -178.8175165934002, -150.01573341155947, -102.27672847833638, -41.37927871688747, -8.923471010885816, -1.6249877537263555, -0.20169821833742646, -2.4318351326892427, 0.2294044727151164, 4.794682493423935, 5.651184185347739, -4.531005447532691, -27.30021266970766, -49.26738462967799, -77.61882816163092, -110.22046867245439, -152.09476571706045, -146.67909346250678, -129.09047981102063, -69.88654385915856, 40.62299635097224, 104.28911337257678, 70.1650541929121, -32.281883019123, -152.9170132171379, -205.82762985601508, -211.15876754351245, -177.80253572196165, -145.58350259398668, -102.51229438947973, -52.323001653586516, -16.713877011603323, -4.324392308850094, -2.507995859877763, -1.784211863399367, -0.6284728270194512, 0.4937478364981771, 3.15744483165728, 1.8455607707055373, -10.846951174637091, -45.68575690883734, -75.19662522684868, -104.21018539158653, -143.65720444342162, -177.41341330552288, -192.85804903979707, -163.7288693755269, -83.52041510952404, 36.8432965848535, 92.71859023725452, 65.30521174663264, -15.600730519236233, -127.30844975245839, -169.25046424446225, -187.93564229373774, -157.91365698528165, -87.67366181196753, -41.05556668462896, 0.41580355743562913, 2.492454415946623, -1.8615289874985563, -2.3938879763894967, -1.8345034775131994, -1.1838754068213013, 1.4906739039249357, 0.6651678672008678, -2.7945692749716096, -24.749173450912092, -70.37878883911509, -101.25938099251435, -131.81212352622404, -157.0713758329663, -179.33315412939382, -183.7214111113227, -146.05131887550377, -74.32263371736606, 12.11518866451295, 87.0307990671686, 77.46297700155571, -12.937989179915931, -116.65461137727839, -166.52912525071397, -180.96556351348144, -108.62878792071602, -41.85661636260448, 9.640369805290694, 36.40308086351164, 22.086862888230634, 2.5498823994143143, 0.12940231472630423, 0.028555512096435254, 0.9934621641556226, 0.3869131823186793, 2.404500038597458, -6.006951679615483, -40.382485165702676, -89.07323886399199, -123.94412158778681, -154.62176632846626, -150.66438527925516, -141.07516392462617, -135.11370278759443, -123.15403399181984, -68.74436361900769, 16.154305890643467, 95.66276672578401, 88.47514450374439, -27.741120803565675, -148.32335816467307, -199.7937094192489, -140.54209956151018, -58.14853035225122, 7.48583877362604, 40.51851372163608, 61.04638914423108, 44.70293914906204, 7.262360764727884, -1.2970699910450663, -1.258722730614875, 0.7416504777732958, 0.9178183503451649, 1.1017311837727934, -6.669696468903923, -51.43797481889632, -106.14028173436621, -144.20159176496784, -157.98546448027344, -131.16908146636882, -101.11643842059416, -89.02322792005593, -91.99074590306144, -57.43568216577594, 34.0460560229609, 109.07712601134203, 85.17308302842251, -57.931618566770524, -206.469368641527, -192.82231461583197, -109.64765794861144, -19.578844985301767, 33.68190917911356, 56.769789933862334, 55.0466618126145, 43.38511954257545, 15.479444944770973, 0.056829034166776975, -1.6566267094783043, 0.6285395214813486, -0.141371406338505, 0.8841509065025287, -5.6841176090411345, -48.07912291099072, -98.38942600416975, -128.02399555640795, -144.55704612187623, -132.71326387527742, -91.68568497055539, -59.89019621320456, -58.47638751078525, -37.154832977965626, 37.8358403511918, 98.39412601065186, 23.100940589823466, -139.6675117039477, -236.9862446854645, -182.4059029526383, -76.04027186327406, 15.373545272122843, 59.91505395128411, 51.12458859100297, 49.651026363152525, 39.5206642737913, 19.30495234436468, -2.510325950499427, 1.0594492694389819, 1.484911352700602, 1.0973371382038302, 1.3602979797863588, -0.23821319115239656, -28.92686856813261, -73.94649775511816, -93.21310104543635, -121.16884246553774, -127.52890758297207, -75.11129922043591, -29.566627651916264, -14.997736693104851, -30.684200341996448, 22.823511422567453, 48.7849117359847, -57.68169083346083, -188.5843310489976, -225.52187484887185, -122.6706146133378, -2.7089766085291362, 53.75411161935449, 73.32335573403049, 61.44072356420697, 50.57902384408909, 39.377198237456476, 19.786708792402862, 0.7346458497673856, -1.4401469492953187, -1.3913243208936548, -1.097977055383866, 0.08515246073880063, 8.439463784218324, -6.777510230586945, -29.98973941069487, -36.56638491708552, -53.16085969903343, -60.850241657967175, -35.4913293989877, 23.225226986488938, 27.74045658536876, 19.317633758259475, 47.30427698556795, 50.41297850121184, -46.017765830950154, -153.2030103007895, -134.97488226420649, -32.31044296726295, 66.17283935249692, 96.81762630888082, 89.4818026708618, 79.67144801189333, 60.25206905133734, 36.788441993438646, 17.050900479804074, 0.31819606657063304, -0.520590549054005, -1.0927538269042014, 1.4066292258974904, 1.1347460973971053, 12.607846868626948, 14.869536804108773, 5.726997686364076, 17.929634448904384, 33.27372963572862, 42.54139216281491, 69.37273301664916, 115.80309816467691, 141.6519766942942, 148.45257889150852, 138.3613708569725, 97.5064923822572, 23.30668531934449, -29.79885180448485, -11.496066261874192, 53.73660618828143, 91.71675703731776, 98.5810802527017, 102.29294151452503, 74.6689601657416, 53.60177743555553, 27.059498391197586, 10.964637974162205, 0.04489613086065439, 1.477939951968163, 0.5864383345721146, 0.5439255402216026, 0.8885696712500828, 14.214309727380858, 26.21182874482728, 23.98542855095227, 41.64051194021604, 80.68443151229928, 117.61191820567001, 160.04649392019752, 214.2097094918866, 256.5322035009645, 245.71223401592005, 198.21522437106947, 127.5188075900658, 72.09452856436263, 47.346286511524156, 39.99098058235116, 64.02726161446365, 84.95144308175055, 90.66835905246644, 81.32227528500809, 53.761883765070024, 28.98421968224884, 12.477310833048374, 2.863196382185413, -1.1153755792165885, -1.8811194109484117, 1.2037296252223446, -1.2632942328801815, 1.2245100490337115, 16.649923965529663, 28.736171550916172, 24.12572744000933, 41.85328706600009, 78.83069554256426, 115.59309681115423, 159.8763131700728, 206.489989890775, 245.43649537726841, 234.79671879862556, 193.1960775454209, 139.02466257379177, 91.69250045295003, 59.14503622259509, 39.924344184726195, 50.15559103424081, 57.44480793885517, 58.68203050358462, 37.55001036153041, 14.619769478148928, 13.957794344266304, 8.223879076238056, 1.9385361910193983, -0.47937372450605065, -0.15465446293078292, 2.273913801434875, 1.408423769257279, 2.7258209882239095, 12.461343443532066, 25.387538504339915, 27.001315338683703, 33.88568211864508, 49.28888954101906, 76.52008524076075, 92.9468971881507, 112.86113573671116, 135.2779894030051, 133.92743565316212, 130.86023200621435, 98.31493817874404, 68.16794925368691, 39.16258625459871, 21.54958950266894, 15.049663683770989, 11.878570663586121, 0.30330467193702193, 0.1792112783202234, 0.7154389566679954, 4.009265010870515, 5.22262894234255, 0.5985820382575503, 0.3782301713536263, -1.8282418749612217, 1.885271480921502, -1.0987362414775232, 0.6335899064426544, 8.574542887014443, 24.98209811043705, 41.69588719194577, 32.82996257203533, 21.1183119557886, 13.419083676094017, 9.829406673420229, -19.433369868398664, -57.454552687022066, -72.84098980340146, -70.7370374354022, -58.34313093007116, -43.74895787432384, -44.2720490954514, -58.232307917342474, -66.63447636258103, -55.61372636554498, -38.91810534070361, -26.972717536657175, -11.96361465949059, -3.139355353637428, -0.7527044288473307, 0.19775083709167007, 0.5499057198759956, 1.1693559320547422, 1.0861779932124482, -1.5521747545561155, 0.7051243352629265, 4.461683303257097, 17.647958748490954, 35.25814230659467, 39.654021109003835, 21.908296309535647, -7.950990381682467, -37.76730006818582, -88.07904954878725, -151.29147870093027, -195.3884659193378, -196.61318033021288, -176.98608164596664, -146.49877835366973, -129.55367494247105, -126.7671452823319, -115.79199991533717, -96.89794781423511, -69.65083400809031, -43.04019391539436, -19.8394161308333, -8.861365394999657, -1.4235944843742259, 0.758236053686424, 0.1664665488955135, 0.8416827752634496, -1.6097809030238812, -1.5008095695367263, 0.9460847270739885, 0.7792378074594128, 4.281562889176887, 10.532556314531634, 14.491495485931521, 7.916181904522808, -6.311965090891166, -32.19052468996414, -70.34166216579221, -109.84543702492493, -147.11820919377467, -153.76233577238355, -142.79626256085538, -124.79094951444085, -115.8842148011527, -106.34237236327587, -103.13841467398844, -89.52885170806289, -60.78628489821134, -34.673650671870085, -18.356740465539737, -9.735964892374218, 2.083667416692182, -1.3204483557441897, -0.17053099584743228, -0.06604123857434319, 0.3881523347976741, -0.5682848430673462, 1.8283282547775648, -0.8706276112787811, 0.4346231075935393, -4.528750289266157, -3.857783136300251, -5.848286549032265, -1.7885911406698525, -5.89226162045365, -9.908812063355487, -5.942711909090316, -4.016023359150471, -13.545094570237035, -17.242359355647, -20.404774817247127, -20.720888654347537, -25.10799556176982, -28.755760192881375, -27.75169767264157, -24.367343962883854, -16.480133450875837, -7.38322303063155, -2.1632944247546204, 0.6542147512201226, 1.5093990644397821, 0.4932803181989642, 0.43837100381254873, -0.5104298578508756, 1.3811233787451205, -0.11333861735108519, 3.8389118867988588, -1.4200112560632001, -2.7179781516450814, -3.8900333735746013, -1.0802499146007332, 2.538429634506369, 5.2713641572196135, 8.706707034931513, 19.576618936855777, 20.90824044088489, 19.2189334044242, 12.003660248237205, 7.30411452237263, 11.068786693839234, 8.169083784265567, 4.300490814332085, -0.11398775498161291, -4.317023406117223, -2.3282085904448704, 1.1010123068364228, -1.7629287211374014, -0.057179856340276745, -0.9254247324813177, 0.4801417796915935, 1.6879017448378728, -1.1775649212631103, -0.1323336862059605, -0.789042381141454, 1.4376168765757074, 0.3220866527333466, -0.5164370192249415, 0.6071276666487122, 1.4603130438773047, 0.7652359472429426, -0.3541937385042013, 1.5395498848698654, -1.2855834878790902, 0.954072334474084, 0.8886965684124164, 0.7884795910717096, 0.1032993248059962, 2.3750997601019144, 1.0956953780745091, -1.0425474089028726, 1.1653452782258886, -0.35102233085161966, -0.09288177096323649, 1.736760319443775, -0.21326027231467917, 1.1130547748051596, 0.4870867204336357, 1.5009665087197612, 0.8631155326577934],
[-1.995980818128022, -0.2478595614097182, 0.0585973370943735, -0.05833944095186138, 0.18680515649433216, 0.7789907448365104, -0.6218719496480629, -0.9467422929289314, -0.7795680940289526, 0.09867460690484707, 0.9224979665756947, 0.20038176414070483, 0.8287577840027205, -1.0368574731329516, -0.3495815059096532, 0.20727810473935065, -1.152105813175708, -1.5113396353167041, -1.2188696824559135, -0.8074083094041244, -0.8472813942877008, 0.5691577431344882, -0.4823772051406794, -0.33162260165900626, 0.7372154519332674, 0.2273572206106536, -0.533678313599295, -0.6257306370600215, 1.0722059213946349, 0.3230599463468455, -0.9998031180694107, -1.1951130748507894, -0.1852822827059164, 0.6313694962760849, 0.6451233517320721, 0.5645706594799359, -0.48583731354290843, -2.9328882665192855, -3.8604771571446297, -2.803393183882497, -5.312081827018073, -4.556128896538675, -0.009398993414156936, -1.108290217678594, -0.6694576623579896, -2.065910012992809, -2.740616186357486, -1.4231874576647625, -2.260453363976395, 0.4723611923980351, 0.11897002286869414, -1.3596568214761218, -1.4950749460904376, -0.5858294621244472, -0.12224781055910662, -0.0709791275641638, -1.5390956339740658, 0.5356443727568565, -0.017771332978686036, -0.35628803277964255, 0.546121368455889, -1.482744290278486, -1.9238072133103092, -3.6593284476373085, -6.233836289691369, -7.710766990540847, -12.555569306111325, -14.211790229791726, -19.058646768854633, -24.617920180316066, -23.692830526465706, -22.875184461119577, -24.22376217619699, -24.056507647349193, -24.64125514020849, -23.112075650809057, -15.93946652514263, -12.665772978948123, -7.1394812125654115, -1.9113036844327869, 0.06125212897812467, -1.0078320069036983, -1.9499249428076773, -0.5364572719405103, 0.21170652915983904, 0.027713765350003604, 0.5063194752139569, -0.6999172292098536, -0.4098455474880501, -1.09843990070553, -1.1150537969630736, -2.446279141164999, 1.5688759124660778, 8.269270544809725, 5.8101349597283996, 6.048056066366235, 3.2238931277934504, -15.1052847009191, -33.87495196095066, -41.69141783567043, -40.37972251997494, -49.25357838809643, -63.06027074531239, -51.99413107296701, -43.62267572029353, -33.03520613566113, -21.605419315589376, -12.133509337937213, -6.411704619186578, 0.04396361999184699, 1.4537643029847847, 1.7251517322270515, -0.17657143170257988, -0.011242419426036694, -0.7793907991910659, 0.7086591118524229, -0.2928510106832041, -2.184242577252581, 2.8753367496253794, 7.615969806244729, 13.27579315024463, 26.16614637243974, 30.00097072759437, 45.86733079193876, 38.43250803452764, 21.287517473487142, 10.21097430154205, -1.33960538954169, -2.277516685797384, -9.439927591589141, -19.47029231353475, -28.932069248304025, -30.531121945636617, -28.913746306372808, -25.67583997053015, -15.163668627758275, -7.230699151287018, 0.0024100032362344595, 0.237783976597322, 1.5362768997309753, -0.8861039902273202, 1.6556857232069233, -0.2877358758845174, 0.3455139652074758, -3.0685050461143133, -0.2434464495137159, 11.730535442882532, 17.98057251365642, 23.155988085015444, 32.197132926126436, 45.83346120200304, 51.587976999161604, 38.33656430267302, 40.8544674170109, 30.855033341858288, 22.096902962689253, 18.07996896353868, 27.913332362362578, 26.886341915695652, 9.715014345604237, 14.600941135815889, 15.2115910832996, 6.345229270534315, -10.393796854931367, -5.452802880622079, -2.6466071275231466, -1.134136203843736, 0.0011880450037472607, -1.495648644946757, -0.3943032019409454, -1.2915114810054162, -0.6743232260035489, -1.2318576707508926, -0.3967667669247893, 13.344318964573633, 24.316034890322904, 15.932819739949673, 16.346637401248053, 17.438918521396996, 15.200257665261756, 2.0812968251925543, -4.15793706051576, -22.905032869402454, -49.08062850527303, -42.49998101254675, -6.548763734219184, 33.362957778089076, 37.13122525484302, 35.46759814395178, 30.513324901522026, 9.19678015192481, -12.37473618341408, -7.059343695879221, -3.2613666431782353, -1.007177395364687, -0.9664702138353592, 0.03626310573773801, 0.6703328878327424, 2.846098803812214, -1.0522313383558086, -5.362670615278833, 0.9266951291816362, 18.32735339381669, 5.212846718463999, -9.984785775469376, -16.52358862956626, -7.304331341115764, 2.380584716740587, -1.155389230283618, -0.8568144524837545, -10.950328162188102, -34.74193584402103, -7.9389342314410145, 22.134098676809494, 47.88675176901351, 49.580032329394434, 34.89051260369793, 23.769184923573473, 8.641249537792806, -23.582122517852092, -19.676262707575283, -3.377631229408545, -1.5083085753171193, 0.4736370157227404, 0.034487929551238895, 1.5928861757113029, 2.330661666559947, 0.4733414088902974, -1.7410226339366541, 3.091348294668344, -3.1660849993077815, -27.408441548059546, -39.32064577082574, -40.87727593696484, -13.985964081355373, 8.039611095292072, 4.96645585140699, -3.0893606588450857, 25.274295013424226, 40.11959985462405, 54.37624922527372, 77.67405829174061, 62.94851563781794, 40.42645021391377, 9.325911948714873, -3.6171275980405966, -12.29424212707062, -26.3860272834433, -18.454061388492285, -2.5139443958658045, -1.736271162510025, -0.1286384908421354, 0.18087929370037148, 2.1917466570588116, 4.0508801766083256, 5.6569520538151234, 4.404772634745281, 2.6378601933230805, -32.757729132647384, -80.67656242936152, -95.60228749135861, -72.85339902360593, -41.935479999401714, -25.95654232601782, -38.18489234469502, -30.04567638971922, 0.8579685035082688, 62.17925304867487, 91.1126033341601, 92.30254759967875, 66.05843457020126, 20.81111856478791, -23.086090566881985, -45.39503086499806, -37.066076195026255, -34.59964929184869, -10.499093556808022, 5.535557741554472, 1.7011822656540498, -0.4718595120004773, 0.503983455087074, 2.5111627672073347, 2.8332995603745283, 8.130064619096798, -0.8507555065203272, -14.504052725158031, -69.17926282326631, -131.89142408655673, -138.99901147223196, -121.64194252112472, -115.09696033037, -117.7257578761836, -132.8922805041561, -143.18865614349198, -58.60738577751973, 16.881798344472283, 63.74868132105085, 56.74426144085589, 27.335041184871113, -22.26980729784431, -57.74704070144588, -79.57395711615398, -71.97114239226747, -53.43368266780233, -14.018783234549252, 3.1469767611217967, -1.3268760699537123, -0.7455515359538027, -0.3956551165304044, 2.2635400901402174, 4.69032055043658, 6.270845123342551, -3.9489037943821774, -49.487493264292205, -121.01312056791312, -178.69231630824086, -177.6528464376784, -185.64389771741978, -209.28636632359635, -231.83995468611127, -260.2221644385687, -226.92947205847955, -135.16891129944585, -48.91162084010356, -29.231577913557043, -49.679056195427705, -63.55252347867654, -86.71562061248395, -109.40981865802169, -115.19995652839631, -107.93132623001577, -78.9927866100644, -30.529865812495483, -1.5060913260108748, 0.39549113955195575, 0.2921062823670768, 1.3496668251275734, 0.7277081949724562, 3.1469170900310752, 1.0029588623325811, -11.205524985698496, -74.38280726536043, -155.92458026033285, -186.67840003535505, -171.2619719684006, -201.1084428185547, -243.13700438710904, -297.1524200749902, -309.2663195174233, -260.4869213335891, -175.4091519795954, -142.81260500533347, -161.65094951697006, -153.42754811984693, -138.11510201499547, -126.49789102120508, -120.79558053694133, -119.8983547908826, -114.72670566704595, -99.00625928852776, -37.8818420483297, 1.2223085753744365, 3.4101577551060633, 0.38950793347914414, -1.5118838740615648, 0.7031017467701149, 2.9130615969062625, -1.5995207300877516, -19.464228129521203, -88.7306618222967, -151.42213643472476, -152.23790902261152, -134.94853803736098, -147.2804037499927, -198.34856142556998, -265.7312310141312, -271.97439410686974, -209.44024699707398, -168.54045192917079, -202.91319089702426, -215.50414618920632, -169.33639204846293, -149.7975143826056, -124.45811047010761, -96.62468121059621, -86.53412842523765, -94.07894073757477, -82.17439182729976, -35.60894937773939, 6.068386026346288, 8.557740109341813, 1.0846360396579158, -3.1503155507844105, -0.01741965946369864, 0.009547320528284966, -1.662414894395388, -17.738352230759606, -76.5549678158818, -102.58415711190695, -81.43087422898057, -56.921433458037384, -67.73172072515987, -132.34368754009358, -206.4246592388768, -189.50304922050208, -140.51505766332014, -142.80911283228255, -172.0234639476363, -170.89055196536458, -160.77527459604244, -133.3225756451678, -110.63754409184423, -67.31612171365357, -62.40320913057171, -62.447224759583264, -55.2397462922313, -24.3721937391658, 10.708312685545488, 11.635120213662459, 3.278228420166072, 1.0320175680990737, -0.5340912930021837, 1.2543930368102232, -0.9570581729015496, -0.750859465525579, -24.510713726771463, -28.708106688341687, -19.157625151130503, -4.360498386622739, -31.435266514101848, -101.33393164403788, -144.62333265336318, -139.80889802304827, -98.68866536896289, -110.84862049251893, -108.81215172783482, -113.76063332674407, -116.2300408750715, -114.11459896734125, -94.90124984851548, -68.22038316570182, -50.140984840411505, -44.73490647829864, -25.860790133206294, 7.273498019777049, 29.200131814060924, 17.254627526027466, 3.200533005444453, 1.0109364353262384, -1.1878568016993778, -3.237230363489514, 6.401442451972268, 24.436589288241045, 30.10963116402451, 42.910416572775866, 14.810735056789152, -3.9939896474225987, -28.41443735160182, -70.62191432070419, -92.44651719128572, -69.26996639810254, -31.630894487637768, -26.508837199430417, -13.367496316995851, -33.48016031930293, -70.67516203319116, -95.11016022747289, -69.70697352211407, -55.209245473802135, -24.85134430969217, -12.056203583639286, 3.2446166386772886, 37.43800493919538, 50.85650824110379, 21.279067807996956, 0.1712344720950929, -0.4752401895401378, 0.416513729303593, -2.7263932279793184, 11.78849925768523, 46.74733885772638, 83.66059558298838, 97.46533959369377, 46.717990538928554, -0.2806786579339594, -22.41240709687607, -53.61054341785334, -56.77038259451766, -21.958380694541056, 23.748569560654328, 54.37255083912812, 62.3554868494234, -5.380870311407637, -74.41385366069233, -87.98305494334441, -76.60070501137594, -41.31757114562287, -14.9131682504143, 8.74463117636253, 41.25272017424782, 75.97441007899253, 59.408924301700395, 15.120565093728942, 2.316085148790252, -0.40090322151570756, -0.23753682472540122, -1.497832381551604, 12.354343924060817, 61.1525783050288, 106.9048777051777, 118.85643567069894, 77.37061800087186, 12.460586780264915, -12.16074423658474, -36.89020590241032, -38.46913513158457, 6.334660992836003, 63.490181965308494, 79.88816065472295, 37.10031002581318, -39.62672274204506, -89.63154777772206, -107.5092456538121, -71.94254144942563, -34.94138065742931, -1.7236579481308854, 41.73792977389341, 91.07069096802384, 103.20018758376908, 55.05560976012893, 8.412407500450293, -1.7830252580445654, -1.3740002709787953, -0.7223232472623651, -4.001133943683195, 9.9461014495469, 55.79116962805475, 96.14182521117834, 116.40006076357551, 95.27384781951743, 48.72347256369263, 15.684793555295043, -12.551065466263518, -17.912231551674644, -2.498017497185175, 28.89355395989379, 13.097046492825493, -29.776772152659785, -82.13479750978571, -111.41511856983517, -92.15802707839222, -56.42436542325585, -12.90406012276011, 28.391120776565472, 73.95716084302708, 110.87591659974011, 92.86147943398997, 43.04525439209535, 8.613337587193051, 0.23071147671773315, -0.9755144541494907, -2.160521805741541, -1.508255446980082, 4.970775188064695, 46.95551077332349, 74.84755791298512, 104.28555783792625, 96.78225135234777, 78.51055234164174, 53.3202047464386, 13.172439198897226, -15.54502161463637, -58.0942188592794, -72.44405472340016, -89.56383189655529, -107.9933225560114, -111.79226049637374, -113.67154867304802, -67.16008546131528, -18.246768418984658, 21.240329376504114, 66.46130635054632, 102.15006860158626, 107.09253335758034, 75.15147788363223, 27.37510164899417, 2.357705875685097, 0.3304878747489133, -1.4086582353096826, -0.17209790315440768, -1.769428435405626, 4.124826580679753, 29.8503775189833, 52.4167535108079, 71.60381319954476, 79.03778292419739, 76.4459465571777, 64.05545012954362, 12.6368787242231, -36.605207075484635, -104.71416725504973, -143.62556547800196, -151.35059205197985, -144.81817426991375, -116.18038108374353, -91.79923124207605, -34.339492707048784, 14.313205938894315, 51.55454681508432, 87.99760955414658, 94.14510499491392, 82.2888805849077, 46.62277734659503, 15.45679505197006, 1.9311574099259157, 0.5428349358449109, -1.1137251523671048, -0.3778511332278871, 0.4141898409994232, 1.9949462886872367, 17.806488558762922, 35.857031411003234, 41.877038304696704, 50.07048705218353, 63.76540580539874, 51.64664248641272, -0.5785201223245897, -56.35581357801963, -124.41517523348519, -154.50772224392594, -157.27206338046787, -128.07409809880178, -77.50274999734127, -48.604740314402825, -5.513303280025085, 23.737336963613966, 48.651738783572426, 61.532288329382816, 57.358883567427114, 42.501963369019194, 21.78095002903529, 5.148680949889092, -0.20250298305026554, 0.12986363310612475, 0.8520020143522076, 0.7980547198276272, -0.5300410402938811, -2.749983322720045, 5.081435328454705, 12.489318022182756, 5.505338945960514, -0.17839089220595977, -6.340101378901979, -12.597631948355398, -37.34201769341414, -78.23035903445604, -130.39095161346648, -166.57076324647895, -146.2465757337877, -113.25945331701563, -72.2756949058146, -47.93696852815652, -30.00632508610394, -10.369706923399967, 8.13671486333508, 19.865605040808173, 21.113689502480586, 13.317270598355025, 7.080814834402256, 0.9562442233677418, 0.4355280139847134, -0.9939499849949572, -0.24051239573667454, -2.312945916080042, -0.18764096508275724, -2.803528157563712, -5.800829034190434, -5.837247297888074, -15.153553248542458, -32.6787601646443, -51.99169510916777, -70.29585305210699, -95.43674013120634, -110.7527099272541, -117.52439858807583, -115.18892295551203, -99.19981332633827, -87.76019856837732, -75.02893664503505, -50.537829655716855, -49.45342135183645, -45.07625875598557, -25.496190300274467, -9.438753126573005, -1.8858729892044976, -0.599733940785335, 3.010276328947011, 2.3579745925690943, -1.0441920594647298, -0.9245151387902174, -0.7725081442910364, -0.006283837791616404, -1.6121308134515075, 0.7351575706754154, -2.9847669517952573, -5.872900806302332, -8.98887694505079, -11.75666657666097, -15.684626336082166, -21.23228411060364, -27.75984141440413, -22.933197519706592, -23.224128030359722, -26.202614822881188, -24.01564130120031, -18.088759137439904, -16.64412396055377, -14.45182715071907, -18.15132681476223, -21.71186189285568, -16.99642404248847, -10.161990144810158, -5.670256765704238, -0.5517124186753953, 0.7115826500417153, -0.9959887723392788, 1.6499894827992772, -0.07382464974778243, 1.3066755169544315, -1.1414440935048196, 0.6496468000211313, 0.4024164196937607, -1.403115036476604, -0.8050531279333878, -2.774437616893453, -4.14663188672416, 0.4721499105178449, 6.756542570617974, 10.81046001575749, 16.20195126470837, 17.10161741989393, 21.88550188770592, 21.763539297172333, 17.85611794521344, 16.766530145474157, 13.415096344922276, 6.3685588056966145, 2.3554256084652994, -3.9383487387963774, -1.957722910270559, 0.4038079911933864, -0.2201557423869369, -0.7060368495947029, -0.7327459284965436, -1.0265544119602972, -0.31316926118473126, 0.36267280228494575, -0.1769118951053145, 0.15597803509642202, -0.5806860102503082, -0.17092841604823136, -0.09921721240421442, 0.2720887190428778, 1.0200497759988099, 1.1691487640171467, -0.31336065509500965, 1.6273790318138184, 0.23496500610894616, -0.06997643854337611, 2.344197065237332, 2.6730984925712526, 0.9275494656888025, 2.966090026538133, 3.746156880368978, 0.8239701163481623, 1.7893298719267323, 0.9841215343137457, -0.150628363622762, 1.1652986862813037, 0.8714119574632074, -1.827234156473975, 0.5999841647391748, -0.1607796918816796, 0.9183829980929054],
