0.78795
[[0.09003204611570685, -0.5305586027126644, -1.6063538616304431, -0.11099730464818039, 1.1376448295244919, -2.423887548389146, 0.9654581570119731, -1.122601717323491, -1.1360399910285568, -1.022965055115502, -1.4991914596896059, 0.12251914047543008, -0.6865116334216758, -1.6640264181876203, -2.1361101472264674, -1.7754975014069778, 0.7575872289047604, 1.6849394900915404, 0.2650007738550665, -2.4301767980148314, -0.7189152381372463, -2.178026544499844, 0.5635348928574276, -1.0996039318414026, -1.328735605976693, -1.0053367056229774, 0.07299143206617972, -1.59111015180245, 0.08159513405086297, -0.7240339859454814, 0.44525363322990624, -1.5789881604213818, 0.3079378343708046, 0.42146919357548507, -0.9224542186104445, 0.06282581223401405, -0.7671611797798231, 0.5901781639401636, 0.3612466506725978, 0.4629898112297753, -0.935922714800093, -0.5565688937262708, -1.5117324288205345, -0.014175640390462254, 0.1242438807170361, 0.18612876643435794, 1.7406727435576375, 0.7419280159007059, 0.6529188959570068, 1.6597286209021016, -0.043176024619216755, -0.04904204307224965, -0.2160896791437855, 1.212852765339376, -0.3294241105259353, -0.32257012295774745, 0.03977094114567222, -0.056843472237036785, 1.2972847808578973, -1.362110702729251, -0.796932805825863, 1.40237327720668, 0.7083507614940131, 0.8087968630895367, -0.763942691333093, 0.6222106728683061, -0.45625374715531175, -0.9410043543177014, 0.9502331695047106, 0.4671762831731363, 0.050518801694355325, -0.15122327544724362, -1.1826048844738621, 0.9902870642104388, -0.957646782202342, 0.07347594305469488, 2.1258618087895473, -0.04120235191927187, -0.29155481293230345, -0.02868539386709635, 1.448888364491746, -1.151473347593706, 2.1198676419605955, -0.6925236875439811, -1.7950080470132397, -1.3462119631171647, -0.36851768401380114, -0.44730993304204403, -1.6839213454001665, -1.8598913152555148, 1.4310260151898127, -0.5089977338530726, 1.17815632962456, -0.8342803650936258, 1.1267114295439384, 0.7724001385504057, 1.9491354085355346, -0.4738780289809948, 1.8314674552678685, 0.168716928688098, -0.1860369545861487, 1.4028781122728051, -0.501445702633435, 0.420075210253583, 0.24948250053226498, 1.1368134504808145, -0.0911868333537159, 1.2084229638908064, 1.5925665198980483, -0.7331295481739166, -1.021960980650355, 0.475361731780598, -1.1956743835508048, 0.5897073510698607, 0.9099551898097032, 0.29150177848771636, -0.6570140028147982, -1.6731110506717244, 0.9655510317823277, -0.004690310579338468, -0.31476478326533835, 4.016302775064937, 2.3731600403864315, 2.60552740044088, 1.7864982788772203, 1.0930384829225577, 1.080086725487062, -0.24104818189536653, -1.2357423059448653, 0.1116581736126666, -0.6800135754319329, 1.0816358117188491, -1.091468198324905, 8.232009075883921E-4, -1.775778919067863, -1.0190862928510271, 1.6101920051923506, -0.03448976421827224, 0.3771869480401842, 0.40925979309866817, -2.0729007218564948, 0.44649308678275973, -1.3541561465294851, -2.854447414128033, 0.7168671302853687, 0.016116213049355843, 2.066114685781377, 1.4311300754139653, 3.9003375884967326, 4.377782191112443, 3.2462606130488805, 4.391190243125856, 1.8889489586525061, 0.20755219639773698, 0.2857542741591295, -1.685774980957059, -1.5054438946576707, -2.6018879626130618, -2.0858330685536597, -1.3575036394483484, -1.108629080655095, -0.4551109921593814, -0.8426673057621068, -0.5267373135414737, 1.0159761523467428, 0.4987526305661933, 1.0241176199998314, 0.04218273849327445, -1.696890395261494, -0.4260329034486144, -0.42749644787378055, -0.8585985135936163, 0.18990021142045682, 1.699311865297928, 1.8773407621210059, 4.352911651535348, 4.352445469096524, 3.8149349190379254, 2.1752375107492, 3.8544950218568155, 1.2607968751999932, 2.4791808780845166, -0.3905921734851226, -2.0946362599603825, -1.0522851784780625, -2.192578128509544, -2.3463282391736877, 0.44649142668396397, 1.6144629035971527, 1.436665146168318, 1.1029769820364148, 0.39309780588814836, 2.3514397933018416, 1.530983225245095, -0.5323722356757759, -1.2515577560295863, 0.36785069479981186, 1.141387715410122, -0.3371464695951777, 1.1044936895347899, -0.2565963190124634, 2.1910149689779113, 2.4631308602706175, 4.097167262684994, 1.9593280140234075, 4.8425634410368135, 3.541303126963795, 1.4085682082867075, 0.65935287541916, -0.1259597425741339, -1.6669556768105274, -0.2096210577218526, -1.4222479278123954, -0.326767088137862, 0.35760528027315525, 0.12222059881973324, 1.6225221313381044, 0.2455975304278346, 0.7306471561538168, -0.2865997392487834, 0.10195796207834154, 1.0853977028239556, 2.3969140466255237, -0.06036730883009871, -0.7993817357198012, -0.40958467024888223, -0.6342182729213679, -0.40577718511257294, 1.6234618163299004, 1.5608761230970825, 1.482898164759298, 0.09217730088345913, 0.6680524222983579, 0.245928063977657, -1.1299491229519678, -0.13519874787749137, -0.8397131750250914, -1.733990615529126, -1.6661776663073014, 1.4760507862622023, 0.9794817466837621, 2.1028570967378175, 1.7189720972590283, 0.06346156863578274, 0.1384873692685705, 2.59404172128662, 0.3786063543940409, 0.31944286844780406, 0.9394483992467753, 0.2659718930489361, 0.8473624866760326, -1.500622189432493, -0.879409578408608, -0.08504070063217621, 0.25627740012192507, -1.3101233816023952, -0.010239944601179602, 1.3335001305162413, 1.981227583321575, 0.7156590969992696, -0.5450290177937046, -2.8140263961845102, -4.864482208345375, -4.257990962447426, -4.1010198217899445, -1.8780444994302965, 0.45901314922947845, 1.0617762044632402, 2.363167039965116, 3.215862545279305, 1.7860967258490654, 2.34691937580649, -1.2629310106239326, -1.8812951328832719, -4.619919254032226, -2.3594163855571555, -2.208302304132211, -0.31251974672936844, -0.3518221297933164, -0.16640306622231804, 0.6156393718723591, 0.1493591173648373, 0.8635321021415178, 0.29609546062045367, 0.09473271629848917, 0.7401930243564872, -0.7678731332681552, -2.253309603593493, -4.86867559378322, -5.174806172078542, -6.93961091367485, -5.332251055564263, -6.745567575734375, -1.6590240594843406, -0.05958836815209592, 4.408563830643521, 5.335641287851756, 4.576750803170504, 1.7207283026795583, 0.6902984115861064, -1.721357960072066, -3.7366159579613165, -4.049451447634183, -3.580227990545127, -2.221066422053667, -0.917809460284988, -0.5836783242165158, 0.07888966881280009, 0.41204932110539233, 0.3150633033227944, -0.35197292767323535, 0.7727657809200946, 0.8355431034934673, -0.6037346687504898, -1.0260518561546699, -5.312011383073026, -8.479410760618896, -8.173448178963776, -7.438244749675153, -5.567117924177737, -3.392059437858687, -1.31082161719471, 1.5299539596282357, 4.183817051494608, 3.8014376377880614, 3.249051628739172, 2.9951817974508623, -2.5326855813394182, -4.245048767720475, -6.7953699563858665, -4.808360045080171, -4.110832268326495, -0.6929033716227493, -0.17300057132817678, 0.038230419146963346, -0.31405752826838446, -0.05634376851841892, 0.21592578514494162, 1.1182364990449791, 1.2736720006603144, 0.8911497421434876, -0.8610747032798188, -2.8765121304759345, -6.150854856817731, -6.640744937128478, -6.696595953667652, -1.4983833968993714, -1.43432285313284, -1.5622500938920625, -1.8585521045218896, 2.9359607772255187, 2.159303051257883, 3.9009008920250445, 2.4077195121337853, 2.1800978572170124, -3.0227970190122013, -4.497760819401122, -6.150033216266793, -5.463509555892101, -3.5025103532569126, -0.16761242249248998, -1.2312924817752422, 1.1839174424894305, -1.113317678844462, -1.0595320363285405, -0.512628543757673, -1.1753804328539863, 0.18059647192897757, 0.06913402765837903, -2.6219908307225643, -2.2506843443249163, -4.329911071366961, -4.712429875836786, -3.2206397265921307, -1.3610649201198914, -0.31350892944118386, -0.8767401703303168, 1.3218940134590187, 0.08613348530694276, 1.0287352375349172, 2.3992174092834277, 0.6877207316333952, 2.008332362234661, 0.1184335385250001, -4.293344426395305, -4.235691943477272, -5.182303824780415, -5.376126939470945, -0.4943359737523401, -1.4645879868825036, 1.5325411832040396, 0.04048959970419186, -0.45053736337984474, 1.135413389517637, 0.3271117311558804, -1.071987233057017, 0.7207078782537015, -1.5411174426950571, -4.402275697697772, -4.2159476003731395, -2.863889814712965, -0.8869082804960682, 0.11726581977088243, 1.70703951412261, 1.5028790919272834, -0.7893202224492737, 0.02873964750127871, -0.21901869203925986, 2.0506717816882816, 3.803356689854945, 4.211122222983709, 3.3902229461940374, 0.8192503230787869, -2.5244313386263038, -3.6974585914459883, -3.8517398423318823, -1.1394584478481935, 0.031933983283238855, 0.4045715423881412, 0.012245646764533819, -0.7624709160171124, -0.21789273826117833, -0.14901261163093538, -2.8666370245550707, -0.44639462081986925, -2.0364079874361405, -3.3180923251177226, -3.496305806383258, -3.7661180415914917, -2.4789613009434395, -0.28196840888390406, -0.21916914181629193, -0.682176071969003, -0.45535464126860337, -0.013420682480578917, 0.7084365796941026, 2.6403288261169355, 4.104448523397376, 3.8765500891819493, 4.116725355773239, 1.1504739012666965, -2.125323571825615, -1.2076214654044326, -1.0971657468665275, -1.0658471716684073, -0.3761051035643996, 0.9774802898332124, -0.4970559109440136, 0.0034889491871764743, -0.24057739378214404, 1.2121324719638322, 2.0208295164162084, -0.6652170207655937, 1.2983786272034947, -1.3342587727524853, -1.118971369400458, -3.7075496449011425, -5.2387330139854384, -5.577209644913028, -5.399515485094626, -3.8184296327392837, -2.8425449632292166, -2.3435543491419706, 0.6553000258174294, 1.9846751774498843, 5.09181895183129, 4.089941015267362, 6.286294032233625, 4.087967805208981, 0.8009020523467195, -1.5241414776005373, -1.1659066510207563, 2.600339534900961, 0.3704040591335044, -0.1268713935259043, -0.4333832256276262, 0.13522152305315094, 1.3635285151826126, 1.404947647682511, 0.8888524624761425, 0.4355927044899073, 2.070545926995061, 0.016728176030344124, -2.7063503186254203, -4.8805810909615746, -9.541753049227328, -9.9448448126856, -7.519871733865861, -6.477965440688969, -4.253733840321854, -3.4323310103197104, 0.6109188392624447, 1.843174938907396, 3.9965482795616074, 2.833793587033356, 4.458659865961832, 0.921333532526595, 2.4113365669123743, 1.2254927441259922, 0.6418295229800179, -0.06604891026123584, 1.4641322080446528, 0.42895384400916914, -2.1126248656755924, -0.7051545182672191, 1.067665749397813, -1.9376943640163633, 2.340577774815207, 3.154572022428982, 2.3420852486906476, 1.685030213181788, -0.5092309488852642, -4.6787828153136575, -7.594883500404955, -10.259934992784117, -10.836271019523078, -5.793731419762297, -2.1631003699778404, -0.7539976226854695, -0.6526637232574879, 1.695804208907409, 4.429974557870681, 3.7219010874763505, 2.7704442987233544, 2.9860092527037643, 2.1320812369692463, 2.535632001982089, 1.7626305166336222, 1.3490427810276346, 0.8237848289026115, 2.4671599124355006, -1.9362619878131009, -0.7778754446380768, -0.6068002616974473, 0.03390027020016526, 2.7769756237890957, 2.958950506591994, 5.034525510909976, 3.7478591649957282, 0.2992387931199406, -3.912845764097577, -6.29561007498357, -9.088567732861442, -9.035726772911696, -2.1620999879665233, -1.8289871471101893, -2.0094995747659636, 0.16415528317386138, 2.5601651660238827, 3.2773735075544135, 1.4909663742629038, 1.9771010543149328, 3.0736241540303477, 0.45342720829351907, 2.6174490766570595, -0.6063579691085409, -1.342382938305658, 1.1577512608538634, -0.06888026506800403, 1.0729064464594953, -0.9911787290096316, 1.474272347739297, -0.10894720299349349, 1.7929391673507475, 3.1352840782287954, 5.282897707718374, 3.419840693196101, 3.1651029031259945, -0.9243179750120909, -4.320086633236457, -3.9762555464837828, -3.3661940552893372, -3.5677334648897747, -0.36357308377799785, -3.036855160490323, -2.1426312163846926, 1.0695826471713301, 1.7380645099016026, 2.1020777178804093, 1.1815664668552077, 1.1743995588979759, 2.771461449727966, 1.4797836657989927, 0.4844976031774926, 1.8696212513714088, 0.4283816432179265, -0.4379223795744596, 1.6410701568708597, -1.7465223438967692, 0.5557725564130811, -0.7276742207380983, 1.9532860865613222, 1.939846580511145, 1.4592840061124928, 4.0063199395539115, 1.439789612616474, 0.8562535267227979, -1.8140900009059264, -3.225160338466903, -3.3633248344237248, -2.5419862327253435, -3.512689998342175, 1.0020958079085207, -1.4106154025368651, 0.4122414661390971, 1.2021481822068436, 1.8132347759037335, 1.9018084116075815, 1.280175773966356, -0.7808608018410924, 0.8254028496019183, 0.4284558087602206, -1.6050357660533705, 1.9617900564994195, 0.4501973067926594, 0.20723944928710297, -0.9493171282405942, -0.9854134859675271, 0.5875092339770501, 0.09599613408449024, 1.227402153150215, 4.758872629272938, 2.8515466709765316, 2.669136741797416, 1.492540911597384, 1.9603981084977107, -0.28470872173602835, -2.076151538558518, -3.416548443245801, -1.1720022149359546, -1.9029211337223515, -2.148871175048295, -0.5243155922130224, 1.5853067299161894, 1.325952765711598, 0.6547842237659223, 0.06448453842547776, 1.4261344256223554, 0.8066996790327733, -1.7185887991181814, -0.39071409470012164, 0.28822419632421503, -0.24232673020525586, -0.7219521509109099, 0.790265865200408, 0.6317353405245837, -0.44385542150514457, -0.25030223928417256, 1.4110894354611596, 1.531563327441197, 3.7086515648570444, 4.013968617087451, 3.675523156999133, 1.5800843247519814, 0.690788041142745, -0.8221282948275763, -2.640769048969517, -0.8877754083304051, -0.29395748243469433, -1.6274943213703774, 0.946364275004349, -1.212002926396181, -1.9377948246957806, 0.7574096374188791, -0.44455474344131746, -1.5958612681695052, -0.11592691831927397, -0.7018086571936455, 1.3559070968023548, 0.9186837972102818, -0.38360565397271057, 0.34439775890347857, 0.0632535989260899, 1.8133253011782036, -0.3327352009471818, 1.4023855944870467, 1.034296845728637, 2.3771367165843356, -0.5709446565959798, 2.4382526532520576, 2.6111643099813016, 2.2646226447656286, 2.817018995246051, 2.195107621383476, 0.954402599622167, 2.581646715061603, 0.30576185726647714, 1.0348618621845134, -0.7177976393258171, 0.8260117505876028, -2.5703746773912237, -0.4984634089338938, -0.66315417912767, -0.39953749475982414, -0.6636661993681838, -0.1542884400324769, -1.3226140294791802, -0.8592283836765469, -0.8334722354005673, 0.18042097062930967, -0.4981140195579685, 0.011989134187667477, 1.208901285481958, -0.10814251432647709, -1.550187900465775, -0.35721303054301096, 0.6839574472546539, 0.9125964463698913, 1.2377882310689503, 0.8847442309170094, 2.036887355528713, 1.4392241521192122, 1.0756462761299035, -0.5828923569983813, 1.1486820686305557, 0.43858843011780285, -1.4191472294771525, -2.13369971235099, 0.2946608713470527, -2.162748546402367, -0.4658626230987005, -0.11577279875225348, -1.2617865420485752, -0.602756720316777, -1.7963416246145305, -0.1742443258204896, 0.24672781995511187, -0.08521080111592533, 0.8167858099768379, -1.4982749894642446, -0.24664190797798485, -1.4063896813419476, 0.39922150981512255, 1.5608789895931054, -1.3905076580762812, 0.5016499555259533, 0.20018349565861757, 0.36229392511134495, 1.6255264670505198, -0.120950367074479, 1.7682902865450572, -0.6629102186515925, 1.2121027642554225, -0.6562635293090232, -1.3765200796017, 0.5278358842742873, -0.6581024160142821, -0.6982665300279833, 0.15487602145440238, 0.3888257773763023, 0.8917190785688455, 0.9783807767145968, -1.0335951767486777, -0.4161608058624555, -0.7938603407018464, -1.5542721860084352, 1.173523890834997, -1.40328805379964, 0.31720243090670713, -0.4733256458440852, 0.4847049957351023, -0.8708831662537301, -1.2096530259738159, -0.43684556361299903, 0.38026520611472786, 0.18934069683461044, -2.415379457553562, -0.3093700052205744, 2.206555748511127, 1.4427232069236662, 0.42084241735112443, 1.7624547379872297, 1.0928102562093116, 1.041127448257605, -1.0940294630893717, -1.254540536401566, 0.9179389419017673, 0.3427536527831553, -0.06724395348045513, -0.0704400141434531, -0.41975600221997755, 0.6485602491913286, 1.1953071268985072, -1.6746155714940514],
[0.9060760353341409, -0.6413410856975358, 0.4142187879695452, 0.00625414078699586, 0.691823814661157, -0.914428807321517, 2.2625826884202054, 0.6481577356652922, -0.24183999127867464, -0.8596364510023335, 1.1638983376600263, -0.5007007464362543, -0.14927418385364535, -0.6197364156648547, 1.0541818698382917, 0.6496775406827899, -0.824801254658042, 1.1269948162119996, -0.7932619132888027, -2.142864363194474, 0.42688514397193555, -2.0283995830052874, -0.4098155447353089, -0.035817532968591616, -1.7854494002338195, -1.4697266548705101, 1.60645631484369, -0.5624011643293836, -0.979539224896441, -1.9200978173592427, 1.528718584484405, -0.4203649802467811, 0.2204015224388375, -1.8592625742836573, -0.15428664507483486, -0.2925960741740154, -1.1345513047171023, 0.6365903341818474, -0.3940854575516333, -1.0413846336023953, 0.6175068069014998, -1.3530221843438133, -1.2846782593588981, -0.7926391007125673, 0.8799286619707635, 0.2636093910905464, -0.7452737336412667, 1.2668217868830343, -0.15894214303729595, 0.506669154145526, -0.7982127311784052, 0.8419546806735404, -0.4436573281009089, 0.23294112970775213, -1.2669135467469503, 0.589071438161035, 0.2765597868699192, -0.21304375142687398, -1.0230798876268363, -1.6665384080762333, 0.26274413148150155, 0.3490853029083824, -2.2042866038664695, -0.28425690268611675, 0.4594605525220622, 0.13679012868387713, -2.9207643532963736, -3.8079202584810794, 0.12890248202256946, 1.241632651802345, 1.6471841477066904, -0.9019587500759484, -0.3074172446370124, -0.6024554406032899, 0.9877370518231261, 0.3573136909946877, -1.472952192538179, 1.8240587027352977, 0.15559808062542638, 1.058736980380256, -0.5619818636730046, -0.059545721237552446, -0.3935272380073332, -1.2824445569166898, 0.3069538746553065, -2.315426598849834, 0.25048994537751046, 0.145463944837206, -0.683323251078971, -0.798454787090002, -0.5036370653193872, 3.1293782676018616, 1.0005055270566128, 1.0607369390407249, 1.6655187228105905, 0.47799979147694677, 0.2586935870160859, -0.3206060088164115, 0.8343640557518955, 0.8441604757042958, 0.09296436479499483, 2.5270165807182616, -0.3690747571861012, 0.7606168401705938, -0.45853160303328305, -0.31807890917854675, -0.8383742549237956, -1.5475343347291002, -0.8865592885090527, -0.8538092349895127, -0.23842775067619323, 1.8986039817918015, 0.04270020852503777, -0.1314036821250476, 0.3849098158321152, -0.2964498024328359, 0.8968708354533905, -0.8716518903744437, 0.17589947122631014, 1.6875970318200901, 1.157385410164916, 3.849812133653087, 0.6462534686684156, 0.7429538582905825, 0.247198869932607, 2.97473010202855, 2.484225264572943, 3.3025179016523314, 3.7327604169960553, 1.063051865104876, 1.0146090739943827, 1.385046364580113, -0.5426123305731387, -0.6479712762185755, -1.5876517110003678, 1.2955251532631047, 0.4965308976122141, 0.8479557087142944, -0.38747706575915203, 1.1045999537873608, 1.0774329068449113, -1.6716947670642972, 0.4029784550376074, -1.2410980927546036, 0.32143905702823555, 0.29850588727923516, 0.19305232689548021, 1.5259653101693897, -1.0543595592237143, 0.4801560032235805, 2.1255924107234385, 0.9245033093312987, 3.4117428308614772, 4.85807747091574, 4.565671588116019, 6.583518929750851, 5.36236154039468, 3.4813009593271924, 3.343713338517565, 1.7837663602104212, 1.505832758617128, -0.3830092241778067, -2.738035429058185, 0.055059635039704354, 0.0015691992967130218, 0.05307638624155659, -2.3768422045329327, -0.22340882757122, 0.531072845820195, -3.1110764964693987, 1.444964052326524, -0.8054329294541943, -0.28173860158251446, 2.301346855951027, 1.2110471237915523, 3.0592996886805506, 0.6888396950952832, 1.0439832698428355, 0.08586301955503194, 2.1911568831033423, 3.133165265845572, 4.438299160740206, 3.296896456459844, 6.394671085774921, 6.403856287499433, 3.1816783907127384, 3.130524370573823, 0.2919071314685327, -0.0992775924286192, 0.5663322999741963, -0.5701619654577255, -3.361089986050573, -0.380289284470239, -2.5149326316002427, -1.1295892243546424, 0.8840650114113509, 1.7712864074137085, 1.3306611592089013, -0.5165497376751031, -0.2442764691072521, 0.05888653223627854, 1.4865715017737127, -0.5726054491191626, 0.7657509740290928, 0.9806604365040245, 0.1687131810232123, -0.016295464896421356, 0.44667523902842327, 2.9257578186023583, 1.2419147643141233, 4.262114790056955, 3.7367737504350047, 3.4135620421655393, 0.9500836893787491, 2.562145901773322, 1.8014366219021976, 1.2865135661461964, -0.7134502250772452, -1.3893085846268505, -1.5108160252274319, -0.8032038932054044, 1.5998586902045064, -0.7187352969484276, -0.6560823723112537, 0.7783453433027806, -1.395612472670331, 1.3652873169225392, 0.25720563701683963, 0.3730320614114179, 0.43929403051498483, -1.293597746958419, -0.13245753841365102, -1.076518165754779, -2.0759795622587367, -0.30795037480816634, 1.1625337994348584, 2.598469557127618, 1.074941804262806, 1.8054846698939901, 0.48670399261506553, 0.5351897480076405, 0.8350861124416477, 0.538291311438098, 1.2888641504792686, 2.210070706418953, -0.11225783587364918, -0.6141065221717643, -1.288464070173514, -0.4351284749544946, -1.254939690839602, -0.20953814848654695, -0.16547162217396222, 0.9568502836374522, 0.5972515834905399, -0.4714283296629655, 1.2409449033952018, 0.5741525308060028, 1.8268963035724723, 0.7699385237234019, 0.9305472635297599, 1.502444570624252, -0.9180246459889437, -1.8890051794403704, -0.8112701453490008, -1.4729310874816899, 1.5884353089800647, -0.7294934385431936, 1.532576562881036, -0.07589750926131243, -0.16223935818250346, 2.144706639588509, 1.1305872260969174, 3.254027729093332, 0.5215907949909642, 1.2156759499813177, -0.5788848324845721, -0.7706025508813787, 1.0294707083990775, -0.27457266879311776, -0.6700025666033744, 1.043323218087075, 1.052946032138257, -0.005677379316644694, -0.4502344056775188, -0.5195326148466881, -1.2477651236866287, -1.0633938769408644, 0.16270914792861474, 0.5790132176043045, -0.3152373775588054, -0.12259329823447854, -2.015772234724384, -1.5561267242270556, 0.37981041861708636, 0.23658864779581124, -0.8666086954150775, -1.00294810902134, 1.1780521880601342, 0.679564784874296, 3.64621011581995, 2.5732955026718294, 1.8420650116850548, 2.643438586496885, 1.8509908708926421, -1.13585900784925, -0.4601092775029395, 2.269783019124578, -1.0700875178122478, -0.7089373343878873, 0.30364785986637727, -1.2036299692601868, -0.23584823402176128, 0.45765059940403124, -0.5283869591144242, -0.6417407566022345, -0.14030701329635717, 0.04297555356164588, -0.8006055533326373, -1.2792832363471898, -2.8764302571985265, -1.4760045695912847, -0.6677540690242054, 1.6177335392718502, -0.8567242073844573, -0.4713924450438302, 0.984976807977151, 1.3469583051545648, 3.71402469093156, 1.7717500615701773, 2.579616023204621, 3.3409171429390976, 1.3019804369407024, -0.07318994739682233, -0.6990657698574834, -0.7887097405615304, 0.15195390945782222, 1.4771843176092003, 1.2933161872335601, 0.6370048865830156, 0.8287763188332103, -0.6375173150978644, -0.9150352431649053, 1.1833773943977544, -1.0124439027264818, 0.43013843805450247, -1.003861558222319, -1.0601802852238005, -1.390311280390264, -0.7687248592448711, 0.6096671788781413, 2.709465529923187, 1.0340030494346497, -0.8948921924248538, 0.5186568144797263, 2.0979635896662616, 1.9073444461977191, 2.1000992203692106, 2.6362092637717462, 3.1069976350441983, 1.6200758182585802, 4.015273929061726, -1.7586260102278386, -0.49370215316725974, -0.8002375488229142, 1.2425388411131266, 0.2732981138650596, 0.7735199877123332, -0.06443846209191648, -1.0023181912597865, -0.5900895486109446, -1.6295544366236077, 1.26921214213573, -0.748366671024513, -1.065568435434213, -2.2537989587740594, -1.5344977401735926, 1.9026532835624907, 1.117320696727005, 1.4389000423446465, -0.4233430416405821, -2.257854401175869, -0.8022217166885671, -0.3592068283372433, -1.1047259681783177, 1.0396237750505841, 1.1369152118980936, 4.220953840121316, 1.3997517348749473, 2.1367990997343718, 0.41724259582111933, 0.29245683323032046, 0.5073101183245198, -1.3377907538247737, 1.1846093067914216, -1.103001250220226, 0.0012924577935562388, -1.4811684747502751, 0.26421120294974315, 0.020665960682755058, -0.9947342198755521, 0.48473898294822537, -2.1396007605620246, -1.2508668243380694, 0.9954876805124675, -0.5095307465467286, 2.4288248720203076, 0.4577472305574431, 0.5575309109783679, -1.6429281300537484, -2.1777984216904205, -1.853633273594307, 0.07438120774552369, 0.6401297778601516, 1.4396817034102019, 2.799617198451138, 1.3878827223735226, 1.3625780336031712, 1.3975752705019937, 0.6895882738344247, 0.6234823918654062, 0.698967666613294, -0.48527280266794326, 0.5978002151343097, -0.3022597422893765, -0.5792548536328221, 0.25574082806815135, 0.7456747665947164, 0.7649587447705901, 1.883208164637047, 2.2619328023982117, 1.2069650713287747, 2.413677830954991, 1.9596122703372356, 3.202631512477783, -0.8845930267194645, -2.0324220723226785, -2.9646791987198626, -3.1810363817196765, -2.485857223528143, -1.3561726489060233, 1.6125944712090656, 1.8210469008137733, 1.921559177784764, 2.855027216801289, -1.5006380500913894, 0.8232149272564562, 0.25741487259046747, 0.46627267854561, -0.14050632556490408, 1.7840881416168564, 0.5756788759565793, -0.07490074498217487, -0.0149933739582723, 1.079847370758055, 1.5512521933578771, 1.29374245957843, 2.0722950487960152, 1.2935281730349213, 1.5198318900809427, 1.1539449212207995, -0.7697964750985233, -0.4863904891037346, -2.319307517902177, -3.769229449908171, -1.4728290725192557, -2.9938716768172857, -0.9963932801091234, -0.32466006579687584, 0.5239331569761614, 2.0184867977628627, 3.9194054482490195, 3.173745168352242, -0.9847765764567027, -0.897593552144946, -0.7953016326387901, 0.40542294334822665, -1.4133630624840245, -0.2761825986083476, -0.5546108783727505, 2.1145444557781903, -1.3045660195027209, 1.0530934871469577, 0.6979977737912674, 1.5798249082850322, 2.6378023138834945, 3.532342065422094, 1.3818589674970874, 0.2741108013532566, -0.5047268765706795, -2.7629100233724606, -4.086282428233061, -3.8917518237906963, -4.21848332749695, -1.7163034029642936, -0.009915076852605027, -0.8454306137253599, 3.65597073780603, 0.7777852057398088, 2.413292834051178, 0.5964206854895874, 0.418892254005883, 0.4170485774324699, 1.7954596897479775, -0.263933216322729, -0.19082456755244587, -1.8300474108359603, 1.069532872923872, -0.6848605695743072, 1.3802519758512755, 0.350921016715858, 1.30509176061739, 2.5347612217000535, 3.758036469850563, 2.342201002770372, 3.0316350172363027, 1.930735287347523, 0.453152589659061, -2.750466645305036, -3.2694337906282946, -2.37392011173843, 0.004608928856614608, -0.2996201823510854, 2.163703074843925, 3.257436183025174, 2.356765226718722, 2.0857791077673142, 3.105855819199688, 1.6254572228894637, 1.4526117974577903, -0.2676590324010259, -0.9024942011434821, 0.30577725191698063, 0.8226619409062844, -0.6176209131426144, 0.8095830979626039, -0.17358321491481904, 2.032017993810212, 1.5584430856640168, 0.06799681838387975, 2.659952273381789, 1.6188760268037936, 4.4764963915060205, 2.6307147858081077, 1.1204948488640858, -1.368820648276888, -0.14282501059375688, -2.757013784603058, -0.5656724173563203, -1.365711509264435, 2.5489246508982677, 2.5394491562072643, 3.234774752324905, 1.7527033583925946, 0.52694418851439, -0.6836404295223101, -1.2617344628249516, 0.3569367848590739, 0.8737426413858799, 0.004033257274241286, 1.7545737645576098, -0.38618726153159605, -1.079208178955586, -0.08025022260463367, 1.0483890400522482, 1.658082105682712, 2.931541355396477, 1.9371473378627893, 3.002908856830159, 3.6109253284807843, 5.5616826439360265, 2.3436789269429275, 2.418441637531995, -0.3565960124645976, 0.22752066940636417, -0.07693311330479197, 2.0658305851972574, 2.720110645380882, 2.458192499409177, 2.056880514425103, 2.452451191664702, 2.1864324355481006, 1.7817812666456911, 2.39537671428694, -1.7528459932253193, 0.7349548700937839, -0.8535436952896186, 0.7460452927819158, 1.3002101985474763, -0.2617585191228447, -1.513305453425115, -0.34200693655418307, 1.5007670781176605, -0.025130576152422927, 0.1882538342416285, 1.0122792761930082, 3.253025233182659, 3.604054454184426, 0.47703990179886846, 3.5008408003424227, 2.075672352659854, 2.6052695578184806, 3.2324912790619575, 2.81602356612197, 2.851901598488604, 1.608960976014849, 3.0318669117499235, 3.0072715198372557, 0.8980920580401119, 0.9668154977226395, -0.5752000780651001, -0.9493336441812777, 0.3291603520377382, -2.778768450681645, -0.5103346251783711, 0.3446134329048615, -1.9373553984723535, -1.16312913352672, 0.4912432169935634, 0.8615780987074863, -0.18588204519311863, -0.400356044845838, 1.194324944636999, 1.1677038833991837, 2.3602868123093357, 2.664241711034273, 2.0507844591044218, 3.4313956155468, 5.601946991747261, 3.3076295911478644, 3.2529482721895633, 2.63966308282348, 3.9424789349445577, 1.7789449819403471, 1.8382987884247357, -0.5081415516509107, 0.17687833518500917, -1.700303490249889, -0.9025161503669308, 0.8774614200680172, 1.2913457161109327, -0.24288800107155636, 1.092707594255647, -0.1678269285907517, 0.8001352841333333, 1.7676195977792417, 0.9681452332970745, 0.3333744909906404, -1.9591670561260002, 0.21589598229866938, -0.4929659414584405, -1.0332049395773337, -0.5599139128452256, 0.4583156414535508, 2.769607389402946, 2.938246486509559, 0.7954923234543144, 4.67723405746598, 4.058408238570138, 3.342420434113364, 2.8337231729758123, -0.21229719693022908, 0.4035863465710041, -0.41436574992296815, -1.1734817968546642, -1.1837109466177804, -1.6128200838050972, -1.9499623804508996, -0.532175819192873, 1.9108455809805445, 1.376849005886174, 0.05594052845141589, 0.6065457997760244, 0.1903428582987666, -0.6747175202270889, 0.03378251057949967, 0.04224097769252884, -1.2704204922004931, -0.8273150192956187, 0.12903503960551183, 0.3582657532251009, -1.8295148948796234, -0.8645707948488666, 0.39270512580246936, -0.5811443028008129, -0.9570579002769256, -0.6309955959489233, -1.659809927059677, 0.8125648671987282, -0.36380571414301055, -0.8819364028211146, 0.42985586237264833, 1.2084119636502808, 0.5864832754163002, -1.7885035950878996, -0.9710310061279158, -1.2964103544196965, 1.7196893226147427, 0.48309349475532315, -0.7387958258742633, -0.18280008496380015, 0.5097766759250095, -0.8558483413670909, 1.8499833314795813, -1.0658329350806537, -0.7957536156611659, 0.22257972921855407, 0.07154201903580171, -0.6115251860267634, 1.4181256625877967, -0.5120095498593839, -0.6659822655882154, -0.45242162650111245, -0.8115824344744277, -0.2949139332805132, 1.7557109445197865, -0.5180342337887263, 0.592534671677607, 0.6199057370828815, 0.7416664422310898, -0.46024086372633305, -0.3232597004116427, -0.14694396584171582, 0.4452577838605263, -0.957064494457025, 0.18365877156097057, 1.4789014833060588, -0.6397487595427507, 0.7528846063218767, -1.3180514734016302, -2.2494513299457912, -0.15717663318794606, -0.36397506409723, 0.5282457201453097, -0.9482777680966012, 0.5764703119096513, -0.6296911911067002, 0.9761922920705128, -1.374468532759204, -1.0159745663000193, 0.6267125163378485, -0.08192280175994582, -0.6653714439353585, 1.8091809467778657, -0.2680226667904654, -0.16329896168635957, 1.2915766338356132, -0.2117078221873898, -0.8708725417234326, -0.43119854392668067, -2.2022730507099118, 0.7951108809186391, 0.7147145032740119, -0.3206725974536506, 1.7436344737795468, -0.15459569929755673, 0.8862390307471784, -0.97607637837328, 0.6137018083027498, -0.06624557691309264, -1.022437530660392, -1.9434363857451595, -0.49192902273632877, -1.2300554446491387, -1.7052085783324462, -0.4782279752879901, 0.976128337549972, 1.6470938329851037, 2.076335047992807, 2.1464235982240836, -1.0150350929889078, 0.3526733165870808, -0.6000003040063409, 1.8863469481126152, -0.27483173559049245, 0.4548958556536461, -1.996893652375135, 0.11763218272275575, -1.1315673480141983, -0.2422118299424904, 0.5491485388540476, 1.117352021593753, -0.4096568537610136, -1.6368309978872977, -0.702495865355907],
[0.5924490566243068, 0.06887596704150317, -0.20964251738315143, 1.3349205088058804, -0.5774192237855564, 0.20470802386495615, 1.1016059409979484, 0.7362444681409736, 1.1041541714176242, -1.7965360090673332, 0.8954075397215812, 1.6509547779920473, -0.14486052371434555, 0.8805831947606073, 0.5240525211495943, 0.3663564298413215, -2.023153859085946, 1.847070419875548, 2.4954313866896953, 0.9719862314391894, 1.1610138588379826, -0.5173580156964288, -1.076894063989652, -1.662678890219793, 1.013098019346215, -0.8614126875079599, 0.8388037226941655, -0.8803103758759546, 0.9984854878392119, 0.757246677649824, -0.5968171025606867, -2.3399289306478783, 2.1883390206972466, 0.7234828872366721, -1.284752649569916, -0.7342952404375441, -0.055865658763705806, 1.125104783016264, 1.1172262857880546, -2.270605677088286, 1.090264588673592, 0.14744787383188926, -1.353467920818628, 0.2435495685534456, 0.4715595612844995, 0.14551598652841793, 0.7489369686584708, 0.47406400263732273, -1.633199563277853, 1.2289610859978746, -0.48591328738194656, 0.45896805151864484, -1.3170035549328416, -1.1368192890574194, 0.9407930154818573, -0.1796259022117617, -1.2999292896562413, 1.6241377976188316, -0.16835808386335718, 0.6042414378794391, 0.5057062052557494, -0.4793610597671497, 1.0595026439249704, -0.48863361216838486, -0.9530963582577594, 0.12279354151117298, -1.0256556988085324, -0.24807509732340438, -0.03711462748938374, -0.18406694844278104, -0.4072978239515603, 1.9597043337625712, 0.17020415950162304, 0.285196256584522, -0.2114259164246797, 1.5096922319481971, -0.34547769616194735, -0.2289419838527916, 0.10698014785666413, -1.2666160542275078, -0.7558898663229998, -0.2306455718846318, 0.15829409820964094, -0.17865121563968303, -0.0021840708730722124, -1.4705801567152117, -0.6390187862082588, -0.6776244980171228, -0.8318919088816972, -0.7508097464644614, 0.2976188745594974, 0.9401354795902828, -1.9427674764207308, 1.1863246280385764, 0.012412625081693246, -1.313460103417592, 0.7539200450532918, 0.20952036653111963, -0.8985838011488219, 0.3464137535363691, 0.613811179778196, 1.5042206808829255, 0.25672221778614984, -0.5408403886026024, 0.8247442483688958, 0.4116690751004193, -1.0129346490733058, 0.5084014707469107, 0.40168101131223494, 0.3964518334909716, 0.29055933750897645, -0.13020986387509947, -0.2916076208285501, -0.48873862091258297, 0.9282113140883971, 1.4784246892204165, 0.4596876763470329, 1.3860759963874036, 1.4587387580009887, -0.1712709466989853, -1.5273318398663227, 1.336306251277786, 1.313056051021659, -0.42904989327370946, -2.379524737675345, -0.9281458429296103, -0.9993958541742531, -3.7750396412474205, -2.357547034840843, -1.277430834969318, -1.0183289573659644, -0.8109208722228957, -0.006013881907005379, -0.9435817109370692, 2.3077041163987673, 0.5478901938140041, -0.37059203164119514, 0.5533227206522544, -1.0885163490283398, -0.6822690315224584, -0.5536527455390668, 0.8203007586227273, -0.8495872541560958, 0.7718869814326962, -1.0775588400257583, 0.6990983319843483, 0.8697811983447561, -1.0736735524565446, 0.18509562965698909, -2.1496768046303703, -2.8253836748438457, -2.0469096607652757, -3.7148713469543537, -5.867761844523187, -4.299709647508243, -4.747052503170067, -7.954723598276565, -8.138260899176947, -4.757084424825091, -1.5666968689237608, 0.10134006533027819, -0.3432056993341571, -0.20321452675796559, -2.2038684766365813, 0.5830330858418896, 0.3500290609417099, 0.24810752503388345, -0.7713297150432589, 0.3111047945032252, 0.9623961542649243, -0.40331990301480114, 1.648632557675513, -0.35079693187802063, 0.6363569173255079, -0.3427160729376224, -0.3017544354895839, -2.609271448704186, -2.7909947095778924, -4.736044451439948, -3.629950237046392, -4.483486547808639, -2.5376472515185506, 1.0242933055562835, -1.2604509581146788, 0.18404444357757035, -1.504708371056837, -2.177296071724395, -2.933572152986148, -0.3847808201072381, -0.4531703197131265, -2.2772689999294955, -2.4556128896901286, -1.529174549940829, -1.02024807474019, 0.22955702705288114, -0.6806351237419321, -0.18146217215686314, -0.965020427651947, 1.2822959890113392, -0.11181620684829824, -1.039247930513522, 1.0152511564920128, -0.7385611926992268, -2.888882841627385, -3.885961477062662, -4.024052639722839, -4.95246345128017, -5.3950729840496185, -1.9335182206495791, 1.6531499830659178, 5.521046894451278, 4.41156124593031, 5.079202058818522, 2.7579110657671895, -1.4432969869064065, -1.5063622744014935, -2.1519286548004444, -2.657986257857919, -3.9018719472776295, -2.246135176444541, -2.08373872835616, -0.2765356884180179, 0.13303041440118363, -0.047645497330485884, -1.9569647518810118, 0.6782504225132542, 1.11045043565085, -0.2817484953248896, -2.30688259127538, -0.8780124217155011, -2.1087543596574925, -0.6980950498359014, -5.416186948979825, -6.767574273730943, -5.077634869131791, -5.024067294875363, 0.4911271234307195, 2.4751150862817872, 4.309695422139084, 5.132115579613994, 5.175153200057372, 0.4636728706645293, -0.16205750280771639, -0.8167076731690631, -2.076093796142932, -3.9549368824027225, -4.373072663513508, -2.5911949966055907, -0.026952700058717142, -0.6795056714921052, -0.23407016998116859, -0.11118092667180002, 0.04291135213344325, 0.07926721937937962, 0.2556754014549619, -0.12025983717359412, -0.5625446521668828, -1.1103945504197505, -3.5044048362371685, -4.521921336596224, -5.339726103487444, -3.332962447776522, -2.4549703098607836, -2.5768059223702817, -2.643911993088129, -0.4473015876575827, 2.1034900772990746, 3.9371028515614865, 1.2401413066778504, 0.020755562634733195, 0.3502328620538831, -5.028100283881976, -3.549912907575952, -2.410760558945295, -3.3240417253604835, -3.0996348336409087, -2.2743549433956356, 0.08633166289259879, -2.671692680149693, -0.5892548253901861, 0.2581874402338928, -1.016906358900601, -1.1261208713274098, 0.9349804476864361, -0.4548896409852925, -1.0596049616541143, -0.9180405528869553, -3.3103133632108714, -2.1131637921972968, -4.442056640916279, -2.2904202786557146, -2.6549560941970256, -1.0621685949521156, -0.2210074266276201, 4.112055903423268, 6.26947075224702, 4.725154677053357, 0.18491829132156976, -1.589372229759015, -3.0579112245967512, -3.7521022808329003, -3.8869358666278857, -5.397581383131227, -2.3815924842021623, -1.7530735040599585, -0.2926218426925804, -0.3837432560170559, 0.25920581396336123, -0.6883617456877689, 1.537622998936266, 0.4017944840882002, 0.018140938728870334, -0.4662880499852778, 0.14319038287044272, -0.6154329985510266, -0.4904124794609714, 1.0673419392679122E-4, 1.108388371681414, -1.6829595865521674, -1.3437012471813725, -1.7301996940943618, -0.03222982170075029, 5.730434609906111, 7.555321760563526, 4.776220393858789, 2.411451009685325, 1.0722061038197392, -1.1091236961094368, -1.160555005557917, -3.1419000416045093, -3.3017633750070337, -2.1708573162131266, 0.00270731484911148, -0.9486045854553066, 0.9173545680272798, 0.029281681736948433, 0.2110101669940104, 0.1397231019851364, 0.6620035587181137, 0.7579142355917327, 0.5420045174157633, 0.30380403750888174, -0.1572789201222401, 1.3910256013513467, 2.1764155591782974, 1.3259629879778214, 0.3532777893606484, -0.4612598051767416, 0.9539607589109472, 4.235336493107712, 10.336340742666554, 12.568517002779853, 7.045060091843241, 4.306714122738528, 0.9860595537487876, -0.259351632453631, -1.6052307591988253, -1.1123408455855426, -0.04102154479797337, -1.7176312712169874, -0.7946115669824231, 0.9021705467011423, -0.5576740520904001, 0.17034147618720702, -0.25773773600184635, -1.4371412934210124, 0.12435004293438567, 0.7220699441642351, -0.24955944066674363, 1.8174862749337473, 1.7522614023163277, 1.8449403324042202, 2.1378639134434385, 1.1948428907616386, -1.905519263184097, -3.0227729602898026, -1.5397150842643041, 8.914858063328303, 10.879759627082482, 11.022780782316225, 7.570353183535964, 4.574659176949105, 2.0459609374920653, 1.248241979369896, 0.4330252858536099, -1.482704713546895, -2.62885674128326, -2.363252752592663, -1.4515436142986746, 0.8649723841439846, 0.9810680640720768, 1.4020761690788333, 0.9306083582148612, 0.6324025183363375, 0.37888208691722974, 0.9675048237152756, 2.349513641504562, 1.1755777642950063, 0.5612167275315428, 2.905580586809616, 0.9772512653665922, 0.4118263351604061, -3.2575799802448775, -2.0388072699827404, 0.645425929825944, 5.107559388054163, 7.1064222223062, 8.011016935362965, 5.579412047570654, -0.2126426189885498, 2.0476088777322783, 1.6883292666901548, 0.3078642710161436, 2.4105508142997545, -2.0595396339784244, -0.07278598312513444, -0.029296684176531123, 1.4180773002082188, 1.247691675612308, -1.1900909242919722, 0.7182758734117038, 0.9191605859347102, 1.1066209582700066, -0.8726298931465678, 1.5059799802158607, -0.34237044363588287, -1.0249396598053628, -0.807918112013982, -1.598578746662295, -0.8430170394757046, -4.807308039126343, -3.84074749219859, 0.9341822221141975, 2.6629115604814584, 4.353617370041828, 2.606637595987266, 2.259750634247518, -0.5640756273622836, 0.5803009443610678, -2.5691286356142404, -0.9510566284748806, -0.9093315318172708, -0.8195671339105371, -1.8598244663202779, -1.6933671661315866, -1.5326634051947305, -2.2892427033258667, -0.6556957495942076, -0.4480624600755821, -0.7355677424342221, 1.031119665717424, 1.6366474543789291, 0.278445920722242, -0.571903151522136, -4.054105107459125, -2.5249714415320073, -4.162330311238346, -2.984018863342082, -4.056375345293723, -4.113752373468926, -0.877440062023437, -1.3933580820082638, 0.32821841716003003, -0.29553069457454345, -3.3935591103047327, -2.3335030688711558, -0.8463931168783524, -1.0131598295129545, 0.22329705563480007, 6.206638038739262E-6, -1.5578062122577128, -2.3859540515039694, -0.7575869731376768, -1.0204839585299157, -1.054910979229234, -0.4449347296744324, -0.43931697344326376, -1.4777080796465598, -0.4640208370778069, -2.3574853465859524, -0.09826115008154752, -0.6668901505160325, -3.618959660892325, -6.442201696810333, -5.418401586028829, -6.1872932455975045, -6.760744113680239, -5.034690368241305, -3.816859301686884, -2.324416269467436, 0.6565229276306079, -4.785322652063559, -3.7000077936619165, -2.5873030832789565, -1.4797858592536257, -0.9624484938843358, -1.5567267382454053, -1.317720256025409, -2.364121356911264, -1.808212735955163, -2.541994554356896, 0.570702562763129, 0.7503512661264976, -1.0866804585022263, 0.7465325475750554, 0.05512855150836766, -0.06140706868452523, 1.0886369662370345, -0.18705564773113909, -2.0989356372585273, -3.8263413001169817, -6.506102960692401, -6.994042350385058, -7.340385438864035, -5.823923491521363, -4.491721813524125, -5.078989819185464, -3.5052786378998957, -2.5723674179953178, -3.5525053600952465, -2.9290689173842233, -2.9324202495525196, -1.8263095229392756, -0.7133409441008245, 0.7673316658287505, -0.8973338333029476, -1.3021364382267424, -3.8775691112398802, -2.307900694523968, -1.093249434759636, 0.8342055455285454, 1.124727836533948, -0.7156739364759813, 1.6239233450858124, -0.5704509045196222, -1.6853010021359682, -0.1487605795319229, -3.3906492041609546, -5.11916114586777, -5.403868315772093, -7.097970990621454, -7.502113832047322, -5.7734309070519085, -6.909094232624833, -2.915315296667081, -2.6245957123920167, -1.2604521001951108, -0.4491313462051939, -0.30015667989859085, -0.44409488055144053, -1.5008822011189766, 2.2355314934539883, -2.274936145419107, -4.054171875196095, -2.46387780427379, -2.5986862771752204, -3.373148771748805, -1.2457169776419839, 2.684538184565921, -0.4526027264589483, -1.489459410655907, 0.4499993020046035, -0.6243518728198657, 1.1241500348955902, -0.041500588107497065, -0.6690420209209149, -1.0839350192787425, -2.862767008117734, -5.677868622648995, -6.432413462594439, -5.689759663257107, -4.285303145533834, -3.4666666549695617, -3.3093566899798765, 0.3356002657873516, -0.70024184598047, 0.6960956650770043, 1.207146226731289, -0.9231682094496407, -1.7405223120597435, -2.481038912053429, -2.29385418143225, -3.719678960104091, -3.8193725589771312, -1.2860096540093993, -0.09600797638509606, -2.1622170839796495, -1.228487364306973, -1.82657294904544, 0.4322119348773389, -1.1168896935549333, 0.22932037910797837, 1.0253964418184578, -0.923026014202102, -0.7707563300519371, -0.6567851231641432, -1.2445930181489817, -1.4748766450388053, -3.8347424409960005, -3.276360732451553, -5.6364262516352905, -1.5950036653146245, -0.8549362602995855, -0.9436077720132878, -0.5629253346040098, -1.9053032308946818, -1.5549948801059013, -2.2483856142549175, -4.450106129441163, -2.4667804448979447, -1.5027781640641136, -0.9628845880184537, 0.39195584835202324, -1.6221019140606903, -1.258387564842498, -1.1853321962848773, -2.2728363641593274, -0.4151872569836413, 0.6161033024166649, 1.78306602680132, -1.1104121503668927, 0.46144260936899384, -0.00636351851541194, -0.3767040984474019, -0.5144729521100098, -0.3432041151835177, -2.2024033908795326, -5.072531085788235, -2.214673433154787, -3.1226605173507065, -3.460584957679577, -2.9806203791504258, -1.389534675608657, -2.0107057102023838, -2.7970825290927936, -0.5912925819935876, -3.1585870833870477, -1.1304706430363067, -1.809070700893539, 0.43443094482117733, -2.32744433028977, -0.37068544215949256, 0.8772580500283417, 0.9538275029324117, -1.1197350078857495, 0.22870804844025705, 0.36011013933834835, 2.4450869862673668, 1.0422897153239794, 1.2144120881692853, 2.1265980158262163, 3.8571732035477013, 2.5388760527164314, 1.157501051712532, 1.1488750044833211, -0.2657540300185108, -2.2361492715148628, -1.878013494728242, -3.0868794523163627, -4.525022678462512, -0.9852423992792018, -1.5097884996660678, -0.04809998416809672, -2.7516591988752817, -2.8314563980461975, 0.9421086869332713, -0.2875472367547196, -1.0798492051529316, -1.787302516611025, 2.013854699692587, -0.17081311790210008, 1.2790522262859216, -0.04292340795466737, 0.7844495231859081, 1.1635293774950948, 0.8076279078752848, 0.9325165925874277, 0.34092992543914735, 0.2611617125818044, 1.1142308054462917, 3.137780382169425, 2.2364251233403554, 0.9995124905265275, 1.7889825161834592, 0.5656975748781244, -0.2700234759451254, -0.6251831637594504, -0.4947332405679449, 0.1790418090891097, 0.7941137330210797, 0.9215340409023919, 0.8225308723868597, 0.7914273963459292, 1.805963447882759, 0.9504588053798857, -0.3303731255175157, 1.0972634043605338, -1.2685749097960557, -0.8666974968554116, 1.3882128012766537, -0.284819557727394, 0.36971721934380525, 0.49212148007225437, -0.5221696832307524, -0.8112521504062923, -0.850705611060302, -0.46869608978171157, 0.673051914856963, 2.5143899491564943, 0.48834166841566723, 2.391011789424282, 1.8228015261622748, 1.5544282487847552, 0.9476912849735459, 0.6298057395933837, 2.742149787872152, 0.19012252279268804, 1.1019376286475346, 2.676942447863947, 2.189755279751063, 1.1344650701188221, 0.9264114816485364, -0.5649976260819685, 0.8108042003266118, 1.151142698323826, -0.19044330791008868, 2.4226476187398833, -1.7676436223409668, 0.5336266667722251, -0.6583513866972123, 0.16904236019599503, 2.238321454666762, 1.4997205725348637, -0.8449761336575748, 0.6275373690348971, -0.505004230225699, 0.05571118406963075, -0.11234942922639314, -1.6616273242465398, 0.7250437477560765, 2.421855654591876, 1.5893102154083951, -0.17495788735521323, -1.2664561613850138, -0.8064449887012717, 2.381832813302622, -1.5052612816633777, 0.39961876404365115, -0.3565727621235307, 0.9789714907815023, -1.9325593062825333, -2.7088792007470732, -1.083530831683188, -0.4446679823330637, 0.815924339254133, 0.16941891322563207, 0.6845540539412902, -0.3533581993036763, -0.04202069252665968, 1.452229433554672, 0.3247625010255665, 0.2935398387970926, -1.375768426706102, -1.9285177295326807, -0.05739450871751494, -0.7716811116606248, -0.6362893175077212, 0.39129561149588, -1.311476550457088, -0.026166066524184017, -0.25259603128303876, -0.013314170869070151, -0.9264802467146418, 0.06284438726521716, 1.736597109758282, 0.5952224139320184, -0.94267442162252, 2.180163620008112, -0.6110269061411339, 1.013144901363495, -1.2239992034576, -1.0756338859399128, 0.8641002855490842, 0.1720525877791387],
[-0.16244941775411517, 1.323588587719541, -1.2561227980025855, 0.03162838653440477, 1.4645484598252962, -0.3018761369189655, -0.22070878955915496, 0.1195608748513934, 0.3784731263413426, 1.0209011774164471, -0.507944319806165, -0.43968325905979666, 0.7110550094104726, -1.8617219079286533, 2.445927428405232, 0.3831321743323341, -0.0555887540844242, 2.265303126443028, -0.8529906567438998, 0.4295106932018602, -0.009809356384824315, 1.2815554674598146, 1.584653704014728, -0.3184567096124798, -0.9165028140508454, 0.8581716805571635, -0.8728370191445041, -0.20764168794333726, -0.025804176241113662, 1.5166321906917581, -1.0049790238113128, 0.0542539289128376, -0.74403254149712, -0.4151044204347825, 1.3815358962383448, -0.7307567797397669, 1.2229341335320014, -0.09839478482505705, 0.046598438789925, -0.8784798955420585, -0.3708459999546411, -0.23735910597990004, -0.6432118308842445, -0.6707314272757634, 0.07875379910345591, -0.565781727084805, -0.5849761619616254, 1.0387177074244263, 0.20861360451067879, 0.18395715182781458, -1.659897482577226, 1.901159106777697, 0.3257715348603964, 0.4303324912813642, 1.6665078529365212, -1.4156494436897233, -0.9418274256875475, 1.1189676432327043, 0.1595507719040201, 0.23159872646984397, -0.6989368475397527, 0.8316488049352194, 1.2860303914486029, 0.6788770165815914, -0.8613445080084999, 0.7835296242423304, 2.3045015998012115, 0.4213123356639379, 0.7414866060812849, 1.2977839512517595, 2.07610296651922, 0.8496632073626139, 1.0393348766614117, 1.8848074817447833, 2.1041932698105543, 0.346301576324715, -0.0035839642356645714, 0.26010654208502354, 1.0814185863213586, -1.151995276800015, -0.36498508786039285, 0.5668392660268858, 0.1516520528206724, 0.5971445146097968, 1.0580556087179043, -0.22163929040470096, 0.6978088659102571, 0.1900211377380536, -1.1366843643664473, 1.3024772665502808, 0.27542793524514303, 0.5671087519497069, 0.26956867203024965, 1.7662663429797374, 2.662191810716319, 1.2284560411553807, -0.49942176026302265, 3.040396353646825, 3.151014552126154, 2.360731493934269, 4.223218801918452, 2.9892584760947334, 4.020070637471442, 1.8518370193284237, 2.2173909991564575, -0.14410436044895583, 0.4813920164645313, 0.5553581787011148, -0.10090160290582577, 0.877922618309201, -1.298850367790579, 1.264393344949559, -0.22485138612794298, 0.5124500015232257, 0.7028499933970439, -1.383508821612745, -1.1487160070337994, 0.20405702438637485, 0.12323345212383378, 0.2520061866906307, 0.19349132052354237, 0.2389052770013917, -3.1490191622591652, -2.319992653551876, -0.2863992527923005, -2.023503954676257, -1.4376737743021355, -3.1541235140755854, -0.9198008545385422, 0.1619626883722629, 2.7822467471240637, 4.086495200299685, 2.0157108501614243, 2.787238160730082, 2.9042929092068817, -0.660653544177122, -1.4729489557977098, -1.0147355134783618, -1.5623803503305909, -0.9524536952422555, 1.9086526040295408, -1.0840809903272535, -0.29277268861650874, 1.2254828200868433, -0.11593509753483452, -0.23995502423318008, -0.061421696235106266, 0.17488759985407318, 0.14643301037123785, -2.105055097558057, -0.5935116404810519, -5.695006020395315, -6.566807590788205, -7.489082390249501, -8.774712837367796, -8.89130534365227, -7.51117483191326, -6.152474833426771, -3.7455031305420197, -1.8447430793116495, 0.4287195932787776, 0.6758001102343304, 2.0614446127859134, -1.3640218462813531, 2.3068817023194215, 1.146582853660547, -1.4528536662982272, -0.6839802925910854, -1.7692011806690615, -1.4624591968863778, 0.8534498246127011, -0.5937648244932563, 0.1840102451908386, -0.58524632469586, -1.65188173570365, -3.2497345495035046, -1.7152302973580638, -1.6064873367997479, -4.555276192917326, -5.4729773070619485, -6.600138922714611, -10.17257352494779, -9.093596811730311, -9.163440014300866, -9.659461550860353, -8.33350486462208, -6.516809182670543, -4.727753956308707, -2.5680483026783096, -0.5041039392173899, -1.5454527307196018, -0.7977850195852374, -0.12046657613497092, 1.029420639021822, 1.121156475372027, 0.783218633786887, -0.2666315473830437, -2.8325214297846766, -1.1363640250452711, 0.4997815630778657, 1.185392338815143, -0.4746883572214313, 0.6921104834827013, -0.15394788997085382, 1.1001300505954636, -2.0340975023610635, -3.1674804322371215, -4.33048510390339, -3.8845359327080446, -4.19769230000264, -3.8015475869312376, -5.232984123328212, -6.270565816162508, -6.038978718371645, -6.624860341864862, -5.581593847046864, -4.995999736053786, -1.9281746077054414, -2.2229841747731642, -0.16184900279981987, 1.3131794618325074, 0.08867263958050901, -2.5828762631039006, 0.4218111260776489, 1.1364770581235952, 1.7541618628575604, 0.9874803069778928, 1.4715040597097457, 1.3859883695666184, 0.8874759490900694, 0.6017137189518676, -1.0453562976476014, -1.3254539621081365, -0.2677991284828375, -0.7348265358791497, -2.1201959840174833, -2.03173813407523, 0.45691255432034106, 0.5239755126635576, 3.0692122080203528, 0.7969011043023894, -3.020561511588494, -7.138645853756407, -8.337455411884141, -7.315870915912308, -4.585422369229916, -4.273345385016469, -1.2776529624344104, 0.06585746009164291, 1.2736781087820859, 1.0351122995689075, 1.0123573950032803, -1.0291548391339806, -0.08888851770124574, -0.941205254939554, -0.661271176773319, 3.4014691769889662, 1.2155842310737877, 1.577581484140272, 0.4930373496855449, 0.9793011561550168, 0.3675316625809722, -0.5005019521966314, 0.41881717621870884, -0.31264747036309753, 2.938520935533701, 4.818773158979364, 4.480822379967832, 3.413246998060201, -1.906345398194301, -4.950859936452813, -10.497202421233917, -10.531898301136293, -7.500975174982992, -4.8288354971498, -2.883658948607899, -0.4241025086932566, -2.0707981353348694, 0.2802806865939165, 1.2790526271174472, 0.09205891995886065, 0.842728665929355, -0.6532537417326817, 0.9513469771622044, 0.8279710126582933, -0.2549131164501893, 0.06166442640005999, 0.6351828008367495, 1.9125705998875921, -1.0432324473344048, -0.815921624129342, 0.40754768559268995, 1.7323263291858697, 2.6460739715139847, 6.437400300281646, 3.507383888356757, 1.1141144981239102, -2.990128832039813, -9.20420293164029, -10.681517915519146, -6.790029289120689, -7.786946083706544, -5.398613691421734, -1.875680973562076, -0.40630746744370655, -1.8169204522126745, 0.598702550596042, 1.2725139499640745, 0.33034969657419294, -0.2025729977862051, -0.19902725944954286, -0.61345550686012, 1.7887290205392676, 0.05058326572869213, -0.5073822705691264, 0.890415942045798, 0.5227264299475405, 2.0946057653683603, 1.9542987612436507, 1.1875578898162638, 1.8283919099842114, 3.0428242655604456, 6.398779007357254, 4.26537451342716, 1.512002325455481, -1.2541002451403855, -6.163368477862088, -8.147295996023452, -5.789468031616685, -6.23072607892603, -2.176710252816353, -1.561867805527206, 0.12861233064739228, -0.5057699539263721, 0.8084304024967505, -0.6466987000068118, 2.082668039426934, 1.545477199875172, -0.06127441352952974, 1.6048381567469434, -0.8043276215625563, 0.11294071707453308, -2.1904059122484205, -0.5769102827158292, 1.4958114941250265, 0.2552436097590707, 0.8215642295968699, 0.9283433342584835, 0.6553768884970346, 4.028687659078566, 2.4098759354948704, 2.4197113133363803, 2.6129680519595206, -0.06981725623495948, -6.092720004513763, -6.1456868033296645, -5.16160501431935, -3.494270618502594, -2.4493926308161242, 0.10744381597971575, -1.0562403703013394, 0.26970577170059784, -0.5023460140506935, -0.7133097354599868, -1.137402098263148, -0.6594189001061355, -1.6889497124898527, -0.7906635912065486, -0.39825657445932405, -0.7060295029003881, -0.031237901466982892, -0.7564194078397443, -0.07785656532538676, -2.6362696370130263, -2.303360461653024, -4.265623131942112, -0.9980056766679295, 0.6845805403640141, 3.917176492037938, 3.3166555303394323, 2.6818360903290106, 1.2886884283290208, -3.439333275339993, -4.088035841744919, -3.0709259677180323, 0.14790297942304229, 1.913170413463014, -0.010119055727239845, -0.5537452721959722, -1.6610815487903605, 0.6172462424864212, 2.0173319613526357, 0.46185425802628405, -0.04067068728106567, -0.4797361602530702, 0.7236631622648577, -0.04289216228166951, -0.6485260887289135, -1.2281649990125096, -1.4922838272245826, -2.6230107617131617, -3.8677949005126, -3.942741296232436, -5.505991420170761, -2.4480745509881645, 0.6558545402929417, 2.03705375358795, 4.4278920078862, 3.932851601670842, -0.49059089638602216, -1.5067427564708153, -2.506344622478314, -0.9097979530591922, 1.3275692789462656, -0.3944815632252815, 0.918897485368064, 1.3522333875148858, 0.053773948214215134, -0.110506696027541, 0.21888989861523359, 0.47850211831376066, 0.06292714795806802, 0.6348055149621108, 0.1339460098031344, -2.1260965199855066, -3.4434591935641485, -2.959851491088659, -3.7678929060313746, -4.621615061104505, -6.539344807324556, -6.928791192213213, -7.267143857830048, -2.4808650055179204, -3.058795642301065, 3.0670528613680603, 1.4193272449848253, -0.04316660168342004, -2.7557921135250254, -2.1215708331580396, -1.4275186001486606, 1.7351487307677358, 1.606023946485051, 2.184317303729591, 1.5081968571615243, 0.46634790716626223, 0.7467719619577314, -0.3037784392200403, 1.808936481673696, 0.06136545833957733, 0.1965540808462547, 0.6484738689762909, 2.2980858923466037, -2.233190315124091, -3.803545048304392, -5.172859496284799, -4.605462216800789, -7.276295175722262, -6.3273093018589375, -6.683282300294005, -7.5856571026371, -4.2690114967177735, -1.8939383732429547, 2.4850364004968752, 1.319425146376044, -3.612865109656906, -4.459443585254353, -1.6269770646223405, 0.8426930876074376, -0.49491854847813815, 0.8014771382837984, -0.5358281405718643, -0.6374051365286628, -0.07899171781589605, 0.31045897720165705, -1.7947460131761273, 0.11923112379254235, -0.4661666230926025, 0.08770919464208818, 0.6564050728599066, 1.7851370149093262, -1.5836857467352778, -3.002174357621905, -7.226398575237343, -6.848699841618874, -6.246371601396507, -6.018849397584369, -4.769922503533142, -2.8504172147707467, -0.7846401681033454, 2.295069977563037, 1.248540525923026, -1.2225184910400226, -4.953424066066766, -2.940842941602623, -0.7840048555858802, 0.20722827035240982, -1.4696773564399357, 1.0724078286820522, -1.91793870408809, -0.30525067567474923, -1.015574341504898, -0.3081085424305487, -0.601369217415263, 2.059360053310192, -0.6163764752602754, -0.11759585796397054, -0.9875353554417837, -1.064033122577661, -2.6087434098129028, -4.019440159955567, -5.334036944890505, -7.104012369109589, -8.737513690121464, -5.26224596665954, -0.4895947929836821, 1.1174631877408336, 3.82083081346768, 2.1385294920372093, 1.631073530514536, 1.3405920456758764, -3.2852912199483253, -1.7916287756154825, -0.9999541145128282, 0.0074613245170269595, -1.1861984422303014, 1.3620476950586715, -2.199257050686282, -1.96157066358998, -1.2893630243955887, -1.1006000360418857, 0.7561151739685857, 1.7681289553606738, -1.0034118432570376, -0.5662917065476527, 1.970208741305224, 1.0826558485228002, -3.908051895271405, -4.518247128509726, -6.847573690213041, -6.9197443585902505, -6.046129335679049, -3.4335178067669694, 0.6539449800777174, 3.0233347426865596, 4.382187670860332, 4.553338525311944, 4.00539075734239, 2.2247461689741774, 2.91113084273257, 0.297541603445135, 0.1606206710076458, -1.3948360124898038, -0.2041434032092357, -2.4935384599766213, -3.71225831333316, -3.260796025754981, -0.44119017831821233, 0.3398828261407216, -0.14612387777293923, -0.4259263546644293, 0.2996693407650949, -0.08903848023990636, -0.9604675898176196, 1.3948863466329837, -1.08723928327237, -4.627203345845674, -6.249094103118169, -6.94571443674287, -4.032824789659825, -3.508932449315918, 0.9327467252211442, 2.4527975812297043, 5.73366792660939, 5.447188355019709, 5.046015590583659, 3.2112596027579854, 2.0124029831006154, 2.1409988051058653, -1.620012800545349, -4.581242008195477, -3.0701337542341745, -3.8958051432042584, -3.6615667992537837, -2.076671132389905, -0.8090229901210435, 0.6409327268299273, 0.7495314305036752, -0.8317085606916823, 0.601778064796598, -0.4369053159823662, 1.5788135068699378, -2.594448102171699, 0.852176279384072, -3.6310750766748434, -4.739706801204875, -5.808399454932974, -4.48667988930492, -4.100389048635505, -1.9585726144379143, 1.4662850163399794, 2.020661582505786, 2.6547989027709296, 2.2872109762559703, 0.8230246903733528, 1.236356695598675, -2.1696678953889585, -4.78148963817652, -6.081714465203663, -5.111056643716631, -3.857571452507873, -0.876693157494729, -1.157950450949019, -1.1372889078342137, -0.7153970867988096, 0.028951023780191085, 0.5617843194961556, -0.4569070548067041, 1.9141470211015468, 0.7314967522363812, 0.4848632829572144, 0.5935336203006214, -3.0051486986357316, -1.9321348780352576, -3.2750740192346, -3.1004433924265316, -2.678446759097542, -1.5502886322142617, -2.3280952551703793, -5.019921297416311, -2.776859224597501, -4.064936172484612, -0.012436855610897317, -5.032765419421815, -4.767990432344016, -6.762329125061291, -4.5869582152172175, -4.523191024396115, -2.612932295042375, -0.8720040832011511, -0.4088661890059925, 0.3272949054247293, 2.2620804808677244, -1.1886905105463623, -1.1053453399577973, -0.3723548423690275, -0.9750056183795982, 0.5653387537583289, 2.204442355964899, -0.8492398958370098, -0.9303194266364258, -1.892891157112487, -0.773123521699888, -0.035861748909468645, 0.7238200764744398, -1.0305497338898095, -4.956749939222675, -6.685042061708177, -5.808313038380587, -4.530367832574996, -4.822537804265397, -3.8033828564761967, -1.5742512494181293, -2.6104802457064444, -0.49233548292663104, -0.44950033945851137, -1.1349327558289046, -0.2565508181166126, 1.0031084362501905, -0.5917399310996926, 1.4465531214472815, 1.6774545352791166, -0.6476669702496415, -0.3963264921244617, 0.7028233565425528, 0.9384023707248741, -0.32957518343741216, -1.129792786183284, 0.36495085377924236, 0.40734212829371164, 1.4561217078376683, 1.6510184581262253, 0.27202678945904835, 0.37840126900776655, 0.22741555001399455, 0.5809882974840617, 0.18095203064979748, -1.188535516440307, 1.047967151485232, -1.6509396930583131, -0.5406519214529114, -1.8420030220598587, -1.1083155743973208, -2.0272497194130414, -1.6758770231278886, 1.5866791281060626, -1.0382385893470383, -0.24519756998902845, 0.19831369441190438, -1.30135086327111, 0.7430313948973795, -0.05710744072151507, -0.6441331167074772, -0.04696373348382023, 1.0157041637062623, 2.728853732303896, -0.21510651672710857, 0.7819779725786125, 1.2234960708734979, 2.7660807818386077, 1.6925272797011814, 2.564425911149287, 2.4966942777930914, 2.658548293803347, 0.3458973837211485, 3.9194034267993576, 0.5243543203274175, 1.1033988767761218, 0.006259920956824898, -0.26600950838627097, -0.4226715513046749, 1.6066530678894673, -1.7937233926452403, -0.5322485767262239, 0.9557752578455253, 0.8753688560711211, 1.3783557331559257, -0.4504782620979494, -2.208201848198216, -0.9239675493289764, 0.9688397853496908, 0.4784073852750473, -0.9443546512294377, 1.0388178921993183, -0.22614707946477997, -1.2334265707324552, -0.6289295756000018, 0.525518178811391, 0.5363713521686668, 0.9419412228635149, -0.2230878348263821, -0.22464995453419032, 1.2808850058471102, 0.4726884181783631, 2.0730062431923386, 1.7253197820862889, 1.3354997784479952, -1.4675318519233085, -0.018272342333825242, 0.5982083756450999, 0.605582328506758, 1.2750203904695732, -1.9586727285133396, -0.3730630328644654, -0.1303701836055644, -0.4156400928481412, -1.2065749613273762, 1.0648141510973332, -0.28503827642880414, -0.09394000801402529, 0.44031151221650705, -1.00480725661041, -1.7776969197418901, -0.22570319429021904, -1.388068947916497, 0.5525785410526823, 0.5339950241683518, 1.2646032705762766, 0.38941277662793755, -0.8451110521241114, -1.1160104557708217, -0.6723089652058766, -0.22808232069840745, -0.38416724376893796, 0.2800720701044127, -1.5296331804806909, 0.8377332888141021, 0.7966648450849103, -0.5059418593568425, 0.5222951405237611, -0.5082993759678345, -0.2712184128518724, -1.1507159642538756, 0.19645394782606848, 1.670857546899285],
[0.8867572023048897, 0.3979279897822147, 0.28545267331558904, -0.5907342775458561, 0.19587854953731643, 0.7863803789971001, -0.1639377038005622, 0.21885863695781163, 0.33121462206106844, -0.2843906581575181, -2.04731981535228, -2.2150268929515455, 0.679476921392909, 1.6693142692267808, -0.4255224403122799, 0.038950681584366, -1.0137426827486087, -0.2174830304045172, 0.023395228115830374, 0.36798238533352196, 0.06802586010911865, 0.030725753133017442, 0.004569398604897575, -0.9071828792923988, 0.35966682161909536, -1.6420214815431833, -1.6776938442339846, 1.0942504778405635, 0.03761363886022337, -0.26452519871971947, 0.7104070589608036, 1.1439841440692848, 1.0464100716856923, -0.3127642253226529, 1.5195355449020682, -0.5185910448270629, -1.6380009627114362, 0.6344941730949106, -0.8698844295005764, 0.32986382897334693, 0.8135947449171044, 1.3619933082277489, -0.40318832301734775, -1.6206007727631755, -1.2211717120032337, 0.467083805111814, 1.8237363545615493, -0.3907600207287166, -0.8908637579549598, 2.2468036292888973, -0.6648866644656359, 2.0073912811646357, 0.920672533537513, 1.8840951708381528, 1.1404848596015957, 0.5175342745890016, -1.4939183407251124, 1.4232053917875236, -0.20945004519555724, -0.015546267392125872, 1.4459302923167823, -0.9563356277465146, -0.19672870626497668, -0.7454267345286154, -0.3035314477291213, 0.017981799940851584, -0.12031191104114995, 0.26274270917155557, -1.7000156714696533, -1.4978459667188062, 1.0507451668407473, 1.5389967338898731, -0.6495202424529047, 0.6451879280247652, 0.5605886482038497, -0.13683297448034704, 1.3195946453982996, 1.2340465412526374, 2.260995308891844, -0.6771389089696447, 0.5630017983342978, -0.7548164068905461, -1.2113537359753639, 1.930197707242712, -0.1350492686412897, 0.5095043043360442, -0.8789972812565643, -1.2687010717043807, -0.002354770965472062, 0.748594445542318, -0.4497016321443327, 1.1747530744260746, -0.6409872848142727, 0.8409454740290833, 0.2297140375382148, -0.4215976376296638, -3.003526303629683, 0.33183508437427833, 1.5132079312800761, -3.170116074645695, 0.6679457416615929, -1.487632881468333, 1.0758838151192252, -2.301439358684709, -1.0106591002593233, -0.749907709201322, -1.3544000848502917, 1.2589450299521532, 0.3310004446791339, -1.4284312144372735, 0.793542499045174, -0.2296614084372258, 0.1281596810402393, -0.7690282750576022, 0.3234428884067514, 0.3200216805148618, -0.5846548785779353, -0.9566963208246366, 1.1112703102755785, -0.6983649832145624, -0.7215109769110403, -0.5082971689612731, -2.118347917415247, -1.9355949996661996, -0.661072048599316, 0.278642391844097, -0.8681172740919367, 0.9404295626432783, -1.9801125129537347, 0.854627830386187, -0.2943267072220552, -0.4708102933757683, -1.15082234953314, 0.23340436239737436, -0.6112351751172901, 0.03855816883916765, -0.46295049568718644, -1.217035639796461, 1.648553276360375, -0.02009998333440693, 0.638371299890079, -0.0553731022846233, 0.1338549696638119, 0.3451178087314415, 0.15218854744710011, 1.3641632147655127, -0.21038324177727222, -0.13693989421573252, -0.93501181986618, -1.7252513589235787, -2.018261945404649, -1.1550433956645632, -2.813714645429239, -1.859622286311693, -0.6120592771117523, -1.4673739971820694, -1.1844683129163638, -0.4321400743862785, -0.2188903933948643, 0.8935132979228999, -0.8453100876754177, 1.9925308384213485, 1.2635519565872335, -0.9180960452195369, 0.300963776092231, -0.1158816978706157, 0.25612944891766376, -0.42289505390283794, -0.438471852212728, 1.3007480380862941, 0.6979157711090791, 1.3864216083081282, -0.140672739327029, 1.0904806351613696, 0.4160507549726239, -0.9570650439171303, -3.138030681938337, -2.043952983219423, -1.6959190235445987, -2.6207865529841063, -3.903999118750017, -3.306417988290993, -2.4102921075446373, -3.527426340238177, -1.5870281376827156, -0.9918642095218808, 1.5907905659150132, 2.7700945328490936, 1.5248610260214022, 2.334667689386239, 0.6519703314419082, 2.3909634561088566, -1.6377290198725334, 0.8889102082492307, -0.07554309231945575, 0.4303773545880976, -0.2258872240574405, -0.39644391189138845, -2.609607910299089, 0.5022937570492555, -1.2299604589765438, 0.14868421061098738, 1.0997107516525109, -1.9952294395670667, -0.31804018998598066, 0.6971179402400062, -2.4197961565069064, -2.3121907384010836, -2.4743399991634685, -1.4642493652217388, 1.000683749625818, 2.437600722926742, 0.5726257543901131, 3.797631393600637, 4.567534179535836, 3.181025277432288, 3.437181550661061, -1.3485946298380906, 0.04900868895615382, 0.5366467101897803, 0.7316122512291748, -0.23385911479055524, -0.3635034605545261, 1.9364780460170044, -1.630440566916851, -0.13587913516277256, 0.09653901099743897, -0.9750525511613025, -0.17409205723043136, -0.4169557147069578, 0.9366694738014444, 0.24122136151311852, -1.7894941953931782, -0.3917688080645159, -1.9004971946223372, -1.550024438898813, 0.0074743727908921425, 1.1384799350154269, 2.25367538404311, 3.04894664403899, 3.6897700002989198, 5.100742748360368, 6.137725473478139, 1.0245316336667705, 1.9443056567750763, 0.01718850810315893, 0.6051562281635823, 0.9974134900848656, 1.931486633280757, -1.280498945073676, 1.2572872125122496, 0.2475759466653961, 0.23171231818445934, 0.24090394749480967, 0.3807732812624005, 0.892507291405908, -1.7261962125847574, -0.4245727232212564, -0.3115939939639664, -2.2811634713460736, -1.9630013067516336, -2.731354820275444, -3.286526786259505, -1.2401731620442866, -0.7625100574780855, 3.0106117533782943, 5.202394348255746, 6.38160729317086, 5.337106720527373, 6.511894834461055, 5.603037507573827, 2.6937463045323455, -0.2647559551681518, 1.177883026538162, 0.3362350229851752, 2.3511676181054466, -0.8228701000094102, -1.214149252466797, 1.2983202172758694, 1.3835142285488076, -0.94305599874208, -1.864189434309745, 0.2056942664827248, -0.1608679629316351, -0.5524101729283971, 1.5003527736069153, -2.0849733459911444, -1.302214865480019, 0.6767689609095239, -1.915510423587054, -1.6233290250599899, -0.01220741682160202, 0.268960449289217, 3.0867177306362508, 7.359061364963652, 7.181246795912172, 5.338259646834325, 3.4866851192324755, 2.02998325921002, 0.4008213759603866, -0.1449812341127703, -0.8558252192496172, 0.022016537172462748, 0.2363727892191468, 1.1941400756517595, 1.6142442356641087, -0.6326233882490478, 0.6936529624908548, 0.90125164178862, 1.5630376932640522, 1.3159515539925761, -0.3114414057744857, -0.2994412276775475, 0.0325063048775366, -1.2747823748944125, 0.04051771674507482, -0.6194175467560286, -0.3613534548143462, -1.9028181247469207, 1.259382187343223, 1.3480481770836357, 2.990400465813838, 3.1874088729830605, 1.1416627504110095, -1.1673377215454515, -0.7738734710285597, -4.033686660123228, -4.820913270962887, -3.7210925229412664, -1.2063416480737439, 1.0309992128200207, 0.29425337603181884, 2.4353686068005014, 0.35704726003335385, 0.759097391671615, 0.0031720109386131823, -0.5214149005327738, -0.27417779906739087, 0.1752087580037479, -0.23274599355329864, -3.297822985553093, -0.6131583019053429, -1.993966781811102, -1.5261472801072207, -1.341130732006075, -0.12648204605991445, 0.4070446973344859, -0.3695401890888656, 0.5591061577377395, 0.665427654783535, 1.9577681374798177, -1.8255177386636496, -4.357769106632895, -7.2941442031822845, -6.188648582680889, -5.681731407138717, -1.4692769772791943, -0.864321327856553, 3.8098987624627183, 1.771992762558431, 1.1294239589071855, -0.9099646629858683, 0.1415638665674343, 0.4594787745227678, -1.2777722254763235, -0.49447682602391213, 0.45271748741563544, -0.31642846762867866, -0.21622021595242888, 0.8834663097232826, 1.564941081839503, -0.8028304215324804, 0.7714123768802966, 0.8988927831847364, 2.922775832839185, 0.0871600531303004, -2.16811646658152, -1.8873471890480564, -3.6539983375454756, -5.815463385191957, -8.306476202011542, -7.1944763536235685, -5.281042174140679, -4.9150106860043135, -1.4315472146274952, 0.25579697001598395, 3.636708627128573, 2.8133682287722395, 0.738830685098574, -0.3040815550426637, 0.9890504256903355, -0.3702029639423681, 1.0507439981808027, -0.1012727101487647, -0.4879260370736532, -0.44853206682930225, -0.9926332969350539, 0.6488799712474173, -0.04299883888924759, -1.0118917927289295, 3.249346092262802, 1.4491974982005378, 0.5656963387009943, -4.555480230509672, -7.233312896191632, -4.197071154945976, -7.174712250602359, -6.370248440381576, -8.641827920191265, -7.912885940085529, -3.0943840333977533, -2.722328514919705, 3.5235016755159063, 3.5684037991553845, 3.382956310700992, 3.8743654803955137, 0.9835308347205015, 0.7090527864319748, -0.1362815405513006, -1.4473075190243772, 0.263760304655334, 0.430515798526047, 1.2775472898334286, 1.995667142444669, -1.1676813288194356, 2.550308591031899, 1.1112157377687126, 0.03516488732079959, 0.30219899581299536, 1.7794977912014882, -2.666802019367418, -9.851507964512903, -9.815773015884204, -8.659209099519506, -8.749418743407906, -8.007574841754396, -9.474208771615718, -5.066659255899641, -1.831481336016155, 0.35063226260407, 2.429369065512813, 5.438483391353972, 4.276503845375451, 3.2213949785745744, 0.17020606522916, 0.380562260496606, 0.12008062921563076, 0.8954171779691631, -1.4464067911080087, -0.7326999392985338, -0.5543652300467957, -1.1841821838804605, -0.6829056167391626, 0.6099258009874878, 1.9095429003853481, -0.6631044594101102, -0.6278862776954787, -3.8374226677150176, -6.167748426152129, -11.356444279880098, -12.2218118645618, -8.82702061110962, -8.497711300527463, -8.109224731573248, -8.553611937276703, -5.457473465267806, 0.18709373600144152, 3.0045881581908973, 3.229126041784219, 2.35175824288416, 3.825837379513997, 1.9815387957273645, 1.2976343294469415, -2.2455816854559005, -0.6440149008557406, -1.6972956741545802, -0.3136859684224446, -0.2709627628527798, 2.49272315597018, 0.0789292389040588, -0.16563640320257716, 0.05634264709515943, -1.0223178993715725, -0.9760019819015878, -2.988410063003208, -5.85661934031327, -8.13832822885245, -10.352475373038834, -9.474091008944301, -7.791637080007548, -7.551157900601536, -8.175238470958647, -6.211933217209517, -3.2683431297843573, 0.6237695338603869, 2.8202254788088785, 3.8747449241584735, 3.1027275852973437, 2.521227920965754, 1.8790997009809045, -1.050827829612997, -0.2837601697042861, 0.40409858285497907, -0.8788860576552614, 1.4510243998281072, -0.6751212277843888, 0.7359406327300824, -0.809271172157856, 0.9844146258598825, 0.41649327391382807, 0.8007391990999654, -2.0782140143130396, -2.4812011403340746, -4.528986171140744, -4.552580018474406, -8.658690270549073, -7.141714069257852, -4.7768163968093775, -5.566745381429494, -4.709393833438891, -3.215639407736209, -0.0995545816351382, 1.264040674552648, 0.011889257485609931, 0.5310427036403867, 0.9008399800402079, 1.8110257488872736, 0.991241303632678, -3.008338335133811, 0.03364345009587206, 1.479656318825665, 0.1376599329501719, -0.3172204028096885, -1.0713471865395874, -0.7864840020391689, -1.6285639241753835, -0.5069258669450233, 0.025214844637359887, -1.5936669588760977, 0.47882440206703814, -0.8089290444020907, -0.44994972125813804, -2.132894650485426, -0.4981301231313676, -3.0825835357553397, 1.7692940469119398, -0.8321480157822674, -0.368642088779885, 0.9244010042289174, 0.4523009468056797, 0.017225888673126716, 0.2556185384996302, -0.6304031389763022, -0.8485171599343132, -0.6020673850821445, -1.737624651269953, -2.512512848223403, -1.5891562549091462, -0.014806559093795295, 0.23333156050671916, 1.6558853643606635, 0.9140635009440043, 1.2954761606479692, -0.04775510468446415, 1.8444074884775474, 0.5158904735841469, 0.919681800184958, -0.7570296202053874, 0.11715468900152286, 1.0817169276832967, 2.9971162072070845, 3.0940063432373073, 3.3571847278302003, 1.377021562649265, 1.9418105789134863, 0.3738774641516382, 1.347328797711227, 0.2053405149256749, 0.6160467014309975, -1.3813034150101804, -3.499548150678768, -3.8479377121358644, -3.158639278523645, -3.094038393575157, -1.8363175056744532, 0.15636647101456758, 0.6420833715680136, 0.15834869966277956, -0.6168790107374714, 0.383450105951255, -0.5815452019981232, 0.04136691813402105, -0.7998391158421002, 1.0821296017581084, -0.5165433735175868, 0.6468529325422356, 0.3114409179282274, 1.706324507897196, 2.5989174561045787, 2.781057506530333, 3.7997092262541536, 2.903443121582224, 0.38002790088519267, 1.2431287482064572, 1.1542151585913747, 0.20291445124610427, -1.9503760132762145, -3.2155127109700636, -3.314035293638336, -3.2638987091402707, -4.527451902259083, -1.1772813314827504, -1.9674534181824734, 0.56588459969542, -0.4784618080488773, -2.5787058241699894, 0.32557595494278235, 1.7908143800148804, -2.0077810688175277, -1.9629373662990095, 0.19509508876151685, 3.495376485599556, 0.9069198431914135, 1.7972656394973683, 3.0321731870322775, 4.255446417472595, 2.5194012383296513, 4.905933315947673, 1.9740394734212476, 1.0150486046010982, 0.7046929383046373, 3.1753055293482264, 2.1015286385549246, -0.16684125075893108, -2.0017528296018567, -4.5293061154146566, -4.301863727494641, -4.359187955362724, -2.0942435981342133, 1.367625615114702, 0.3289840714275766, 0.5262607757572613, 1.5808592180502479, 0.626315417577246, -0.12256678036732403, 0.5803318913268076, 0.3440169119672129, 0.41898926875309167, 0.6107157836273549, -0.5587824138863371, 3.1504202015754497, -0.35344802501191963, 2.9896432255797802, 5.185113848250758, 6.626546007889566, 5.625557666881661, 4.1968321131232535, 3.263681312308328, 2.193434125529648, 1.8974288361442686, -1.1667461571658009, -1.3708602597404111, -0.7237623799021032, -3.3823380329348858, -3.011704811829226, -2.151991961978614, -0.3944548197913959, -1.8020679218710725, 1.4050471131801165, 0.06861031257990167, -0.21954536990438603, 1.8687004867561285, -1.1549009812990536, 0.09433233690355775, 0.4281059150416512, 0.8165368307703433, -0.4842568347099186, 0.5115429813206074, 1.7625888889978025, 0.7923579261957172, 1.4952190565360812, 3.8722172265123476, 2.6307247397756726, 3.1577560520804218, 3.7331911333865095, 1.0808041096937242, 1.4793541747645005, -0.9666847597190674, -1.2589175485827986, -1.264797390394944, -3.0742096368527414, -3.6475568330459582, -1.5763051103194627, -2.0606755987771352, -1.8560490283342763, -2.2142239674159456, -0.31294487954308864, 0.3412782390006925, -0.3297368707636506, -1.7074085684296931, 0.5462183308794013, -1.0700990807246118, -1.1874348745704353, 0.6996526077491078, -0.12745499466112675, 0.4596992800244157, 1.4836188485994641, 1.102786452761709, 1.4066269855432179, 0.7129972871151858, 0.10847963599723094, 1.1935557318321524, 0.03270384476035772, -0.9724018860568924, -2.1544754738614027, -0.600979257192026, 1.0926724618399766, -1.2105611831577006, 0.16168529886462696, -0.47888268819953606, -0.3753164975355878, 0.5028767065236992, -0.5288700130561022, -1.8184379532878856, -0.04015989977136833, -1.1589650457456167, -0.9348700390508177, -0.4829191002305124, 0.20236150103830602, 0.16731948640056782, -0.7112772183009971, -1.0249868000022901, -0.6605992024105536, 0.21804852293037416, -0.5237335049656098, -0.22530677611520408, 1.8827863044172342, -0.05955271748004538, -0.16797854885174132, 1.222251711060487, 0.9455380416911181, 0.5616084742752498, -0.20526650862303178, -0.8295947854421108, 0.15423876854041527, 0.41187850340900134, -0.3229110481502898, -1.7614400046765357, 0.806839584719506, 0.2742967424862465, -0.025764740437429587, -1.75208521225548, -0.5011212272154196, 1.0203614909657612, -0.06565044942837263, -2.1768897527360656, -0.8282449764654, 0.7106206409440079, 0.5529360867847956, 2.048849385273373, -1.035767362991916, 0.5992685833495721, 1.2416361150416424, -1.0355930664453294, 1.1688583890350692, 1.763520052537728, -0.19835019529076325, 1.1443493362455284, 0.6813501523819975, -0.7078131023518128, 1.4433727040903692, -0.5831317871917088, -0.4199947554591826, 0.4594640426122449, 1.3222074474523042, 0.2595832801398934, 0.36937144760257834, 2.496276144793009, 0.004831966831756003, -0.9217591039482146, -0.4434626569582636, -0.29225524805385816, 0.8526751120665345, -1.6013726144636458],
[0.019106828200365373, 1.025478032758102, -0.7414951599539877, 0.263009664484822, -0.6555540961682365, 1.389949377947136, 0.07951148835575697, -0.4536711729251844, 0.0644231958868578, 0.6250952096917074, -1.016410704373667, 1.4497844813344345, -1.1951778988251385, -1.5551034158296582, -0.3056091335342341, 1.451445892559706E-4, -1.1533985288592712, 0.5088714527881248, 2.7642224672509284, -1.343567917250345, 0.8183907031293473, 0.4108308071098497, 0.8401229303178577, 0.6622027251401189, 0.8246286092658367, 0.4907731214231252, -1.8044644812652701, -0.1876728506421134, 0.03305649080639966, -0.7678986240123878, -0.4857313506538461, 0.3320297502999468, 1.2599224765748471, 0.8655950035309574, -0.6824365437034223, -0.1564982871899152, -1.2912982152171397, 0.9179843492128453, -0.5290070644390072, -0.11913570514680004, 0.5945222410013314, 1.8064632128999845, -0.16641918955134902, 0.11040419748011579, -0.8882091946141115, 0.287091359232392, 0.5957326487630028, 0.2357674665161026, 0.37230461713718255, 0.1661184297515307, -0.0491166327300104, -0.36317973870138415, 0.19386024348106304, -0.3114225797007887, -2.3249725674945307, -0.3633008355772835, 2.2842672354458746, -0.4008940715374931, 0.7353253765194144, -0.7745545577923026, 0.6506706741296311, -0.6575436259365334, -0.3892010739611875, -0.5843568851924211, 0.4577770180956036, -0.647845983731446, 0.1073451574957023, -1.9316783440234564, 1.2969657701435051, -1.2440451791714162, -2.2428276237465647, 0.8642052547367812, 0.16984755300563995, 1.918304843741999, -0.3483329976568244, 0.5596085495437955, -1.714880270806791, 1.040144578119379, -0.6789560489514194, -2.7294096533571253, 0.3311050244877054, -0.09159838470563705, -0.4285748493944141, -1.6047171236346918, 1.7825961265819859, 0.030340175860786866, -0.5903767795481957, -0.17802769053976347, 0.4496780750138446, -0.27065037713171297, -1.7619477411513487, 1.1241492188104407, 0.42644248741615187, 1.4095517181093073, -0.20663294545965238, 0.21597183362425978, -2.178731234201691, -0.5123867944811359, -0.0952215128287798, -2.785542258899966, -1.394731175049616, 1.1986793806589193, -3.5411077907279442, -0.7909447315859599, -1.367623624991973, -1.8654794911234325, 0.16204053406413962, -0.6778652223888793, -0.8287018208894574, -1.437179594211396, 1.5270157175422119, 0.9730468532536509, -0.10090424537096344, 0.8169723510270446, 0.4127847802391699, -0.33779200666831544, -0.3541297767909945, 0.06592724483680314, 1.0718674147651903, 0.3200513396410633, -0.17262645483088035, 0.8938419056148814, -0.05448807763477497, -0.022345881670613153, -0.39748564846090906, 0.4061769256370277, 1.637304062813248, -0.40245848299621, 0.10363727176693753, -1.039324652766361, -1.617620304961053, -1.1193695603759097, -0.6861086348937027, -2.4457056390162224, -0.046100093193303555, -0.5360349539549877, -0.5599029487495999, -1.106011840802858, -0.5380655794128748, -1.8295136559160834, -0.6109944987025896, 1.0911845840301244, -0.933573581416003, 1.7397103712051794, -1.098084203773239, -1.5890954041940182, 0.7138549392812353, 1.0735650734575202, 0.6146198932204163, 1.1742776334008689, 0.7379429319478148, 1.4887949264603269, 0.8951728140267267, 1.2041680468951936, -0.24205383130311073, 2.5165035471539134, -1.43934184859455, 0.8967526472638823, 0.6091141458020132, 0.7952985196578884, 0.01924639997600301, -0.8541000176299522, -0.520084904602233, -0.05982406833444495, -0.3604737960629468, -0.2387225679863172, 1.4785763904482823, 1.0807007078971118, 0.5131848232646263, -0.8157042160899628, 0.5641558932830901, 0.2937982198754494, 0.6195758434391716, 0.3130258843623087, -0.8483171340432342, 0.5647824902287679, 1.9765655902810697, -0.8060850034587166, -1.0695737684757027, 0.17214959289760176, -1.7048458133450042, 0.16201983307192996, -1.240361759332161, -1.740337005336714, -0.4474506955252001, -0.23884807870196967, 0.33794045218719765, 0.4573314853858092, 1.9941057595666167, 0.23015584460332414, 0.32843571367585456, -0.9356626335629545, -1.7435201663831807, -1.3064220226878107, 1.9160890181036636, -0.11518676868979211, 1.0919903840700087, -0.10751083252011637, 0.1234059753333394, 0.4865602978275378, 1.1797921973929573, -1.5165118972813898, 1.34950695925631, -0.16579389141932596, 1.1918577769199932, -0.20964402374898608, 1.414051675399679, -1.3320329199619039, -0.18315601136350432, -2.14551643316543, -1.0427671355774393, -2.6634096554789477, -1.6386230446254602, 1.9251969963141995, 1.7826935049404484, 2.935350234561891, 1.999051381431892, -0.03339377157411283, 0.9422420807045386, -2.3940028216166533, -1.8854740019290332, -0.6403874456298339, -1.3292991376109229, 0.3170179478359223, -0.3089020480610014, 1.3616497321709304, 0.963573420753761, -0.21059076617787043, -1.2270206857703505, 1.5530249332102433, -0.8121919909603045, -0.14647220909120728, 0.34843834733336276, 0.9578530605495977, 1.7295746575739508, 0.3321636530567765, -0.6379927868348342, -0.757118724102201, -1.1612310985223464, 0.2892556417172335, 1.2439830820031226, 2.7668794950371067, 4.550509733381176, 3.1927134022483297, 2.9716751998501416, 0.021738426321791814, 0.025684902193752853, 0.9678688467911263, -2.483363201993226, -0.6605439194667404, -0.49772875170579517, -0.6684922586189121, 0.30571398755940477, 0.67912044664986, -0.6795203302774178, -0.5615212457106556, -0.4619618232681512, 0.8200113785162549, 0.2431182774714004, 0.6137298338697195, -1.580987347710718, 0.5676848046554799, 0.11317125234490609, 0.2189889037774977, 0.728610113450219, -1.505576907809116, 1.557198799784761, 1.2334613269116539, 2.2191973781531185, 4.197913527737112, 4.747167430778736, 3.056701357659827, 1.4386268328012537, 1.9097984958996634, -1.5130192107356084, -0.7790943068412964, -3.1253071873839953, -0.22549855465446528, 0.17846309730037896, -0.5403956716011065, 0.008686421193819295, -0.4630591711645691, -2.085478980720992, -0.7911152648345599, 0.5405925136261455, -0.49348841299671575, -0.9333191964219311, 0.1510807429230244, -0.15860673889552204, -0.18384825272736216, -0.7028493001248778, -0.10371154527053708, -2.0826597214598923, -4.134242315085668, -3.4693479361323307, -0.926046273375616, 1.9269834817772293, 4.267804608980168, 1.7507174741950615, 1.4858047690728324, 1.6204709490634983, 2.893917387130153, 1.282164707797373, -1.7601527341345782, -0.06212085334127264, -1.3205417946652467, 0.3247001712695721, 2.139739092453796, 0.04272207552154049, 0.6746547042489549, 0.5902854729882727, 2.5163150930449323, -1.1538516274654713, -0.6601260183825416, -0.7714023343604074, -2.357642132618175, -0.6520850507304959, -0.6667045467942921, -1.1479183257752579, -2.9139371009215833, -6.924518985259911, -7.948208523768765, -7.616574030366082, -3.941962396944655, -2.4625294343590323, 0.19612351063551614, 1.5565466869167908, 3.280031815874029, 1.515166564593548, 2.975367702445384, 2.7766202721389814, 1.2537832517039824, -2.066815089969577, -2.1972036681788842, -0.6685971448738318, 0.9019406946549591, 0.8756573318899981, 0.7195902212339685, -0.2824537982685589, -0.7229509289009747, 1.5290863604966318, 1.7103912587886154, -0.297664218472934, -1.3564911120717924, -2.951883991473047, -2.7088494643699, -4.204964922831406, -5.172936572831364, -9.78530413700622, -13.026584367242588, -9.873147715848729, -7.095677261228156, -3.2070538432362135, -4.613055046933643, -0.3260682071238774, 1.9049747187879376, 2.3906897285240234, 2.452623270537831, 1.2785232328760867, 1.4408863744669456, 0.16621418366955426, 0.19801076146052274, -0.1698996487865147, 0.8890380831839324, -0.6044827759774726, -1.155542115729138, 0.15139661881805433, 0.958733669524028, 0.6857753184174958, -0.6543755041295063, 1.3552894299898053, 0.6637133429351064, -1.8793756805313058, -1.6307365055113527, -4.662241271910726, -5.372583337490088, -10.5272334081044, -9.425331247995189, -10.853192975760797, -8.950106911869948, -8.389384440567454, -4.97931203025401, -2.6615901577092207, 0.5755117997010382, 2.6320413808033525, 1.0416404702265294, 0.4235887304259774, 1.5281101675469322, 0.5679805023623684, 0.1021916277126405, 0.7415829677288656, -0.8582176877261345, 0.2164858219633748, -1.6257779632381082, 1.3002578411747379, -0.1419919491006359, -0.9105213101445854, 0.5527267593696024, 1.7654362282088452, 0.8766140876863048, 2.5606985427751905, -0.05138789772474055, -1.6945155778634318, -4.1548337485605975, -8.645606649005442, -6.174961730972972, -5.044564374003986, -4.792227765160689, -5.546362918456915, -3.1542809976260595, -1.0782515974132614, 0.28906736857413323, 0.5481440991473403, 3.1219517371755723, 1.8579821676654487, 1.6583001492177534, 0.8089145168001516, -0.8465288190710819, -0.8969341124116084, 0.036174886703660036, 0.4011014455160377, -0.4281800688328688, 1.735734911635636, 0.1146375163033468, -0.43795791166301146, 0.646314828636199, 3.8563176558399874, 3.553441293239756, 3.8320948810861393, 3.7772981624039716, 1.8931516605437777, -2.7294630264686996, -3.2357834158750127, -1.5806102898192564, -1.7475557029485291, -1.2575064104549627, 0.2584339257616548, 1.1923989441136242, -0.9096786383752314, -0.11484430807258648, -2.466012445880344, 1.5116743433820934, -0.6824636640772058, -0.003195378027151915, -0.0020833876390866624, 0.7129902062656931, 1.7166655780166034, -0.9805732254389782, -0.2515268133623548, 0.21295022673990038, -0.2807639163285635, 1.331572376880852, 0.5692424085985575, 2.951152545963743, 5.240719906058196, 4.847298074679038, 5.743841876084109, 5.2887991080746115, 3.219170480878237, 3.0221840763407837, 0.4644973476729796, 2.7172669898098882, 4.676093779563506, 4.2629748166662935, 2.3559907731831378, 1.8660900566727243, -0.8122646002736145, -1.8901942391560056, -0.5799663374691975, -1.3243692406394494, 0.9706780753482488, 1.7284553181548161, 1.9045681154485423, 0.27985749239671065, 0.962882067088678, -0.27783096429157694, 1.0814404018879078, 1.9174955370465767, -1.2732477509323559, -0.051095236170822046, 1.089454625752133, 2.8363631788938943, 6.079262390951518, 5.078020189154837, 4.050198461810932, 3.603739579124828, 2.258188230207834, 2.5228923688295457, 3.9081617744495114, 5.271839162210081, 5.9842526995587795, 7.646135761562385, 2.5261023534959763, 0.0075316358655498315, -3.4255755002662087, -3.139121081495756, -2.8866934374524207, -1.1779763697844023, 3.2023777021137567, 0.7070184085887579, 2.9235241532713685, 0.6009199042251522, 1.683103827151811, 1.6323997090526083, 0.5155442902645294, -2.3911689497798494, 0.8781012244875346, 1.6857826934844036, -1.5701336630165852, 2.3548299238741794, 3.142312243120115, 3.002756704242635, 3.5704161202536158, 2.063405679204253, 1.274323044622074, 2.8869600231132857, 2.816736879398044, 5.091697756898505, 5.523159926083738, 4.7549106675341495, -1.0016578456179144, -1.7494667502629109, -5.024662559462366, -2.25653500443128, -2.7134677392874136, 0.03430788822924402, -0.49288481493268865, 1.2636991056147555, 1.9013969678615927, 1.8147899605265565, -0.2903680569729886, 0.10633712770413857, -1.2735949855712363, -2.107544831846375, -0.4329523299793064, 0.8971384998181318, 1.0848954699971778, 1.2347500013755388, 3.3958645409252046, -0.2240380307262405, 0.35809480591588894, 1.2774968649541016, -1.1144064394885906, 0.32165633557471035, 1.6005251503447597, 1.7780636683332336, 1.6825088738266258, 2.448941758689418, -1.277484611727304, -2.262149978345172, -2.8607432758803077, -0.46563820024825964, -2.3089007339623615, 0.6890475979623368, 1.4563131054964293, 2.5643333449945698, 3.0788156703113208, 1.3713595142907198, 0.09368903287580795, 0.5235782957875302, 1.170663028205436, 2.263413831995296, 0.460363697611029, -0.9363983750788912, -0.9499053161229655, 0.5104776872948209, 0.04655842046361895, 0.3400364209169321, 0.1493948129332665, -1.0260596389212795, -2.460356238380272, 0.9505213981518363, -1.721239485560083, -1.6140502298754513, -1.7466592539162795, -1.8028995818902314, -3.6740104640564097, -0.8923901543669452, -1.6207903460356903, -0.4955658132658711, 0.705151360391635, 3.0713640854200466, 1.7811272469455373, 2.6140739173983247, 3.8771242134623365, 0.7096192325142858, -1.7528961366783269, 1.6160138069781926, -0.1790822625650741, -0.9766981542367069, -0.28740471171996007, -1.4203299509049272, -2.236354822358021, -1.2246595856997362, 0.6646066678253477, 0.28829429171244836, 2.1832078051240744, 0.44825980626253814, 0.4890576448018908, -2.754188681798073, -2.723723963710781, -1.4953414612057323, -3.000745688654837, -5.862802892806285, -1.990628352765491, -1.5898812075479476, -1.4765874393796514, -0.19227166450449204, 0.958783211461183, 3.011188126007539, 0.7483985833068, 1.4902953534452963, 2.6288042910981484, 0.4316662869092508, -1.0616217892801025, -1.177267549366176, -1.1750326993062845, -1.0792466492309523, 0.08923541827288382, 0.4802875545002116, -1.8600055214678202, -1.4542074102530398, -0.8806520856096512, 0.4403667193338716, -0.6516963286523966, -0.7543602176196225, -1.8449287347884809, -1.8733776302455956, -2.014241630202725, -4.7531489345117155, -4.661708630088235, -3.7803545318654037, -2.1419497672139083, -1.4171509150679789, -0.008737544622952953, -0.9158188088171246, 1.0660893389600103, 1.7176643813399615, 0.09937883164874596, 2.6215607307672095, -1.3346433829257474, -1.3853257516041115, -1.0549308290238888, 0.05201091855135656, -0.6943513641907604, 1.1885902531664763, 1.311556622017836, -0.4592253944742237, 0.6105299050845788, -1.6345216625623078, -1.4453848777490277, -0.8075043738439076, -0.9070090757286597, -1.329239950987811, -2.2571252140529676, -2.527181317026164, -3.0560856574243584, -2.873463966314709, -3.8708594005816233, -1.5862085550674874, -1.872466508932678, -1.746617753070716, -0.1442210298941996, -0.8668203457974608, 0.3854522459532737, 0.4505412972689665, 1.2376090619126605, -0.2951858185234746, 0.08228104360808115, 0.8578546362732481, -1.055049076685672, -0.9463723713515636, 0.361495499718402, -0.5961349388585516, 1.536476560095539, 0.5385203211479028, 1.739299528848067, -0.16060137516233447, -0.9891407689339095, -1.0395214826484005, -1.0451490864950441, -3.6752934655193337, -2.4008030072221067, -3.3745046649639137, -0.08405708351921261, -1.1707831495215948, -2.582412578527464, -1.6394673712093975, -1.7796284648072005, 0.3736141468630605, -1.4505112135166751, -0.03137691130084899, -1.0227735535115607, -0.1715645206960446, 0.5938826098591826, 2.372365272270565, 0.8681910379190543, -3.154849636339518, 1.033622863689039, -0.06268050487108634, -1.2321136394529433, 1.6230482457073923, 0.1637093763329885, -0.3524144147663793, -0.39454290766237404, -1.476222415576743, -0.013100219457595989, 0.1614690851693364, -0.3782504615135456, -1.9711023249695396, 1.317947784737777, 0.043561818299737626, -2.405260593699355, -1.3199360535077116, 0.055426119725463886, -0.901250334667203, -1.1738368138152677, 0.048966691049292195, 2.008288689785856, -1.63088297959803, -0.39272029669339187, 0.27247940171332036, -0.4787566029607106, -0.7111801893953014, 0.6673186471785241, -0.6749555356254557, 2.7511329729649616, -0.952142827557682, 0.6698021935620883, -1.4649978544518267, 0.2879897234299848, -0.7092571191118388, 0.5458666044177242, 0.12418953386847262, 1.5536774346951463, -0.2536026382498793, 0.6749421025415139, -0.3576489164964077, 0.5639991965855772, -1.4522779638180017, 1.8348376848052093, 0.25248275227614053, -0.3227491653969107, -1.520242802954391, -1.1253845744623516, 0.30035668486643424, 0.3092760738522009, 0.801110291429925, 0.3222186714606653, 1.1748895056760884, 0.5561824577252484, -2.5360155957210617, 0.6086545428963372, -0.7013709111237486, -0.5116721882675246, 0.25552276961937354, -0.3649996166789367, 1.4859309142866082, 0.04953316895641469, 0.7645225117421236, -3.1617838227061656, -0.014038650472049354, -0.6078536057810849, -1.8745977457195313, -1.8538266498651048, -0.5050632603330534, -0.4374239572067495, 0.6319474244218801, 0.5471013063631248, 0.972976455952438, -0.01928416277972361, 0.522644146968411, -2.7854756777492984, 1.6003050740457376, -0.9370751118805393, -1.6632404722524214, -0.32602052690651045, -2.5614593524445146, -1.0641035077313965, 1.4465492965641125, 1.6780239228697453, -0.878862524984613, -0.2734491919721052, 0.4525721102497656],
