-1.0
[[0.09003204611570685, -0.5305586027126644, -1.6063538616304431, -0.11099730464818039, 1.1376448295244919, -2.423887548389146, 0.9654581570119731, -1.122601717323491, -1.1360399910285568, -1.022965055115502, -1.4991914596896059, 0.12251914047543008, -0.6855053874114485, -1.6638419591463698, -2.1383567663136738, -1.7755911105356115, 0.7575872289047604, 1.6849394900915404, 0.2650007738550665, -2.4301767980148314, -0.7189152381372463, -2.178026544499844, 0.5635348928574276, -1.0996039318414026, -1.328735605976693, -1.0053367056229774, 0.07299143206617972, -1.59111015180245, 0.08159513405086297, -0.7240339859454814, 0.44525363322990624, -1.5789881604213818, 0.3079402127473228, 0.4214996343473357, -0.9179763209024006, 0.07615525776546014, -0.7476100067733357, 0.6206467330285492, 0.3841664935290283, 0.4959406441102366, -0.8934466780946481, -0.5484882730274409, -1.5200097227993694, -0.014029699707813214, 0.11971942008615713, 0.19444673996221679, 1.745167822975317, 0.7449284128474184, 0.6560146742455217, 1.6641773203619823, -0.04264846535192176, -0.04930102301732152, -0.2160896791437855, 1.212852765339376, -0.3294241105259353, -0.32257012295774745, 0.03977094114567222, -0.056843472237036785, 1.2972824285545326, -1.3611931414635952, -0.7956465052210657, 1.4025414254227284, 0.7155370830816656, 0.8396951981689247, -0.6933658012735308, 0.7316349903162493, -0.30513311156218015, -0.823101079045477, 1.1073725399873962, 0.6430483909760197, 0.16262555169132706, -0.07071500455131774, -1.0501413541127458, 1.1339363704472587, -0.8085043136064374, 0.19541173010008017, 2.1929025193979377, 0.022992026461024155, -0.2443025849509438, -0.0072494063431010475, 1.4527923351804755, -1.1537864817798664, 2.1198676419605955, -0.6925236875439811, -1.7950080470132397, -1.3462119631171647, -0.3688126507778642, -0.4435949594591029, -1.6782821776032395, -1.888779289895523, 1.4178169850200133, -0.5590779059035624, 1.1075958996627262, -0.9599695169897784, 0.8567637626531777, 0.33146297602685976, 1.309322159152365, -1.159848620254717, 1.1280103427665187, -0.3441814292044967, -0.4848471874087775, 1.3242923535590412, -0.5256886656499459, 0.39025285705881263, 0.3626228521119415, 1.3967966270763637, 0.10206132573346054, 1.3377063442858221, 1.6520300787068867, -0.7291761386242361, -1.0219411038991713, 0.475361731780598, -1.1956743835508048, 0.589859703368453, 0.9089411755249476, 0.28454408337105436, -0.7019027513078191, -1.898089732546222, 0.4999430201900281, -0.7183336574904866, -1.3439514287357632, 2.671633857396289, 0.6498809322858062, 0.7136230925625842, 0.16623863111504528, 0.003422546364725021, 0.7642062475017027, 0.2580801678869305, -0.2757798823916291, 1.2115777851664378, 0.20654104372799484, 1.6373385484977472, -0.39042557878070994, 0.6543107816687521, -1.3619819246260187, -0.7783410904962098, 1.6975905534297981, -0.05106721085919982, 0.37596667638872633, 0.4126179931107015, -2.0729007218564948, 0.44649308678275973, -1.3539594131268324, -2.8978228891384052, 0.44421295496035224, -0.8245987407171691, 0.5779172355944526, -0.7345683496011471, 1.096177090183638, 1.0106201557447057, -0.23474072350103078, 1.4521244287674735, -0.08798094952961796, -0.8321028570698813, 0.4205668459678506, -0.6919180842732356, -0.03313606793297902, -0.8392770701182044, -0.5055972956653579, -0.16195299391812662, -0.4139066243297933, 0.15834661559726607, -0.3707111233672075, -0.32908412204168647, 0.923050272173833, 0.39763048147946206, 1.0010443006441838, 0.043138950961533015, -1.696890395261494, -0.42631231199791747, -0.4359104592565021, -1.056715660261332, -0.5267338221698519, 0.21925882922166287, -0.5527869286007956, 1.1982089063222645, 0.484090482808471, -0.16596807433167837, -1.4580178701590845, 1.006518010102198, -0.5376178969220392, 2.185413782870785, 0.6074105781227638, -0.10998720388377532, 1.0060083066519745, -0.5869153657571988, -1.4210690706803462, 1.07648832503632, 1.6504158012340127, 1.4117451335198352, 1.2139256780759602, 0.49415083349291533, 2.113307587745892, 1.3015475314320835, -0.62043626429085, -1.253543506482629, 0.3678550771969006, 1.1303978136631627, -0.35357232042085945, 0.7708195746167821, -1.4302540096649152, 0.05088432033134695, -0.6277470436609897, 0.7414276383965585, -1.1883696437903224, 2.2745577128512013, 1.495147234342415, 0.05858630221314512, 0.3339851011318822, 0.7473445579338416, -0.31721467873163484, 1.2402375721942986, -0.5536919259760932, -0.43441281897386225, -0.3371918946167903, -1.180968441581007, 0.14830062744650496, -0.6114714843683005, 0.2914782362493292, -0.308427658929043, -0.10656712014755204, 0.705862462163083, 2.2565627479089274, -0.05209012894815905, -0.7975504913189402, -0.4173935607412729, -0.6837002151120336, -0.8647193055973719, 0.19082027685187689, -0.8013007387302454, -1.2443048787036135, -2.356542834073896, -0.856781580353409, -0.48084415545479064, -1.0744334194767287, 0.798117401605573, 1.0302220467841439, 0.2415979118041353, -1.0529228796820016, 0.987463441752376, -0.07321760173586006, -0.06564949412093754, -0.8273919893791132, -2.264576722987227, -1.6914060185553186, 1.5784499004638044, 0.2582487337290825, 0.7910014628632583, 0.9982232707159059, -0.001681162327925763, 0.7958688639304156, -1.491131343318173, -0.8796086810279494, -0.0949508022693321, 0.15252209968061864, -1.8732102930669965, -1.4140207992858516, -0.4779027991326317, 0.6736950613060079, 0.5700628905275367, 0.7717615300440657, -0.37138901490508197, -1.1696112495769553, 0.1856147451289393, 0.4662174644716289, 0.8970036655513121, 0.5755820308858923, -1.0685121894942486, -0.6589740401585742, -0.5100598598594641, -1.5291805547161552, 0.49935074232316246, -1.7333056802280713, -1.074198810619439, -3.1525560398815875, -0.7617302241532957, -1.6445346505109715, -0.3913341539400305, -0.3620373983050637, -0.1675719278265712, 0.6154303217806432, 0.14327945900835815, 0.7561818856499842, -0.2851406723002442, -0.8816196035352156, 0.06194007655330453, -0.125630013393021, 0.3834799884665617, -0.43318665287679886, 0.3253510811282642, -0.49068623792936705, 1.260835351504538, -1.2213213990839713, 0.5872664804148452, -1.0895571798306245, 0.9451465991030058, 0.489345760513802, -0.0960105466251413, -1.0704105251146554, 0.7103538238942566, 0.6377370134213645, 0.11744635366124463, 0.051686349594400695, -0.6246683555026087, -1.118204686294983, -0.7897048346142092, -0.5686279433679536, 0.08370417723962781, 0.4107172421464358, 0.2989073661913927, -0.44863245259194257, 0.34816886478054315, 0.35192120679474914, 0.008597037815739174, 1.566830367039937, -0.45517037888348477, -2.364371560985647, -1.8520450246066873, -1.2010964590783617, -0.12272914771760007, 0.8224301631995156, 0.3987411113484821, -0.05823711571983449, -0.0770702349919604, -1.4570448448864817, -1.082429814613753, 1.4196730556234614, -0.37039861383399886, 0.9541324994864616, -0.30445165536542923, 1.1104805711423762, -0.287490391503702, 0.6175546205643979, -0.0010710475411927415, 0.0838386717887255, -0.31066012021366346, -0.058916349181318675, 0.20426648393552335, 1.0634317111567737, 1.0862280550740728, 0.938160687714603, 0.7676223281653264, 0.930801737234084, -0.7680044363687835, -1.2874699408849113, -2.128019717401834, 2.3217360087448027, 1.3647076884389946, 0.4579678523861361, -1.1572165692917395, 0.9898065831147747, -1.2672988640352372, 0.16392605584210204, -0.6013206272278457, 1.53484028399721, -0.2978653520971723, 1.1973390981519725, 0.777507077624915, 0.6667011341791916, 0.48035165697158794, 1.1830995631910055, -1.1554699357703215, 1.1810299496173848, -1.1098728830867064, -1.059583334424953, -0.5124659352865986, -1.2014268622080013, 0.09877129688563535, 0.340531006180049, -0.47618546988534144, 1.8117818437861897, 0.5402701827342702, -0.9317985416979164, -0.5783910793865048, 0.22046611725874304, 0.00838122210821206, -0.8996981734455556, 0.9361130085920181, -0.9280051097491856, 0.3928609473280449, 0.5731639816132407, -2.0348918827666025, 0.5532758323814992, 1.3404203611354932, -0.811473427046145, 0.6859407665761407, -0.09078639375331615, -1.7339539859471311, 0.8136637022768277, -1.4582667459103311, 1.4959529706319443, 0.03479830189173607, -0.4525676915756208, 1.1321313703538112, 0.31258414879896274, -1.1420882884877115, 0.9768909941741142, 0.6297089548635303, -0.6142417850464389, -0.2344702158862818, -0.1796709011273961, 0.4683431171672452, 0.2863923611704808, 0.8146713071247405, 0.5782619927789464, -0.8792277217356154, 0.437619069943659, 0.2550329118427284, 0.6747004039914334, 0.3101815117757715, 0.7578037655185611, 1.64281151841424, 1.1993693061386235, -0.5279559451751321, -0.4889233727816561, -1.0294919512035854, 0.02441816192957914, -0.019413047468352276, 0.3189616552058941, 0.011581700532246247, -0.7631841177567874, -0.22161186011179793, -0.17519880140265534, -3.025075492521108, -0.34194408712404645, -0.39709037119457513, -0.5506757999876364, -0.1023224480128077, -0.8861107001981591, -0.4080501609805759, 0.8605520186082521, -0.04829902747320532, -0.04918781018639076, 0.4769342722476564, 1.0156104841322076, 0.6984376831449367, 0.35091448134604786, -0.670970191012804, -1.0127382521618156, 0.44320233972905615, -0.5922382096667653, -2.194041692699248, 0.17925419406527401, 0.7259032708300193, -0.36918287348836093, -0.5203568334986458, 0.8591827651271178, -0.5053523172756389, 0.0032123548337218504, -0.2457606201265792, 1.1183544196370752, 1.6162189908253954, -1.1664075673096672, 1.912598137267708, 0.2608982796052414, 1.561071814972319, 0.3372614354419778, -0.6350392031173858, -0.6631286872718293, -0.7289874687552867, 0.3389898364650602, -0.15123249493262123, -0.8691465236269235, 0.3583090668461562, -1.034746666498179, -0.10706037260728789, -1.0773642224749567, 2.710653756910294, 1.9689838764982668, -0.49502217194596065, -1.3852464043528816, -0.5102076218599115, 2.8115249131879807, 0.07099370255009417, -0.2649019235372989, -0.44702031923841345, 0.13522152305315094, 1.3583015610065332, 1.263453178093918, 0.07810465506646086, -0.8869521197400076, 1.3635205806752742, 0.4959850943718953, -0.5116246546583293, 0.21739132444235795, -1.2891945235946107, -0.14684140383678762, 1.7800756358776164, 0.581510743424881, -0.22484253685166872, -1.5961895128001378, 0.3359169775857163, -0.8460905996234318, -0.4478344194779168, -1.193310923693107, 1.8111037388072595, -0.825309700523432, 0.7218669619950963, 0.46793788739178355, 0.4708616854329492, -0.25094192829966744, 1.0450009327010628, 0.3038751663126089, -2.1181115514644353, -0.7053210963376627, 1.0667643539689196, -2.1099740885379017, 1.0495584816313686, 0.8066632666945761, 0.18141007992913355, 0.6457947212016903, 0.8609149381125288, 0.7726622625888375, 1.943039559700992, 0.8351584174234261, -1.1319287355253138, 0.6045851490123284, 1.1151384563835742, 1.0471682924292358, -0.7592342351066123, -0.3143397577403177, 1.0887003067524381, 0.8365188994943683, 0.8726740112488057, 1.10836422603248, 0.11414138648003448, 1.1632464660337216, 0.9936709144468581, 0.8036722590451342, 0.44895434695685654, 2.383733832096902, -1.9469844452746736, -0.7779125357908662, -0.6097624504523563, -0.21228059065367133, 1.152443154393922, -0.09898855541404716, 1.6703229054385318, 1.233726799646833, -0.019928875767893227, -0.3731319332632589, 0.9079905040885855, -0.5416972683447534, -1.922921840528911, 2.113093840287889, 0.2745362532182158, -0.9246780017849546, 0.3015542541814345, 1.6213550798877465, 1.0419485495142837, -0.6982889662823789, 0.2521173444826122, 1.099083065683146, -1.7176737856337556, 1.1997616257740011, -1.3598482432134087, -1.9018707578747136, 0.8500374394451518, -0.13834043680788283, 1.068277590586043, -0.9911787290096316, 1.4704142120059271, -0.3555973745881438, 0.10725693537702961, -0.17163091998861602, 1.3417950486334873, -0.21042134239207047, 1.0223407309204027, -0.5780440892775808, -1.0488557972888521, 1.1564450206468988, 1.0513994712230834, -0.48771031072318555, 1.4789247054891195, -1.8549103443607318, -1.6666128380919394, 0.5471022195898518, 0.2817023607313936, 0.49645338139624307, -0.4449157368834245, -0.984261959805648, 0.933485134995364, 0.4725547953548951, -0.061285470188373825, 1.5084990293016223, 0.2706564892400465, -0.47372196744945455, 1.6409193472115582, -1.7464193005696853, 0.549039149278568, -0.9801998998286444, 0.7081220171641169, -0.7726046322544347, -2.140470296289307, 0.36897448794372245, -1.481359676301329, -0.7124092540855622, -1.2442527308223832, -0.8184480476182439, -0.3054289493193119, 0.2072666998900196, -1.337150584006018, 2.6514776617672835, -0.731731315771317, -0.06088550997949248, 0.28751754296740567, 0.5996335282988375, 0.2287061006224787, -0.2294033199943259, -1.9723063352962253, 0.2632557260724319, 0.1286962923112244, -1.7529490512525634, 1.8869176436118449, 0.440266733818125, 0.20757864477105936, -0.9492173050174817, -0.98558619795574, 0.40597560142839534, -0.6841847260149357, -0.7162231822090115, 2.1158200056571985, -0.09036534574043645, -0.305414361375765, -0.7598242936019767, 0.6422104440607445, 0.1365914723763516, -0.20353282643295578, -0.757695269753146, 1.4940816704070985, 0.057381720617953096, -1.3702247475288392, -0.5035127485468311, 1.5155045260720745, 0.7297860355330639, -0.4105407187860338, -0.8637080705984209, 0.9298447376115156, 0.5402879832721305, -1.876012129892357, -0.463025398940013, 0.2740955622558785, -0.2424669943923657, -0.7213259438636058, 0.790265865200408, 0.6317353405245837, -0.5067749006800524, -0.6203831291040331, 0.15342734095274713, -0.44609897925338227, 1.2017821526864014, 1.0641429125171955, 1.1905281949076798, -0.508473106679246, -0.5198030747652754, -0.6838384809496152, -1.1687997322860069, 1.1717380772448671, 1.6737098625706577, -0.43884242535091206, 1.7894971435256848, -0.8396374021622366, -2.105695676375784, 0.6265866913181735, -0.33766397540752, -1.5224632159926574, -0.031181596836996194, -0.6625968249395183, 1.3395466849524864, 0.9039380197891568, -0.3871181497651141, 0.34439775890347857, 0.0632535989260899, 1.8133253011782036, -0.3506004204711182, 1.2793050434650903, 0.5002607698520658, 1.3028038752993443, -2.3023294056996195, -0.009311994629552062, -0.14573522681532472, -0.5083164086109679, 0.29838830829515295, 4.06251402184273E-4, -0.5024510719080552, 1.7268047406968703, -0.02555864280287173, 1.0501712473062066, -0.5278389440994609, 1.2581566377182138, -1.7170603090562815, 0.4315036126143114, 0.06854960328904225, -0.004429589076896847, -0.4387384645742766, -0.03827455053777442, -1.3122272569854725, -0.8630651382041283, -0.8351811710265145, 0.18042097062930967, -0.4981140195579685, 0.011989134187667477, 1.2077602472413012, -0.1109431568834739, -1.6321370558153363, -0.5545209279064583, 0.22892161517368437, 0.06999411180131779, -0.033311072467773505, -0.6926986511595432, 0.2694825077207245, -0.3563185380731674, -0.4041732571823456, -1.3689822210182763, 0.8334753483515754, 0.4669322027893268, -1.0796664825865545, -1.39484592952667, 1.170072839438139, -1.4289589979791386, 0.12311881766380506, 0.217394411630642, -1.1150815327077233, -0.5291829376488297, -1.7922519747960601, -0.17386428766683126, 0.2448532755295084, -0.08521080111592533, 0.8167858099768379, -1.4982749894642446, -0.24664190797798485, -1.4060786849445928, 0.40349105354707215, 1.5334011588914196, -1.4832434674553459, 0.30823202364684893, -0.10082047494296055, -0.07193047379915629, 0.9994832639144331, -0.7949348781410794, 1.2270111403953126, -1.064645084520925, 0.9955988109454064, -0.8872271339379615, -1.5436287093974403, 0.5058501297701222, -0.5514921222471545, -0.5255449586666026, 0.3294447462722522, 0.46503948316491334, 0.9007765450150382, 0.9833204495681603, -1.0331022935832723, -0.4161683059656476, -0.7938603407018464, -1.5542721860084352, 1.173523890834997, -1.40328805379964, 0.31720243090670713, -0.4733256458440852, 0.4844531079797739, -0.8745678602477829, -1.2187185369033606, -0.45178030330069274, 0.35159945645961893, 0.14907414747201572, -2.4698194242976172, -0.376612691452574, 2.1283787902675297, 1.353304547359275, 0.3387178415915938, 1.6831086558860817, 1.003619264413335, 0.957811311746931, -1.1307643331191244, -1.2587205928235685, 0.9238172210505543, 0.3431427411168731, -0.07585253873444946, -0.07302752983532533, -0.41975600221997755, 0.6485602491913286, 1.1953071268985072, -1.6746155714940514],
[0.9060760353341409, -0.6413410856975358, 0.4142187879695452, 0.00625414078699586, 0.691823814661157, -0.914428807321517, 2.2625826884202054, 0.6481577356652922, -0.24183999127867464, -0.8596364510023335, 1.1638983376600263, -0.5007007464362543, -0.15211617135211347, -0.626477259702844, 1.0536055780413514, 0.6496535285245841, -0.824801254658042, 1.1269948162119996, -0.7932619132888027, -2.142864363194474, 0.42688514397193555, -2.0283995830052874, -0.4098155447353089, -0.035817532968591616, -1.7854494002338195, -1.4697266548705101, 1.60645631484369, -0.5624011643293836, -0.979539224896441, -1.9200978173592427, 1.528718584484405, -0.4203649802467811, 0.2203444134652432, -1.8594591490896661, -0.1573787425272566, -0.2985055116316453, -1.1455170349469217, 0.6172917787993413, -0.43527428457589473, -1.0969323855823154, 0.5506941777037055, -1.4036084376146785, -1.3159341935383226, -0.8359508689380097, 0.834535187592651, 0.22661395072084498, -0.767250757545687, 1.2495836546195143, -0.167015010597968, 0.5019185876383783, -0.8017265031697928, 0.8409212375807843, -0.4436573281009089, 0.23294112970775213, -1.2669135467469503, 0.589071438161035, 0.2765597868699192, -0.21304375142687398, -1.023097601585926, -1.6667423499053138, 0.2617151217810624, 0.34822286857478435, -2.206895105510032, -0.30181995820762614, 0.42583707936100285, 0.07271006959869118, -3.0499707825714313, -4.041115794491113, -0.1572139236203054, 0.979669692605845, 1.4178487107766782, -1.122027953794368, -0.49423909371745844, -0.7416832637159244, 0.8960278822038564, 0.30873724558359605, -1.499083635161258, 1.799860199751302, 0.13852834888140822, 1.0443293441891937, -0.5766120269866695, -0.06370385715828043, -0.3935272380073332, -1.2824445569166898, 0.3069538746553065, -2.315426598849834, 0.25037004931237095, 0.14589652259627872, -0.6807401198759542, -0.8055677948108496, -0.5146464961236429, 3.099650304061827, 0.9339958798319852, 0.938410522394829, 1.4009487450763003, 0.024570739891651722, -0.31639119286536865, -0.9439692640314167, 0.2436178381168812, 0.3063916239593894, -0.306862968472371, 2.3092658886690294, -0.43128443947364775, 0.8123088528775144, -0.36339882145413804, -0.2126319923338448, -0.7278158932079947, -1.4913828282486685, -0.8728672967271393, -0.8499223421032795, -0.23705320626083498, 1.8986039817918015, 0.04270020852503777, -0.13181976737682696, 0.38450347904965554, -0.2985763106147934, 0.888920556956513, -0.8981190672540894, 0.11710894575405453, 1.5516515670083288, 0.8600626990467619, 3.3075965788572623, -0.2587006454781206, -0.584909082440126, -1.5473531840698391, 0.5693444889408295, -0.24236909180297328, 0.5538178951294626, 1.6074138589728868, -0.376817836537201, 0.22258782522658233, 1.1642003344335738, -0.27358445868695364, -0.07744914275059216, -0.9990334556183716, 1.822977857140644, 0.7395661600106794, 0.9156039913034737, -0.38160648794352126, 1.1043222272090307, 1.0774329068449113, -1.6716947670642972, 0.40277044670879925, -1.2522491833010505, 0.2688125525897066, 0.17203478849844997, -0.032703934017509026, 1.1036789125909516, -1.7223939096784955, -0.6293196899760142, 0.40668195896962167, -1.4684871648817064, 0.010492664439539274, 0.19856623407085935, -1.0749787073789814, 0.7513618420012327, 0.23693935275383743, -0.3848778859002837, 0.9855095314898042, 0.9261309991885515, 1.896425212005549, 0.7972260509977548, -1.3518851374040708, 1.2970047305754842, 0.6613816835000644, 0.23799334654015, -2.3637489337139304, -0.22257681069220156, 0.531072845820195, -3.111122094499007, 1.451967971735031, -0.8369481729514393, -0.4046874569575387, 2.1271390455526022, 0.9722803757164705, 2.7479613628657473, 0.08746354795758965, -0.00619413569723884, -1.3749998533647605, 0.03861518949061765, 0.058802326621291194, 0.13322771418629675, -2.0116344717130406, 0.8116540021032294, 1.4912223067431278, -0.8383257221800955, 0.339029592696553, -0.8671829071713792, 0.009158189810824247, 1.7007519273167175, 1.076843657038746, -1.6381701057895206, 0.7317691332091067, -2.124891048342557, -1.0364121990243829, 0.8933269758418115, 1.7712814372317447, 1.328066229623585, -0.4961955343921765, -0.2567007395323723, -0.09640058020733903, 1.4125850502229278, -0.6199022974214492, 0.87894497515903, 1.0365481245073678, -0.0796330226135786, -0.5114941422433161, -0.5855385686486798, 1.1437633542644658, -1.4816287487730182, 0.4499938360566494, -0.23944998750184499, -0.06310787353133868, -2.2513078112301343, -0.2695648467280144, 0.06343930884101602, 0.8078443123399696, -0.13451657066091244, 0.07624161120117108, 0.41513051391132877, 0.5907692670565303, 2.200384541236871, -0.6102552600467613, -0.6542031226883498, 0.7765637190742051, -1.3928375029944176, 1.4218277872655012, 0.3056009756543396, 0.3607567196289836, 0.622870613815894, -1.0133705006600753, 0.47350490467481304, -0.4594527965282274, -1.7230915978570103, -0.23626113778252694, 0.941300880547783, 1.8907307171926313, -0.15344806987210707, -0.1641646651473701, -1.5919036296787972, -0.9995879388122437, -0.9143889149894345, -1.8069158498255398, -0.9762040485381372, 0.925945930175076, -0.3906767985131631, 0.022112015543731385, 0.15672337674649342, 0.9457622759779901, -0.5831078187686464, -0.11405180564223999, -0.17019498245717046, 0.9564909707417947, 0.6004276061049189, -0.4044946608459646, 1.3508997677411034, 0.7671406007251044, 2.3126158661213854, 1.345016479933921, 1.7146524331507034, 2.3519321224368235, -0.19788392890425338, -1.4011599551204494, -0.18939597491439591, -0.9047381070236882, 1.604022919324088, -1.3960846773757345, 1.0523634964220374, 0.07086552781966092, -0.4999100496556553, 0.3616488129433897, -1.6927720282542789, 0.6252978136491897, -1.187736558162509, 0.5398712285947823, -0.3383890348011375, 0.014983867737210544, 1.5544053976225438, -0.20989417588799983, -0.6632695854436513, 1.0428998752616807, 1.057382509169569, 0.061548926384708505, -0.2942530528960746, -0.10655495939113593, -0.5396595127098567, -0.23437152126824037, 0.9958620201804451, 1.535870212044059, 0.8703267017405577, 1.219448018140242, -0.3266525630760259, 0.10563110770814463, 1.0645702595554674, -0.3262963386921759, -0.8827698037010033, -0.11025189915437221, 1.4655469679228548, -1.2364004984132817, 0.23247530723612672, -1.086559186710623, -1.0877740750744296, 0.5234552036915208, 0.6459925371562452, -1.2033539126865715, -0.24934080564406114, 2.3044221642829523, -1.072436031522248, -0.7097534682849717, 0.30695941735047727, -1.1386447976365772, -0.05136910815380039, 0.9463478532685163, 0.2728857789089805, 0.29576056284905794, 0.7729604178485577, 1.188041372440944, 0.6768288106713285, 0.6568276153687798, -0.6653488493278441, 0.2695440648842784, -0.6846182918065435, 0.4996587638886518, -1.0580769527887246, 0.46454141678012095, 0.9013239264211568, -0.8316189864598102, 0.017098286415643434, -1.9596259491641919, -0.5114736678651252, 0.6486352002168584, -0.5771553815341114, -0.6814881955994038, -0.7053203162635429, -0.7999967506761451, 0.1506114154534823, 1.4760016620858738, 1.3024373134752079, 0.687687076882509, 1.028075278630457, -0.12779475514432626, -0.12135948607892484, 2.1022435473886505, 0.08135133904652983, 1.7712690617207818, 0.43974070932340487, 0.614287931596168, 0.4091611878279332, -0.0211277270519866, -0.3932045259772811, 0.9923859745368677, 0.6635184369372568, -0.19219133476323913, 0.4885816146121611, 0.6244584734797446, -0.5696500823670828, -0.48219361344218115, 0.06339173822806553, 0.4713293551204592, -0.4034430834169257, 3.2809366489570997, -1.815448949219189, -0.5096994773053296, -0.8030372528159182, 1.2424824004853323, 0.2755243148395053, 0.7978072749757128, 0.09961339748766876, -0.4686629002519207, 0.149700452172218, -0.859271212292638, 2.126491903609914, 0.2938087838857742, 0.19687442691731732, -0.8786042758031962, -0.769925096187325, 1.2638738926542428, -0.8571797536376565, -0.47642372423815516, -0.6857922976447197, -1.5394883813303926, 4.7676868511770115E-4, 0.06450569867907996, -1.4582783134879895, -0.05513046365849901, -0.9275324005739587, 1.8634218229910906, -0.43414258609259454, 1.4315374447774813, 0.3578189399699884, 0.2824718924196099, 0.5100262695366719, -1.3355191647472728, 1.1831031304505615, -1.0909334916215885, 0.1637037115289573, -1.0225660250903061, 0.6711703165279783, 0.39299504279357655, -0.7668183606400789, 0.9052825586731283, -1.5544057552595043, -0.7576765937268891, 0.9152757852450861, -1.6739609342190909, 0.38125679643815685, -0.9017438267055354, 0.7218812488871491, -0.3750979361032134, -0.1572683652598596, 0.2478401257991448, 1.3657936945076652, 0.3618919904713217, -0.29075065685250556, 0.8297232934549479, -0.13514708170615658, 0.7271990315939012, 1.3220452551334372, 0.6564070776797523, 0.6236514467237021, 0.6998309970560572, -0.48815445248368294, 0.600646340056709, -0.15931248075866902, -0.38741240660234044, 0.0886734761323699, 0.43885267785929355, 0.18607643249158984, 1.4242034214680328, 1.8235652834912377, 0.783284395022915, 2.0645092695192075, 1.165230949227119, 2.1396554840758997, -0.8462350087479138, -0.5922715625844998, -0.3181443290478822, -0.08509721383621477, 0.1775882324887445, -0.16365892228917528, 0.9650177703943641, 0.16952543343704446, 0.23498251055616903, 1.582192238100433, -2.070509378276282, 0.692601748412331, 0.24303305792290059, 0.4674954774897899, -0.13982326391308594, 1.7817460538086511, 0.554953836176809, -0.05489610938064588, -0.1563062868329239, 0.43586826710662246, 0.6913870695662495, 0.029361929510056384, 0.6771257785370207, -0.09494010735985146, 0.27763216980233335, 0.5487607707492111, -0.8521014362296855, 0.2789269502105322, -0.2944371314846763, -0.7628487986954973, 1.8537257284419077, -0.07451303283414239, 1.0036067198039866, -0.27854879480059347, -0.7982075911163449, 0.18480410230817595, 2.3047953200020497, 2.07889915621542, -1.4063585513730061, -1.0198020495798732, -0.8196414566582978, 0.40270575215300314, -1.4133630624840245, -0.27748867251322207, -0.5816111727928458, 1.9843274947731147, -1.804801603156766, 0.010208081308062509, -0.6207846583411399, -0.29611902412037977, 0.44541628798965194, 1.209502494519134, -0.6669590012431174, -0.7039676579158745, -0.13485574590800706, -0.6522131502495744, -0.887622615337868, -0.6162707860040385, -1.6496565049764609, -0.10240636883424178, 0.36095124472302126, -2.3884119943571647, 1.530355539133909, -1.2700378475473895, 0.7819628432984742, -0.2326518470602933, 0.11583335421950164, 0.33951447887061725, 1.7795515264802122, -0.2693170587494329, -0.1913817016819242, -1.83110945284416, 1.0211702561335414, -0.9464319227327099, 0.5941475229965214, -1.0328630622964465, -0.3266062442367922, 0.141186342490988, 0.48021777396249016, -1.328455199345806, -0.29919766587850166, 0.2193661581916005, 1.0390139346229992, -0.4162660833740233, -0.3282302281131384, -0.2500961267176958, 0.941418012243115, -0.629929560031381, 0.5489393235793821, 0.5876091924096342, -0.18004766671528952, 0.013017714175464955, 1.7148769426327146, 1.0034758222120748, 1.2569994570456997, -0.3166252367432673, -0.9058896537463788, 0.30480013728847916, 0.8224830163992743, -0.6208440115035708, 0.7411663376950894, -0.5624368793344798, 1.0474237272590667, -0.07899114724694574, -1.8588901978547379, -0.14872959192740662, -2.1375887978120898, 0.005799380704394204, -1.2410296105211276, -0.7363608560980964, -1.1895180401827783, 1.1120219654435564, -1.5084712607679762, -0.2167795653985095, -2.1160904525230615, 0.7591803725251356, -0.12586624876619137, 0.3822501849420416, -0.6536934949441432, -1.1986877674275254, -1.650059424689119, -1.5926008585652656, 0.3104655581091125, 0.8471299934826528, -0.00449245941336662, 1.754027836345959, -0.38618726153159605, -1.0836887781914388, -0.14954181445704712, 0.6173159287345585, 0.5360121447505571, 1.0835241662119077, -0.2944614881550932, 0.21477391417081163, 0.1465580193405098, 1.8422670618163017, -0.7982924727221715, 0.7997659019130251, -0.967453990254557, -0.17237479642132517, -0.6458548251863152, 0.8967408170908362, 0.9805125205290496, 0.18720717864015365, -0.47972200355918665, 0.1609968407511207, 0.4873169234901695, 0.7564025867719586, 2.0516665224671593, -1.7646306605781394, 0.7783068361787332, -0.8585980092253135, 0.7390910242947998, 1.3002937682038138, -0.2617978715203448, -1.5145593693336548, -0.4204623827342439, 1.1140523605993198, -0.9583027881401027, -1.5756007513423278, -1.5005381883848212, 0.4287812795770637, 0.6766107201913454, -2.3297958615907364, 0.937472058079865, 0.024872074493359462, 0.7095204895105943, 1.1770695163010063, 0.7153727334378097, 0.6862410716743925, -0.44500399357039727, 1.1426302269994975, 1.2940813100353368, -0.44914825114824597, 0.2695524743636034, -0.7507626883148951, -0.8267632330066772, 0.4981358208157467, -2.6908112810154012, -0.5040978229152259, 0.3379819549589344, -1.937352609473137, -1.163167256161798, 0.4911242462474859, 0.8039754373714075, -0.4475576446245975, -0.9888255463612382, -0.05978434557118473, -0.971417551262652, -0.24328650668163299, 0.00975924596928725, -0.6424461718248609, 0.6032048062324558, 2.4082464985566028, -0.13065237699592208, -0.2676528442254858, -0.36437048726999327, 1.6400482484153616, 0.07990242224068492, 0.6101716571832019, -1.35975633410534, -0.2444434007456548, -1.6089269954766088, -0.5760322670270749, 1.1538308219925313, 1.4640782185882366, -0.17676852976488885, 1.1007252178126181, -0.16833086825254448, 0.8001404330549635, 1.7676195977792417, 0.9681452332970745, 0.31245058712908036, -2.078082471750444, -0.07886789618085521, -1.1219226362693084, -2.173111234299262, -2.0425416030235413, -1.2137809490414417, 0.75758735489977, 0.5693831333997694, -2.198329202931375, 1.3106127219466546, 0.7529118816510496, 0.978295849031806, 1.3309912472172947, -0.9917262090075202, 0.06050910866966767, -0.428264925682664, -0.9096938730430827, -0.6618027140760393, -1.1912426557687528, -1.708703181548834, -0.4182403040249094, 1.9623738956779782, 1.3746197823186708, 0.05541078441946963, 0.6065457997760244, 0.1903428582987666, -0.6747175202270889, 0.026192236213886902, 0.0070482917633447025, -1.3311742793349772, -0.9106576582105969, -0.052287928852917574, 0.21442023497946375, -1.889624734173695, -0.9623835283012857, 0.18215693933793636, -0.9757897231137085, -1.5561020056895123, -1.1185472283999784, -1.728546013055437, 0.9140781524255512, -0.15117590197538017, -0.47955240538172894, 0.8246232488638594, 1.5601864977461701, 0.9443730724080873, -1.4988701178837105, -0.7955343778621934, -1.2090977952358986, 1.7481314837038326, 0.4799159577892101, -0.7396359445049208, -0.18280008496380015, 0.5097766759250095, -0.8558483413670909, 1.8487504470134501, -1.0603675390560352, -0.757527736005333, 0.36064944927347, 0.3530305056405403, -0.13258220321937889, 1.985180706614354, 0.002469444865153905, -0.1856834334209675, -0.1306918379263715, -0.5790220801368616, 0.20110341036449153, 2.4350368294290865, 0.09615083889918087, 0.9708731605888805, 0.8411212471471627, 0.8575328289957663, -0.4157260916162586, -0.26376563574365447, -0.09434836789949325, 0.5011154827023836, -0.9108302031021537, 0.19672895822511685, 1.4781460819144812, -0.6405518364174156, 0.7528846063218767, -1.3180514734016302, -2.2494513299457912, -0.15717663318794606, -0.36363569564155546, 0.5511718073774995, -0.8867101192283624, 0.6716525018668004, -0.5494232097674752, 0.9445324581404989, -1.5355117258966116, -1.2556182422013558, 0.31311930251687875, -0.3976185299724769, -0.8069524529567188, 1.8199346539188759, -0.23676512358169882, -0.1675801440448011, 1.263459788546556, -0.22166674764026045, -0.8833916707362747, -0.43958729751717496, -2.194361692128619, 0.8089504942526632, 0.7178816477229697, -0.32042853216218975, 1.743628091288684, -0.15459569929755673, 0.8862390307471784, -0.97607637837328, 0.6137018083027498, -0.06624557691309264, -1.022437530660392, -1.941948357351566, -0.48646995647398167, -1.225892720810307, -1.7184018812470827, -0.4888639943376311, 0.9765361242512031, 1.6504288151886581, 2.0786179638412925, 2.1636686764119313, -0.9796718800512769, 0.3990200370836376, -0.5619289958342721, 1.9352524397407156, -0.2285433212073125, 0.47150029692415074, -1.986761594135064, 0.1200371874862958, -1.126431844139589, -0.23370114580258394, 0.5505948210311452, 1.117352021593753, -0.4096568537610136, -1.6368309978872977, -0.702495865355907],
[0.5924490566243068, 0.06887596704150317, -0.20964251738315143, 1.3349205088058804, -0.5774192237855564, 0.20470802386495615, 1.1016059409979484, 0.7362444681409736, 1.1041541714176242, -1.7965360090673332, 0.8954075397215812, 1.6509547779920473, -0.14453122469019886, 0.8832031345385112, 0.5261656206972215, 0.36644447565580596, -2.023153859085946, 1.847070419875548, 2.4954313866896953, 0.9719862314391894, 1.1610138588379826, -0.5173580156964288, -1.076894063989652, -1.662678890219793, 1.013098019346215, -0.8614126875079599, 0.8388037226941655, -0.8803103758759546, 0.9984854878392119, 0.757246677649824, -0.5968171025606867, -2.3399289306478783, 2.18829078078759, 0.7233003063220287, -1.2839677053504088, -0.7289086554784945, -0.060024307893096575, 1.1179699392109879, 1.0921687183209978, -2.296429686244421, 1.0579138023956804, 0.11679635300547654, -1.3969501496348464, 0.176781695370989, 0.45516877238463627, 0.11682361685001652, 0.7255992847029072, 0.4622804826926709, -1.6429082320415938, 1.2223669887347488, -0.48821956017926765, 0.45803209973402387, -1.3170035549328416, -1.1368192890574194, 0.9407930154818573, -0.1796259022117617, -1.2999292896562413, 1.6241377976188316, -0.16837308566183148, 0.6055094425502939, 0.5044639725338431, -0.4804062895934175, 1.0586286949259849, -0.4873413714462825, -0.9507098180771453, 0.1122026204849069, -1.0593674941400537, -0.30887553044986404, -0.09834875858303782, -0.36218204215703487, -0.7508325661042854, 1.423188530969628, -0.4123321388093371, -0.23832735438300084, -0.5533633930905081, 1.292641149505221, -0.4649544149535781, -0.31177739383550584, 0.0677250393018982, -1.2780450015157185, -0.7617737171140431, -0.22842106702815912, 0.15829409820964094, -0.17865121563968303, -0.0021840708730722124, -1.4705801567152117, -0.6393307370851035, -0.6717524192346666, -0.8294988932232866, -0.7715604381179336, 0.3012853448479788, 1.003247830625213, -1.8066801595491977, 1.4418940995547127, 0.3445371528353958, -0.896612787418817, 1.1340835891458592, 0.40037875003449674, -1.1100343460459083, -0.18822142847503284, 0.0957963181658599, 1.0627504165228687, -0.1331470573737483, -0.8224955927777899, 0.6310747297280058, 0.30878792318513165, -1.0563188715473346, 0.5281453860901844, 0.42041097972867897, 0.40116387237443096, 0.29419992823446034, -0.13020986387509947, -0.2916076208285501, -0.4889589728344561, 0.9262444674818464, 1.4759331809235094, 0.43076431317595393, 1.3158364319344733, 1.418583848507146, -0.10882350720630213, -1.3092372791763291, 1.8462475566682675, 1.9655178197586274, 0.7028447925847457, -0.8736863220900091, 0.8124106543993231, 1.3184873110259976, -0.720917750908106, 1.030030852782479, 1.3179760541303516, 0.21745485855877286, -0.9747023103829497, -0.6578735850837781, -1.4837379323764992, 1.9475395034113874, 0.496434037292347, -0.3299236519258071, 0.589225921345018, -1.0879070638519348, -0.6804768332679901, -0.5536527455390668, 0.8203007586227273, -0.8520184403294371, 0.734962915630729, -1.220186788963644, 0.4580249711151987, 0.7345746318241585, -0.8958745335654889, 0.8932980548219787, -0.6984109765750672, -0.5325265691413325, 1.2228219573834946, 0.0813190365837607, -1.6821464000974287, 0.45786769713252073, 1.0143542623829123, -1.3260754451736514, -2.1488569274509355, -0.8432082227010816, 0.28923581455457287, 0.6008250264614132, 0.051771087615498486, 0.37257763998550697, -1.742189444960472, 0.7745890177846387, 0.40467116026129074, 0.24808086913852356, -0.7724105290921177, 0.3111047945032252, 0.962381032697151, -0.389928878069365, 1.5437647256914016, -0.6242496538901442, 0.4028733665971754, -0.23008030105639882, 0.7491293501784013, -0.5383385173190396, 0.5019157062414046, -0.32801481799382687, 0.7659277068020447, -1.0980968466778624, -0.8177274923656626, 1.0679907359632792, -1.2699946330018048, 1.1875956093581086, 0.07675725643212196, -1.0556356634525583, -1.5574718534742038, 0.8672697955293667, 1.4237988926517036, -0.1158467549108668, -0.9012180831539435, -0.8725960974742373, -0.8170207845817149, 0.26369897780315693, -0.6789670721968389, -0.1814530013143478, -0.9660383830437342, 1.3186653781074265, -0.14723412235510872, -1.2860493179249577, 1.1848461754978277, 0.3535014929301186, -0.29371331507017706, 0.19468217261089768, 1.230419755134516, 0.5925340393402597, -1.04885905981095, -0.364060004161684, 0.10029526011030415, 0.8573150430136859, -0.9443548540680736, 1.1379818313995242, 0.5610744606356842, -2.0680711313592277, -0.996632271762168, -0.6526710710587847, 0.03929090592806306, -0.8226061689760233, 0.09494827209115017, -0.9561463087468945, 0.09073513852748719, 0.17971815115607825, -0.03490675938620966, -1.95427674476489, 0.6987862543860405, 1.1985722024924346, -0.2032028701027807, -2.2661247200635115, -0.05962554620539444, 0.09038207250657346, 3.2859202763139397, -0.5252075089948202, -1.269339480806309, -0.02298820787433568, -1.4981290355290768, 1.4047117354981904, 0.3120666482523372, -0.2398431359394338, 0.29606048485774156, 2.1703151668534066, -1.0535737844397326, -0.04904438110566779, 0.7397232229399135, 0.37217179445814574, -0.7595948600492298, -0.8882718020327259, 0.15627595009509487, 1.2996442613607808, -0.1562581824635262, -0.15794067199923076, -0.09359550023194026, 0.042932610028828797, 0.10341078592668398, 0.35934699465442005, 0.023559936687318674, -0.1701998849508874, 0.2576426558521074, -0.985309534500675, -1.0769449061347762, -1.5352548170549627, 0.4816962731435255, 1.176681894539017, 0.09549504999090978, -1.3620535915392726, -1.2376946065235626, -0.785079364645978, 0.3188747624084024, -0.4077600363944657, -0.1911878321976918, 1.7381599217693715, -2.4172499583772638, -0.5255457340807329, 1.2297297970508958, 0.040790877888482506, -0.5955504120030214, -1.127598764730262, 0.53617606725665, -2.6086713658032883, -0.5830555042202926, 0.25830953269142115, -0.9971282186076696, -1.0109910222942546, 1.117079423167553, 0.0941923079006695, 0.20807521135701992, 0.9120853304947217, -1.4362797237412905, -0.32272249650057366, -2.338573577669574, -0.12451788354974865, -0.30839524111689237, 1.0009054995129756, -0.6850391426402257, 0.34941081232376703, 1.2852764170594646, 1.471204091576604, -0.842233883616752, -0.46832213713768744, -0.8299910857421466, -0.6754594670883817, -0.7530595092782097, -2.6273955424131645, -0.5115836864212029, -0.9330849074942081, -0.044428701064772924, -0.3251285882330165, 0.266282441548695, -0.6872321048326662, 1.5635019161049322, 0.507046097156205, 0.17110508621872533, -0.17215989925468841, 0.5509080345890147, -0.16596041780358514, -0.4701978069009741, -0.17821355161704985, 1.4050697863825186, -0.7222763291877653, 0.9556988017263819, 0.220519424089668, -2.223197141352791, -1.5660611856329159, -1.0934784108431608, -0.930505902931722, -0.9038969343104997, 0.7072961009330091, 0.36682085507724255, 0.7310394370570319, -0.9113491170117891, -1.197542400739751, -0.6923034908575402, 0.5258382458435891, -0.8471874465890036, 0.9578849334516117, 0.03104824327723917, 0.21393189006772292, 0.16975483420914536, 0.7544078047736532, 0.8194765656917096, 0.39480932237835087, -0.029398555651765215, -1.0501391131030493, -0.09433770707912785, 0.466083414519008, 0.009119611953560014, 0.9108065183853135, 1.5604372704832878, 1.748431933234642, -0.7845969211716141, 0.025577609200167658, 2.7430545215861892, -0.27520562929833275, -0.23997806898217097, -0.3555254313227364, -0.14969507402769552, -0.8039237169275033, 0.46864886744386236, 1.7273618836203826, -0.48876952702498816, -0.2720486512702465, 1.0100272865013316, -0.507626742207943, 0.17744634639879445, -0.25770821973491403, -1.4261844357943099, 0.1836381682399855, 0.6931077577439297, -0.6767678021815675, 1.1903653200650908, 0.47779819660196, -0.13368793556223474, -0.38891302432227715, -0.04490339896371344, -0.6963952554680906, -0.7777629970841347, -1.725217946516726, 2.682741539415484, 1.4071308475202216, 2.1031152732010456, -0.037340828798161044, 0.5802648949210742, 0.5098198800908882, 0.3429566590871118, 0.3310178108186769, -0.5291042542055571, -0.9460984676178202, -0.8475344616852913, -0.7194214003477247, 1.043210620624606, 1.0679051195739766, 1.4247093071335424, 0.9317320660580555, 0.6318943363129741, 0.3972237968910373, 0.8893316494435061, 2.056970187242659, 1.0556009497220424, -0.06855030894224966, 1.4325258782570938, -0.7510074251363404, 0.4603081564900305, -0.45698657144410393, 1.358988505865071, 0.4424814215161069, -0.034209324154169156, -0.1221371477853128, 0.8890503582942892, 0.8511046119337141, -1.919619205468523, 1.3295444185995875, 1.3759097697773144, 0.5460283985953551, 3.1746185625256453, -0.5501091858740005, 1.6438583404325295, 0.9234890205994403, 1.6453145550156523, 1.3115312518824833, -1.1871674858651904, 0.7187405765684504, 0.9163898932489546, 1.1058818817966825, -0.9225002148982819, 1.603739962038768, 0.5172698816498456, -0.24696959708318345, -0.823132532660078, -1.5048053923048492, 1.3611798970107047, -0.4826103127610022, 0.1253248018700928, 1.6486988627357504, -0.35576669093561925, -0.010545369619479295, -0.7649828121787824, 1.682917662188495, 0.19942747213341291, 1.249951559936613, -2.1921709752592036, -0.6563379008399578, -0.27775054689190826, 0.5150146610441874, -0.11052690996610554, -0.5738400068364593, -1.1753695666746746, -2.1673292508646487, -0.643899162854521, -0.4475095262442715, -0.7394051685189351, 0.9745934818343822, 1.5289307850819918, 0.6099157413291574, 1.2597820363519003, -1.4846775135184989, -0.13631124881624618, -1.3320695837748586, 1.4543653199367086, 1.194698999468185, 0.010978880461737612, 1.2081454459635939, -1.8100231841812242, -0.7803635371022817, 0.7129040826252417, -0.6976382911172624, 0.5996207260488557, 1.1065817000337812, 0.17189242702098778, 0.8791621669665515, 0.9191591021779975, -0.0995871053443391, -0.5433343775878245, 0.6769060152886173, -0.3934622661397096, -0.8825513067492653, -0.4303729119909891, -0.43931697344326376, -1.4829135430370832, -0.5315941469013022, -2.540387662840694, 0.45967942581625953, 1.9037919617785242, 0.6490566653670261, -1.5238115197866853, 0.3775654654910254, 0.45847017460222966, -0.7245312050970699, -0.14705614361798278, -0.6088112134267294, -0.8211428562634479, 2.5626134409122874, -1.5267439057886252, 0.47087490456595393, 0.7250156715738761, 0.662297343172137, -0.019591936870010512, -0.843862494738238, -0.22266195399855798, -0.563524813126541, 0.36259311591199095, -0.6947159446999389, 1.3199926467778695, 0.9002060892160904, -1.0758786840012218, 0.7456773568621119, 0.05354081377147207, -0.16749386680673503, 0.7334052847676024, 0.2896653601306763, 0.5443595254109602, 0.8889264464460729, -0.2221030576440036, 0.519337159062732, 0.407948656386968, 1.0912842327355714, 0.8730968575498665, -1.0463972485117212, -0.4235547550545836, 0.13878371549124272, -0.335094569684533, 0.3346213044443827, -0.6399005469178927, -0.5264176141591531, -0.2579817200565591, 1.4524752367507172, 0.7676498250133933, 1.159924156103751, -1.2780861558891008, -0.3804213816120717, -0.49309549283441484, 0.8834567976523129, 1.1232811720070974, -0.715897581210644, 1.6260030429834595, -0.7172293045395542, -2.1836084854253883, 0.018370750171953023, -1.4928522629511805, -1.0570485592604442, 0.3286854007742028, -0.1454590318369403, -0.30328519802371595, 0.6712345073203604, -1.5666818984687543, 1.1092077813403913, -0.20858127709353924, 0.46185868376307804, 1.431694398131073, 1.0253770014204708, 0.6864381566851121, -0.6899116216000244, 3.0802970358896666, -0.6197750632571599, -1.2502600803589852, 0.7018648996829164, 0.14567624546100025, -1.842427790166232, -0.8267499943142617, 2.7483688244790816, -0.45182227294603755, -1.489459410655907, 0.45447890879252545, -0.7516597165089646, 0.6337124725384709, -0.1967181735622105, 0.11359217114684057, 1.5038571295463987, 1.2684291341613745, -0.8787281851172176, -1.0086271366338695, -0.3432632760825094, 0.1354224292683455, -0.14322936174456025, -1.8520418215492458, 0.9674796561506049, -0.17340094274279172, 0.9874015641692528, 1.7548715229195235, 0.3314443269951478, 0.3012180340090409, 0.3761304188063955, 1.349785972865509, -0.33382754859226577, -1.3388793466665738, -0.05223278312831502, 0.19860485203046832, -2.1100594596291566, -1.228247755175096, -1.8268773094717237, 0.4316145334758331, -1.253977912141575, -0.1437137531656865, 0.5873176234579255, -1.18133163271726, -0.2263881644090473, 0.9689335181876255, 0.8932965467029241, 1.5157457518209148, -0.31812536030719657, 0.6991127325306834, -2.152555500552065, 0.6540474565848173, 0.3401473318216689, -0.17796636928333184, 0.039259523488325475, -0.5977749507622123, 0.8429448732438652, 0.7802995815966073, -0.9686306867614456, 0.910921074471319, 1.3423878306634915, 0.9410417490663392, 1.197558404440304, -1.4085052905483604, -1.2232343639278969, -1.1851486560245377, -2.27313121332229, -0.4152915249923163, 0.528661965249086, 1.4906713109563052, -1.7179721308776903, -0.47957843572831016, -0.9557409603612924, -0.9058924258651364, -0.7304634407074139, 0.12029644848978356, -0.7245142106260342, -1.6580255734554596, 2.4148079431340506, 0.8758644240227619, -0.896103386926752, -0.8841358318641261, 0.13112421915731506, -0.17385842448178204, -0.25737033006027105, 2.0390133534582753, -0.8159905204765815, 1.0002556109971155, -0.2660989350911388, 1.282829035985591, -2.0234281923208597, -0.2865863502654396, 0.881642955431538, 0.9541663464899616, -1.1197350078857495, 0.22870804844025705, 0.3304223535732572, 2.266571002350765, 0.4672873002049956, -0.10689976485721576, 0.23350661239308135, 1.7520982324586536, 0.28436799186061, -0.9115366076180886, 0.14319856714407392, 0.7267804588751738, 0.38092310155842973, 1.0627128066706095, -0.4292462775935965, -2.3761446665849273, 0.42693296259825547, -0.7539893019300625, 0.5031059867210609, -2.2649881034057833, -2.327241464154343, 1.350137750088377, -0.0694519318240968, -0.9764662954335348, -1.7815905423987886, 2.02978584391987, -0.17122141490220305, 1.2790522262859216, -0.04292340795466737, 0.7844495231859081, 1.1541387457576529, 0.7481359469812731, 0.6457368122992194, -0.42220963728755956, -1.0284281154922288, -0.5875556842692049, 1.1654925344254932, 0.08481277023018087, -1.0487282442345511, 0.43083528975301055, 0.12044907877506165, 0.040402100034102405, 0.27587928690386343, 0.335163329960574, 0.06324324567013542, -0.48492497857288536, -0.5481339561543338, -0.6399532951095989, -0.46565639558982513, 1.0274865327563485, 0.5542252735884838, -0.5650646153095368, 1.0782648938552408, -1.2430672207924616, -0.863207060404741, 1.3882128012766537, -0.284819557727394, 0.36971721934380525, 0.4898924219549966, -0.5172311836281933, -0.8659158886879372, -1.0606410653267484, -0.8662804433672612, 0.01632516183463902, 1.436813705408653, -1.024718995502434, 0.7527423416744141, 0.2211270203543418, -0.35563418916542316, -0.6507104597122807, -0.3970676936832229, 1.9034307424079955, -1.666854598489854, -1.4025367576832266, 0.14909072111642183, 0.04187240594966034, -0.45388629590585616, -0.016605738376008344, -0.9539326814919958, 0.6342629842813811, 1.1145941180669072, -0.1883198754359211, 2.426583422654355, -1.7676436223409668, 0.5336266667722251, -0.6583513866972123, 0.16904236019599503, 2.2380036012732014, 1.466965753280992, -0.9103170277559374, 0.5211830835946294, -0.6652015673459241, -0.2697132407965981, -0.6102093458903706, -2.092891736942421, 0.310885321497783, 1.995646579431028, 1.181995620096491, -0.6345599984767261, -1.6034587708561219, -1.265410677064995, 1.7859419923461013, -2.1563270951192575, -0.2065285282363739, -0.847871760694616, 0.7499397480631662, -1.987923700344031, -2.722745697740261, -1.0848824914272082, -0.4446784300877934, 0.815924339254133, 0.16941891322563207, 0.6845540539412902, -0.3533581993036763, -0.04202069252665968, 1.452229433554672, 0.3256512781336232, 0.29305240700443497, -1.3839329199917274, -1.9486420440770476, -0.07755076737879155, -0.7918228244732363, -0.6453684319337354, 0.35475042563772013, -1.3676283181862492, 3.09621534231645E-4, -0.22161714491050677, 0.04774859838151989, -0.8310276231758182, 0.14662523333947303, 1.763369251332626, 0.5901949936672761, -0.9621651697119524, 2.1670962810845493, -0.6279283154397479, 1.011201732588817, -1.2239992034576, -1.0756338859399128, 0.8641002855490842, 0.1720525877791387],
[-0.16244941775411517, 1.323588587719541, -1.2561227980025855, 0.03162838653440477, 1.4645484598252962, -0.3018761369189655, -0.22070878955915496, 0.1195608748513934, 0.3784731263413426, 1.0209011774164471, -0.507944319806165, -0.43968325905979666, 0.7038637445981241, -1.8748108646391453, 2.448884643422402, 0.38325539162471617, -0.0555887540844242, 2.265303126443028, -0.8529906567438998, 0.4295106932018602, -0.009809356384824315, 1.2815554674598146, 1.584653704014728, -0.3184567096124798, -0.9165028140508454, 0.8581716805571635, -0.8728370191445041, -0.20764168794333726, -0.025804176241113662, 1.5166321906917581, -1.0049790238113128, 0.0542539289128376, -0.7441401884363987, -0.41548616434437624, 1.3682869004049256, -0.7719029946713791, 1.1555903574070525, -0.19183806628148906, -0.07706664286203588, -1.0263970701217953, -0.5199682430787663, -0.31747859299597103, -0.6893026330255425, -0.7456282605005871, 0.024185355497081108, -0.6490499494420403, -0.6556525123074062, 0.9955893779551597, 0.1809239194489609, 0.16283278343788682, -1.6681527720661204, 1.8990906234722063, 0.3257715348603964, 0.4303324912813642, 1.6665078529365212, -1.4156494436897233, -0.9418274256875475, 1.1189676432327043, 0.15950902490480523, 0.23186332190971354, -0.7028735795891762, 0.828311024748654, 1.2573408486649902, 0.5803836561293777, -1.104857672480183, 0.3457511813467723, 1.6187823035818638, -0.37316458291418936, -0.2841990160980831, 0.12711628386545576, 0.8353192224630961, -0.6004615472911339, -0.6014798604886172, 0.3571302242017638, 0.9100248054492617, -0.5129273260927212, -0.5211206523750344, -0.08438109238780984, 0.8921032384209602, -1.222018371180537, -0.37977271472896296, 0.5684161044605002, 0.1516520528206724, 0.5971445146097968, 1.0580556087179043, -0.22163929040470096, 0.6978168699902934, 0.18378708600678376, -1.1486733699910063, 1.284275552500829, 0.1990528968581989, 0.4155181682493691, -0.03114497149290972, 1.2457667823111305, 1.957078349407332, 0.33190115060695013, -1.568977830592803, 1.7365329634371263, 1.0941022725300573, -0.4963948175425496, 0.8811780177146334, -0.4813855321034201, 0.9435191422052456, -0.6095250215512333, 0.4097292617042822, -1.35575905178542, -0.23114714086220092, 0.22946071860582398, -0.24495062709181317, 0.8524105842372224, -1.3022982971974615, 1.264393344949559, -0.22485138612794298, 0.512542975437422, 0.7030738430667225, -1.3822551439924218, -1.1449159997519165, 0.2468558403351952, 0.19357785873383893, 0.37322437090807525, 0.34235043812529814, 0.4967687635232706, -2.7653527977671626, -1.3811101307405542, 1.4150495886927748, 0.4575866894247161, 1.1642125878776954, -0.9189370623377258, 0.061102084642961976, -0.34475017561091414, 1.1319711819666605, 1.7879705739778435, -0.2820938053948995, 0.7953965636295852, 1.4937843935082893, -1.490282020251447, -1.8073539431413403, -1.0762291273869933, -1.568112493109468, -0.9541037823047557, 1.9086526040295408, -1.0840809903272535, -0.29664458881476885, 1.236742996940357, -0.06504405655527065, -0.07690113163420453, 0.3702996314410874, 0.9454086369069514, 1.2617181816396954, -0.2842151224130708, 2.1462996050294674, -1.2489504054391996, -0.5254204040460688, 0.31938072921778615, -0.4356989731965914, -0.28406644282322707, 0.4820307271217135, -0.2018920971510738, -0.7427027807112605, -1.1323458139527653, -0.3581153949174328, -0.7440503138433808, 0.6562133730121893, -2.4633726226336257, 1.675751358006454, 0.983536077571168, -1.4794325162420394, -0.6886045342309338, -1.7692011806690615, -1.4623532074757426, 0.8473073572657348, -0.5873586161104085, 0.2991329769694595, -0.2725014423158239, -1.0331327467799452, -2.2354472208984957, 0.009599295094976087, 1.1713657885790398, -0.3231126320273385, 0.5184932944990148, 0.9436668430971714, -1.7058354280575125, -0.3918672194928895, 0.18676559732462988, -0.2395306134750885, 0.05708126722086606, -0.17488157916264474, -0.572283522906564, -0.45044501370639245, 0.08223599018527283, -1.8981800931505584, -1.5913936469205978, -0.8809590244112188, 0.7495107021250521, 1.0744586568473025, 0.773453419604201, -0.2666526066749583, -2.8307498379571006, -1.1749166249937326, 0.4639796275362095, 1.2563856340053237, -0.3687877379854673, 1.0371382999728331, 0.468559040587918, 2.403333574904653, 0.4283120718928195, 0.527867962982184, 0.38619159051309904, 1.1090526241285668, 0.5035675005902324, 0.5081465426491549, -0.7809056300678071, -1.2123328338841355, -0.34401168070787497, -0.2973974419711381, 0.11285927515180334, -0.6786010161000973, 0.7250858485333493, -1.0624609255062105, -0.3499616033844798, 0.6580724016052124, -0.2239047311507266, -2.6565009386213583, 0.4271211214178911, 1.138429048737542, 1.7342832643222605, 0.8455006904839266, 1.2194010487425155, 1.1494944331967534, 0.6659954046076636, 0.6483199051846501, -0.8080164037622692, -0.6188735437707, 1.2006955955146799, 1.3653094434397464, -0.11201091103283023, -0.5655112913047147, 0.783015109098655, -0.48264352478933337, 2.0953587672355805, 1.192511587844732, -0.3866477014747498, -1.2822233195880348, -0.7238499022282459, -0.4851116745955425, 0.3102100402150375, -1.3043608812466752, -0.38388294207774637, -0.17005273691100256, 1.0897153095751508, 1.0119858008377265, 1.0255452680702155, -1.0296414997788215, -0.12252010820510163, -1.1364655215859716, -1.0710686937610745, 2.9163445917693895, 0.7468917021921554, 1.4273280129965844, 0.4405030948758346, 0.953090488522612, 0.7529038632962199, -0.11112156307047422, 0.3846385338310053, -1.1960387453164403, 0.4568866427180454, 0.7742638743309498, 0.633628118995389, 1.9089934626040188, 0.15706967839427613, 1.823126867987775, -1.0161842285636271, -1.488492895765366, -0.5817667918823185, -0.38508802418818305, -1.0161015050936453, -0.18203532335105532, -2.110829609801993, 0.2868451861175725, 1.2785100775796197, 0.09141171673830117, 0.8054982505481132, -0.8765763186918001, 0.48066854106619944, 0.23196665604251396, -0.7768651572797628, -0.1946783371027536, 0.4302895408431223, 1.4894496402634503, -1.4522650424313588, -1.529044271441238, -0.46428419118429604, -0.17375881133789534, -1.1991505417115014, 1.7696905144989026, -0.8809132212933117, -0.8021403478753617, -0.9695362598948595, -1.9824081886918115, -0.7464325199629109, 2.5906718256552, -0.786901662835506, -0.8245724172479116, 0.402786958969701, 0.23609081829885714, -1.6745809373927398, 0.655868256139647, 1.2891549502867465, 0.32894473576142497, -0.25224091568756424, -0.4438917388729308, -1.0646422147646188, 1.2545510041341523, -0.3147944982540149, -0.6578858459694547, 0.6364882057313969, -0.24955751385719488, 1.002584893005526, 0.9881739566486974, 0.12208308564985769, -0.46190775680364693, -0.8747721851797113, 1.7083437338211596, 0.07461674762971808, -0.995000898482899, -0.16419844617036797, -0.2587744858082755, 0.8329576909285056, 1.8115435793605885, -1.1827672760854364, 1.038307164170364, -0.03684980440183803, 0.6031518852173678, -0.36838388147319623, 0.8822149255298967, -0.6419159906541724, 2.0809139858821273, 1.4985339690662736, -0.2518461673208408, 1.2381361556595543, -1.1265614307331175, 0.11538165030300564, -2.037033258298952, -0.9208709858480453, 0.491271063380201, -0.7164539213506842, 0.4828232768142419, 0.3137975423487353, -0.7962377449484358, 1.2392810259372389, -1.7530872058719404, -2.0286273856299473, -1.2749327023510915, -0.3870719743675437, -1.9143684362599223, 0.31641506284526505, -0.2745248581249833, -0.8630637903750195, -0.977138376812495, 0.6496702827830952, -1.0421992163040377, 0.30289524080612207, -0.44267167096617505, -0.7080898181832364, -1.1374212045993894, -0.6786628424424982, -1.7957035839119788, -1.0130346924540499, -0.44760443132147826, -0.17970253156735025, 0.7012538574222632, -0.3440872662913727, -0.31274645884882146, -2.425377377675829, -1.0022717559746406, -2.4337193973192615, 0.24528054872257624, -0.09919132051929463, 1.0767443198383162, -1.237749005789362, -1.4328701697663961, 1.0124414797866508, -0.6378323977564128, -0.6283876511847524, -0.7101154308482407, 0.9503196028875996, 1.9964830069381083, -0.27461646227443104, -0.9443103912425397, -1.6871502807879921, 0.7016749791393437, 2.0360845760230317, 0.4610495378298676, -0.050195718146355754, -0.522634893948296, 0.6157472161778553, 0.32384933636464797, 0.7436696520008214, 0.6063878652282481, 0.4266416474493409, -0.7859007954261921, -1.1432495313106683, 0.4828907559758864, -0.3672251967712979, 1.3688593403804241, 1.7875121106809362, 0.363060231314285, 0.5957962134788182, 1.4408952089221478, 0.5467629641476613, 0.6242620562311516, -1.1069989704802523, -0.5789091885282738, 0.6643333766953075, -1.3641590421561085, 0.2670072923746185, 0.8987461837797045, -0.01217637166499468, -0.004415186942864093, 0.22124795993904217, 0.4781232939682151, 0.06564349519921578, 0.6211862533497952, 0.15475709820123715, -1.1795383133283972, -0.8540453489620281, 0.34715387513674056, 0.06351211264200737, -0.21535288050035029, -0.8379493914792996, 0.04684376860028772, -0.5781594090643319, 2.234586200943772, -1.3863233012482137, 1.9111758663667904, -0.5534410023363533, 0.4521175889646059, -0.42915156866992155, 0.05963982485307813, -0.7060611168369032, 0.8693300459837955, 0.047075118006435226, 0.9863289724931757, 1.024181146373264, 0.2410438815998313, 0.8028528029232597, -0.14381905810084286, 1.8215316672414676, 0.06070641895756805, 0.19867024905414687, 0.6455762553794615, 2.424019404356411, -0.8390123337851041, -0.1963307385725099, -0.4298965493233409, 0.6900607597194234, -0.9797164629726253, 0.9519916362956743, 0.8543785826168705, -1.6622075963555587, -0.6940027089543952, -1.6940289370359105, 0.7146013480681058, 1.2353733292229436, -0.6201606406352482, -0.5421549851822636, 0.6561717854875507, 1.0759078448376158, -1.3710795392892248, -0.08312197743908595, -1.0143620548124368, -0.5335360363742272, 0.13698335204244547, 0.6336099365360494, -1.5870468461240954, 0.13897437760141867, -0.4661666230926025, 0.08639464983512307, 0.6633686170862662, 2.0767118557499797, 0.30287577094629287, 1.326288646245049, -1.3188751165252888, -0.4548108888482324, 0.4178981510188273, 0.7522169441873343, 0.6733642964080829, -0.01454915712866571, -0.34372665375532907, 0.19460090782130507, -0.7428606118429724, -0.34732919384687233, -1.4475860134698666, 0.7005371935512803, 0.7464406524470087, 0.16182912627258347, -1.9050456530910795, 1.0918393078091646, -1.3158755918066138, 0.587014371192237, -0.0546216635740769, 0.23877619061166136, -0.4342011823967561, 2.072042697411475, -0.6169784442232402, -0.11825046461272401, -0.9846507700900468, -0.6673058688454417, -0.38374163742087253, 0.8080348045141252, 1.1156431808678684, -0.23012842049023072, -2.36240897338704, -0.1773508605027411, 2.1742231146066815, 0.5930655987928855, 0.9378519767382003, -1.506524474208849, -0.8883497178632026, 1.3213862831258305, -1.780818941521086, -0.42636053773673044, -0.5907814068560568, 0.10565727564389471, -0.6711698071850802, 2.6661289219252775, -0.30230705757602283, -0.126815696891265, 0.1404050023243261, -0.548482120565125, 0.8483714204780609, 1.7759032790721652, -1.0032634326225973, -0.5665562646644512, 1.9910257739500405, 1.61273890565916, -1.650314528489356, 0.13506993479596432, -0.6383975742775881, -0.06975680870931161, 0.06326015586294251, 0.43139822488187, 0.8648904900481275, -0.26117944562132966, -0.9676748244560317, -0.6599884090366569, 0.3920183431177192, 0.1687232141274643, 1.878984654717423, 0.027052155859863952, 0.7183346760824788, -0.1969491049109349, 1.8102865265112618, 0.4455972420655367, -0.8214061927028354, -1.0343331232693451, 0.8087970527756246, 0.8182656105845729, -0.048402572550771183, -0.4201442352112945, 0.2996693407650949, -0.0817788890580564, -0.9151818471979837, 1.9263609458909015, 1.009279819097126, -0.5551612957806761, -0.6195172698418978, -0.6822041392502382, 1.5514626927811106, -0.21180932552225368, 0.5342383369508599, -1.4109608684655572, 0.04141452896830096, -0.3157897050437029, 0.39964831624590363, 0.00771270281887422, 0.4355204516850573, 2.3515252573428134, 0.15824109978101528, -1.444004757482742, 0.7997221135820641, 0.1063887559869232, -0.5151731185531641, -0.11635183389001387, 0.14654993981541975, 0.9455550733005927, 0.8025862205918742, -0.8320410291116112, 0.6016820705067555, -0.43607368070775193, 1.632723548635329, -2.1745635880359546, 2.3105559821689585, -0.6264546116717641, -0.3911173084677136, -0.8960929171953402, 0.05762496670518828, -0.8730921775915645, -0.8988196598508926, 0.4547590138360622, -0.5205033616098172, -0.19707511588640939, 0.037999775477258815, -0.09097098618436297, 1.7778368989636912, -0.028688207313626833, -0.9101241793669103, -1.196492596284419, -0.3481375571043394, -0.15833574348877688, 1.6445508650483385, 0.3032584333679826, -0.5323919521646195, -0.5414966104633068, 0.0577027522549301, 0.561793374786062, -0.45700004927498905, 1.9142094399493814, 0.7710480648992787, 0.7270299833325617, 1.2978312088920225, -1.5673623687739748, 0.5944265903683345, -0.1885871221250406, -0.014409446971121353, 0.5832415322164091, 1.93717116383883, 1.9603628889377633, -0.6906649068082471, 1.4086077718486683, -0.4919084218053603, 3.40760556391018, -1.5181900217409159, -0.5370548417338212, -1.8021720699239148, 0.25649078160315486, -0.7650913372289677, -0.009092660813593618, 0.7683504080096255, 0.4791609666740851, 0.655131471858131, 2.3414535891320427, -1.1855668312079466, -1.1053286224995087, -0.3723548423690275, -0.9750056183795982, 0.5832170313130418, 2.3010497839533315, -0.6964267875976079, -0.8257170589214596, -1.6129096010643384, -0.3822608959847506, 0.45937695188425776, 1.8663434489637056, 1.3603817078802152, -0.7428827117599801, -1.3414571647108648, -0.2392644561670364, 0.36747103100138984, -0.7532123717539616, -0.21351353257196168, 1.8342835146508782, 0.6431665597710828, 2.2691926927889243, 1.5455292632002515, 0.21450121815739326, 0.5434295688614703, 1.4318489598179454, -0.46143570999411604, 1.4809597887801491, 1.6774052899943468, -0.6476669702496415, -0.3963264921244617, 0.7028233565425528, 0.9452270945400568, -0.3152425027106517, -1.198407440828206, 0.0329452710946273, -0.19198636960127816, 0.525467135508787, 0.6069254854748706, -0.7852922612191063, -0.6211497582969646, -0.5132306944560566, 0.26169881416432184, 0.5862782042556891, -0.3284964790921677, 2.127704890608125, -0.5244908102501715, 0.37927287219290456, -0.9285956935886465, -0.3534062976364553, -1.4438499004795398, -1.2580859051575326, 1.8684726331736126, -0.8966035804383568, -0.19812778857521257, 0.21684165204684713, -1.3011598442361303, 0.7430313948973795, -0.05710744072151507, -0.6441331167074772, -0.046242072270398955, 1.0067649194991564, 2.6523712023111155, -0.47961683705714386, 0.1566391267212571, 0.14049308424630041, 1.2639178409070486, -0.07895354260033897, 0.711155052291512, 0.33409453904107617, 0.4389025077025907, -1.347885003797713, 2.687133083102002, -0.540896744028976, 0.17718844388399257, -0.6922133843318257, -0.6402671718650578, -0.6338588371641155, 1.5732803700683418, -1.791588107414465, -0.5146446166894076, 0.9908228236023368, 0.8759485202184565, 1.3796138042577937, -0.4503736948834741, -2.208201848198216, -0.9239675493289764, 0.9688397853496908, 0.4784073852750473, -0.9433635623540351, 1.0201246617790067, -0.32116935213329956, -1.4782133791793635, -1.030839466420546, -0.059369047946065984, -0.22210307632535264, -0.043518434301304774, -1.4096635536404416, -1.4238240322638702, 0.21629977797608402, -0.5186098474747548, 1.149156846030816, 0.9501949230414627, 0.7615385408422835, -1.8424372658412713, -0.20311819202516562, 0.5765079552120501, 0.5986251870382818, 1.2557832267822138, -1.9590731082460107, -0.3730241791045983, -0.1303821173535263, -0.4156400928481412, -1.2065749613273762, 1.0648141510973332, -0.28503827642880414, -0.09394000801402529, 0.44031151221650705, -1.0070037578864812, -1.7874407459696569, -0.24304025606712656, -1.41431659181414, 0.5123589274905823, 0.4822730036389021, 1.193266521674439, 0.29450690437074917, -0.9870074255359288, -1.2782837505767641, -0.8799799249884115, -0.41001469686934466, -0.5564787808810203, 0.13457737567471878, -1.6078754481071296, 0.8095470958901082, 0.782593234503425, -0.5184992201168032, 0.5096098507230341, -0.511289575783913, -0.2712184128518724, -1.1507159642538756, 0.19645394782606848, 1.670857546899285],
[0.8867572023048897, 0.3979279897822147, 0.28545267331558904, -0.5907342775458561, 0.19587854953731643, 0.7863803789971001, -0.1639377038005622, 0.21885863695781163, 0.33121462206106844, -0.2843906581575181, -2.04731981535228, -2.2150268929515455, 0.6767994141401122, 1.6664113714703426, -0.4222286158438073, 0.03908792427055236, -1.0137426827486087, -0.2174830304045172, 0.023395228115830374, 0.36798238533352196, 0.06802586010911865, 0.030725753133017442, 0.004569398604897575, -0.9071828792923988, 0.35966682161909536, -1.6420214815431833, -1.6776938442339846, 1.0942504778405635, 0.03761363886022337, -0.26452519871971947, 0.7104070589608036, 1.1439841440692848, 1.0463253840656634, -0.31306271700872124, 1.5174392187273034, -0.5250798743698537, -1.6519836208529188, 0.6122862704142136, -0.9133610685920022, 0.2696961082048322, 0.7416717516260978, 1.3009190406986082, -0.4562280490478158, -1.7084230209606839, -1.2993966745269816, 0.38701072120585805, 1.772356134684904, -0.42283329855918783, -0.9069247666337436, 2.2371991792932415, -0.6698676383046919, 2.0056636164927273, 0.920672533537513, 1.8840951708381528, 1.1404848596015957, 0.5175342745890016, -1.4939183407251124, 1.4232053917875236, -0.20947525981782197, -0.016839334263904597, 1.4432592297839577, -0.9575505914805942, -0.20280344385152013, -0.7672171075269814, -0.3119542369736021, 0.03225061750809256, -0.17720866562294632, 0.1485429945772083, -1.8635257601863868, -1.7213225376543542, 0.7484946439759396, 1.1218288194507986, -1.1868855648272034, 0.11007897260684138, 0.16101840177022367, -0.4138382745957614, 1.189198321712708, 1.1529744920807532, 2.223837569439323, -0.680058628945481, 0.5775105892121366, -0.7441594848661773, -1.2113537359753639, 1.930197707242712, -0.1350492686412897, 0.5095043043360442, -0.8795269068210713, -1.2705367204048654, -0.0041642690406742625, 0.7541350150675369, -0.42399798087643353, 1.2867414423297687, -0.40885019051149935, 1.3249589013641372, 0.7490630923693649, 0.09313729203374585, -2.558603476342586, 0.5813769957317508, 1.5475976163958003, -3.455565190578721, 0.38691927974655566, -1.6387423357552322, 0.9940992073446794, -2.1808061585684393, -0.767957231878089, -0.5347952245386717, -1.1902001585960997, 1.3558702494784107, 0.40211445608955365, -1.4016823944316146, 0.7983330415183922, -0.2296614084372258, 0.1281596810402393, -0.768921958639354, 0.32111544010470827, 0.31747467261385787, -0.5935468932852875, -0.882401140141388, 1.2934990175923786, -0.3001853095932303, -0.011504973943029477, 0.5446339017550764, -0.8735383794821734, -0.43174094106397876, 0.7171107643282362, 1.0697072144947841, -0.5555165287905224, 0.9741188800598389, -1.40411436658597, 1.4619760752599478, -0.14646730032768823, -0.6943490614027592, -1.2923494977614722, 0.16098912754744402, -0.6941573267542248, 0.023208872944778077, -0.42511728747374683, -1.183859236115991, 1.6589891820289295, -0.01748594705649478, 0.638371299890079, -0.0553731022846233, 0.13394907564316358, 0.3215948688872802, 0.1267539399411806, 1.426677571590718, 0.006546583231699878, 0.4737828659207348, 0.23249073540476467, -0.17639266063428308, -0.0949289067440256, 1.2884264971612847, -0.7106671102426191, -0.9619218678411674, -0.2145096089631731, -0.7817796140980409, -0.2372822750363339, 0.24548894822177672, -0.38349275389502124, 0.17732276535142746, -1.8977174292968635, 1.294652971839659, 0.6262417136591324, -1.4201576441071793, 0.0055839938316532165, -0.18527437440659567, 0.2494852398370175, -0.41851924098864063, -0.438471852212728, 1.3006420055801935, 0.7020495779923406, 1.3319087725065748, -0.2757586128581075, 1.0291080107617903, 0.5751333610059314, -0.23813656651596116, -1.8590768729251104, -0.09922833926846145, 0.6520936938262276, 0.11043112455733838, -1.3318097718181978, -1.2928856295505933, -0.4408018914290444, -1.1405832764577837, 0.22042310317957886, -0.5877253083436427, 0.5685853219505035, 1.5848088027886722, 0.00928830900145947, 1.2500854729322082, -0.19012067819305026, 1.721415190701749, -2.133219247447243, 0.6121596137959135, -0.12806378116890116, 0.437817521681465, -0.22590864533934366, -0.40327647937944283, -2.6022093885546784, 0.37036184566305974, -1.5536928015025104, -0.08234894547780021, 1.209589747955312, -1.3614991411092674, 1.156861487269262, 2.325435473895241, -0.47570060032635, -0.16148088050061848, -0.7281182250559527, 0.0030526505172382506, 1.9286294881430228, 2.642563717719951, -0.6740239884706111, 0.19204271702684825, 0.7130076502544259, 0.08186095512617413, 1.7431087202599926, -2.12522443159503, -0.37825561127004903, 0.03820273671491283, 0.2471684324411532, -0.7320432297004307, -0.4551901733124028, 1.9384929107303221, -1.6347260213997552, -0.15108457401480804, 0.03840402675911653, -1.2550082819335215, -0.6138981391100399, -0.6859624494892702, 1.258775054505355, 1.0964935495095847, -0.4807633625165435, 0.9297930122533774, -0.24910869431723767, -0.27063786254216643, 0.5487246099984944, 0.7696984519452963, -0.047006293951093056, -0.9013210772491655, -1.085195285835968, -0.9069474642773809, 0.7240769173337592, -2.3053875861431936, 0.7090065344288133, -0.2592975057521319, 0.37330884473951625, 0.3682765675239483, 1.26687623678212, -1.9098228128717918, 1.1483752747265057, 0.2545476033268283, 0.230954629918589, 0.21289620465738615, 0.27616053233962146, 0.5653244059921405, -2.1344383320539144, -0.442611589859665, 0.29283401072016507, -1.388242667048526, -0.7723129522203505, -1.2179856912981488, -1.68965740051246, -0.29514583469530337, -1.2063267900430672, 0.2153322085955549, 0.07247415463120334, 0.3183459392392153, -0.062413081109205105, 1.415324156866075, 1.333285106844817, 0.6898834273657158, -0.434087165992479, 1.362201496842723, -0.027484701827054977, 1.4931544447353078, -1.620196355116882, -1.7183929219040042, 1.210765365137558, 1.370275953229563, -0.9440169620418675, -1.8881158211488374, 0.1129113085269481, -0.4131414592771546, -0.7138683657790567, 1.8436910047538566, -1.2669846343523368, -0.2770591954933183, 2.315828795444994, 0.004984967384362427, 0.234345011156291, 0.670355890065021, -0.7097297327502096, -0.9405084237452667, 1.251329714609628, 1.2654650935094012, 1.6816198000889193, 1.3555093166724963, 1.00535466060543, 0.8631749953487003, 0.9927908639644942, -0.12828578590752887, -0.46233180970920945, -0.7694280030091878, 0.6686427645623769, 1.3961632072939534, -0.6806997062354377, 0.6936524337789252, 0.8979981197139147, 1.5290713052484322, 1.2280376259205485, -0.4704202765836369, -0.1435000522092262, 0.6892051453178342, -0.6184240562105894, 0.9437501014897894, 0.8542845956568919, 1.1810695786237912, -1.0094825728423278, 0.9298024386789324, 0.1873608428036872, -0.5309931223312229, -1.630619040065311, -1.6086420603059448, -0.16392114195538277, 2.0596822490083038, -0.6846998764283682, -1.5057269957759853, -1.021103327856092, -0.16530545282534562, 0.26484218855262537, -1.0183356944037858, 2.116283433933518, 0.37658014030364967, 0.7704910478372523, 0.005175925975191746, -0.5265079120754117, -0.2998643167107724, 0.10279583035203757, -0.27823399590115105, -2.868544802343549, -0.03665947169745777, -1.7161115911952987, -1.3119766431772284, -0.916030461686335, -0.028726428613577788, -0.8872827100740964, -1.4839655221100603, 0.1744445754431194, -0.33066543278582117, 0.5976687994229188, 0.30963842856606416, 1.214338713142039, -0.48107395004963704, 0.1850592090940502, -0.6960639506266568, 1.3021131459987179, -0.6149201341420505, 1.8570600912144026, -0.28252923782812445, 0.6294100476095413, -0.8047678967729689, 0.16047727347496668, 0.4618249733168622, -1.2778941590363675, -0.5067608408497165, 0.40767842774862095, -0.27017634156818404, 0.23284505745070047, 1.041408189208235, 1.3310110958936336, -1.2851998264132918, 0.1997277014812031, -0.701935628199494, 1.1734400819441342, 0.5406701030850443, 0.36690630812782554, 0.6886588182962347, -0.6956240478308793, 0.11073201255921715, -0.47960311277057704, 1.071318198707014, 1.2708071327399422, -0.873428461300447, -0.16059695088797937, -1.3678344489501486, 0.47716213162144283, 0.0953330001459968, -0.13455798761059928, -0.19196259173447341, 1.0572976513882253, -0.3526251793783517, 1.0478285929786364, -0.10867173141799032, -0.502392083600086, -0.2967330513452627, -0.5589396234296128, 0.3858105730584676, -0.37345699058594817, -1.5069695458444952, 2.4251089221423, -0.3109530519994585, 0.17068008421184774, -0.8217659519287001, -1.3142950194353404, 1.581445624802805, -1.1036975310817883, 0.4677635848107674, -0.39710550811239337, -0.6216814940319845, 1.0989857150367797, -1.5639190165973293, 2.1149147894063844, 0.1225897161142602, -0.4672274240763137, 0.8175208134280731, -0.17692229976521842, 0.8180722671819309, -0.04459263320136899, -1.4438179539843596, 0.26282931729296066, 0.4284733108320658, 1.2492270570867752, 2.180146809617968, -0.8972438627424374, 2.2240441871938206, 1.0784577134165092, 0.23891816556481146, 0.43445006418063764, 2.0193619547999915, -0.010341602674605968, -2.4381802842094795, -0.42349810594220477, 0.10999664740784929, -0.8852073605251717, 0.11880590413367066, -0.6311762998438852, 0.6520165971719959, -0.18188758566832736, -1.2187951983981538, -1.1331492805402654, 1.1503832763729072, 0.3544653712819872, 0.48882237808963735, -0.8005432480055332, 0.5634683330667398, 0.2738129254808896, 0.908208027274103, -1.4462718520166324, -0.7354833750186298, -0.6254206231401805, -1.0536707257337794, -0.5124127814709499, 0.40506955547886614, 2.1707391929579383, 0.20272625683018713, 1.0385406946858537, -0.45643404533789156, 0.43365551765835036, -0.6967213892991898, -0.3315868631664346, 0.890017260009591, -0.45261050598892466, 0.5925092209938827, -0.4184767709151291, -0.9996598400936992, 0.6484416554861401, 0.39059707735649785, -0.670704565932018, -1.549977766149949, 0.8080138370641838, 0.39506223952204444, 1.0381586663631353, -1.7576327116676058, -0.43713177786800056, -1.6800066086938517, -0.3136859684224446, -0.2771895477551166, 2.431666694543016, 0.15876543627416967, -0.06256929420149324, -0.022479049034287192, -0.8417871556698049, -0.016253962116323975, -0.38993635287086825, -0.7783366832277816, -0.15145661966372823, 0.5043779849436465, 1.3904841161229937, 0.34233197708431257, -0.5862482359712112, -1.0429222479794966, -0.5045875146459643, -0.776096839073555, 0.20043537081713425, 0.2674985464035403, 0.9787846643766849, 0.40026522154597144, 0.8063147790650224, 1.8516590735784129, -0.2673812728006556, 0.4845156911397715, 0.5792368560123636, -0.8788018706087799, 1.4503289507877084, -0.6772555961663067, 0.6355336134797438, -0.8313539597317398, 0.893500871388157, 0.431594278596887, 1.0042913149179753, -1.2205005214674685, -0.5559698331910597, -0.8340824373771158, 0.9997015310962318, -1.8118191246342032, -0.573553538027691, -0.054612978884964546, -1.346979792152358, -0.9369419717323253, -0.7139031809837875, 0.28153973960022305, 0.2640568038766537, -1.6903410495703257, -0.8803842554914677, -0.16429413119352385, 2.0033464084864248, 2.5754817803169914, -1.5105357482871722, 0.7193230186484092, 1.5751568897397046, 0.14728813927714782, -0.31731798735123706, -1.0811641246783499, -0.9390330717011195, -1.781754186524484, -0.8450775854652125, -0.27002521400270374, -1.6542506507237569, 1.202572511183688, 0.2191070936882067, 0.60846654740088, -1.2189090307582797, 0.5057444086238272, -2.456981625738769, 1.7673751135732958, -0.502607456526132, -0.05990277854428063, 0.658888391266019, -0.5909592236807983, -0.7491730829678727, 0.17884265288436693, -0.31119002876668106, 0.09363516468097204, 1.3820571432962767, 0.624921917637769, -0.9495541548390308, -1.0590261415899511, 0.0885597884302042, 0.2386233339195971, 1.6558853643606635, 0.9003861077702862, 1.1562080567760913, -0.31141924378719876, 1.435395524207634, -0.092602260227545, 0.7190462268210218, -0.33618659374143367, 0.23084610683250475, -0.1243082058280971, 0.3495079254876488, -0.46428912450209814, -0.00854594819845189, -1.708377485831108, -0.2591304776260327, -1.5915088305308678, -0.2804114694037571, -0.9815982483943262, 1.255260674555349, 0.5776474350033924, -1.0662716924544566, -1.1637670194845506, -0.10284349016576562, -0.5443264835137677, -0.378891719035372, 0.5419541579068863, 0.7090768685212921, 0.15750378748878077, -0.6169756318671057, 0.3818323174071295, -0.6927266355227634, -0.2616680811658344, -1.3620685324840587, 0.3189497828615814, -1.2932229907169868, 0.204877232964042, -0.8273032486540542, -0.696041784882166, -1.1733842851742096, -1.430300942975058, 0.4479054085387229, 0.17600599836883474, -2.092721022831332, -1.3862191176903695, -0.9008198747506988, 0.2387728609475418, 0.4121361395415307, 0.33091585130495516, 0.4732970830678484, 0.22566735102065374, -1.3859967627996888, 1.0313298394043586, -0.9052751376380133, 0.8080548228754943, -0.46047483109277915, -2.5789547414330087, 0.3254823532234492, 1.790701801993772, -2.0949404450076976, -2.233234125638278, -0.30870847570870563, 2.5833325724843332, -0.4944602360258782, -0.10929168967429828, 0.27498663466293544, 0.4379370400694596, -1.5545744259567404, 0.9795700537943794, -1.0207090769250364, -1.8853946789029512, -2.285833549776826, 0.2483054775792717, 0.342374077631562, 0.5013323545752935, 0.9319150977058437, -0.7561968435099067, -0.41763817531266745, -1.067054618741611, 0.23850162680625672, 2.7346997172737484, 0.868758584353565, 0.6252187803517292, 1.577838056529316, 0.6258558780147485, -0.12256678036732403, 0.5803318913268076, 0.31313709624069663, 0.24598004342887123, 0.04442442494831895, -1.6973877866695442, 1.3689115240220144, -3.15065561057917, -0.6659148154207647, 0.49975337278654536, 1.5587964574973188, 0.7867155158247594, 0.020823875505046576, -0.06601511404222533, -0.500546987715763, -0.10050902633217092, -1.52506416275767, 0.18500999028138462, 2.1927142972833726, -0.04274805776761462, 0.026243684807619298, 0.10522355300860668, 0.9807245531466644, -1.1258357593539776, 1.5939935077205003, 0.09765576772783048, -0.2233544681484291, 1.8687004867561285, -1.1549009812990536, 0.09433233690355775, 0.4239273360479923, 0.7371334420206139, -0.8117341787396107, -0.2030719625886462, 0.5115662337242822, -1.0053598969231878, -0.5918468480108584, 1.5355077707834062, 0.45124352842121057, 1.19911423265305, 1.9523802199197793, 0.195602147802732, 1.5086276920733093, -0.3877330485343014, 0.15382555399671735, 0.7000110720218631, -0.8173645004813961, -1.5858723618719157, 0.15934434902892347, -0.9038904127929497, -1.191684956763338, -1.899652302873086, -0.23140800885396026, 0.3628368428449373, -0.331004340322967, -1.7074085684296931, 0.5462183308794013, -1.0700990807246118, -1.1879164833871214, 0.6849621575037192, -0.19682864715933515, 0.34251897555965577, 1.1990104461848068, 0.6163484146913486, 0.6692389478605333, -0.13655389085686503, -0.664254250991085, 0.17921436899826088, -0.8039817712279432, -0.8566214818244826, -1.4284631234994227, 0.18214867843010465, 1.978244825518691, -0.07637218075020967, 1.4032305986465339, 0.5412163977967428, 0.514330515732074, 1.0156721820341643, -0.3115208239467533, -1.7204653715578377, -0.04285193537969387, -1.1578764666149137, -0.936029159375199, -0.4829191002305124, 0.20236150103830602, 0.16731948640056782, -0.7112772183009971, -1.0237406588767828, -0.652962859834885, 0.20664043863474535, -0.5916782694117084, -0.3898880612873064, 1.5482027222076014, -0.5339238509821028, -0.8481371308498317, 0.36485226314274843, 0.09724707945499471, 0.03721476865179419, -0.48090105653123316, -1.1459833307313583, -0.07189478180239776, 0.4049714843253167, -0.16895361710545775, -1.5774150862216916, 1.0344394279478326, 0.37531042754713473, 0.01017730441235515, -1.740610748590124, -0.49995431917163013, 1.0203398379713216, -0.06565044942837263, -2.1768897527360656, -0.8282449764654, 0.7106206409440079, 0.5529360867847956, 2.048849385273373, -1.0367643975562428, 0.5990870801634084, 1.2419793961203769, -1.051935019457025, 1.1524256498669048, 1.757756366900373, -0.2187582030551315, 1.1302341976900512, 0.6751060769047744, -0.7390321808643133, 1.4131525308449004, -0.6376762056004844, -0.48812302165038873, 0.40945389678367955, 1.2958246438396834, 0.2654040525259301, 0.37602047495051916, 2.500161425127778, 0.015331488934115322, -0.9199542669548322, -0.4434626569582636, -0.29225524805385816, 0.8526751120665345, -1.6013726144636458],
[0.019106828200365373, 1.025478032758102, -0.7414951599539877, 0.263009664484822, -0.6555540961682365, 1.389949377947136, 0.07951148835575697, -0.4536711729251844, 0.0644231958868578, 0.6250952096917074, -1.016410704373667, 1.4497844813344345, -1.192995095676178, -1.5531177747230442, -0.3087182598620564, 1.5597658930040045E-5, -1.1533985288592712, 0.5088714527881248, 2.7642224672509284, -1.343567917250345, 0.8183907031293473, 0.4108308071098497, 0.8401229303178577, 0.6622027251401189, 0.8246286092658367, 0.4907731214231252, -1.8044644812652701, -0.1876728506421134, 0.03305649080639966, -0.7678986240123878, -0.4857313506538461, 0.3320297502999468, 1.2599836369336272, 0.865842088572988, -0.6753785847927223, -0.13766576085329169, -1.2543480415947554, 0.9689827204701672, -0.47160256785779875, -0.04709004499324493, 0.6850413127673035, 1.857456396931904, -0.14079513582887077, 0.15433094230472955, -0.8549091450359663, 0.3401374099787821, 0.6324755320188984, 0.25501842854056544, 0.3873260071846365, 0.17848209393666845, -0.045512616193908596, -0.3623321336641502, 0.19386024348106304, -0.3114225797007887, -2.3249725674945307, -0.3633008355772835, 2.2842672354458746, -0.4008940715374931, 0.7353453045396401, -0.7743195010282689, 0.652929414207048, -0.6555641729518459, -0.37302031224274296, -0.5292381943447354, 0.5863489119077503, -0.4360311770034589, 0.43376042727299485, -1.581464701001805, 1.719169469326896, -0.8030853636526368, -1.7326264317733084, 1.5147986342105855, 0.982705179390423, 2.703502901833247, 0.2762721582384992, 0.9982455906880711, -1.4632669994308736, 1.2118036761191737, -0.5812757574847268, -2.695891475543954, 0.32483915647455114, -0.0999556498374124, -0.4285748493944141, -1.6047171236346918, 1.7825961265819859, 0.030340175860786866, -0.5904703723342856, -0.17502461889149243, 0.45759526153049457, -0.25177334694882125, -1.7345983144834618, 1.159220514874463, 0.5117940882252745, 1.4663385535227562, -0.09521795099717122, 0.4156812611217656, -1.9337804272493853, -0.134307888343168, 0.8527293565116763, -1.224999757411534, 0.5109969280408558, 3.270494808751789, -1.5961047086940856, 0.7183327624003524, -0.3177104269281235, -1.1891064326968332, 0.5400175452238993, -0.5249170779763326, -0.7822729936485727, -1.4294286973105423, 1.5312125444424693, 0.9730468532536509, -0.10090424537096344, 0.8166292726930957, 0.41316798169659835, -0.33620183428727146, -0.3330699750853202, 0.09404936471848062, 1.0792138547697028, 0.2592851362673223, -0.3192279204969234, 0.7095470294553352, -0.15324387391300712, -0.5578276497469251, -1.4359891680056083, -0.5881374882384961, 1.2516918626561055, -0.10912091716750064, 0.7568011903249242, -0.32046065005840885, -0.6900025157280434, -0.15973643142243912, 0.18438931403885442, -1.700194582595573, 0.505011702802428, -0.13673029081101318, -0.29057826585950064, -1.0156587463372329, -0.5175731093690971, -1.826633764268426, -0.6109944987025896, 1.0911845840301244, -0.9328523236004129, 1.748747515707027, -1.0379357019294775, -1.4800260561176766, 0.737172891156838, 0.9558802299351707, 0.3915330070661447, 0.87387325055954, 0.38944307730787386, 0.7261955353007264, -0.05015969393045271, 0.43479983261554306, -0.6952211390734323, 2.3382163913456893, -1.8976696935594228, -0.02348665450216091, -0.2696282154541547, 0.35781250044534896, 0.11734984373864248, -0.6227827952758849, -0.09125827351347307, 0.47631138872604023, 0.06483479235970183, -0.04086273136070298, 1.5368161509754434, 1.0866691120661118, 0.5131848232646263, -0.815488203385734, 0.5638407222412836, 0.335783555792376, 0.7653402887503722, 0.3752242522403712, -1.0281086544569773, 0.09331837580445689, 1.6914000666719289, -0.9358072380555271, -1.0690006844751414, 0.3892007007648836, -1.0672587252896015, 1.4836384485773702, 0.7300620357352212, 0.046777389583169605, 0.48445767951756546, -0.47885986214069154, -0.8186125878278188, -0.7979185010717877, 1.252907686922769, -0.15762491135489526, 0.5621041944364691, 0.06091683747018167, -0.6512368076623004, -0.7495065596120373, 2.091018660112623, -0.094901131179245, 1.0919798867453347, -0.1003003649583472, 0.08956910160536068, 0.5036291802469421, 1.3573293612323105, -1.587866381083966, 0.9176315550937221, -0.604697189961071, 1.0752007305392053, -0.22246836433491946, 1.6992220498878456, -0.7040921520767026, 1.0274836199877986, -0.3715220314846939, 1.5128504700303562, -0.3751934589356921, -0.6609000103539614, 1.468964049948267, 0.22197507214559567, 1.101153287258136, 0.6129228640851769, -0.8522993865564842, 0.9867360089885792, -0.6655335131904008, 0.19368684387550933, 0.5126527873799451, -1.0653400919943077, 0.33524683283126655, -0.30860917816484695, 1.3532851277922886, 0.9041699240631854, -0.2092279415328834, -1.1420060702659838, 1.3622922082497806, -1.2456659891286965, -0.3585505826680779, 0.5897718874795705, 1.175346675179171, 1.6457801540304164, 0.786626121457211, 0.2719668152920976, 0.30905889671783576, 0.23886284226048898, 1.072293140521621, 0.30275416103018704, 0.36985781992464356, 1.8188239695955581, 0.737017735274212, 0.8534401011504958, -1.1255330989009111, 0.09465512984919214, 2.9236194115641947, 0.1577798950738649, 0.8445856476786385, -0.1841940468612728, -0.6427116384506505, 0.3058089628674549, 0.6702546139656366, -0.7302501699454552, -0.604715499490888, -0.4626181821006054, 0.5205485800082517, 0.09570931375676228, 0.9199855359552592, -0.7325916599473612, 0.8312405095879843, -0.25844790501140247, 0.38867066850359705, 1.0750628401184426, -0.8042460647139621, 2.4903281054402577, 0.5561559186470183, -0.5123041470147149, 0.539284104930797, 0.912130096724361, -0.3411975414262714, -1.246346421312119, 0.18987726279339082, -1.9967581402192744, 0.6942936039470236, -0.7591779647294445, 1.2013538357179796, 0.4903264892603545, -0.5126453842707852, 0.008752741927562745, -0.4756390842755812, -2.1323466504365616, -0.8112984217984935, 0.46187113239423105, -0.7517064405542795, -0.9070351767379048, 0.8453371874720884, 0.8268905588547768, 0.347412134402631, -0.23709509239624815, 0.9192188300374308, 0.05409780119675519, -0.5648469322795379, -0.3676223975742464, -0.051012197089271405, 0.4739232758872427, 1.410377894637085, -1.561261494401104, -2.0332973479128222, -1.6471126662832285, 0.2868455997899564, -0.187695122759476, -1.526652201776944, 1.2183249933956002, -0.3612644519449588, 0.5377657436427347, 2.155110795991816, 0.042821948880540396, 0.6679083607183047, 0.5468895947521445, 2.469575411255604, -1.2772477450552346, -0.7267273915328077, -0.4444785074319986, -1.331652151848954, 0.8768328807079815, 1.1183486260987368, 0.8067517883707684, 0.5342794235214932, -0.7284868284474021, 0.31072224505254475, -0.263920558921759, 0.4354538152839305, -0.6459909877634664, 0.4436562117113942, 0.5542893849955082, 0.8123086155996919, -1.6880022518738462, -0.07698899176366861, 0.7698051760407397, 0.4936717143422512, -1.804354258206457, -1.7845019256156418, -0.5722681921338327, 0.9059202232540315, 0.8758117449435739, 0.710572209459159, -0.3267842761336052, -0.7818458672213769, 1.3936504539985377, 1.7846382381177266, 0.12687659149413166, -0.35208013947542394, -1.1774815699436498, -0.10862247165044436, -0.7488884959701337, 0.7675698646663325, -0.07353715200783695, -1.6063581177709765, 0.5586449614534724, 0.5090304529267599, 2.0823058176703597, -0.9358234576297066, 1.2144377641216428, 1.002279207775656, 0.07475280039257365, -0.06219711993531181, -0.7000689484193251, 0.2697616420926649, -0.07234064551566115, 0.28625144340963304, -0.16341712939118153, 0.8899082990087224, -0.6045052996645346, -1.1567950072344808, 0.13021643824574936, 0.9181195882125142, 0.4746928060297567, -0.9312685271865341, 1.0666032629865305, 0.6243353553495371, -1.1209483887105778, -0.012974106684077965, -1.9125788773306855, 1.0128473016194064, -0.19125985268067733, 1.7558808376595645, -1.1774381785665768, -1.3032084129155823, -1.8346957678573128, -0.04773184925930285, 0.26032152924551627, 1.122230744710686, 1.3724570991651068, -0.6529112431726228, -1.1799520908859709, 0.3806893042975177, 0.23839178479320133, 0.03524376934325883, 0.6614272492827284, -0.8895171146586652, 0.22076745732416286, -1.6187623365926975, 1.2966716417204782, -0.18478977984272782, -1.3008911847512223, -0.5138834717497974, -0.08460771552010675, -1.338955069517937, 0.7845630191584245, -0.9628363699891146, -0.6704309272921836, 0.37985824735619794, -1.7063942346909957, 0.8952523688489588, 1.1393960347967185, 0.27909446319969866, -1.1305557635935974, 0.37387533212117874, 1.1600609970403484, 1.2387434953505836, 0.026454310083615977, 2.3679686584046733, 0.805117402399576, 0.7738500286856297, 0.49867061533457774, -1.0099801937114505, -1.0183391879403054, 0.031768528759224306, 0.40245727039684687, -0.42261907268154963, 1.7545819142921115, 0.05657838304866573, -1.1267173473103318, -1.5728956995985992, 0.27390772673353586, -0.8345520913985717, -0.5324248942577494, 0.5365485711143886, 0.9336855705888194, -1.028096192889182, -0.23136684140642977, 0.8719397238426493, -0.1962120509619944, -0.489453606519513, 0.6646446351679888, 1.6912870351246778, 0.12456793851951649, 1.191154346802272, -1.7935416857616386, 1.5248832486359336, -0.9617534173013651, -0.5250293729377548, -0.3599429697666558, 0.3614237417287477, 1.506849334019843, -1.0030053461481123, -0.25179039347955945, 0.21793036412086683, -0.20369553916041258, 1.387520469281675, -0.3396319252544801, -0.16957224846202654, 0.45079541395074824, -0.6115195780580763, 0.1766199550375935, 0.7959084135087859, 0.47627242466780817, 2.0645170192510265, -0.24294824164476408, 0.8811487982051311, 1.7849380088761977, 0.8200026146785696, -0.6220164777453671, 0.5725035057498005, -0.0775532907520479, -0.30232966749631673, 0.5423837609819376, -1.0768229810604046, 1.02314809742062, 1.3615258886809418, 1.2715830615881412, -0.426188401305982, 0.6743808109320394, -0.30594726476602063, 1.0814404018879078, 1.9199483610391692, -1.1855335587655398, 0.08058711870552546, 0.05545430165089275, -0.5159971428573864, 1.4612995885241407, 0.23710823616860857, -0.46180971635695667, -0.3148987796812411, -0.9105787851998202, 0.14745504235742077, 1.0967278424696796, 0.8533621227076945, 0.6872210695990543, 2.4889586511953645, -0.9002046488905382, -0.2234921460465934, -1.7251761173278977, -0.7871564119085986, -1.4343729526715276, -0.5475441442738854, 3.332191183175467, -0.07543018947809224, 1.6055565744750662, -0.40677700601789607, 1.4321626403100023, 1.617033652470822, 0.5156257152327023, -2.3902713565969242, 1.0002159467122484, 1.9636696668001354, -2.375641926656579, -0.4725381404193236, -0.1677490185338403, -0.3110026894630344, 1.1551995735733747, 0.1406659116208496, -0.7003121321443876, 0.921555090294919, -0.23830010130435691, 0.1846193809350028, 0.319819176529684, 0.7586556513727934, -2.487949203833948, -0.25820062885539824, -2.1028636938639265, 0.37341962406600276, -1.355869933761014, 0.5329234801755719, -1.0024998013135287, -0.4870921348653596, -0.02760311857259776, 0.8476222421350371, -0.440162535681137, 0.08761211779738437, -1.2735844232772235, -2.1055728007750303, -0.2433796173719201, 1.3039223171276733, 0.7052027528085613, -0.5243133160762996, 1.2770350074542778, -2.0145253365188376, -0.18666478011047705, 1.2569688230089329, -1.2913722945636539, -0.35742771819224217, 0.21164510217793325, -0.913763209038757, -1.1977342483072486, 1.1266779879218396, -0.30985297914797916, 0.821224833867767, 0.4056847688699821, 1.590369762041041, -1.4362508970155503, 0.37040390508633203, -0.08630957195737986, 0.29397961702392966, 1.1642235723433143, 0.5807013392138417, -0.06508009299883795, 0.5119332541250387, 1.170663028205436, 2.27121647738236, 0.6332774575450348, -0.44318506174419325, -0.955344997453904, -0.2619655296435171, -1.312431043692659, -0.6555756147852148, 0.2574258105915616, -0.18628660641773592, -1.4330424351591124, 2.1228488124120144, -0.4873180959884457, -0.7396384127883354, -0.7312284155317295, 0.08595844389579638, -0.7789332300358208, 2.448613139226333, 0.6317552541525773, 0.3928548041059716, 0.4860857761530444, 1.596651311626488, -0.4525277762736499, 0.28556757570044644, 2.2045988273082946, 0.20293387595902582, -1.8459333366716648, 1.61644541333025, -0.17913158381373684, -0.9723308861076766, -0.1278172705750479, -0.9639543965990574, -1.8927876774461725, -1.2988286486524305, 0.21262449912364106, -0.21234255384414077, 2.26090736765998, 0.8805942255791146, 1.6399016880651784, -0.5495859297693052, 0.7725093643693645, 2.48345026352183, 0.8534202792579861, -2.196761100041219, 1.1280219108513616, 0.5446586874405545, -0.6880912973183387, -0.46782538063115275, -0.06316483944328792, 1.1773319338622301, -1.4119784053626203, -0.442390644408249, 1.5013475970974917, 0.12381500221248173, -1.1046589544156105, -1.1777240478951985, -1.1750804792659266, -1.0791622915264338, 0.20843140358235798, 0.8564878487243617, -1.2973277904377225, -0.9691128705555158, -0.5918279526890987, 0.49289896180415704, -0.8333565545703753, -0.6809084035704486, -1.303908569106712, 0.08138131432377585, 1.4856315233938504, -0.7307069667945916, -1.0368205509769381, -0.9119299158762545, -0.13182444411298788, -0.4187580151561501, 0.1990037656316581, -1.2278556869053432, 0.01196278474413887, 0.16578946904888894, -1.3846682809729485, 1.5491317447363087, -1.849276973635399, -1.5166653136045893, -1.0591062220838114, 0.051168152036238, -0.6943513641907604, 1.1885902531664763, 1.3592286056422347, -0.21895671400564484, 1.222070218891892, -0.7077596048998759, -0.16203929600352468, 0.7526152956101674, 0.6209831315171864, 0.06563836000653138, -0.9358860624687072, -0.565899311209878, -0.21664805393665823, 0.4813695710537877, -1.2174540822891766, 0.19726092924142025, -0.719769475113466, -0.7868119648413616, 0.5815309524813771, -0.8654010056787245, -0.18270750790500367, -0.3924966958345879, 0.5638378273870851, -0.6652293976013205, -0.05273137769532731, 0.8210785827815756, -1.0560665798787279, -0.9463723713515636, 0.361495499718402, -0.5961349388585516, 1.5569334705046753, 0.6503176801352901, 2.0124603672651786, 0.39161167252938023, 0.1287899046485042, 0.8282252348461495, 1.3728136673005342, -0.9456379813829769, 0.4158302296678535, -0.5616128099478546, 2.6807509916127406, 1.525426729102845, -0.5712747748713567, -0.27862330892883924, -0.625672242582752, 1.246176090029005, -0.933409421846873, 0.21139761831428674, -1.0437371245425804, -0.3174412728742339, 0.4649914426003536, 2.3200444529224833, 0.8312668729935013, -3.1835883491129806, 1.0321346556872837, -0.06268050487108634, -1.2321136394529433, 1.6230482457073923, 0.1658307011337263, -0.3383872784067221, -0.35692595386040266, -1.3948932769568592, 0.21159085837733477, 0.6069247471271213, 0.35313523620157483, -0.9637819297355257, 2.497958748553838, 1.3360994536575306, -1.2558675712519713, -0.45783587175688994, 0.430915107730156, -0.7405903810194968, -0.9461060161673386, 0.3261351373995326, 2.176062790677922, -1.4828879056564077, -0.3253702356757841, 0.317849193999981, -0.4289918882801305, -0.6718839535135306, 0.6908965406855908, -0.6766514245844626, 2.7497977976042147, -0.952142827557682, 0.6698021935620883, -1.4649978544518267, 0.2879897234299848, -0.7097519983767497, 0.533950458433636, 0.11226544619799618, 1.5512806079084493, -0.23554842566491724, 0.7272531426571478, -0.27047622084668876, 0.6690151008548805, -1.3679147099584266, 1.827858287018555, 0.17391119554156337, -0.4738807055826369, -1.6580914330592826, -1.1936812327773816, 0.2759765701283945, 0.2846443522376074, 0.8081981980214598, 0.3614922870722336, 1.1974280140643683, 0.563575403494236, -2.5364725586325174, 0.6086083710180668, -0.7013653828803362, -0.5116721882675246, 0.25552276961937354, -0.3649996166789367, 1.4859309142866082, 0.04953316895641469, 0.7645225117421236, -3.1617887955249446, -0.013903781385472365, -0.6060923627389413, -1.8660923622343206, -1.846099625089817, -0.5035724353159013, -0.43592074306670664, 0.6385176272146481, 0.5448135840936478, 0.9429724302655809, -0.057064319989711614, 0.4891392740170813, -2.82072871986609, 1.5760212663240987, -0.9483270071593446, -1.6725014793804345, -0.32894983055805926, -2.5648891107108547, -1.0652707360929279, 1.4467726313796418, 1.6780239228697453, -0.878862524984613, -0.2734491919721052, 0.4525721102497656],
