0.8110666666666667
[[0.09003204611570685, -0.5305586027126644, -1.6063538616304431, -0.11099730464818039, 1.1376448295244919, -2.423887548389146, 0.9654581570119731, -1.122601717323491, -1.1360399910285568, -1.022965055115502, -1.4991914596896059, 0.12251914047543008, -0.6864939309109479, -1.6634162550787244, -2.135474287557435, -1.7754710072541016, 0.7575872289047604, 1.6849394900915404, 0.2650007738550665, -2.4301767980148314, -0.7189152381372463, -2.178026544499844, 0.5635348928574276, -1.0996039318414026, -1.328735605976693, -1.0053367056229774, 0.07299143206617972, -1.59111015180245, 0.08159513405086297, -0.7240339859454814, 0.44525363322990624, -1.5789881604213818, 0.3079340151813243, 0.421426778345889, -0.9258943306201738, 0.052598015669248314, -0.7848699592058879, 0.5614796306247155, 0.33147820550926466, 0.42578385418692466, -0.9900728252840117, -0.579133421135703, -1.5119331593150547, -0.009127441697898066, 0.12661411932408498, 0.17778328668695365, 1.7310240235738226, 0.7358575309212482, 0.645802293503312, 1.654993591904621, -0.044462058292467625, -0.049143859053884895, -0.2160896791437855, 1.212852765339376, -0.3294241105259353, -0.32257012295774745, 0.03977094114567222, -0.056843472237036785, 1.2972675955012718, -1.3626689114067114, -0.79631603783112, 1.4018373373344497, 0.6969646992772749, 0.7730937545330963, -0.84880605062739, 0.47395137972153545, -0.6393414597812983, -1.0793959912534838, 0.7938477317328582, 0.32560359540918965, 0.040361899930664136, -0.10897012677981643, -1.1469206312740263, 0.9822758474723794, -1.0101448301203724, 0.059240255460404415, 2.1197116016185347, -0.056368935516465, -0.31097289887717466, -0.049913043341388796, 1.4431742391266313, -1.1500177240374798, 2.1198676419605955, -0.6925236875439811, -1.7950080470132397, -1.3462119631171647, -0.3678826838911921, -0.4487774341897963, -1.6843633696106064, -1.8143756112819682, 1.4551157903704954, -0.4804224731316692, 1.099193204200257, -0.9652995241606555, 1.0555547135339731, 0.9179555332627244, 2.348983251090616, 0.03592788784564502, 2.567270974239295, 0.8680381497245049, 0.3884012361406817, 1.836506795167593, -0.14561005747403732, 0.7443236484746389, 0.4491572769277301, 1.0479276442719294, -0.23671876362200645, 1.1007102508306559, 1.5338111227110545, -0.7365022828443102, -1.0198121523968902, 0.475361731780598, -1.1956743835508048, 0.590174141706083, 0.9129426010948182, 0.30357363218804695, -0.5880580341598846, -1.3766551690112792, 1.4763066314955815, 0.7578214765875857, 0.6422739645722484, 5.131781247705406, 3.5663346148520474, 3.7305774196935624, 2.5604496803558368, 1.4381906266699414, 0.6458135835055747, -1.4303601248202449, -2.536260684961924, -1.036098007431582, -1.281814085656244, 0.6313401732178382, -1.6661498822437293, -0.6188149453675855, -2.3060114717521976, -1.4234750878671794, 1.488784893234251, -0.01799458506123005, 0.38086776074320244, 0.4065623655534058, -2.0729007218564948, 0.44649308678275973, -1.3520896885751514, -2.781792781494227, 1.096956034256487, 1.049629141406629, 3.7248783183980474, 3.5893740556737184, 6.427142879220825, 7.0004124288557295, 5.578692286312166, 5.651482389191884, 1.9068308446988549, -0.5504884255671892, -1.5306258485874376, -3.922246353241826, -3.9451402152601855, -5.443762660573276, -4.623789947100124, -3.151021057291508, -2.553663260451289, -1.9338923550063787, -2.19319234959605, -1.4488491144014461, 0.7780843497123671, 0.4837031938740857, 1.0267623587295827, 0.042349013054453016, -1.696890395261494, -0.4259227241169317, -0.41387112857376096, -0.6286123213136059, 1.012326278677357, 3.4129608652072987, 4.441871841459384, 7.23392088169529, 7.454158849098713, 6.657383489536062, 4.137444497500114, 4.463924690818913, 1.2950083325128428, 2.178461599325718, -1.0014443682511351, -2.660685615058503, -1.5280339457439243, -3.227285804454776, -3.6355939831740876, -1.1101453232474938, 0.2687682088941631, -0.07514784389699707, -0.8042249115615693, -1.2434302705119389, 1.677251010780103, 1.379063696240606, -0.5264935561256971, -1.2599686915751656, 0.3678335433214975, 1.14983995104133, -0.32069100981915527, 1.4741615958650658, 0.916237649958056, 4.38208058836681, 5.290839931543797, 6.459979302295186, 3.614285615357554, 5.637368104164343, 3.394395659359966, 0.9464260356284968, 0.3305420768622219, -0.3314250804845293, -1.3195874031061332, 0.4400669533484353, -0.4581509412851303, 0.5337458857413568, 0.4174878189722521, -0.013951266312700909, 1.0627882838915008, -1.2743318758627833, -1.507801467323794, -2.7256945899932674, -1.4085687712544461, 0.6501433653935355, 2.304247965788619, -0.06668656746684912, -0.8019847087309644, -0.40171188750048636, -0.6161963758455187, 0.05526509167456862, 3.098250640828128, 3.786756392011529, 3.487409172451633, 0.8510102484374287, -0.026335558277250412, -1.6052760068985754, -3.4134259497528885, -2.5038256944222184, -2.9664625797470316, -3.12387865681349, -1.5057737611636053, 2.6350195471499176, 2.5382430784217447, 4.149503092357024, 3.6081750984212184, 1.0063116328362085, 0.062301646254168536, 0.9380203799848646, -2.4495574838781526, -3.0142997235423943, -1.1234253416210795, -0.46283161898203157, 0.6859225370802725, -1.5169914889925726, -0.8792971937060513, -0.0752979340310614, 0.2899302330398721, -0.7917081137768989, 1.3457341646165115, 2.9039533662141563, 2.240052764336174, -1.225520433713716, -4.50061966034801, -7.93739367698809, -10.539559370992553, -9.768943653961793, -8.807620460603333, -4.561978998132995, 0.6920811685334314, 4.048135732112835, 6.162167167950232, 7.409119453118214, 5.258469443846585, 3.7821437149213604, -1.8121492118682818, -4.59990130015019, -8.439137725891394, -6.372587687574422, -4.476236351288321, -0.9639760445017937, -0.486292474292831, -0.17670270869549093, 0.6158018982126247, 0.15405276024050266, 0.8955864489418083, 0.8643395003236958, 0.9947588697894914, 1.24523186253965, -2.3526984603692616, -6.59196837494496, -11.41925412046605, -12.618052759649865, -14.483056984368597, -12.483547128880618, -12.421470434186157, -3.9535475759741465, 1.9812069409766664, 9.953403664939989, 12.156310482121008, 10.927356887020098, 5.78208086409564, 1.757214874926531, -3.700378117214653, -8.220357257793081, -9.48434473196121, -8.067343188013172, -4.387760318650671, -1.5309217127490404, -0.7215396697317868, 0.061549065999541346, 0.4120975462856219, 0.3223233960226976, -0.3043090584469099, 1.1710921116453752, 1.3941681161412958, -0.9954812209803146, -3.826253923970576, -10.784083449848596, -15.337627103275846, -15.331805542903178, -14.414552084715451, -11.623626144465012, -7.896115829662114, -1.987093570580795, 6.090573256697581, 12.230925905989544, 12.144213279549469, 9.79702787895365, 6.3174299006842025, -2.774974541762446, -7.797725358295576, -12.70290151147395, -11.178746323713762, -8.94382483800343, -2.8291097299214734, -0.6472556158060041, -0.08652708944967787, -0.317559685269569, -0.05560095677854628, 0.2259995755460807, 1.15011836189764, 1.4566938991463743, 1.1669653360954464, -1.813762738318823, -5.9505279899997365, -10.616313732089575, -11.211577857911688, -11.028208298870512, -6.124151698321127, -5.901198273757754, -4.047651187997958, -0.5362182774200577, 8.924415613966945, 10.172586621089703, 11.459329031901262, 7.5451607451048615, 4.539396330334881, -3.9023913583688437, -8.281491744393987, -11.981759445307754, -11.539042121959625, -8.093525561831784, -2.0745839994376585, -1.4669306239131497, 1.1377924612854047, -1.1127095935003133, -1.0594896682062698, -0.512187371641988, -1.1600939693206855, 0.2908821230674708, 0.2835424537364112, -3.7040614682535185, -4.621971625963615, -7.04578545208482, -6.528489468475918, -5.169184239727905, -4.286691119889582, -3.155428817106526, -2.043270923875156, 3.3189664858227177, 5.031692462669288, 6.3085572792512385, 7.957351751704212, 5.500197293927542, 5.10552530423034, 1.0294020432294404, -5.713694792746442, -8.041889163857968, -10.034236744872508, -9.420748296362275, -2.2383958558205013, -1.6209765553280246, 1.5321073915465648, 0.048177138720522095, -0.45414584346904613, 1.142051729791251, 0.33797223530186865, -0.9398998696004631, 0.934596530047153, -2.630210845189162, -6.157633198430897, -5.526489763864662, -3.104699331452356, -1.6967529684657496, -2.1498891377618636, -0.3972729540134698, 1.1944260065853713, 0.47728502916925236, 2.5882368371128117, 2.71207517272594, 5.932734391335712, 9.141575636161196, 9.610715166416867, 7.2668068133919155, 2.32357507174267, -3.8349069687410613, -6.7084706395523535, -6.958654209923439, -2.703791599955255, -0.089080845892683, 0.4279805066460472, 0.012323754900930371, -0.7635545381122354, -0.20333561094428296, -0.11692952231562052, -2.6544251866225457, -0.17813547844559155, -2.893161210634129, -4.506197261068024, -4.330351994490785, -4.337981482827763, -3.9529133963614758, -2.4939889922127096, -1.8921082897056496, -1.3490766127772371, -0.315381289929651, 0.4732687249651814, 1.8835021150264648, 5.751823959368353, 10.040639565736228, 10.260069563924318, 9.504446538652664, 4.501924614031156, -1.6250123770551321, -2.511994780682475, -3.219357352136464, -2.2571184365275387, -0.4818785407260643, 1.0266864238284976, -0.49288600108493325, 0.004048467091174016, -0.22945742345263012, 1.322138660281062, 2.4632259163637675, -0.037951084997515754, 0.9500246494931273, -2.4184034337827423, -2.39242583246735, -5.83052049060318, -8.35311334694782, -9.629740942706809, -8.95788795653074, -6.261304491777637, -4.39478222345315, -3.376695304538111, 0.7963363928122555, 4.358266799226468, 10.201710860381924, 10.302330746509528, 11.38481640063251, 7.063737228027005, 1.970101034307414, -2.1400914219645766, -2.562071528344941, 1.8032840702938604, 0.3116401183719459, -0.11945209154138373, -0.4301874328267191, 0.13522152305315094, 1.3707008475983529, 1.5517740722198416, 1.702528805935229, 1.633689691816003, 2.19484155197938, -1.3189985079695492, -5.195836120991029, -9.257600851184606, -15.87485551212757, -17.357650797770383, -14.237911959244517, -11.229223052929497, -7.127031180430868, -5.178477499555932, 0.3828798499072006, 3.4466555562639654, 7.876385466496181, 7.446712850699601, 8.12127554876135, 2.58812948204188, 3.0979942431306418, 0.5417929167725951, -0.506444413021147, -0.8400740816311483, 1.4186872155096326, 0.44113502803062166, -2.115350505588782, -0.7055637237388394, 1.0713807883965925, -1.761569701427704, 3.6632690617691055, 5.066492200491686, 3.1883384952682734, 0.42235457800528403, -4.0174971961162305, -10.800780999322857, -16.32250499169438, -19.891494429465002, -18.87854983257315, -11.220435111547893, -5.149442030761715, -2.6334858484457326, -1.3923997293441004, 2.805375867977761, 6.988713904102194, 6.620260921285292, 4.934843537036125, 4.048510463683049, 2.422378570974139, 1.8219431366104908, 0.5942655184926526, 0.6335829397076128, 0.7559308409791381, 2.478093981064942, -1.9285857203471446, -0.7778649889238916, -0.5998655888986042, 0.26066180553706975, 4.431855177693691, 5.532826582083739, 6.5781091007200825, 2.887296583357782, -3.130982617591656, -10.10252808109762, -14.983952629972725, -18.147053989337678, -16.33845056382862, -7.017920893316081, -4.282896066807472, -3.409783830786366, -0.7596750596151052, 3.125943287451099, 5.3376016565073465, 3.7862900032287166, 3.644339527614495, 3.6362383264836944, 0.3898326202485462, 1.552102775450475, -1.8294299412652828, -1.8230749929482022, 1.1301515444250787, -0.0554535004019496, 1.0749885901127012, -0.9911787290096316, 1.4814130560746945, 0.137324765985421, 3.443924045688134, 5.901130012142398, 7.389236365555943, 3.619803582187624, 0.9495621550079312, -5.060109423947011, -10.315448072089707, -11.077786867821285, -9.216183085670346, -7.564762838646526, -2.347448824621042, -3.91028551500431, -2.537367762207166, 2.102289962860333, 3.8139207411272875, 4.052520505314014, 2.125306492278733, 1.581989937276572, 2.261995343510494, 0.2232632253586888, -0.580448931719677, 1.5288204981246196, 0.40271162215483713, -0.43418601924587513, 1.6405049184615483, -1.7465069779651932, 0.5646648310340672, -0.48163678681811906, 3.211185207970558, 4.4686128186603264, 3.972661262123341, 5.243721420290432, 0.9585682534342663, -1.0346005161639744, -5.389849119064383, -8.096126710762361, -8.320114256090154, -6.4743878785036655, -6.232698918174724, -0.8681638944486215, -1.9405216198213489, 1.2032363789892482, 2.243788712110466, 2.7585207582290745, 2.4505588992845144, 0.9739134869694404, -1.5805536667315268, -0.2497621454871366, -0.2287495408647118, -1.8389775642705026, 1.9278553982399853, 0.43470387448649206, 0.20557054992316556, -0.9493022424943799, -0.9848818741168821, 0.7687305591484597, 0.8942882282947693, 3.1248059631747043, 7.104613135582942, 5.0126104301054974, 4.057893671449042, 1.4714506204764985, 1.2025758241313953, -2.3492010629921185, -5.362632266357788, -7.34204557618587, -4.745945289089115, -4.475184730902489, -3.3884243083544257, -1.3861263316817285, 1.0697353810554995, 1.038528626129015, 0.4007009740892433, -0.3899849591525037, 0.8100533944099936, 0.2974022443522574, -1.9543748871119677, -0.467829055086515, 0.271536042383845, -0.24234174892826701, -0.7250331958904866, 0.790265865200408, 0.6317353405245837, -0.3762163853209179, 0.2022921261939502, 2.7782172538325036, 3.744557991997633, 6.6132306598498705, 7.01577991405093, 5.609356784518785, 2.81462379517982, 0.9463489728397259, -1.9032485170615123, -5.188771151751409, -3.577285023007116, -2.8633097222484567, -3.75864194009084, -1.0999737042534545, -2.35987743059935, -2.361128124118265, 0.4557828481433742, -0.7131074702065314, -1.7772760336852391, -0.2782056169075409, -0.7483560539291998, 1.3763801760858803, 0.9200787170731842, -0.38125182554292747, 0.34439775890347857, 0.0632535989260899, 1.8133253011782036, -0.31007901601812965, 1.6023301232911173, 1.7763939769188999, 3.7983905434295324, 1.7444611616478232, 5.41638446948756, 5.545478223646541, 4.806392808174858, 5.0250326618345245, 3.737467161549793, 1.8277449325008566, 3.069859268005198, 0.21418083715250352, 0.34467465305362166, -1.4118633460910244, 0.47835066847024055, -3.0711930782802503, -0.9095190327245575, -0.8157703002022367, -0.35183543925081456, -0.6069797586189304, -0.12518830293439126, -1.322572035663901, -0.8645902389419685, -0.8323078165916227, 0.18042097062930967, -0.4981140195579685, 0.011989134187667477, 1.210331281177049, -0.0983497520917469, -1.3844248870909477, 0.024193943628653968, 1.371106364044737, 2.0143265604147604, 2.769661071280735, 2.5857027260558003, 3.7058246474477556, 3.0591722225216835, 2.5546763681464806, 0.5793645051747729, 1.8512887788603538, 0.5733124574285444, -1.407841370882593, -2.269072350889226, 0.17092374472171146, -2.2879722664045214, -0.5747449533101318, -0.15053185353883272, -1.2563506515080507, -0.5921758531806871, -1.7904536918548544, -0.17536971721107716, 0.24716141644020326, -0.08521080111592533, 0.8167858099768379, -1.4982749894642446, -0.24664190797798485, -1.4066217631420168, 0.4160912256782896, 1.6038953364022182, -1.331029017458596, 0.6244784829775086, 0.37153529621797027, 0.5870235183684321, 1.8530785213407965, 0.09997255907584725, 1.9257317388182442, -0.4877641158914279, 1.342834710106812, -0.5030643963235073, -1.218106797043328, 0.6317052699708864, -0.6114058850959017, -0.6983484577638074, 0.14164718807528492, 0.4207169810031523, 0.9332478183932836, 0.9867952477964177, -1.0329582705804998, -0.41615618669544646, -0.7938603407018464, -1.5542721860084352, 1.173523890834997, -1.40328805379964, 0.31720243090670713, -0.4733256458440852, 0.48488939846909884, -0.8701157625180235, -1.2089148381313741, -0.43720933800683404, 0.389803331452739, 0.21236126933377034, -2.3963921872958025, -0.2975434925617249, 2.215874157996997, 1.479123364824691, 0.47042786863740316, 1.8216053543418624, 1.145272143946846, 1.0869884610317815, -1.0570626269776564, -1.2385871484751372, 0.9299344894540647, 0.35556613288482414, -0.03760442946052514, -0.06399662760279923, -0.41975600221997755, 0.6485602491913286, 1.1953071268985072, -1.6746155714940514],
[0.9060760353341409, -0.6413410856975358, 0.4142187879695452, 0.00625414078699586, 0.691823814661157, -0.914428807321517, 2.2625826884202054, 0.6481577356652922, -0.24183999127867464, -0.8596364510023335, 1.1638983376600263, -0.5007007464362543, -0.1490958195215376, -0.6195168787310263, 1.053991557913316, 0.6496696110192492, -0.824801254658042, 1.1269948162119996, -0.7932619132888027, -2.142864363194474, 0.42688514397193555, -2.0283995830052874, -0.4098155447353089, -0.035817532968591616, -1.7854494002338195, -1.4697266548705101, 1.60645631484369, -0.5624011643293836, -0.979539224896441, -1.9200978173592427, 1.528718584484405, -0.4203649802467811, 0.22041672667817142, -1.8591848559172646, -0.1485572034202085, -0.2744433504975095, -1.117816019087276, 0.661456869193276, -0.3569904690227699, -0.980014128689982, 0.6990289197824217, -1.3005754056239711, -1.247853835623663, -0.7542315345051651, 0.9130793997867277, 0.29312498508136847, -0.7295186218791206, 1.2740990450090148, -0.14977187024037406, 0.5151451409836563, -0.7916915118018969, 0.843166782293798, -0.4436573281009089, 0.23294112970775213, -1.2669135467469503, 0.589071438161035, 0.2765597868699192, -0.21304375142687398, -1.0230659540236957, -1.666805572754306, 0.2636322702287658, 0.34994334948758615, -2.1888135991846553, -0.24209024630129092, 0.5309110445441617, 0.25034759341468943, -2.721181418531483, -3.5615801808095955, 0.41216388749694016, 1.519645287035246, 1.895728256969345, -0.6847944258536366, -0.09580397480072102, -0.4177516590455002, 1.141514235440244, 0.46369888222752015, -1.4114296988574875, 1.8626147098782069, 0.18133881231087812, 1.0688113221938207, -0.5598955986049484, -0.05947357591348612, -0.3935272380073332, -1.2824445569166898, 0.3069538746553065, -2.315426598849834, 0.2506018321194994, 0.1447237426826995, -0.6818789731518989, -0.7987063401108268, -0.4903408595334683, 3.143154001402323, 1.035294120425138, 1.0875972983122022, 1.7548669242618113, 0.6088872193888365, 0.4011565867471636, -0.1534375334718085, 1.0310260284854524, 1.0402171655461845, 0.2682151207954181, 2.7564633956093516, -0.13177071173800933, 0.9223153476500323, -0.3428706192092786, -0.20586967105972934, -0.7617258905568585, -1.5076995235914477, -0.8687083091639011, -0.8527908411718945, -0.23909627286476498, 1.8986039817918015, 0.04270020852503777, -0.13098056029032834, 0.38514341409662983, -0.29650234935863157, 0.8951000979133286, -0.8994251139663407, 0.1053678709388945, 1.5230316476367638, 0.8843316099008259, 3.472900059313487, 0.2709904105211097, 0.2054885223532241, -0.46694090979603364, 2.1547014390713666, 1.552598622960576, 2.3706727227467126, 2.7394986578190883, 0.26769123580903437, 0.5189763771728575, 1.1212480476506774, -0.6090833158466082, -0.5234945923933404, -1.406353961392835, 1.4279015898329839, 0.5697705111389056, 0.8624331365390671, -0.38784317722341666, 1.1046027592421033, 1.0774329068449113, -1.6716947670642972, 0.4028229221906199, -1.2447375976390942, 0.27447918570098506, 0.1420119121302673, -0.1771802176564031, 0.8835625387398227, -1.9678647941970648, -0.6291750104802788, 0.9700974239058492, -0.2976992324096046, 2.0061858152384624, 3.198278145650467, 2.6079912888494303, 4.365719036821454, 2.7337699289196076, 1.0234217335584042, 1.4055149220973693, 0.551207942823218, 0.9086722152164499, -0.6632014964658174, -2.805856066296572, 0.09989810371010091, 0.10534728651256219, 0.11044650972380896, -2.351954104619467, -0.2230358531064363, 0.531072845820195, -3.111052323598568, 1.4451029311532704, -0.8167531181623467, -0.4004313195479913, 1.9525607174226483, 0.48300426922002876, 1.907145564447369, -0.712007977830454, -0.3595440443804583, -1.1286655408561512, 1.3054320144330964, 2.505439684881378, 4.4455644543910955, 3.9798985540669323, 6.923214260450308, 6.047348493501847, 2.10049737808599, 1.7850095471953704, -1.044940952741815, -1.2114365679176025, -0.4064965243221713, -1.2148616438147257, -3.4984741564478874, -0.21273071720760303, -2.3554801663027822, -1.0843051870465936, 0.8878644311222578, 1.771285730510417, 1.3317486318454141, -0.5286717231461145, -0.28966705517924607, -0.129332406013756, 0.9203496538884784, -1.5659991285805113, -0.4718903854101933, -0.29676192640456345, -0.786465224408274, -0.4223112788947116, 0.7505619692875658, 4.178695697655566, 3.380993957933934, 7.638576054262036, 7.322005187873494, 5.697708888383607, 1.606046768956514, 1.9100208921725197, 0.6318799908720143, 0.0675054417453774, -1.8881074315438886, -2.2580864335244133, -1.5461693352840211, -0.35220420966864585, 1.9354081538448191, -0.6625365779096071, -0.6540112978241626, 0.7787523968328863, -1.4027395288579396, 1.338219548599071, 0.18076348401088393, 0.11547923739189389, -0.18927241045935317, -2.1456107578046284, -1.0423842492894366, -1.5618527286708759, -2.1402508259054978, 0.19159060335641884, 2.2665017870647794, 4.1599015009473, 3.2217560160705063, 4.847232288305638, 3.6553976045208363, 2.5034281420085085, 1.042216531581422, -0.3806138912955565, -0.012146066332047895, 1.0310951009846874, -1.1088047705486936, -1.203596304247542, -1.0312741420234568, 0.31350271664424245, -0.7664402826589122, -0.08804493578732062, -0.1549679164644393, 0.9569319970794363, 0.5886099568163412, -0.4977488559061773, 1.1402959036331837, 0.323137263059414, 1.3638596570346468, 0.5173637893166325, 0.9844301886636553, 1.985661625294922, -0.09303890379824103, -0.8027856369675632, 0.2120318819743856, -0.6494034371947843, 2.625054616718306, 0.9261837423126875, 2.7236130166785495, -0.17439288619547955, -1.347784379205802, 0.48461137416769057, -0.4205364278547887, 2.2181705846974817, -0.13955321132898238, 0.8950971789546444, -0.13185064744841854, 0.048228469872938454, 1.5280958055977671, -0.14505427312621905, -0.6600862767580538, 1.0433942741823388, 1.0454188286805914, -0.03307617646631083, -0.5667184337784686, -0.682599011600977, -1.2860621899605413, -0.6339184003787154, 1.0691211672672036, 1.7379441743312207, 0.8412854611608167, 0.8745272566274103, -1.347109153202184, -1.2043223396440181, 1.1674068166912177, 1.3598048502550808, -0.7687682171023729, -2.151080068571435, -0.7960446198729136, -1.0584919802079706, 2.4050809217600775, 1.9600719503948416, 1.6787610783018747, 2.632350214579533, 2.306792450491765, -0.5611641323183802, -0.056487774139829194, 2.374685948544569, -1.0653574134284318, -0.7090248130133576, 0.295270764369413, -1.2283182814203486, -0.3594806645700753, 0.4089879460723057, -0.09813018450718247, 0.3585442557046447, 1.1049856706112156, 1.174587358198621, 0.2314831304966118, -0.528721451086808, -2.540305808071425, -0.908171241890403, 0.8875435815202151, 3.1047442823847464, -0.9317217751907934, -1.9278080321059177, -0.4746447164505187, 0.443734526514505, 3.131670836441004, 1.8174736762382835, 2.7419719061451615, 3.531960840198769, 1.6958986061449612, 0.2552693231920995, -0.493540411874235, -0.7372453575521507, 0.1522548894626497, 1.4760414551744014, 1.2866280107090784, 0.6254886844117352, 0.7675542100634778, -0.5285747523108673, -0.24221929919200488, 2.1971099755178156, -0.3565257528596551, 0.8013746756299153, -0.4090077104252226, -0.6802225349756474, -1.2666137631774823, 0.12234401332301427, 2.598392827455837, 4.43503239944741, 1.2916433266767684, -1.4085864500101497, 0.32390916989091434, 1.990946035572713, 1.8037218153191734, 2.224539811999715, 2.707203883144669, 3.2341821971401563, 1.8765292174357022, 4.101269604663563, -1.7511783651070425, -0.4942718837515775, -0.80083469642158, 1.242510135645952, 0.27972329342380725, 0.7739751722473296, -0.07605790388372397, -0.8896941046080133, -0.12758899938107923, -1.4572481623416775, 0.9271816595200517, -1.1798431256755466, -1.1143836045405067, -2.481615411912384, -1.7615218657091731, 2.7455698833786837, 2.6995759496061362, 2.6831472715943683, 0.20684368206355755, -1.7691997672286743, -0.5997231181499768, -0.5198020833735649, -1.4901985446253954, 0.513546212838396, 0.785980782363641, 4.067917674897183, 1.4108682875323026, 2.1412081923393775, 0.3531538690508773, 0.25457966674853466, 0.49967350958018314, -1.337546902638721, 1.1914218349856094, -1.0955975094310473, -0.031393263845939066, -1.5721520375603346, 0.04626883109513112, -0.9842442919825908, -2.6884635409311057, -1.1039956507742466, -3.034993819671383, -2.0651620392825913, 0.3025088292915691, -0.5989143946003974, 2.7047776537721266, 0.7733586415751319, 0.8663414150603508, -1.5162214129802036, -2.7561214041546145, -2.9806775624587076, -1.4908931756121346, -0.8775991177503223, 0.49436472367364553, 2.212152824983372, 1.1048968889675432, 1.2848158294253713, 1.3218148210861544, 0.6420410790384289, 0.622354895508742, 0.6990038204378511, -0.48485916154359265, 0.5961788681769093, -0.3663105190228016, -0.8857487528516209, -0.7329866917309772, -1.2316789572355897, -1.7935043438983793, -0.5821180913447516, 0.5618401468637428, -0.044580043746387604, 1.3213685388779348, 1.1156258789394098, 2.3926901110938408, -1.7457366404231929, -2.872843980363957, -4.050852765610873, -4.564334066990334, -4.3156535678885355, -3.390189315401405, -0.17007410889536215, 0.5188336356338219, 1.1463497234896087, 2.4710393067718486, -1.6572353956773673, 0.702802412686484, 0.16981479329247517, 0.45913688268634884, -0.1407559898738291, 1.7851285671758867, 0.5790707135409691, -0.12677650866824614, -0.42512999220013625, -0.3099082039033523, -0.8626867669101652, -1.6605766204733297, -0.6490512129954812, -0.7377544921737453, 0.36548489918303845, 0.24893526142247213, -2.025455407562432, -2.029016426070945, -4.09349126550168, -5.71458618060599, -3.4387418868797317, -4.882646950922993, -3.0806184092394253, -2.23668725961751, -1.202579588326553, 0.6649696011000147, 3.2970845224421796, 2.819938333216846, -1.2341884456417134, -1.1481240355009779, -0.8829909887579712, 0.39329872897510937, -1.4133630624840245, -0.27521094454720163, -0.5604475684655071, 2.048831356572319, -1.7916297822709644, -0.24588326611242908, -1.3605030316141618, -0.8364857552148048, 0.282033651366072, 1.84351162841457, 0.5358653893901643, -0.4734748349719672, -1.793084490691028, -4.730920617515099, -6.262764928051425, -5.804299932989718, -5.920526544492681, -3.174785366323008, -1.4374323892768572, -1.931965261593243, 2.6166956571967335, -0.012738905746231183, 2.0282508633118628, 0.23469444023739705, 0.03266813019333644, 0.10875155560303727, 1.7210128413685142, -0.2658101978895648, -0.19054301454546202, -1.8292190310503262, 1.0751487551419796, -0.7569573012794867, 0.9182133446400986, -0.732869065819268, -0.007484368311334353, 1.0350780403205795, 2.395433911177142, 1.5509030356228568, 2.7097088622911794, 1.5104180970039949, -0.7790108242522293, -4.456535100244053, -4.771603220971047, -3.5443693404037346, -1.0134446632824654, -1.068528819740102, 1.5938083247229795, 2.8467863976468792, 1.9027167747176352, 1.7346291390367465, 2.7963311462237144, 1.0704109067851801, 0.9109473467459384, -0.5330237509953989, -0.9476639499432671, 0.2977242014586533, 0.82266924870226, -0.6180868343927677, 0.8188871189342213, -0.22777070399284313, 1.656444325487063, 0.7861463645014893, -0.719196361897437, 1.957390795022343, 1.2612921025394366, 4.429614781024869, 2.817814045824785, 1.1651662976377175, -1.687398508427058, -0.7903201504215376, -3.369920389870607, -1.114338347238801, -1.8432863787785487, 2.062027500821699, 2.153752264833431, 2.9781882913199205, 1.5402100077361525, 0.1526847953909928, -1.1632229342025482, -1.9371986524928468, -0.20024754345459786, 0.632912860644562, -0.0496197715272471, 1.7490703286108216, -0.38618726153159605, -1.0771747094394941, -0.07579835830277824, 1.0049001707543854, 1.3736774725208227, 2.4772775092870623, 1.4088495942704353, 2.6105509245182703, 3.403627758204641, 5.465593807958705, 2.4606452308119615, 2.4847188409833607, -0.39625083082841356, 0.28878059105618065, -0.25283088998519226, 1.6280423695599875, 2.1677821536913138, 1.9560108362942785, 1.4718567404838416, 1.9823815410183474, 1.6268596169329472, 1.0129164531341268, 1.6577707616140416, -2.4775219954280603, 0.22758973159335089, -0.993767026591013, 0.7163498729051168, 1.3003384125053874, -0.2617719211373499, -1.5128916588578902, -0.33947307762644846, 1.4692858066224355, -0.18764607027798325, -0.13292148282223062, 0.6565826949879131, 2.942378030776777, 3.276263332915094, -0.05085462232515207, 3.0430342238899004, 1.6594126317880695, 2.3779943344547236, 3.2359427884488112, 2.631303832048911, 2.3496282277567464, 0.9627890682962124, 2.2553500088372957, 2.1243611616313673, 0.11950833495238872, 0.1993397174118918, -1.4101098225970368, -1.6512004447481483, -0.2611580388988182, -3.099168753874754, -0.5922130504959625, 0.3367277426432559, -1.9373791732862655, -1.1631421167282718, 0.4912225241885846, 0.8652829849204917, -0.19802714733915253, -0.45845231150603044, 1.0459136157218982, 0.8927471991159155, 1.9589559845529516, 2.20184958024104, 1.4848558976473727, 2.739621090277144, 5.018643826422725, 3.039723803805839, 3.1463649527942237, 2.3492372032397415, 3.3140974800255596, 1.146727932519765, 1.1355887518023684, -1.2894867654245834, -0.5789245051364995, -2.4014134632023776, -1.5708661954357073, 0.410918063988125, 1.0517798807926109, -0.3695462504739546, 1.0513405997947518, -0.1690803931561321, 0.8000913921691881, 1.7676195977792417, 0.9681452332970745, 0.3358521890788259, -1.947293665265443, 0.2407661306600684, -0.46882681519475666, -1.0164071105532315, -0.6351545264520121, 0.3795832860901308, 2.7082614374682086, 2.911678686027268, 0.9271849352995555, 4.934119307089229, 4.271266531573478, 3.305226900421045, 2.5964741736818944, -0.3177630942358014, 0.2038423061452758, -0.6969974193018806, -1.45550203152135, -1.4463239515221902, -1.840857257872801, -1.9917769951301423, -0.5042670615255799, 1.9158768982925583, 1.3631248464027237, 0.05463822076603931, 0.6065457997760244, 0.1903428582987666, -0.6747175202270889, 0.03402102202529856, 0.04513817609921144, -1.2567054577738408, -0.7598035282003348, 0.2661884669747085, 0.5968810080084652, -1.506537806432951, -0.3707202162416002, 1.0860269675230485, 0.15861310434549278, -0.1783309883138168, -0.09475283810515989, -1.3534460311118905, 1.1638159816486802, 0.16039705302286572, -0.3349635329972123, 1.0356260203610674, 1.718850271024424, 0.9858604428317561, -1.5217367395830819, -0.7923229551761892, -1.1798470368893175, 1.72827562778057, 0.4691253521409517, -0.7408420017017593, -0.18280008496380015, 0.5097766759250095, -0.8558483413670909, 1.850424407322973, -1.0689330209952146, -0.8033176056281298, 0.25403582292485194, 0.15859707812715265, -0.45612201255767715, 1.7151201963500518, 0.00691253341425092, 0.12615973242022296, 0.5584351128757767, 0.36353752912827164, 0.7091869363710711, 2.5792989057757802, 0.46730949106423764, 1.8619345418672721, 1.969621345750726, 2.0426901986724526, 0.6316595068608103, 0.4415825414288571, 0.2935260690312231, 0.6461092348397394, -0.8735640396772797, 0.20121053236997025, 1.47730953288744, -0.6419514793407621, 0.7528846063218767, -1.3180514734016302, -2.2494513299457912, -0.15717663318794606, -0.3637193400148443, 0.5307846500807731, -0.933553527429256, 0.6292016693521434, -0.5489950670647862, 1.1218954825398992, -1.1438735193830758, -0.6860301471441332, 1.0417713345797268, 0.39567097973091586, -0.19397038968357552, 2.270050684670809, 0.1816580357265713, 0.3337546037718561, 1.7019857900774686, 0.1834382699972261, -0.49683470985150735, -0.16705469325376368, -2.0866544917856364, 0.8349799082485208, 0.7234645594683341, -0.32018565015921885, 1.7436372462828165, -0.15459569929755673, 0.8862390307471784, -0.97607637837328, 0.6137018083027498, -0.06624557691309264, -1.022437530660392, -1.9433209809506646, -0.49167587498420084, -1.226221722345333, -1.6850924468896127, -0.45903932900426636, 0.9836722136333862, 1.6465241031714912, 2.077587808789141, 2.1567930650596474, -1.030258579520238, 0.3522654849990807, -0.6205938186544331, 1.8571300394671497, -0.3009361806654529, 0.4482339381322244, -1.9899748965020094, 0.12653499596271586, -1.1302290925941272, -0.2468995673303231, 0.5469790828507137, 1.117352021593753, -0.4096568537610136, -1.6368309978872977, -0.702495865355907],
[0.5924490566243068, 0.06887596704150317, -0.20964251738315143, 1.3349205088058804, -0.5774192237855564, 0.20470802386495615, 1.1016059409979484, 0.7362444681409736, 1.1041541714176242, -1.7965360090673332, 0.8954075397215812, 1.6509547779920473, -0.1447507753855048, 0.87969360522691, 0.5227951580446982, 0.3663040397119508, -2.023153859085946, 1.847070419875548, 2.4954313866896953, 0.9719862314391894, 1.1610138588379826, -0.5173580156964288, -1.076894063989652, -1.662678890219793, 1.013098019346215, -0.8614126875079599, 0.8388037226941655, -0.8803103758759546, 0.9984854878392119, 0.757246677649824, -0.5968171025606867, -2.3399289306478783, 2.1883291271033944, 0.7234800312402513, -1.2853310699416611, -0.7367290779363507, -0.06548490436853692, 1.115034096359121, 1.109842705214803, -2.264205011431928, 1.096637828887351, 0.15580163924849116, -1.3000124703147191, 0.32122727960900915, 0.4712778360302992, 0.14933402615298305, 0.7560057406517185, 0.4776689148941591, -1.6293789861948464, 1.23077723218779, -0.4833457268761911, 0.459618913075123, -1.3170035549328416, -1.1368192890574194, 0.9407930154818573, -0.1796259022117617, -1.2999292896562413, 1.6241377976188316, -0.16834184331911164, 0.6030346142838053, 0.5083916421667952, -0.48014029754112053, 1.051778734764157, -0.5155485148137132, -1.023510064619952, 4.993512706584423E-4, -1.1388670396702611, -0.33853156741020257, -0.12801619832008468, -0.22000220218312871, -0.23846555536001685, 2.2642964082972084, 0.3944345217366918, 0.4194963552784471, -0.1320988265811398, 1.6025104326172332, -0.3014389809168729, -0.1918068698407843, 0.12796895181628107, -1.2753135918308376, -0.7659924647472586, -0.23485929872956313, 0.15829409820964094, -0.17865121563968303, -0.0021840708730722124, -1.4705801567152117, -0.6357008792167893, -0.6801534049378195, -0.8294323143287933, -0.7491660415995933, 0.24814733106265402, 0.7456405174772985, -2.4004661816031168, 0.37798649322897077, -1.084324958819735, -2.6402428065753116, -0.6066543118141766, -1.0190031725123256, -1.9327883867603697, -0.5628718152879196, -0.47556697344711507, 0.40521450830674394, -0.5951650622263015, -0.9744681464493179, 0.6647759270777885, 0.33358768021002255, -1.0648793831791914, 0.4455261256839089, 0.33987069965766864, 0.3772542571474196, 0.28927792157723803, -0.13020986387509947, -0.2916076208285501, -0.48717827831629607, 0.9399499826714909, 1.488221251713082, 0.5028671534644186, 1.4562184178995081, 1.4033209647755216, -0.5578227591509345, -2.411449754391127, -0.12596353386196268, -0.599856397302741, -3.1410860336673823, -5.778176878241092, -5.044097084693316, -6.119051953262453, -9.565524556137678, -8.298123312939248, -6.054105428959707, -3.805792000002753, -1.2022112620863283, 1.031235360140946, 0.4452959639352523, 3.3346294186816325, 0.9103606654510833, -0.390517725053121, 0.5057430118613415, -1.087388926712915, -0.6860997368289155, -0.5536527455390668, 0.8203007586227273, -0.8457877045496361, 0.8108933587100581, -0.9167933027403606, 0.9835066416549189, 0.8783952467426533, -1.8217272661917865, -1.5039148653929486, -4.794990553613007, -6.413150002763635, -6.588874658376524, -9.221135873120643, -12.20854950181881, -11.660129017492645, -12.89974812097351, -17.066094736205184, -16.51179007726807, -10.09215123606377, -3.458678588358308, 0.4633021761914549, 0.6238645760193238, 0.14086054089685232, -2.4759611034415396, 0.2937568548556405, 0.14426338200862565, 0.20858836359403965, -0.7743408639121044, 0.3111047945032252, 0.9623708333521178, -0.4079706747425102, 1.7628191745391903, -0.059478866521742654, 0.8477414460593437, -0.7661491039332375, -1.9989219157800344, -5.5530324546193235, -6.863338169783665, -9.4256602070074, -8.41667101477737, -8.557634509062964, -5.406605385024303, -0.629519455150643, -2.9203694987181534, -2.5792549365824073, -4.915382511308853, -4.436563198275703, -4.279584829178536, -1.1028056841556682, -1.5135468463037052, -4.422093623100793, -4.695864933578456, -3.044565996491797, -1.7021968476303375, 0.09454557367140909, -0.7023243943806787, -0.1814637046847121, -0.963197414185868, 1.267015939355442, 7.279534277673031E-4, -0.762044341511809, 0.87601623822394, -2.0381155300169964, -5.786629484352401, -8.05854678403383, -8.956649267077188, -9.855666246427226, -9.10013274879377, -3.049397479464507, 2.6788727925085913, 8.710298232938957, 8.161917780087379, 7.538624222066922, 3.9115676718863157, -1.0141476509365395, -1.1897449296484717, -3.161896678924178, -5.339328099753934, -7.82085633294345, -6.0527689235372195, -4.8025442175371715, -1.4890704344805943, -0.14678653757080262, -0.07859484424596648, -1.9597687607004275, 0.6604406171967149, 1.0653394099571827, -0.20927187190649646, -2.099220251627594, -1.3637341903601004, -3.89058674397644, -4.2052838186377794, -9.730458913938602, -11.382081765567483, -9.301260736496742, -7.580838979687338, -0.11935943859695314, 3.7933933187564404, 7.1433592961746895, 8.611789560693623, 7.851158250391799, 2.74801131510408, 1.7944029412478533, -0.11046481732866287, -3.3681642724223266, -7.439191429276649, -9.106495250934614, -6.976524858731118, -2.975455654824221, -2.0911823641139224, -0.534071989988197, -0.1355712352298002, 0.04261395313670679, 0.05951747297110026, 0.21243111860940223, -0.10934868539140254, -0.6106935724086376, -1.7409703231254992, -5.30430571225456, -7.4936853109941355, -8.909946523538954, -6.815649336939181, -5.532804851035862, -4.616898057726827, -3.558932549418114, -0.2620342264318207, 4.075823242998098, 7.7001916781718736, 5.182051489800294, 3.924931067656544, 3.362856627614723, -4.4726577479645435, -5.0503895034158965, -6.127226916260605, -7.73211464626512, -6.929578515242388, -4.692066838788039, -1.018544565617687, -2.885744135172156, -0.6043052219246676, 0.2577339795631366, -1.0334750864968232, -1.1829184261909202, 0.9006132140039684, -0.5983929959713259, -1.403859225219262, -2.045637061983512, -5.0092528435115815, -4.178839525183598, -6.804503900214284, -4.541072754123428, -4.701060518809138, -2.5209895534187905, 0.06712366485477911, 7.612552816225294, 12.663627654969776, 11.908019235149244, 6.064422033586187, 1.8889745660239508, -2.135325489582792, -5.252353772633023, -6.567082167284787, -8.450375073880345, -4.973624364806706, -3.383498052944574, -1.0954726999298687, -0.5993992805749362, 0.2397574241634905, -0.6886544418087049, 1.512406339996509, 0.3189452426726576, -0.0432530777146843, -0.3094734471400711, 0.8192521522302636, -0.23435582424446863, -0.4192928836149525, -0.37143894055414195, -0.05985009381070093, -3.2874031551142817, -3.505044286071466, -2.600089606771099, 2.6067077264993945, 13.133207942544022, 17.974417079984853, 14.233243604324912, 9.814930631246643, 4.8798106912321355, -0.44246128366072257, -1.6236272575234723, -4.465923644589244, -5.0276011105874066, -3.8074231262291036, -1.08317359875008, -1.4342261002187964, 0.7655816014447233, 0.02912159172998902, 0.2083505105687966, 0.11580839181290255, 0.5877377920944926, 0.7801844138406459, 1.1839817296225699, 1.7600077768842197, 1.5312339593023467, 3.0416106979729496, 3.008722394383072, 1.2953581409467356, -1.2370986134625979, -3.002879426152804, 1.0190143068162518, 9.417940797072442, 20.57002614131208, 24.002367976407843, 17.51506927640665, 11.97694249630508, 3.9757628918432775, -0.16057125698227873, -1.9895891586482013, -2.0356010760184797, -1.1072732307705118, -2.688504777884756, -1.5738751960055828, 0.5848706070423668, -0.6627050208047583, 0.17150564145247202, -0.2578313949575014, -1.443480383029624, 0.08211675111472033, 0.8702127157121791, 0.8104487614780072, 3.6405393296144006, 4.056005722862109, 4.0729825428699105, 3.3746537377092345, 0.35957828469142594, -5.382577128449374, -7.365378214050765, -2.517834522545092, 13.52425202073418, 19.87058127027599, 21.676683937143938, 18.217420982946088, 10.838150573038302, 3.7545227874217275, 1.6850560300789494, 0.3655584844652118, -1.9800165335949174, -3.5701599364961574, -3.4939167715870387, -2.265932645465519, 0.518411687661149, 0.8468274283876641, 1.3782903455501385, 0.9283200946595579, 0.6342136003652571, 0.3673198589657319, 1.1790474526877477, 3.2835622908192947, 2.455460917210073, 2.303303572953081, 4.476360679149899, 1.3646824020561494, -2.189065352415728, -9.410229057257707, -8.400761812875187, -1.7695801046673518, 7.5855575723354765, 13.165280885603776, 16.40355295573615, 13.255952051746505, 3.21691505484809, 3.4042591009587784, 2.161824227739951, 0.3030143460543219, 2.0739655805414974, -3.0100580995326083, -1.4526690892871945, -1.0714356306530661, 1.0001855308501648, 1.1050682274835297, -1.193770463410481, 0.7176381518169619, 0.9240589927494226, 1.1145682488826834, -0.7199757354112077, 1.9031817999425313, -0.15380515044189924, -0.8028681034400179, -0.4213159989448359, -2.532089291411505, -4.909157281283403, -10.943284696310652, -8.900363764853092, -1.2772741694987462, 3.3580099910437418, 7.728412023262522, 7.151258184815299, 5.5970198794283545, 0.614522187535733, 0.8494864353780531, -2.5293978396072356, -0.9451803978721125, -1.502070202612683, -2.1135484477067337, -3.680893495371164, -3.104852753903537, -2.207993680409708, -2.49659190183694, -0.6729513257267781, -0.4474251295400381, -0.730183427242844, 1.080425067405682, 1.7090335292494578, 0.04325135228143447, -1.825032860219106, -6.030166144138812, -4.281306513127731, -6.410249627460626, -6.995857149784411, -8.063445861048574, -7.0706520351671065, -2.761836793016878, -1.3755550426669338, 2.4201544777009376, 1.0786946782656084, -3.416024472510059, -3.881900692854882, -2.1963018078959773, -2.1876007012301906, -1.0138331753943446, -1.8114115630013277, -3.962615038208639, -5.190504262877684, -2.7324064298257182, -2.133387615377515, -1.3610732038538715, -0.46668395731105194, -0.43931697344326376, -1.4725897986259084, -0.41860411565785904, -2.336609263834722, -0.933894003585597, -3.404924071387708, -8.083337627182607, -11.258176368412249, -10.322521249951915, -10.834638821516794, -10.175088364746536, -8.200036716155905, -5.861666779150109, -2.556887198053622, 1.3252770424638618, -4.96679170728378, -6.22777793003389, -6.0374341270517515, -4.101522703592142, -2.9247983685127767, -3.938994667654942, -4.623312216985366, -6.363154555687436, -5.677886568061698, -5.35291074946291, -0.7355432147459058, 0.4867902230681046, -1.0985039526320122, 0.747442306017043, 0.06034125992414607, 0.023233010277056328, 1.231736751490191, -1.2960937352837223, -5.630372961063523, -10.105646353623204, -14.336335797177028, -14.748557650157606, -14.161745923798033, -12.206151304942559, -9.762119344032222, -9.279087566514173, -6.175130507149397, -3.896936762277051, -5.619131516120473, -6.702545799844151, -7.066611362735407, -4.837738819498987, -3.1077666395397148, -2.1934106420216826, -5.2881208042708865, -6.406927757668286, -8.720485689831136, -5.490703886262545, -2.177124878535444, 0.7226076957014274, 1.1135639777619297, -0.7156424257760612, 1.6249912974540746, -0.47419642315918564, -1.3505455683061915, -0.9785056828385247, -6.7731015157589844, -11.620923156045908, -13.865947781782413, -16.00990257848545, -16.611490736461334, -14.751272188826633, -14.884795908013867, -9.727812919174378, -6.91130158783845, -4.039708491199789, -3.466607656244416, -3.4463691547449686, -3.6349426751348837, -4.024657093606473, -0.31134410780742855, -6.310831131344227, -9.446969476436157, -8.157966660607649, -7.3899751506211855, -5.954309355249855, -2.0292031319779236, 2.568869816718439, -0.46191290653394074, -1.489459410655907, 0.4529432323597014, -0.5288074079503382, 1.4601921912513103, -0.3918005232613635, -2.77629018707742, -5.596594276389648, -9.462200749427321, -13.04542456121134, -14.64511134489016, -14.569121965287893, -12.83588515544357, -10.879912794457342, -8.111336935812988, -2.6352462901514038, -3.144658019253235, -0.8339408807615917, -0.10448637865280026, -3.2428788222682043, -5.471288036801005, -7.539975699316717, -8.106949167719312, -9.153523378666067, -7.8048880838847365, -3.225843048674588, -0.5703579355533199, -2.2355659802246413, -1.2291796191388698, -1.8265530098415073, 0.4365614828316263, -1.0261127557624508, 0.524009342028413, 1.2923116985174252, -1.0994828799292031, -2.0402550996129794, -3.2384962783588307, -4.751002755048691, -6.552736137834968, -10.064519591778147, -10.739816527671097, -12.658692382430791, -7.053587997037972, -4.366252236198832, -2.713352585186608, -1.3402149763427376, -3.52006063310116, -4.464092804581988, -6.277459331345457, -9.117528237455637, -7.191860686739958, -5.56933511095578, -3.553091525630114, -0.6829882793620556, -1.897178945350976, -1.302610919823676, -1.1860554021042702, -2.2728170480555177, -0.4151171400381588, 0.6750211133623975, 1.987763956034039, -0.5625269670446281, 1.679337520135685, 1.1984207488646397, 0.3697194529583993, -0.39518944034057674, -1.1927009296385058, -4.725229777751885, -9.704528380882248, -8.006517653731494, -8.281014753116825, -6.51890214998244, -4.659407248509168, -2.516656068364788, -3.4555779524297794, -5.358383317097341, -3.632681818256229, -5.980539128525523, -3.7103186554713075, -3.776588964885866, -0.6146433439089637, -2.7337906619241767, -0.4689280504182209, 0.8770643999984598, 0.9524923537273785, -1.1197350078857495, 0.22870804844025705, 0.3853935910524838, 2.6122683136209504, 1.7265180196826424, 2.9390914783714077, 4.809350990165076, 6.7856180792670076, 5.301236901284782, 3.3678771494747646, 2.2743690594229777, -0.7624405386333352, -3.9883196055048766, -3.9272394806346442, -5.131730641739664, -6.129580859445094, -1.706016076862538, -1.6487794079491809, -0.5058871881532495, -3.1283132170441275, -2.946818052241984, 0.8526445276740731, -0.3877849058378655, -1.088056953436699, -1.7504843504267473, 1.9942516959569134, -0.15603394135744061, 1.2790522262859216, -0.04292340795466737, 0.7844495231859081, 1.171805209581272, 0.8897660717234669, 1.2800255916975072, 1.4010634086830684, 2.1269338712744945, 3.3464091737832797, 5.0754943824964105, 3.976407573388314, 2.5745581492402576, 2.6663714427068252, 0.8246972637332682, -0.6949433464955451, -1.6307914218267745, -1.1691991378771063, 0.32099706660224897, 1.9711048736397434, 2.479940307588571, 2.5581378027087753, 2.623048529298928, 3.099375745954971, 1.6519631623615034, 0.020736409680543928, 1.10132214616362, -1.2939026359522907, -0.8692814996661619, 1.3882128012766537, -0.284819557727394, 0.36971721934380525, 0.4946386218103225, -0.5257467654344056, -0.7345279335562193, -0.5152279712255001, 0.1222270808379478, 1.556927781495577, 3.8427139960574266, 2.123826062355592, 4.082470584002588, 3.5017006241148976, 3.3065916268849462, 2.434692308191532, 1.6801222746752638, 3.7904986203840725, 1.9094054178554551, 3.268289444859099, 5.060720324714283, 4.387560216306491, 2.9655548341142293, 2.0990981925915575, -0.05208042349625414, 1.0137550178523127, 1.178224034904825, -0.18884718738806114, 2.4177419019761457, -1.7676436223409668, 0.5336266667722251, -0.6583513866972123, 0.16904236019599503, 2.238938346662447, 1.5494910303420684, -0.7348435185127367, 0.8112366629472298, -0.24097674665725324, 0.5301719411295608, 0.5197490684151053, -1.0308179318154282, 1.3977466811538373, 3.148666165527323, 2.413887082359513, 0.689847885634119, -0.5893619753256376, -0.1729088090565184, 2.916136111191958, -0.9514148286589548, 0.9198357391693295, 0.13653104705339741, 1.2564408474277085, -1.8368942346311206, -2.6880914093306845, -1.081214546932053, -0.4446681050738497, 0.815924339254133, 0.16941891322563207, 0.6845540539412902, -0.3533581993036763, -0.04202069252665968, 1.452229433554672, 0.3251818783514245, 0.2947115378851399, -1.371373113540261, -1.91100172456941, -0.03982354626334718, -0.7641210649037469, -0.6474722868033093, 0.3806544567845744, -1.2964807952598285, -0.04314251472158248, -0.2390161014673902, -0.010486135568439602, -0.959238211997317, 0.008640141624724445, 1.7021746474416772, 0.588363837844619, -0.9248280438921104, 2.1956370682968656, -0.5853215466738259, 1.0166110991405501, -1.2239992034576, -1.0756338859399128, 0.8641002855490842, 0.1720525877791387],
[-0.16244941775411517, 1.323588587719541, -1.2561227980025855, 0.03162838653440477, 1.4645484598252962, -0.3018761369189655, -0.22070878955915496, 0.1195608748513934, 0.3784731263413426, 1.0209011774164471, -0.507944319806165, -0.43968325905979666, 0.7113483551422063, -1.8611898029867793, 2.4458047734575397, 0.3831270637095136, -0.0555887540844242, 2.265303126443028, -0.8529906567438998, 0.4295106932018602, -0.009809356384824315, 1.2815554674598146, 1.584653704014728, -0.3184567096124798, -0.9165028140508454, 0.8581716805571635, -0.8728370191445041, -0.20764168794333726, -0.025804176241113662, 1.5166321906917581, -1.0049790238113128, 0.0542539289128376, -0.7440240568081058, -0.4150254276728532, 1.3851972141606594, -0.7210079735136793, 1.2432769057389472, -0.0652052813540309, 0.0923950376462625, -0.8156079293147495, -0.3045718429056907, -0.20471261335250326, -0.6060104342742958, -0.6231538395174316, 0.10325599685477392, -0.5367839408686791, -0.5623163359641465, 1.0508860501689714, 0.2222974865288762, 0.19215237435239832, -1.6555057913444775, 1.9022365690290415, 0.3257715348603964, 0.4303324912813642, 1.6665078529365212, -1.4156494436897233, -0.9418274256875475, 1.1189676432327043, 0.15961544676263725, 0.2313570229008504, -0.6985040457602056, 0.8327648110559338, 1.3051630328285206, 0.7248640374192187, -0.7665550512150361, 0.9652782996643419, 2.596300311534268, 0.7738330459483825, 1.2190653857150024, 1.849457173677028, 2.643295972728316, 1.3989704861003032, 1.5412860662654617, 2.2763644576654665, 2.3702272496869408, 0.5146897296994428, 0.1022692524592443, 0.33711062859697216, 1.1216170319254444, -1.1312794498080636, -0.3572648196887138, 0.5661564583323488, 0.1516520528206724, 0.5971445146097968, 1.0580556087179043, -0.22163929040470096, 0.6985143963493496, 0.1914602548099094, -1.133947594792107, 1.31147695438128, 0.3262520475280083, 0.6871164236074767, 0.5305744568807975, 2.26483335347005, 3.357986228945238, 2.0475516909916665, 0.5085300929355212, 4.236600658366481, 4.3940172401443895, 3.634708941706628, 5.362341570046588, 3.9170822395729044, 4.764241246729066, 2.469520188707139, 2.6632502615198317, 0.11773911717008563, 0.6188221298302643, 0.61256454145438, -0.05855420428080743, 0.8813806539495642, -1.2947769916123484, 1.264393344949559, -0.22485138612794298, 0.5125816096000676, 0.7048290916262022, -1.3817514092303669, -1.145328486914237, 0.23716634234652467, 0.21941502988298417, 0.47402734021246956, 0.6977949018987223, 1.0802978236020186, -2.0312050853401122, -1.1034482797155745, 0.9440507231699709, -1.050910271948581, -0.916647635894369, -3.083147113946709, -0.8530405959478821, 0.7338735948222175, 3.9481787082791038, 5.925649629255039, 4.04081273483681, 4.375249884689394, 3.833475950458574, -0.2841771973050503, -1.4462806739108385, -1.0350327343398105, -1.5678689758544087, -0.9526323388209732, 1.9086526040295408, -1.0840809903272535, -0.29060255641833316, 1.2207409389161268, -0.09803957998872291, -0.17300818844687277, 0.08280021657317284, 0.41391930483750566, 0.5788181606166369, -1.589703118273967, -0.16414306230088022, -5.777428695606709, -7.268423331494962, -8.855690140893653, -10.74589030894388, -11.303632056567947, -10.105787557520916, -7.90799854298097, -3.684504405822731, -0.3132021231025857, 2.6372558328735787, 2.713067343822705, 3.1116545190448353, -1.1608762385867943, 2.2618836332090178, 1.0494184608584003, -1.4709795865744686, -0.6818549700230783, -1.7692011806690615, -1.4625207730262972, 0.8493887185165665, -0.6000290523958223, 0.16868495548246631, -0.5916643468348237, -1.5681759955606007, -3.12574197971541, -1.8647334767071155, -2.244153288016355, -5.768847368042319, -7.12483369173535, -8.643369024540178, -12.589432459830064, -11.490945708410832, -11.802248484800442, -12.718894522639012, -10.985220059471256, -7.799164892917848, -4.851798959364236, -2.0330676155991925, 0.012266026021250537, -1.774055445154387, -1.5540153788462414, -0.7705723445379139, 0.6750910312981451, 1.0424941911255163, 0.7753418535172243, -0.26661678010276185, -2.8341199476737704, -1.1225230053872972, 0.4847866094376315, 1.1470348640949595, -0.4946320125617659, 0.5994351474890203, -0.5492354390930564, 0.10265140312980055, -3.7563870755713733, -5.266504973747468, -6.365975422761595, -5.569557013693939, -5.633758817204386, -4.992240606992066, -6.426200928388572, -7.9425983380667855, -8.01774097524091, -8.630341820081478, -7.139551378840299, -6.367899850534165, -3.2313645502420227, -3.7314479556773485, -1.9488019026489025, -0.06445160377812631, -0.6104959500112651, -2.754637827939284, 0.41182120954160156, 1.1343630159160876, 1.7573521509766736, 1.00946726079608, 1.47186419347003, 1.3309886321912219, 0.7506813537255321, 0.09377333635896842, -2.1236730108664155, -2.9300236894765086, -2.3292812273296777, -2.709996809121337, -3.3699872388218775, -3.116180751447715, -0.31711402875820477, 0.47550354899053876, 3.368495334511517, 0.6630141918051393, -3.465002414016497, -8.889294867994247, -11.11629864085774, -10.53158673520213, -7.7511747005242615, -7.355402735876178, -3.945007075438884, -1.8916144163518707, 0.24820053796174663, 0.8150807961307702, 0.9948803836517047, -1.0289061500045864, -0.08340844854814947, -0.9147684384790797, -0.6260947406450688, 3.3685167699992307, 0.9523034584906215, 0.6112388220754577, -1.0097341719832793, -0.950865174761271, -1.4587344779149536, -1.554679639020184, -0.28931485090512365, -1.4047163942322498, 2.1225792077972616, 5.142594165375937, 6.021431989727439, 5.049779674100034, -0.912886193698663, -5.941956449092348, -13.741355657854927, -14.81922883300134, -11.877881521940397, -8.709642561591526, -5.983657700716556, -2.4863120467603292, -3.0897544987646968, 0.06703830756575048, 1.2573683310209618, 0.09236302996848761, 0.8503972680506934, -0.6143444388992876, 1.0183805378226685, 0.7784623604680406, -0.601451368459977, -1.1656938120489728, -1.1872600033456016, 0.049426345230895716, -2.5132100357990694, -1.7040329530749196, -0.7969836107442971, 0.11788826316370846, 1.370796887628888, 6.798966572855037, 5.512642003899743, 3.7312162297196467, -1.0695515686197972, -9.73961463041041, -13.732864583520884, -10.869799371399095, -11.55054340460861, -8.613922981191001, -4.385955666410211, -2.004123005200948, -2.6601743399580267, 0.3818671557986744, 1.2444497317377576, 0.3304648427689209, -0.19674833013933318, -0.15922114363975326, -0.5640934785976236, 1.7890159849068548, -0.336928145800474, -1.8392657223265008, -0.8935067343333768, -1.1404892402412357, 0.6600903236082707, 0.35866928565893635, -1.2041779822535537, -0.7366493505284778, 1.227599304949478, 6.650661809342176, 6.488347298264931, 4.533280178868001, 1.2356333676092268, -6.157077505212695, -10.525591500729996, -8.511157929122255, -8.26599688143368, -3.9547205209805876, -2.9343501673669605, -0.8002349864604349, -1.0122914796679259, 0.6537493035318792, -0.65177418780313, 2.0828546540624706, 1.560126347734172, -0.034661568605449805, 1.6278823505186164, -0.8480355774308741, -0.5419039193152903, -3.633137461303153, -2.1096523731317256, 0.21589851500718155, -1.0786669384570575, -1.6331301816573518, -2.665247009824605, -3.000301639011453, 1.7960251699574543, 2.837437488099071, 4.856991591290847, 6.095360524285732, 2.7961597871751667, -5.801054320954778, -8.027770973344174, -6.912472419964744, -4.518688070742065, -3.132159145795885, -0.3935599090479934, -1.3597223969320524, 0.06624734022488875, -0.5866981173693726, -0.7145047302899183, -1.1373681511619702, -0.6566715293197076, -1.6808792733104185, -0.7761402575369409, -0.5015522657040462, -1.5255175430623853, -1.3312884813860506, -1.931985761714141, -0.7286326235446832, -3.8650390623235715, -5.262696364913471, -8.877457880133242, -5.212123221037332, -0.8219865240618012, 5.307888568378731, 6.482745039188197, 6.401757435058258, 3.7340704606389106, -3.507791254841001, -5.3227046093151325, -4.107722692361876, -0.26713147579412583, 1.8102033961433392, -0.20996679673386542, -0.5860779882072058, -1.7287886845924016, 0.5727259474213575, 2.007407112240552, 0.46156420951807087, -0.042549769561351265, -0.47753274158396797, 0.7455888801732301, -0.27042386553432474, -1.6744054153003045, -2.419960767548456, -2.050949442249559, -2.4635478477203834, -4.4530442016987415, -6.714674239024239, -9.548675756819987, -4.982740698333332, 1.022756103548647, 4.4721294638978835, 8.02538199989187, 7.162031219342649, 0.6521819752453158, -1.786263390302783, -3.5183061632031323, -1.4011757064185355, 1.273520535975081, -0.28851642403823924, 0.6830964517911976, 1.2792196415744572, 0.096214186912623, -0.10697712718740413, 0.2183570585493361, 0.4784994862190424, 0.060417743574244696, 0.6314823189828666, 0.14192917199403124, -2.497895016284255, -4.550391939000549, -3.959133671493378, -3.9586895857217113, -4.2699072048969215, -6.992364272360837, -8.802675919511367, -9.226362498490763, -2.8842367453592455, -1.4256815303256656, 6.147799974929351, 4.639735235440708, 2.1877888109456984, -2.2273149769988034, -2.7885915266321057, -2.264615600212491, 1.5809348559766192, 1.9569639149519493, 2.028495613616754, 1.0218741215557618, 0.3116324681205071, 0.8364399537807837, -0.27889809905682433, 1.807364835490288, 0.06189311285794531, 0.19385141402715134, 0.6310510578267505, 2.2546287536152363, -2.6101158014131474, -4.738707607813754, -6.020057762191386, -5.053639575973485, -7.668035485517873, -7.044149392207369, -7.4917689042814715, -7.751216570009069, -3.351151590080715, 0.7504292371622792, 6.23512868767739, 4.290167670567305, -1.9156143221457287, -4.673357733998461, -2.6057892119065644, 0.3672056214142232, -0.5076460199345626, 0.978461782846849, -0.9900715916650727, -1.3594552877692936, -0.343820545609843, 0.4078997521009447, -1.7520317757475905, 0.12780945087911555, -0.4661666230926025, 0.0854256092424168, 0.6359079046998042, 1.7362578139766072, -1.9531758103910273, -3.7993541206187404, -8.377210349126472, -8.081664090725548, -7.655615640806626, -7.3741151871735005, -5.228497225176425, -2.3676267183960804, 0.8751324669950948, 5.493537849962429, 5.014845241860525, 1.4647819399433386, -4.127228149316945, -3.643503024283321, -1.4783993197902079, 0.037675388534501926, -1.3362277869986705, 0.8575240183477368, -2.756360936162615, -1.1477270697167867, -1.3353182966184514, -0.1965394425081428, -0.5815006783304407, 2.0569499568253105, -0.6164825914677943, -0.11824618652439585, -1.0071141853239034, -1.1085805854223896, -2.929521440800012, -4.737234244908844, -6.798286569944977, -8.974860728014287, -10.77114209444406, -6.87855367567399, -1.0640265085928176, 1.831893804541587, 5.93100601606032, 5.2418038376611165, 4.991626634960639, 3.632791774435507, -2.5187838367124447, -1.863616097578387, -1.0747643432581737, 0.0955986808268322, -1.1661069841523048, 0.7884308045442453, -3.231563640280524, -2.6237454551696766, -1.4655106780913485, -0.9864080320050703, 0.776212855918143, 1.7715945877077166, -1.0033876229080043, -0.5692936902461417, 1.935953143182766, 1.0046343457813065, -4.153766363642251, -5.21664558267701, -8.062052866892973, -8.465931667704961, -7.459020714955958, -4.4058353485073845, 0.5786129001127185, 4.279300754421479, 6.550359046021609, 7.498353934882755, 6.865459841977953, 4.296187529818869, 4.194217877220519, 0.826352207579778, 0.4701422823202149, -1.309433446203598, -0.6755656935287601, -3.3529495496113557, -4.589472861877993, -3.68850035313206, -0.4095182033102813, 0.43862039606543796, -0.12722166852855024, -0.42410484341116883, 0.2996693407650949, -0.09544449905809317, -0.9887629977119966, 1.3236026052755199, -1.244472912734036, -5.032625302510144, -6.696453295084983, -7.54684119132362, -4.371294796048023, -3.576091273208283, 1.2706441206841856, 3.4213196653390305, 7.27015189362921, 7.5721994967390565, 7.3838307522509705, 4.7937582929826466, 3.2526210810047496, 2.91961441371963, -1.2895828069269366, -5.09099896978627, -4.171011372210875, -4.868758991821899, -4.309965846601049, -2.16580356992036, -0.5713560625298674, 0.7160419860087185, 0.7612800677132919, -0.8322091964183893, 0.6018238366424294, -0.436795932093731, 1.5512354704148745, -2.667030717833953, 0.7668160030889751, -3.556522431957526, -4.433226336080248, -5.252454715621118, -3.8564427723615404, -3.568949972659873, -1.7760394229778926, 1.1424048575524846, 1.8729508646931166, 2.7791596035172796, 2.3801406549125836, 0.8270273613324142, 1.4851716842937674, -1.9502329802646023, -5.3510175057308285, -7.402486139174877, -6.503631775534977, -4.553102762099345, -1.126437639234343, -0.9842126698719826, -0.8817616915610047, -0.6501031240517068, 0.028106166038467148, 0.5614465735121199, -0.45686271333105494, 1.9139611161828967, 0.698321186613369, 0.4184567740730792, 0.5884508746260829, -2.6219084770517482, -1.3576751437442949, -2.454878969158391, -2.29971192623495, -2.4170151189843936, -2.470979512664332, -4.876286998560256, -8.567189510271268, -6.483480130406409, -7.228626136150673, -2.4047040053233237, -6.5665556000532765, -6.044093742704359, -8.167080861363843, -6.123261175964919, -5.469373969668748, -2.931777842515858, -0.9109276178719548, -0.3147680217609254, 0.43009419374021285, 2.2826698132411023, -1.1880974127602966, -1.1059688710052478, -0.3723548423690275, -0.9750056183795982, 0.5503240090643949, 2.1454137994485736, -0.8828273056529454, -0.6519387295304977, -1.4754421042605936, -0.5464671569117118, -0.18032527058057854, -0.16512217522728873, -3.2369997701824262, -8.790109854487653, -11.554187103477444, -10.947439460270996, -9.235242104760047, -8.381041558404787, -6.089768813423843, -2.935172042997213, -3.697023783175646, -1.2410600833253742, -0.8076763650060677, -1.2437660189102395, -0.18587605315260686, 1.041311310509156, -0.580226135198538, 1.4500061926446661, 1.6854523801453627, -0.6476669702496415, -0.3963264921244617, 0.7028233565425528, 0.9319004625153339, -0.3607356659790665, -1.1880648910708818, 0.3730413972016318, 0.26302232901236344, 0.8638669149751694, 0.29890335190971595, -1.746306239926407, -2.164242951680332, -2.7324643728478404, -2.324736773573979, -2.7087705192324356, -3.7043703316270338, -0.5690501363876356, -2.554104062774602, -0.7034452570810791, -1.76446532951147, -0.9991999787969496, -1.8316603437538408, -1.5200113590394082, 1.6859969630850982, -0.9903691570231643, -0.2336539402959502, 0.2050027890258278, -1.3002596393407755, 0.7430313948973795, -0.05710744072151507, -0.6441331167074772, -0.04737576221341735, 1.0114179095543223, 2.7208883416036813, -0.22643822793682633, 0.7086572925917641, 1.0038713843658482, 2.424997306044083, 1.2926703874428331, 2.1453031476548743, 2.3565685126422, 2.7186670290117463, 0.3373333528819168, 4.07517923797333, 0.9727382179916032, 1.9280430887258975, 0.9792269180720772, 0.68633882401531, 0.2883770025014714, 2.0990868846269466, -1.5429366326635567, -0.4526821803185505, 0.9705141666832581, 0.8748435623061372, 1.3783882641722025, -0.4506187735443393, -2.208201848198216, -0.9239675493289764, 0.9688397853496908, 0.4784073852750473, -0.9443954393097004, 1.0503533725821645, -0.21688217637258583, -1.2104288398980985, -0.5732077828560029, 0.674618930434119, 0.7796608798199127, 1.2476263874094407, 0.19219431951644195, 0.2317305381043451, 1.7362984701804147, 0.9496539617259627, 2.5390914814650523, 2.2045600239122844, 1.7604954011841822, -1.120589474478344, 0.265523194025136, 0.7831120468922294, 0.6994585861555735, 1.3214007403767178, -1.9514665862890905, -0.37282323227366376, -0.1303634131834976, -0.4156400928481412, -1.2065749613273762, 1.0648141510973332, -0.28503827642880414, -0.09394000801402529, 0.44031151221650705, -1.0044897743666805, -1.7766636818940802, -0.22380518098645596, -1.382414564417821, 0.5670648269361932, 0.5583653426114785, 1.2803947499015256, 0.4040441724698561, -0.8271566901382347, -1.0970942427634636, -0.6346926283671472, -0.1797455844668513, -0.3463621119596699, 0.303682138085751, -1.513853419204911, 0.856920948803045, 0.8148714114896344, -0.49228002550843974, 0.5447622786541332, -0.5040387631166595, -0.2712184128518724, -1.1507159642538756, 0.19645394782606848, 1.670857546899285],
[0.8867572023048897, 0.3979279897822147, 0.28545267331558904, -0.5907342775458561, 0.19587854953731643, 0.7863803789971001, -0.1639377038005622, 0.21885863695781163, 0.33121462206106844, -0.2843906581575181, -2.04731981535228, -2.2150268929515455, 0.6798431579410235, 1.6699915233492484, -0.4256611826591979, 0.03894490065324442, -1.0137426827486087, -0.2174830304045172, 0.023395228115830374, 0.36798238533352196, 0.06802586010911865, 0.030725753133017442, 0.004569398604897575, -0.9071828792923988, 0.35966682161909536, -1.6420214815431833, -1.6776938442339846, 1.0942504778405635, 0.03761363886022337, -0.26452519871971947, 0.7104070589608036, 1.1439841440692848, 1.0464231556211996, -0.3126763401200442, 1.5232578453362413, -0.5073075893837575, -1.6309515178958305, 0.6517841233241829, -0.8387057030692029, 0.39680748598680615, 0.9078663905947747, 1.4236882885494302, -0.3477543824268944, -1.5421269897613963, -1.1523165450880566, 0.5099119925207364, 1.8383875906637814, -0.3833533178311816, -0.8800203007256903, 2.2551689188670045, -0.6574828428945519, 2.009110946019811, 0.920672533537513, 1.8840951708381528, 1.1404848596015957, 0.5175342745890016, -1.4939183407251124, 1.4232053917875236, -0.20943684912582436, -0.013946226977437264, 1.449087391688555, -0.9576145165325844, -0.20989949061290772, -0.758724200252835, -0.317303795564735, -0.007773607003970502, -0.09371474381260696, 0.3715997083447667, -1.5718418747430356, -1.456027246105443, 1.136051517451679, 1.6261232533719796, -0.5590233983629423, 0.7706696146397699, 0.6868364002566127, -0.003038735534349968, 1.391912293367346, 1.2787042496178729, 2.2913078367529676, -0.6772132704356033, 0.55807765572511, -0.7565563989441276, -1.2113537359753639, 1.930197707242712, -0.1350492686412897, 0.5095043043360442, -0.8778236228755792, -1.2646761931623376, -7.971910246813553E-4, 0.7211520594819294, -0.5320769917988772, 0.9859138403402359, -0.938839125880994, 0.2787298886100763, -0.4806511090718219, -1.0938453830566546, -3.685996775930427, -0.3184902843309473, 0.9911489256640227, -3.5914612881730235, 0.22355892460592772, -1.7911252854800157, 0.8598760234483166, -2.3525855551205472, -1.0664283425062036, -0.8371454777127328, -1.4542817133753307, 1.2087438631515612, 0.29123044241800206, -1.4407165367999581, 0.793042416000865, -0.2296614084372258, 0.1281596810402393, -0.7676513995390678, 0.3275362341460859, 0.3251192981018342, -0.5703589823718411, -1.0230177506050875, 0.9035781777565559, -1.1992232769457867, -1.666974045159087, -1.8359812975544019, -3.611179711421919, -3.481118951715268, -2.0614547470349214, -0.7188013845809161, -1.486094206725615, 0.9984906788704225, -1.9866048179228097, 0.9468926650871857, -0.04291528798310381, 0.009736786722283548, -0.8162086607976917, 0.5126390904327147, -0.39700363544686, 0.05669534256348463, -0.4749211275319713, -1.2339495473522293, 1.6338871081422373, -0.023356002155013697, 0.638371299890079, -0.0553731022846233, 0.13395118160160113, 0.3679076194440743, 0.16904437041069564, 1.2799439851848753, -0.5773782533029028, -0.9582294638876329, -2.28438701969271, -3.20327570717816, -3.448734373029739, -2.62291128381814, -4.202895995627622, -2.627952422241754, -1.4279882172063894, -1.762175055776648, -1.1243782939753217, -0.24622398717557767, 0.4042818317220586, 1.944795344560846, 0.396830459966529, 3.1391746427837544, 2.188656944445803, -0.4508175681492675, 0.5289098916733496, -0.059963597452272664, 0.274361416085935, -0.4256552586326161, -0.438471852212728, 1.3008048537533048, 0.7061031515507917, 1.456361308302743, -0.0819586467011374, 1.0292447144927226, 0.0015575298401267121, -1.8786839789068543, -4.1038865323526945, -2.90098234790931, -2.216864335736448, -3.073907677867328, -4.5467449130027005, -4.038449200947867, -3.3462972973736096, -4.304111145372159, -1.5814891647438203, 0.029620529612122585, 3.5514173610096247, 5.139808220958144, 4.051066673284814, 4.590527946079341, 2.252387175808803, 3.2222938081686805, -1.210107108881955, 1.13909582768133, 0.014076307457274256, 0.42350152724434525, -0.22588485654149792, -0.3916264056513047, -2.6079038475554195, 0.6422385718097123, -1.1073101386709279, 0.11900770863280234, 0.7308531820439518, -2.5956399315405494, -1.0326624956625365, 0.4943758125461536, -2.377234461210804, -1.9988711328922597, -2.3169761157898425, -1.9419850195789474, 0.7936567465409281, 2.619263377308539, 1.8455966637684496, 6.6808314546380885, 7.520305390987194, 6.295812162838534, 6.302219042060686, 0.7591252036982129, 1.568351741128921, 1.6399567670692672, 1.397322758842719, 0.1865680027262415, -0.3076007622112681, 1.9413349825644832, -1.627070293942595, -0.11922576695191375, 0.1454782912350342, -0.7711341980934506, -0.017225394791973145, -0.6256557191981297, 0.41950720825122356, -0.4493209805503205, -2.5064148605262213, -0.7384840761992931, -2.0479798220948817, -1.4942201543492362, -0.17438990109982533, 0.7832592298946106, 3.175703721485493, 5.198292589014369, 6.268995096771976, 8.328825021049932, 9.210548319847446, 3.5554526573450254, 4.392285452337016, 1.7943269282379541, 2.3514049900059364, 2.565864365082818, 2.902637868597918, -0.7908503278411371, 1.293999407475173, 0.2393819551688123, 0.23227823726809496, 0.2687889815297366, 0.4751319499849377, 1.1598534970456758, -1.5007655842918124, -0.8163416370567234, -1.0932794674827029, -3.2062643153862966, -2.8948495632525963, -3.3303162202352374, -3.714005184103915, -1.4327749258217783, -0.8326409619534859, 4.24393855525024, 8.072033699606157, 9.900072477377341, 8.315062423039295, 9.579764027810732, 8.365944979990163, 4.394310219349032, 1.200982818130762, 2.6376884033834465, 2.3994615684411866, 4.31814482843956, 0.6207312599696968, -0.5112585897114922, 1.3799532909520953, 1.401261614434859, -0.9422825710692633, -1.8416732409541008, 0.33985651804798145, 0.15752614028771364, -0.3573229518943925, 1.1000419381026165, -2.961815496412825, -2.051486013413387, -0.28860101958398815, -2.376787902355625, -2.0514356353974104, 0.19880259553019616, 0.9348345131228573, 5.806693188314393, 11.213785706011588, 10.463239191347027, 7.536591491433333, 5.610041758978938, 3.3896839221980524, 0.37236788196967374, -0.380948408375562, -0.34098066693411705, 1.8071146027502702, 2.2665286984751214, 2.379807382784782, 2.0734061873025342, -0.5779672021830041, 0.6916799015780757, 0.9015020878792979, 1.5966816009572717, 1.4577636431605574, -0.07741225321465381, -0.400628486904106, -0.4303957874690628, -1.5637763660805304, 0.016822526482238656, -0.8287488267959969, -0.3907061584061087, -1.5801598704826776, 2.4922422866805602, 2.792211709380659, 5.629825309424618, 5.814877203330303, 1.697842303997641, -2.6247671294342156, -2.3378954288797154, -5.992781524739052, -7.945463583607383, -6.506539363232523, -1.9290826278690072, 2.436752983190382, 2.3611507502311158, 3.196622982650948, 0.4263945644447393, 0.7491600418193742, 0.0017149250329067081, -0.5183921069421555, -0.2331444837028086, 0.2953752399638483, -0.11939016286337063, -3.6918444498594103, -0.8670814599137111, -1.5662449644595338, -0.5662080991680803, -0.2021418531228323, 1.4644007986018601, 2.5283591474582727, 1.3708730939190328, 1.446601676010591, 1.0462959728896342, 1.086181377333896, -5.05106019609951, -9.263186125701713, -12.093334761132203, -10.903199055999776, -10.969929751897716, -5.147947729034627, -1.5498937813874376, 5.869459071216774, 4.216191576450821, 1.937209202294242, -1.0418428196791358, 0.09328124930379612, 0.4585724429201018, -1.2776176278805207, -0.4734166063611212, 0.5261462828276234, -0.3304668235684424, -0.704999304146311, 0.8776449191238799, 2.0691863293344626, 0.48469079418319017, 2.848494361055568, 4.346800813978252, 6.323371586676763, 1.1417621599129275, -3.7583420344789165, -5.025681485199081, -7.578163315093812, -11.886432501801576, -15.189625931903048, -12.837568684150034, -10.169981528193127, -9.66157413218572, -4.078720751304948, 1.0532492146237442, 6.578447200851878, 5.673191086058537, 1.8232661154444454, -0.4441305388067879, 0.913555488844055, -0.3864946085859414, 1.050890921177617, -0.0905308135435945, -0.4588900154696256, -0.5857996121910223, -1.5444010153581815, 0.7745529685953475, 0.0418821918330194, -0.5176756831415842, 5.055709321528149, 5.606667540077481, 4.162119438259027, -4.590046913445749, -10.463410406320662, -9.440418823253609, -13.04265611545694, -13.25304925875599, -15.579520078005602, -12.162103725038513, -5.896015837137891, -5.014140848741362, 3.2827334730941575, 6.036379666791199, 6.681103342108893, 6.727845399069246, 2.192346400800901, 0.5823926294309766, -0.22446456954753274, -1.449929411979849, 0.2637981073919147, 0.43576988199464023, 1.3035133536308896, 1.790379478928803, -1.6280499103377433, 2.480449394053706, 0.3988996006791476, -0.8698682154874221, 0.511073871109764, 4.323003098156779, -0.48560309662585077, -11.574977348036343, -15.189774893238555, -15.970780228174835, -16.641248634063462, -16.042240550382303, -16.055636642372587, -7.932989143155361, -2.8584840555612065, 0.5106955811703826, 4.450795360968444, 8.782053687499419, 7.673423161956383, 5.647538127331153, 1.132750618541213, 0.16227904649036293, -0.0053308329237545405, 0.8817784881848109, -1.4464656756414351, -0.7275995030997625, -0.513520026191768, -1.3732092234720095, -0.9599602304844829, 0.502021374918894, 0.9999280293905125, -2.5217183459788597, -2.6988807407273927, -5.252330804899302, -8.405188394505638, -17.357569865049744, -21.29130557000403, -18.237891946870008, -17.597708088417605, -16.51423572626209, -14.572926731261887, -7.4201220223339295, -0.06269231589440695, 4.1731088284535955, 5.7877819240590105, 5.440422013271788, 6.4139330561992285, 3.4498539720294636, 1.7912992533591128, -2.717208627918736, -0.8157657710478945, -1.7152252842660232, -0.3136859684224446, -0.266683763722682, 2.5159258992772573, -0.07438720516690565, -0.29580258716566177, 0.3287656299879166, -0.9675464171446018, -2.2048079880555824, -5.889359781647473, -9.901230648122693, -13.666801223109982, -19.017477020272537, -19.775718989838932, -17.45914741308398, -16.397940130809257, -15.414682628807988, -10.082766288162066, -4.003652637644078, 0.8912535942841838, 4.116623655464272, 5.8078469702703535, 5.218414279855909, 4.0517763328746605, 2.2782733454198367, -1.3299485901350696, -0.8834195694733754, 0.265725313294903, -0.8745568485190806, 1.4500830622764402, -0.6712765625852422, 0.8029643638272781, -0.832588005136936, 1.0631083208550327, 1.0173927116599646, 1.766628475011019, -2.1033998388903457, -3.8666252631599036, -7.5138075033057214, -9.304121682590061, -15.309883839732388, -14.955183175073014, -11.71836618213301, -11.61972997291154, -9.038559947602652, -4.753723780231267, 0.2852261730593174, 2.081284748820859, 0.9729791770478311, 1.5095757507979355, 2.0279839115389118, 2.102480872130501, 0.10866518839302003, -3.95843292336676, -0.5082092496736366, 1.403930085576479, 0.11848812773278154, -0.3171620179786368, -1.057792426296959, -0.6915907830253698, -1.442927492629954, -0.11535339160198572, 0.9403433262086534, -0.1835077474001104, 1.4700625120529813, -0.3666409415403655, -0.35867890688601806, -2.617996400096144, -1.6283248476468082, -5.032152951624777, -0.008854646742715971, -2.5052239846915176, -1.3956727305728263, 1.350480892399346, 2.0096654134911125, 1.1649445268786358, 0.46889128116120676, -0.754365712445214, -0.9671879685810832, -1.657791967601317, -3.3911742799686984, -3.6706629534021897, -2.0955042687877503, -0.1148519179839818, 0.22041744279033693, 1.6558853643606635, 0.9270175848218566, 1.3627610265811245, 0.22607040746515136, 2.387247696515861, 1.7287648726053506, 2.29370551784882, 0.39664985978327305, 1.6784939114996829, 3.472626707719473, 5.878234546135049, 6.151203761112804, 5.659909702591617, 3.056893505578797, 2.9478949850992446, 1.47597211597914, 3.2331795047226657, 2.3205779777306113, 0.9578213704172364, -2.4870899575456664, -5.055758290922862, -5.549627419379607, -5.176067535351457, -5.017150865504483, -3.0391712867153133, -0.1798092626261471, 0.5872928618657004, 0.15879279681621186, -0.6167786958028956, 0.38481978241863674, -0.5293053104413844, 0.28730699641333374, -0.2139206590875598, 2.147004527460119, 0.9383730621685329, 2.2358039973004544, 2.509996573540365, 4.420174360547672, 5.941005779350813, 6.206077322521935, 6.509408369517352, 5.063293670873502, 2.226109885352982, 3.524980459624677, 3.718689638723365, 1.4409591883415918, -2.6540709113115253, -5.417928889263026, -5.869411337012546, -5.75847120317416, -6.808948860580474, -2.8510950737261713, -2.810816484624494, 0.3820541115410673, -0.4827812288543574, -2.577785709164279, 0.32567313503565276, 1.7909099999548896, -1.9575650109724028, -1.7595454906291088, 0.6338958888574648, 4.449105392500948, 2.3403368521530554, 3.7408381055542064, 5.428072545841113, 7.403838969060701, 5.589789958489753, 8.065313314143822, 4.953042420586151, 4.277772828677127, 3.657062424175113, 6.180921132992594, 4.369422761634824, 0.45812385222215, -3.3882602934926576, -6.969777870633399, -7.263363598492008, -7.104141214989235, -3.9994321164739985, 0.30886280242670877, -0.0856203628143038, 0.420733645613869, 1.5877794743907885, 0.6280140914339423, -0.12256678036732403, 0.5803318913268076, 0.36371681003122935, 0.5863938593720209, 1.1608117213830473, 0.575081462223441, 4.866739266643483, 1.8749728024186345, 5.348761755838817, 8.32497764073102, 10.220766641410727, 9.378809902513765, 7.989351169078259, 6.71826445421192, 5.202337567812327, 4.062737353201337, -0.2913909074525254, -1.7204124044134945, -2.4334546806553603, -6.004915277449313, -5.773155610204632, -4.346196889264322, -1.661511453192093, -2.3447951033232384, 1.2639569392088301, 0.03908222887681107, -0.2116529006014646, 1.8687004867561285, -1.1549009812990536, 0.09433233690355775, 0.43093865877589, 0.9271285822283059, -0.11253318953422292, 1.2924634861558353, 2.9683034714512746, 2.106954368878732, 2.639342348664535, 5.04609022677444, 3.7941546675985185, 4.405931718671486, 5.1502448163940775, 2.2072319695082006, 1.8741529269926607, -1.123050970822151, -1.884930921245341, -2.1279149577174845, -4.618478519112664, -5.4664745120454805, -3.2195824218995224, -3.2357359286023173, -2.5443900693165125, -2.5326179054127613, -0.41794433929443886, 0.3034034648204807, -0.3317575566391344, -1.7074085684296931, 0.5462183308794013, -1.0700990807246118, -1.1879235960594785, 0.735465335032673, -8.306827052195327E-4, 0.6637697742319321, 1.8002833513507823, 1.4890127608480226, 1.8509045527781716, 1.1732882937291758, 0.5539895291015425, 2.0070124327443093, 0.8560530264181825, -0.6324831602924936, -2.1697554266203953, -0.7443363856666647, 1.0458759665030817, -1.4086429275055636, -0.2732704904012017, -1.0284170836358613, -0.9825163692106725, 0.04024108970407816, -0.7656558312030576, -1.9407665158561747, -0.06368057138806876, -1.163912245964945, -0.9377872492711796, -0.4829191002305124, 0.20236150103830602, 0.16731948640056782, -0.7112772183009971, -1.0256004423086713, -0.6622643700127732, 0.20183557129822205, -0.552773514286845, -0.2448605865110036, 1.811303740737242, -0.14104672540880026, -0.10181188557111952, 1.457496471730513, 1.2101360645979742, 0.6654377727623064, -0.16765579712765452, -0.6498202344859688, 0.4550552197223882, 0.731477178209088, -0.15656056585896672, -1.643922745468511, 0.776211164731382, 0.19831483761717872, -0.06116681219115205, -1.7678795569474486, -0.5030582710975952, 1.0203791176625432, -0.06565044942837263, -2.1768897527360656, -0.8282449764654, 0.7106206409440079, 0.5529360867847956, 2.048849385273373, -1.0350858757565093, 0.6009953082651756, 1.2426052096411504, -1.0396286414381906, 1.1701797656623052, 1.7748659858158966, -0.1755833533798535, 1.173474664748648, 0.6874810728876606, -0.6824578718411702, 1.4483594358631082, -0.576051427723518, -0.37701472306898176, 0.5222739712150118, 1.369869487678234, 0.2933467762568162, 0.3697685233888663, 2.487446566962866, -0.02160576383540929, -0.9256284116753766, -0.4434626569582636, -0.29225524805385816, 0.8526751120665345, -1.6013726144636458],
[0.019106828200365373, 1.025478032758102, -0.7414951599539877, 0.263009664484822, -0.6555540961682365, 1.389949377947136, 0.07951148835575697, -0.4536711729251844, 0.0644231958868578, 0.6250952096917074, -1.016410704373667, 1.4497844813344345, -1.1953253067733165, -1.5543698226106117, -0.3044336005192546, 1.9412513154678208E-4, -1.1533985288592712, 0.5088714527881248, 2.7642224672509284, -1.343567917250345, 0.8183907031293473, 0.4108308071098497, 0.8401229303178577, 0.6622027251401189, 0.8246286092658367, 0.4907731214231252, -1.8044644812652701, -0.1876728506421134, 0.03305649080639966, -0.7678986240123878, -0.4857313506538461, 0.3320297502999468, 1.259908463641028, 0.8654919759225919, -0.6866735743685475, -0.16891546174162694, -1.319226435115149, 0.8738408818636308, -0.5832864374435337, -0.19838882112293374, 0.49599409642033404, 1.7559286073221883, -0.20214762608987613, 0.0742996603489287, -0.8953586803740022, 0.25919510469607704, 0.5659152741562121, 0.21993624329569228, 0.3558177144504069, 0.1544138383090076, -0.05550039382714515, -0.36442876113149525, 0.19386024348106304, -0.3114225797007887, -2.3249725674945307, -0.3633008355772835, 2.2842672354458746, -0.4008940715374931, 0.735287670225531, -0.7746158199786068, 0.6486857514859516, -0.6587257873915969, -0.4108748379399019, -0.6356966430421566, 0.36441922204265953, -0.8157567961175496, -0.20164243049140892, -2.2603261610477206, 0.8998713995545851, -1.6627903516125155, -2.6407498966312537, 0.4740567837579547, -0.2513406110808488, 1.5085009785371994, -0.70231987271797, 0.31113880403682764, -1.8591908660574488, 0.9349349527801958, -0.7427792276264717, -2.753492185255064, 0.3342837459001919, -0.08526710919567555, -0.4285748493944141, -1.6047171236346918, 1.7825961265819859, 0.030340175860786866, -0.5917673520484534, -0.1797337392827666, 0.4425423319014242, -0.2924517827622165, -1.774639003735789, 1.1851736900664456, 0.5414053828487185, 1.6552790352121198, 0.07407555383854639, 0.46861051483824373, -2.063236817949494, -0.5349513371991387, -0.402668107335193, -3.390705157965283, -2.2306033878848055, 0.09461888610096791, -4.665242824056705, -1.6176588764376738, -1.9796563179735802, -2.321123310581031, -0.14918810958233866, -0.8454087368861435, -0.898342215970484, -1.4442316011907685, 1.5269331833683522, 0.9730468532536509, -0.10090424537096344, 0.8157373471808399, 0.40781843824597536, -0.3452465861761297, -0.3902624220828747, 0.0070943563784514625, 1.161054076018352, 0.6875899955424041, 0.484268663620603, 1.8896278886258249, 1.0632197287007443, 1.6930935180713829, 1.7588116431795833, 2.6662361612457475, 3.8427962342844633, 1.1631360436739568, 1.2107256843684076, -0.36013929889437724, -1.5392768803643078, -1.445920136334463, -1.2131768634876112, -3.1827052403469023, -0.7025714499509864, -0.9267462432694296, -0.7789243915395939, -1.146445622548915, -0.5427020837191815, -1.8302598032528299, -0.6109944987025896, 1.0911845840301244, -0.9342135498718654, 1.7147234058659746, -1.2188564225063994, -1.7184768733827809, 0.8511346774580487, 1.7381383469205964, 1.7727410131802372, 2.6972056457334195, 2.5339784261675833, 3.4949092815231264, 2.5762812172176854, 3.0264175408437515, 1.4485944791828376, 3.824811552575388, 0.030334650780838343, 2.637449290654712, 2.087231474522219, 1.3475857811903804, -0.09431904329793307, -1.1748828494379955, -0.9727098284488769, -0.5757832050281871, -0.79472063002665, -0.41337385566303725, 1.4283357143068924, 1.0803736438976137, 0.5131848232646263, -0.8158081400244463, 0.5632819797473356, 0.19859957033772732, 0.3466523553874449, 0.08121721507297885, -0.5565466069796866, 1.5868431240521086, 3.107997764698617, 0.3901392990634959, 0.04174461408100849, 0.9232335870866569, -1.5689911843366016, -0.03815096903332056, -1.5027075812490047, -1.9137732597075723, 0.27234037427372326, 1.167249226198225, 1.7405382616574943, 1.039713370080299, 2.061925781099435, 0.45962279804341083, 0.3609600991963943, -1.5908299495710938, -2.5951572887269116, -1.7683144239900932, 1.7972293310707832, -0.1327420398506704, 1.0920112626723706, -0.11283080880620062, 0.14954645330359911, 0.3651666929822901, 0.7908128815076316, -1.6547951138351769, 1.8614549183037712, 0.6266993279738817, 2.082829111803729, 0.6976029802265657, 2.0003258639518897, -1.4008749593673586, -1.2396805925006709, -3.453520041251344, -2.551848911270675, -3.878266141057853, -1.449815050173744, 3.004853683383194, 2.7848687514412, 3.170140039051171, 1.8336888546289436, 0.12245173185567686, 1.0677368633815219, -3.526120529248413, -3.4828226557528077, -1.5576048775163236, -1.5696246251978923, 0.2986019091561853, -0.308167394041421, 1.3652309569561523, 0.9965932777507212, -0.3824563705091057, -1.7158023687985906, 1.470110197292361, -0.5117909600343094, 0.2472070248480793, 0.9172391767804874, 1.444724738697066, 2.2378859522268173, 0.33728832456708774, -1.7129126317367283, -2.0762886716067257, -2.2617244111686023, -0.14273124378187982, 2.513184624526937, 5.100739158266573, 5.996979734011403, 3.385240460799528, 2.6853575719589338, -0.15554188954564777, -0.2578247581858172, -0.22008573353469957, -4.414736338056994, -1.9177544839854124, -0.8395018098755613, -0.7007401600615706, 0.30560438513318716, 0.6830210003330611, -0.6644804340952309, -0.7286247708479897, -0.8930115019710544, 0.7249555789272192, 0.07957803766744413, 0.2822205728310782, -2.0303539672525956, 0.613243369798317, 0.7129149501077885, 0.7405124278160514, 0.1667817984654327, -2.911523493655793, -0.13248438250146835, 1.1422968067987382, 4.649429818416132, 7.685936610638117, 7.314830681393761, 3.80452775337292, 0.8415608470294349, 1.426942017882909, -1.7699602664028689, -1.891440275657964, -4.8574059372501255, -1.3892256376507548, -0.15329700108875588, -0.5695905442973671, 0.00852897058891184, -0.45779618173857384, -2.066936210977637, -0.9517591228391806, 0.16138080332920837, -0.7399023890263874, -1.598664423725482, -1.1108179331569676, -1.4660414069791425, -0.9790976216545808, -0.7793693974492556, 0.07119427503391866, -4.029592903475486, -8.73615837911041, -8.717127460570838, -3.626737408060297, 2.8479682290301263, 7.10938963867237, 3.6798841252173853, 1.7835092491633773, 0.9655420856640189, 2.385726850890652, 1.2270223789087387, -2.292501035354075, -1.2124890582012053, -2.2875528987227063, 0.053281088932007795, 2.1115441541010536, 0.04278679009986926, 0.6756559507288342, 0.5910085710761263, 2.401964428044299, -1.4362650530217658, -1.142930497488488, -1.9419922227908148, -4.122908818354433, -2.913867368884695, -3.007966668631311, -2.394962049229835, -4.525801289292232, -12.454295126547096, -17.844627830244953, -18.327188820667494, -10.40793441542212, -4.365912746774887, -0.09154029064627829, 1.0742063678632583, 2.78705389534966, 0.8798773756738688, 2.791374173633839, 3.015348952285631, 1.227263367359701, -2.669321275854058, -2.775620906766323, -0.8407018441780868, 0.8955021719018258, 0.8751204166858196, 0.7206557761826203, -0.28422048079868867, -0.7889993660536382, 1.3134077705153893, 1.1620682996502314, -1.3693448346158585, -3.010339864223365, -5.44881877683681, -5.72248229759668, -6.278359338882415, -8.688954477378301, -18.645580088648238, -26.824427213244608, -23.81718294686381, -16.168727680106546, -8.300229785226266, -7.798885312139308, -2.0423682857570427, 1.053387485112581, 1.8577842119201577, 2.5754078233559117, 1.9927402699627683, 1.8779500258775104, 0.19662346607882483, 0.06630104020988045, -0.1819718614247203, 0.8899789021669081, -0.6045087215503645, -1.1585507876470391, 0.14539816194665403, 0.9356820789105189, 0.7014841557403754, -0.7435631303574507, 1.3196850170390217, 0.4130880178942597, -3.336418627616839, -3.6354682700808487, -6.013202333309413, -9.217159925767128, -20.42643513173368, -23.293425472354, -23.322096054956067, -17.74727798928936, -14.116325566632113, -7.605365692149158, -3.6971242151237584, 0.3056760152431497, 2.844773744585243, 1.7749096396478552, 1.4798481569143984, 2.308644742270444, 0.8094466430679554, 0.23824454684446056, 0.8533015522235452, -0.8240019088657496, 0.2177659280389705, -1.6325517919019616, 1.2950153095527668, -0.12042431680675775, -0.5521084743623818, 1.4009320516998187, 3.7040132558815326, 3.4100359952525894, 4.426236275540289, 1.2003082556241202, -0.9165097888316746, -6.620540454111658, -16.006942340851776, -16.03569448269369, -13.751174914863432, -10.72345624940991, -8.300464377957937, -3.1888379380346485, -0.23026733637499003, 1.3399815597934557, 1.6436598101277018, 4.092033583623687, 3.080838497939849, 2.6061173037955543, 1.2372011842254897, -0.5542961840592528, -0.7127842235583027, 0.040716150480050596, 0.40159686396306776, -0.4355432786133978, 1.7153470885983462, 0.16561563387918743, 0.28556520824516024, 2.8372449432385065, 7.760703637099154, 8.576240666170001, 9.04784448375696, 8.440201853000138, 5.107298032791355, -3.242352234933138, -7.564778410524364, -7.057265293549125, -5.931431960234872, -2.884458249154481, 1.3770404532520073, 3.2649505244886594, 0.7105814933828853, 1.2668011328223967, -1.5217511387341898, 2.54029113865986, 0.1893549690616332, 0.8447529315218447, 0.6511085620469768, 1.2724874024151156, 2.0174546785290666, -0.9548166255205189, -0.2510909923905542, 0.20450024213405954, -0.34969990042912436, 1.3075366210691965, 1.4710574735716146, 6.094590801310015, 10.57971960042473, 11.161380318210693, 12.590222671510375, 11.562631564468075, 7.539828791770197, 4.063319307226303, -0.371020609839991, 2.0347936968235363, 5.450453052130088, 7.192953768627782, 6.106031839352258, 4.675904312982081, 0.6481092728681732, -0.9743504885415777, 0.5180811555237789, -0.02092453864637181, 1.8016660986052826, 2.6518444319913668, 2.9583618044761133, 1.3391418721681867, 1.3200677947032926, -0.24337364334839273, 1.0814404018879078, 1.9105965046609872, -1.3468549719799863, -0.15439976061026556, 2.0202324972888093, 6.286083352430528, 11.460811662990487, 10.937398149590475, 9.832898234880734, 8.578337919939285, 5.5980403705370145, 4.276415371710779, 5.424089850219444, 8.329248643292903, 10.333508366786026, 12.423267576643902, 5.852855676770518, 1.4638486900371863, -2.9739102299426383, -3.4020309718896704, -2.2505766063844668, -0.2817901827405165, 4.113894694541199, 2.0504829172411982, 4.771247087203143, 1.9748937780283826, 1.9884540557155614, 1.644266571271562, 0.5163982032669472, -2.395684839460751, 0.7585478764099092, 1.3656557675511056, -0.7940167683407917, 5.599463532000193, 7.721948990207557, 7.541473487564917, 6.858508820851636, 3.91571332056068, 2.595726861865698, 4.1998584635627045, 5.700127863170184, 10.050674720409253, 10.774120024114694, 8.4666725551268, 0.18275699647987456, -2.2607205206214194, -6.1149751837517305, -2.9950977961814655, -2.529170922533765, 0.79415534032543, 0.9346222295900993, 3.8196502922470756, 4.491580888937874, 3.044880929212064, -0.1115839934860565, 0.13096690977977798, -1.2736274495431976, -2.114187579744032, -0.5872860487152545, 0.40578771012523185, 1.5038233620310848, 3.5837331898167744, 7.085490996923491, 3.0979918855592006, 1.8333178767067821, 1.3546532127553623, -1.1745961748209173, 1.7452159193170986, 4.688366476718068, 5.984981051616401, 5.49937406874603, 4.098616048245784, -2.038717893647797, -4.110667598965196, -4.461395310651015, -1.2406999033405175, -1.8568352544007092, 2.233292668785725, 3.929233355477438, 5.759926937689094, 5.574551723085679, 2.4074399303832243, 0.2858490847698109, 0.5407114983411562, 1.170663028205436, 2.258107952267798, 0.3101489373728609, -1.459064474206207, -0.953369857430204, 1.7671984204084363, 2.4288287374026027, 2.5215053903581013, 1.2629819347531968, -0.9169118629429952, -2.3593622091012825, 2.1990504350169426, 0.3084968287791251, 0.21877730323953123, -0.921918592660962, -2.6376606540381298, -5.748072304898262, -3.24094680756827, -3.028704493698707, -0.36767062464279443, 2.1574146493085027, 5.940497852933227, 5.2224152000104915, 5.902113086437263, 6.123546242950261, 1.3592813218801891, -1.651261617240505, 1.6154139834542054, -0.17913750316899493, -0.9830085679080225, -0.4414030448880466, -1.8817290914394278, -2.6686202602205302, -1.1207460059507874, 1.3435377605016272, 1.0822829526952704, 2.8353270042200673, 1.3471102269780886, 1.2739482129411805, -1.819325369818314, -2.5940782494925037, -2.6867185577205914, -5.39669824965499, -8.97308645374255, -4.95013465633214, -3.75040974222215, -2.1912189179297954, 0.6608026837483973, 3.136200632864306, 6.397697152277373, 4.116911581576809, 4.2493347435940825, 4.166224614354663, 0.8047424596150745, -1.0213194638625798, -1.1763797395612916, -1.175086213641333, -1.0796848950408926, -0.03492671095663602, 0.13739301424067304, -2.5164628254845294, -2.3235391619422767, -1.6921428022292422, -0.06193002919069477, -0.7968974181796806, -0.7057400959473558, -1.8819729613012302, -2.671162512284612, -4.3445144547415415, -8.26201342646059, -9.041647081806738, -8.10057113677534, -5.6045472975282475, -3.636273814895327, -0.4499119488623313, 0.03644443633662753, 3.1700217788058267, 4.37702820501109, 2.433693364747896, 4.112393281340326, -0.6239075447490231, -1.2041224552825276, -1.0534517556985077, 0.05364995203729691, -0.6943513641907604, 1.1885902531664763, 1.2586903977668975, -0.700209036439091, -0.13413409707494373, -2.8714315155953205, -3.383284536954404, -3.038946921662893, -3.3875098683376654, -3.966913966051119, -4.80832197677009, -6.105005008071973, -7.845189089649733, -8.647786080986602, -9.250854020004429, -6.420564373906687, -5.561893885229995, -4.105613031916545, -1.1232251548423304, -0.6207892599898833, 1.4337200000676569, 1.7171946744933657, 2.251927755613417, 0.21864047837937667, 0.26886838062616397, 0.9049533089769407, -1.057034497589313, -0.9463723713515636, 0.361495499718402, -0.5961349388585516, 1.5144718427343533, 0.4126076783787949, 1.3842505083159833, -0.8674747414234716, -2.301005435977376, -2.9702441018373844, -3.690148497977978, -7.018454357654564, -6.483046151066883, -8.212618656518575, -5.085126223260243, -5.940267594267695, -6.557115368457813, -4.6612810630449255, -4.170460033069548, -1.0040933043063824, -2.0534914492692495, -0.19037546856212081, -0.7801716583213212, 0.14668411736548892, 0.8747150138928418, 2.4825216040759877, 0.9388693426788585, -3.115074073073768, 1.0400168312589928, -0.06268050487108634, -1.2321136394529433, 1.6230482457073923, 0.1619248078408941, -0.36780047651796177, -0.4225702648597668, -1.4998286452622636, -0.11573153270318423, -0.018994106658631382, -0.7856316017500685, -2.6389402799922697, 0.3353209423810379, -1.280073938724525, -3.909160227362102, -2.4848364075023492, -0.7467464320521201, -1.5152831104575146, -1.7791531384127857, -0.31918960430244875, 1.8125707390202241, -1.7967431106761833, -0.4603260024676255, 0.25862252443146705, -0.49943117568303325, -0.7325059478172333, 0.6545527427457257, -0.6697062326099454, 2.7576393107583765, -0.952142827557682, 0.6698021935620883, -1.4649978544518267, 0.2879897234299848, -0.7086099346288091, 0.573452542735497, 0.17019303823929274, 1.582774301841649, -0.2351318268336238, 0.7086054542754399, -0.3388033768707861, 0.5510174118561871, -1.520225611623532, 1.7870879430148572, 0.26002839953603646, -0.27978812706878176, -1.5312640131045976, -1.2620491198183266, 0.15423512788188176, 0.19776992329003729, 0.7062828520648854, 0.2709627286254702, 1.161502046166437, 0.5519871036166557, -2.5383744342657315, 0.6094499503383443, -0.7013753989830486, -0.5116721882675246, 0.25552276961937354, -0.3649996166789367, 1.4859309142866082, 0.04953316895641469, 0.7645225117421236, -3.161924671010108, -0.014444396816923936, -0.6086188621217034, -1.8758994455873115, -1.85809384263845, -0.5127686679371437, -0.44284481203088216, 0.6274853550479867, 0.5537491138713002, 0.9811661319899654, -0.008739583150332273, 0.5298752463119693, -2.7833075354926233, 1.5977444864363677, -0.9386963454496854, -1.67216997642976, -0.3276535744458251, -2.561301362158764, -1.0644520083389284, 1.446019069696556, 1.6780239228697453, -0.878862524984613, -0.2734491919721052, 0.4525721102497656],
