0.8476666666666667
[[0.09003204611570685, -0.5305586027126644, -1.6063538616304431, -0.11099730464818039, 1.1376448295244919, -2.423887548389146, 0.9654581570119731, -1.122601717323491, -1.1360399910285568, -1.022965055115502, -1.4991914596896059, 0.12251914047543008, -0.7007584693874875, -1.6947115858316155, -2.1355420690624793, -1.7754738314834788, 0.7575872289047604, 1.6849394900915404, 0.2650007738550665, -2.4301767980148314, -0.7189152381372463, -2.178026544499844, 0.5635348928574276, -1.0996039318414026, -1.328735605976693, -1.0053367056229774, 0.07299143206617972, -1.59111015180245, 0.08159513405086297, -0.7240339859454814, 0.44525363322990624, -1.5789881604213818, 0.30783542128208324, 0.4207157076976304, -0.9674534050940483, -0.04297387326629126, -0.88897129273513, 0.4708225581772995, 0.17836694097756756, 0.14553644926633616, -1.4444239493573627, -0.8574055708636762, -1.5631881843774988, -0.0592024548179755, 0.018710155383909487, 0.08318660943191876, 1.6393832930726646, 0.6649362778976238, 0.6046724552161915, 1.6255804075843343, -0.07037550780490368, -0.06453521187593275, -0.2160896791437855, 1.212852765339376, -0.3294241105259353, -0.32257012295774745, 0.03977094114567222, -0.056843472237036785, 1.2971301748879027, -1.3717860399582746, -0.8010000405686696, 1.3974992396921084, 0.6055134632143709, 0.49481645777848404, -1.2584028759934405, -0.021436105669992142, -1.4237161308140982, -2.070586437176012, -0.44982284338234824, -0.7940998131842566, -0.39112075447673644, -0.1498648161025153, -1.2079330097904353, 0.8314582695904952, -1.321892998752297, -0.19006998246951595, 1.8798979378164955, -0.3130542054710486, -0.5065515888688973, -0.15219634706531276, 1.4452244156888654, -1.1287681447578897, 2.1198676419605955, -0.6925236875439811, -1.7950080470132397, -1.3462119631171647, -0.36285611890028796, -0.478135758360091, -1.709257382182569, -1.5396967522460345, 1.5971643792353312, -0.26288114489464526, 1.1328372498306851, -1.015501505628413, 0.9484966517874786, 1.6451410580725205, 4.016170831232543, 1.86955332411727, 6.044655016959098, 5.018026348499959, 4.079467126037312, 4.235532617476841, 1.1296193783478223, 1.5207331184951638, 0.5906877200477829, 0.03738279352187598, -1.2755275541442064, 0.427014047587826, 1.2147643610049268, -0.7672537364099135, -1.0393949020222994, 0.475361731780598, -1.1956743835508048, 0.5920007305924702, 0.9333006182597778, 0.36432390188622216, -0.23899920241036549, 0.08785890047249097, 3.902766919081449, 4.313484890993639, 5.458568210059264, 10.476343583809012, 9.039279483114614, 9.286137187778758, 7.02378891967332, 5.570097064062655, 3.8083108353615183, 0.24693864669907092, -2.1653935245706513, -1.9538754785604984, -1.8544185605270236, -1.0268134565420066, -5.268944467615648, -5.84742641657076, -7.170440195263708, -5.294904847719144, -0.1182447366236414, -0.35270196966718276, 0.3445924983770654, 0.39154427539315184, -2.0729007218564948, 0.44649308678275973, -1.3391914687004227, -2.3698307582925286, 2.954714195216557, 6.000514356122086, 11.430009929012733, 13.29547813106173, 16.751283302776823, 17.033216402208346, 13.733034420386359, 10.808521374232985, 4.24439031960249, 0.6125101613701329, -1.9769105417849775, -4.019073302608994, -5.553155089407632, -11.353917652451404, -12.380249494440958, -12.06639090222566, -13.219566591750677, -14.259627996494306, -14.486324549157997, -10.690153894945727, -3.1423879672723163, -0.6517521366269313, 0.8345969359640054, 0.04011178753528145, -1.696890395261494, -0.42553565637079216, -0.37819205500659725, 0.5182227580876143, 5.12975038063575, 11.368910355361106, 16.39751698886414, 20.280289215366164, 20.13356449879623, 18.128306557183368, 12.72442090022902, 9.477814185126375, 5.766561773455417, 7.533916837552073, 4.551985149173825, 2.7771773589051145, 2.73105362105196, -3.1113701012050883, -5.94285785077677, -7.803528606884837, -8.642754957289467, -13.579434155956102, -18.026088966456275, -16.47364370857044, -6.283329986486857, -1.6041453353542203, -1.0666961674199182, -1.3106376380557008, 0.36772891372692423, 1.1683987991678677, -0.33512922240902704, 3.0947766168143076, 7.201091418711281, 14.585693289622732, 17.737565054975516, 17.179657389041417, 11.195032521419625, 8.710038270516955, 3.4498948990781506, 0.8223990871273523, 3.2842834027789065, 5.437795903013094, 6.290727890193658, 8.757258022186475, 4.763121081836228, 2.826176042455946, 0.6179563694308476, 1.513829421453591, 1.457730573506529, -8.141508055509956, -16.09482949115142, -21.16733218263805, -13.899537160106533, -4.464125280512021, 1.480265466406351, -0.1788374840684199, -0.8244036252100013, -0.43682286995519287, -0.7765850961219627, 1.8225696439408245, 10.187872754339368, 13.718034023165643, 13.200378275107287, 6.205196383529372, -0.7200879802311595, -7.432528314950104, -10.261513731039063, -10.7510091596942, -8.74048112665889, -4.943495779716309, 1.4410282769189977, 9.500085826227366, 7.8481429493630115, 7.837902665527316, 9.028377619040318, 10.822742575514626, 11.151762822366402, 4.405541653226394, -11.393484273145459, -22.06831005182146, -15.844162222685753, -6.71196273051179, -0.4107448456776828, -1.6080160779483712, -0.8808683531461469, -0.12829776201054227, 0.07125188514273084, 0.7636283133105116, 6.547597078712608, 9.129589959562004, 6.036393026852553, -4.0769609108268225, -15.649928729925199, -23.177209168111055, -29.078356670503776, -30.55108191875007, -25.29908498543193, -14.090184673893235, 2.5517232558800136, 17.226905352712105, 21.089008104490187, 19.828044755914647, 17.43810725338912, 19.490468061903353, 16.464453085593615, 4.58279709983381, -13.253193605249841, -22.759035269844645, -18.45295161504389, -6.744451629131662, -1.593724760333988, -0.26326189031151087, 0.6122135780480809, 0.07191729609259709, 0.6368044046135609, 2.314328843478409, 3.681735950017248, 3.497669545819145, -4.140349708043287, -16.987330350338638, -30.343040686187315, -36.93879284077789, -41.06858734891248, -39.94618061428415, -33.16510822013154, -12.204579325410343, 10.139959475151988, 32.76358045972716, 40.24044602224743, 35.252202636397726, 27.002896711871575, 24.008193386003963, 16.294271335741286, 1.6289722952503936, -13.582251433037195, -20.995329587194718, -14.533215351311837, -5.423778143908929, -1.4865993489718163, -0.021470319549319373, 0.4104421848205335, 0.24194031903517402, -0.3937092302662623, 2.260628935205158, 3.676227222746647, -0.4908284291356932, -9.475801016763793, -24.932572445168294, -36.29047133031628, -40.21505661437941, -39.623508687910615, -34.53329042446486, -24.433216685113393, -7.002588946859551, 20.493361202474134, 43.826815262329106, 47.911777665776164, 43.795468500172085, 36.27294970828023, 23.189753368011107, 11.986892601165922, -7.173023546510541, -16.7933998109426, -20.42485716283177, -9.886462002460247, -2.605119505876209, -0.6232349462395403, -0.3402803354376321, -0.05820122803314624, 0.17774911703652682, 1.015641380238399, 2.0021205276907845, 3.491188324028766, -2.3687301843336934, -12.82174800492704, -23.10246580204514, -27.582993031163348, -29.29144663013381, -26.47166810485119, -23.858351259309863, -14.47953002451846, 1.6570449852466227, 29.816650039412128, 42.25119070764792, 47.50441633044712, 41.15619941772453, 33.19222394726836, 19.315851969214826, 6.7044764431261505, -9.972642973106664, -19.140323347718795, -18.929954489610168, -7.848366737619494, -2.1941283035756634, 0.9834168633874169, -1.0971660666021412, -1.0595633476434434, -0.5408726416882174, -1.2688074065881196, 0.901348794566209, 3.131384425694991, -3.9127338827417644, -8.415299668902332, -14.610954211516598, -16.819755798122767, -20.597476950935786, -23.511974848863307, -16.912351033052374, -4.749252200460292, 12.377039424148183, 25.46944166570631, 30.592294399614286, 38.054620494014735, 32.950770098940794, 26.665170915371576, 19.640110730255337, 8.345220396148543, -4.882179922547088, -17.794038229037355, -19.875138084321783, -7.7867935722717165, -1.9917133372356133, 1.651698610002748, 0.09526915168546086, -0.4847467723923463, 1.1627504533404684, 0.30761785676890707, -0.0025652734690461603, 4.721199771670458, -1.5005041954679754, -6.484213868390749, -7.062204949955851, -7.79437247718332, -14.26541904435867, -20.480927447548588, -11.879240173036262, 3.1391912027731297, 10.699312875817926, 19.240108846117145, 22.061653507752848, 26.808231868135287, 27.88403201119301, 27.08142796428668, 26.833926220703038, 18.040450890545785, 3.4888433237972154, -9.968631585750762, -15.342607682135483, -7.88380551439616, -0.3000579994409904, 0.69448050533068, 0.00961187885633848, -0.7735558919627664, -0.15693618000637394, 0.006388070437108067, -1.15511618502893, 4.261004489798207, 0.4268224828714266, -0.846117310483764, -1.5589718993370072, -6.274184184694272, -14.469214635389946, -15.842627714283616, -7.583609691023361, 3.3643667327386613, 11.785430496417328, 15.639782120081296, 18.048458402007107, 20.38519831339138, 24.300965506404882, 26.24190127743107, 28.805597595663333, 21.52727358974519, 8.180288112488979, -0.36285235056888293, -8.152350490091651, -6.12501546352718, -0.652779684603021, 1.3639834482803546, -0.4654100945298103, 0.004153720443997253, -0.19199391904893895, 1.7784389363259405, 5.003148315861207, 5.619795367559114, 5.93232641621695, 1.9363120609992437, 1.7485650989438684, -6.757053448080022, -14.94098907542078, -19.29040820582163, -14.438726573070335, -4.010579575772157, 2.5320708211098837, 5.328012990287222, 8.985282169755536, 13.468942771620592, 22.286810984181848, 25.394633065878843, 27.12927515038171, 20.208038477305475, 11.364801019803352, 1.5785767261157222, -4.527319515055487, -0.5418632780861908, 0.4505898267067535, 0.21472158545311554, -0.35967951670749254, 0.13522152305315094, 1.392895124831487, 2.2287322388427677, 5.878297406490618, 8.31829036469331, 5.884896143949561, -2.0034939730039603, -6.4261639942217075, -13.895624138138288, -25.450219069708197, -29.731702663420702, -24.564173268747016, -15.77033501778432, -7.46829651541529, -3.9913666774035583, 3.9243759063345087, 8.696404699666653, 16.3321141638512, 16.239517832039464, 17.852851559755923, 10.004392947144495, 9.304108636514162, 2.912632246701809, -2.2183841753930853, -3.5726636009571613, 1.3053187248237539, 0.6720176240277188, -2.1177447648274446, -0.70516084910282, 1.0830032407752368, -0.8106932991090088, 10.25724937952935, 13.69749309597775, 6.979518015565001, -4.426509793218909, -14.062539369886805, -23.251176657774415, -32.70816450449128, -37.80507728675883, -33.84500826884066, -23.594565324671535, -12.601806677197033, -7.6396642004242326, -2.276137853266933, 6.714401546663886, 12.369546082763584, 12.428888856620492, 10.816284963593153, 9.298555766822423, 6.38897774860361, 1.7089355483269273, -3.2928795172706007, -3.252681836079313, 0.12723877592309224, 2.5074868372391594, -1.8964707177612812, -0.7778683441030503, -0.6001391209646546, 1.3923140489957422, 12.219727879023498, 16.149707779815127, 11.933337507601804, -2.0412046790058027, -14.902671414949268, -26.429919236066162, -35.02711809282255, -39.74310471505856, -36.99868036370406, -25.767599508822194, -16.336680766586245, -10.425006593537724, -3.861948120106998, 5.991320768514122, 12.015678179374175, 9.946917236241616, 8.635920032464622, 6.323767292448612, 0.7557986150447341, -2.6776484765521857, -7.984846946938604, -5.650753163600921, 0.5272892516962085, -0.06355119185198044, 1.0864691963592044, -0.9911787290096316, 1.4755633585295946, 1.1358632481374729, 10.810647598476134, 17.736949062798754, 15.049682067763477, 2.426549034511797, -8.087931560482497, -18.082279870662994, -26.2277145120351, -32.10271821764954, -30.705027069267604, -27.283332790627792, -15.121491517532524, -9.585235828922908, -3.529415131329135, 7.033543555076964, 11.698059989055897, 10.102691915623046, 5.515413789665572, 2.9256386320171086, -1.0323108057617534, -6.778421992876476, -6.944532321235533, -1.2833125611718819, -0.058034566868731416, -0.4526396292696713, 1.639561183664547, -1.7465402418245513, 0.5817550770977473, 0.5114761854534977, 8.580854155616763, 14.797490423162802, 13.831451092189619, 9.10984436740554, -2.609936222513648, -8.193080490647352, -15.43178137201688, -20.443913432154446, -23.583352734126315, -19.66142498095345, -15.069668005559802, -4.740081414140819, -0.6838112888722705, 6.275034964688653, 6.865623227530265, 6.341570537621709, 4.232824970896629, -1.4836242000977369, -7.157898332799236, -7.3624828494158825, -5.152355347723541, -3.753955663761669, 1.528994939583136, 0.33956132834245484, 0.20329298893286232, -0.9493344668581332, -0.9837871449498826, 1.558048193717525, 4.409434940444213, 11.136887662827304, 16.59260791687541, 12.985849280731253, 7.684301826218711, 0.8508637780176033, -0.03860645169169421, -4.574241919699949, -9.814747173192941, -14.321998639094739, -11.872146159668464, -8.4942308345805, -5.3794147326837845, -2.635335085309841, 1.3664716217747503, 0.9682964722092953, -0.8577744658674205, -3.2196030913101787, -3.760714423163571, -3.473790631420233, -3.9747860937186976, -1.2240053259796178, 0.061124074857089074, -0.2671791638943637, -0.7292379238725849, 0.790265865200408, 0.6317353405245837, -0.07202585736631678, 1.9482524497809308, 8.247563461870236, 12.3214474136239, 17.474485293793244, 17.352212297181573, 11.86483712412182, 7.699666766133257, 3.854232184337366, -1.5256156922953092, -8.827937698919689, -8.316476159969207, -9.708141132771647, -10.192103771732647, -6.796291029640664, -4.885500029708859, -2.4588743907360566, -0.3233270223589141, -1.6774989128470295, -2.179228138407428, -0.4104615094309632, -0.8134060414893902, 1.4702153384392573, 0.880513536334613, -0.35564077256466997, 0.34439775890347857, 0.0632535989260899, 1.8133253011782036, -0.2203189972843772, 2.371212304799016, 4.595672618019094, 9.49296110847773, 11.13312592313045, 17.191276378183318, 17.353239047014497, 14.94256467627764, 14.229903063795785, 10.822672030968151, 5.609765141119626, 4.266259718545274, -1.345774159465941, -2.0286269112186517, -2.2615393209418677, 0.8535047329636481, -3.919960932718072, -0.5000726928299927, 0.9409788614018496, 1.7681745767196144, 0.773261867228739, 0.4899405146481821, -1.2653322511535032, -0.8687303622355844, -0.8270930926580147, 0.18042097062930967, -0.4981140195579685, 0.011989134187667477, 1.2189425482960599, -0.09295476170919904, -0.7218248260536566, 1.8340240939637922, 4.6805403655603985, 7.002328458466329, 9.976537880408992, 10.450227814848802, 11.211907674192865, 9.458898471345693, 8.650718378896716, 5.193352349969452, 5.4151248733516, 2.894157082837124, 0.650570157091826, -1.005933986286293, 1.8261931625657852, 0.03345080003649401, 1.7539850941739097, 1.4847414914253505, -0.4749613747931464, -0.2850706985177225, -1.773262167062933, -0.17168765744456332, 0.25078681710046946, -0.08521080111592533, 0.8167858099768379, -1.4982749894642446, -0.24664190797798485, -1.4033906806538543, 0.5078985042884903, 1.9286339871487657, -0.7263938746332961, 1.5357148200098623, 1.5052931541008003, 2.0168470615580256, 3.1162148239009024, 0.9296292476248101, 2.269193964684404, 0.22535504501100923, 2.4488671210096067, 0.5049059183306859, -0.5333161305995396, 0.8630696795523257, -0.12633482889445305, -0.20109949657349804, 0.7999393582078864, 0.9478639101151716, 1.223660705166807, 1.0563889170955367, -1.0300684883646827, -0.41598108331331496, -0.7938603407018464, -1.5542721860084352, 1.173523890834997, -1.40328805379964, 0.31720243090670713, -0.4733256458440852, 0.4854279774598844, -0.8661983041273976, -1.1956051999306425, -0.4127242704783375, 0.42718701793268576, 0.2585134129554084, -2.391345917609033, -0.32509833862747933, 2.237718522682287, 1.5783751448515186, 0.7755621568970399, 2.1267020122412443, 1.1703842164871943, 0.9734768596252816, -1.0129151016030955, -1.2167459224117354, 1.0223260741947344, 0.45116686008802587, 0.13420345944269352, -0.03112902869569162, -0.41975600221997755, 0.6485602491913286, 1.1953071268985072, -1.6746155714940514],
[0.9060760353341409, -0.6413410856975358, 0.4142187879695452, 0.00625414078699586, 0.691823814661157, -0.914428807321517, 2.2625826884202054, 0.6481577356652922, -0.24183999127867464, -0.8596364510023335, 1.1638983376600263, -0.5007007464362543, -0.08616961917101187, -0.48164371424062546, 1.0540877985173416, 0.6496736210444171, -0.824801254658042, 1.1269948162119996, -0.7932619132888027, -2.142864363194474, 0.42688514397193555, -2.0283995830052874, -0.4098155447353089, -0.035817532968591616, -1.7854494002338195, -1.4697266548705101, 1.60645631484369, -0.5624011643293836, -0.979539224896441, -1.9200978173592427, 1.528718584484405, -0.4203649802467811, 0.2210442076478168, -1.8541719701456574, 0.07673293248127001, 0.2175579965219133, -0.7078518550401096, 1.01193830135316, 0.34761580312392126, 0.1743805347606305, 2.2283773990819458, -0.30901626348411265, -0.7135919021508778, -0.31536489129331374, 1.266445791184711, 0.5415865741351453, -0.43721035713898637, 1.5910360578413223, 0.12584718335280606, 0.6707050177530597, -0.6277767796911661, 0.9486567739860099, -0.4436573281009089, 0.23294112970775213, -1.2669135467469503, 0.589071438161035, 0.2765597868699192, -0.21304375142687398, -1.0221245669991461, -1.6528377833295405, 0.28829771710245516, 0.36642559183016393, -1.8651655806805927, 0.7560494842551395, 1.7906354909393427, 1.9735020803706318, 0.6937717741454028, 1.288586414644064, 6.155287286708185, 7.204179075024995, 6.597251169553706, 3.029650656738271, 3.016983654804885, 2.320673959714776, 3.7391865376195006, 2.6353103625788954, 0.28532510419205204, 3.042109334815135, 0.918248508450899, 1.4515626237366284, -0.4979834933058808, -0.07673762793762559, -0.3935272380073332, -1.2824445569166898, 0.3069538746553065, -2.315426598849834, 0.25051423720365185, 0.19381204286345072, -0.6530461906909837, -0.7010283503249277, -0.05481267954424902, 4.07599190931605, 2.525072637700122, 3.209739729398369, 5.647768495768143, 6.457461135292525, 6.941118338096874, 6.9404813556215865, 7.717733164298652, 6.94325243593013, 5.681314941492411, 8.861168088305783, 6.100638038974164, 5.4471638613006945, 2.635499767918618, 1.570069123248824, 0.16571357445164805, -0.8731636684917896, -0.44174754197612043, -0.829847196502057, -0.2208586957567346, 1.8986039817918015, 0.04270020852503777, -0.12997751862222603, 0.3813430486339811, -0.28183261974134, 0.8234947916196481, -0.9601918787670047, 0.2507602413997132, 2.0011067540151806, 2.1703221048880073, 5.5534784367038945, 4.7348583779630005, 5.599912292204358, 6.536395922614308, 10.376076290609685, 9.524903322860975, 9.299740678049295, 8.019243824120009, 4.708131272251616, 3.498551879350071, 0.7279603073617117, -4.212261276452133, -5.510105419613464, -6.087180919964351, -2.163083539538849, -0.985128817336686, 0.6090628268285532, -0.3262906250246457, 1.1410516283951035, 1.0774329068449113, -1.6716947670642972, 0.4118234395525621, -1.250004760082847, 0.040183361109973, -0.7053440595854772, -2.211108857432624, -2.112923662772938, -5.426075328556451, -3.638499420341257, 0.5121064775223363, 2.273916807726856, 8.567998217996562, 10.44387326783111, 7.411713691599002, 7.764707969218353, 2.4526627903695903, -2.8272593520404774, -6.872740003233388, -11.61886366377728, -14.564442869205976, -17.092560477662644, -18.933222728244925, -13.034953527426087, -5.906602206549445, -1.2607969150339289, -2.520293079629624, -0.20877675938833548, 0.531072845820195, -3.111061125570408, 1.4515458810970763, -0.8262484193244056, -0.9842740854893558, -0.2790461022921395, -3.7601583599123276, -4.9480651088866985, -7.001295266416127, -4.901331063324136, -0.8169176965788978, 9.450328602685142, 16.230791547137912, 23.826160651402365, 26.99099443156494, 33.062158034688764, 29.092486255908234, 15.228992150567457, 4.003218049888606, -8.892918166724387, -14.074752929701255, -19.381874769207535, -23.52907110326849, -22.459337851841802, -10.593215814394426, -5.870518566102676, -2.1998389331829995, 0.8404173601617507, 1.77104704567743, 1.3309581026072483, -0.6073682339392898, -0.6211878603782538, -1.0887657380423648, -3.0092018459777266, -7.688478471039804, -8.029871923993953, -6.265037762497546, -3.5701822032405275, 2.40912652651646, 12.238108583157537, 25.99814921761935, 31.805165130480376, 44.6175209955717, 51.83261690639368, 43.427930919332134, 24.862421112166142, 10.411680596851784, -1.5913478074359553, -7.35077205771819, -16.230297030085087, -22.38958174625184, -19.647746423605245, -11.022146072822286, -2.5764496077728944, -1.860412634804132, -0.7245301556941804, 0.7801805119218018, -1.498914667567505, 0.9985553029386859, -0.5505538234999193, -1.6672145276774024, -4.921716647128116, -6.938623390526283, -7.3612408749750236, -4.717100978478997, -3.1596056006978053, 5.616403317390366, 12.834801660798599, 20.83807701228662, 24.70280459243334, 35.98329520426116, 39.92566850855232, 31.26770959023522, 14.44954661647893, 3.6960742300645992, -1.237909453769808, -2.566916647309296, -8.33221268871745, -12.834719063895264, -13.601119250750822, -8.278059656152564, -4.86881771851748, -0.768307043374541, -0.10901279422531161, 0.9492993078618274, 0.41426631677675835, -1.0109550178135105, 0.2003946400341665, -2.1053594337167523, -2.157743128029182, -0.2936181913379628, -0.1896431208620348, 2.0690540503741865, 2.50335025194235, 6.20374468793117, 8.163885159092564, 8.013831056981092, 14.890124969634837, 22.96579471009329, 22.250049126094517, 7.106737288166933, -2.0266373996486355, -1.6715119404958378, -2.335493350992649, 3.344929218172665, -0.4634300979211662, -2.2183915900217785, -3.9091948713593503, -4.1490445685914095, -1.3960387451119465, -0.5684492863946192, -0.6614106589661861, 1.025237519869802, 0.8310305944288726, -0.5785772989800315, -1.7620109554683203, -2.551658010221794, -1.4934430850138254, 2.8201373472246534, 4.508607909922887, 5.811175826598946, 4.114012754860465, 5.580119118822898, 1.8543299737669672, -0.15838145219029967, 7.762443731749659, 14.998490357400453, 4.697948418193051, -5.48056266320955, -7.266418700366301, -4.309635050218298, 3.741533764312226, 10.155538367873467, 10.59270346371453, 10.909363514785237, 8.186865062581719, -0.8770054168688094, -1.7245771974673076, 2.0215805487125404, -1.0931421337886735, -0.7163822566476761, 0.08030295851425506, -1.6913656699208208, -1.518946139015138, 0.3110406550778138, 3.6887485101934683, 7.832804499301403, 8.272899760494402, 5.5198985472033595, 3.255507310234629, -0.49168854920458466, -7.945193224147193, -5.391470482880796, 8.791874915014963, 14.502044323427583, 0.1327520040758458, -9.093882637159316, -3.992932255140068, 3.85578742965259, 13.789632098950493, 20.225920264278848, 21.323567087729934, 20.730549881869823, 14.104642767741243, 4.195331998872899, -0.7600110267049106, -0.9081257243422787, 0.13239708439404135, 1.4632839499988048, 1.119852731228011, 0.140671771281358, 0.40179362223051535, 1.4640352034440969, 6.306927439452891, 10.000888329567898, 2.450623397608738, -1.6429595596030757, -2.237936836098368, -9.237780221936623, -15.373899635571203, -8.374306168038602, 8.833911886605419, 15.540390367926896, 4.927422425371359, -3.187262643917097, 3.1460207471333033, 11.418320421291492, 16.79532523776754, 21.332467759850392, 22.371384816003157, 21.82696024911737, 16.346267536218704, 8.83906770300057, -1.9882232293510367, -0.6290699247727969, -0.7980760342541203, 1.2424695564524253, 0.21201567206888605, 0.52026966924879, 0.14025957543249912, 1.4213557996158455, 4.428766354474272, 1.6867112911645235, -2.4467727479275516, -8.4854409341546, -9.920880303027202, -16.85097848545769, -18.191884186117527, -2.037223730560413, 10.110853042644726, 13.848641280463035, 8.872592982600066, 3.3832414903122268, 2.5024492083409413, 5.376977192604055, 7.869331246012869, 10.796027252673545, 14.258170809368687, 17.52767348610772, 11.861529269955401, 5.876273705073511, -0.0790015593955704, -0.010416557163963778, 0.4638179382548435, -1.3499869038232335, 1.1846727553668337, -1.2877194261685143, -0.10719783080308652, -1.8192131165366743, -1.1353377409054415, -5.085211355502776, -12.707409879897558, -12.939822487981855, -15.973686876646639, -16.76714341604897, -12.01931913907325, -5.839550831667945, 5.087441339547942, 6.83370829681073, 5.931255132357766, 0.5822237216496052, -4.546964537820634, -6.875943676320554, -7.078749734289269, -3.432357902154223, 5.458374307290851, 8.735831500192539, 6.329115448980573, 3.0787484542834687, 0.8830835276738275, 0.19798054835221285, 0.6166455843415114, 0.6949358065498574, -0.46021840401871883, 0.4970699133461926, -1.1052234231663225, -2.640698792694094, -5.689077772159911, -11.548338782721263, -14.839113165395526, -13.647156599864052, -10.929990488970438, -8.476523686798094, -8.021256047975147, -7.79818026520692, -6.378637629064332, -10.160195231719696, -9.927877674953304, -11.085981647674307, -13.060381396380166, -16.5667879003244, -17.05757990978073, -6.684236181029612, 0.23156724389776712, 2.6850258898899595, 4.315286253099705, -1.013853556921361, -0.03738503929013416, -0.7657980545223011, 0.3731270679133756, -0.1407259279530369, 1.801441064253793, 0.7062684367494537, -0.4666245665152566, -1.9915304807981897, -6.832789389499487, -13.56398234327469, -14.859892291606554, -9.163198572983825, -4.805181995598047, 3.384996669047012, 1.8528516979203533, -10.783832799473613, -18.902331330595324, -24.396089403825904, -24.769303958349404, -18.56839042165187, -19.158608076267804, -17.796334555375648, -14.341764334562493, -6.522897500365559, -1.5078339073997213, 3.81823799674582, 2.7045910448203454, -2.7638006675076774, -2.958198959338176, -1.6589057162662153, 0.30250292903975723, -1.4133630624840245, -0.2692464576381418, -0.3784519631175362, 2.1261746592431776, -4.247182625206067, -7.880392204212386, -13.35872802298826, -11.027429014952645, -2.9092608451671675, 7.511001645184704, 13.668403894161914, 9.981654233042528, -4.805281655933116, -22.203500250003714, -28.545966810241403, -23.77442527490041, -19.015233751371003, -11.839456272827574, -8.232011076870021, -2.2398059862626964, 5.890365450302343, 1.7937405550838024, 3.772667296776984, -0.9545000358830285, -3.2067877173715735, -2.0729160646143505, 1.1029413366270557, -0.26882644008653966, -0.17873936132151758, -1.8266760284686374, 1.412109908125502, -0.5273921289135671, -1.4553995372995627, -7.008807092298215, -7.541348456345123, -3.284255604589047, 6.64253457548061, 14.865148997034881, 22.645442211683317, 16.282573403540123, -1.3299594330887736, -16.788809387390423, -19.347626989196172, -12.974784395252764, -5.897770904610677, 1.39041874976762, 8.253914305172074, 12.167066427984139, 10.0245391816844, 6.099706528068261, 4.537028114704694, -2.1957543802166932, -3.5771725761140734, -2.232619006533443, -1.2657381491625703, 0.22627973038886323, 0.8226162724020675, -0.6306093456812102, 1.154945296261883, -0.10880256436719443, 0.12398233857752732, -1.7659481741936325, -3.312312811665183, 3.867780801293346, 9.855895849859333, 18.694353702485007, 19.847088827934535, 13.121144434676713, 4.208115553328579, -2.2410902581899315, -7.052406282969567, -2.3772141249080567, 2.3188654608366344, 8.739513192134657, 11.169802193296809, 13.65062746324947, 9.275261807139525, 2.0931290318824165, -1.899533185724324, -6.780959192071143, -4.3304549927532525, -1.0244717301607706, -0.4608862594205638, 1.7128894543099387, -0.38618726153159605, -1.0664903971270991, 0.09426596718825937, 0.9760336302218606, 0.4922979794925651, 2.5213839620944194, 2.371364738416916, 6.142155234053828, 10.332324424827346, 15.169806634690893, 13.013499097387735, 8.721359058068872, 5.81346120971981, 8.404480632980716, 6.143284648126421, 7.910247339045338, 7.883665446725235, 6.116165972208427, 5.587688423040302, 6.626153467362518, 3.735803233550385, -1.5246159932056644, -3.3954024974792802, -8.06703662369718, -3.1252428396437058, -1.8434657585516625, 0.467142603422803, 1.3002340312313996, -0.26182284728445526, -1.5092983143105132, -0.23173082435367962, 1.1641753092424492, -0.8823636758462036, 0.5367533439232964, 3.326452304687341, 6.732948627138297, 7.8483342271449885, 5.122133017722341, 8.763101158885606, 6.135363701365725, 9.916376861355475, 13.535406142342516, 11.045181065173626, 7.6530232377831275, 2.5133980772933824, 0.22993085849091865, -0.40990887060482345, -3.843396886470494, -3.2872492045363617, -7.4506709444923525, -7.2607583348792915, -4.460638225914839, -4.877250396334369, -1.026214695331251, 0.22282104054063298, -1.9363655976441605, -1.1631914514332802, 0.49142757540978266, 0.9686636300958975, -0.2764850950607015, -1.32227460285828, 0.9496804495827218, 2.4616451823011767, 3.964979938529934, 5.316107747444874, 4.641561008005446, 5.784319652366295, 9.111357605297922, 9.739698845054708, 9.05383472178541, 4.664863688395081, -0.2973802853228833, -5.274064758513653, -7.139622315395085, -10.911794513051566, -10.330789789123523, -8.511098520168398, -6.369240880592656, -2.00746410951183, 0.336260273975753, -1.00127338747637, 0.8965967022469632, -0.20307915106824487, 0.8019626087392283, 1.7676195977792417, 0.9681452332970745, 0.36246627946021803, -1.8585895702349728, -0.1935784189238782, -0.8860111012247794, -0.6359249746947122, 0.7419064498401281, 3.419098834363406, 4.9101320052560125, 5.456662482376303, 4.54829655939731, 9.13619938173575, 7.527213935032499, 0.4300054392278348, -5.658329987930327, -8.64509205547397, -8.163806816748037, -7.754982729630132, -6.687511406977308, -3.2551269266727494, -1.0049731195019573, -0.04729852426565687, 1.053360399521463, 2.2346533285351846, 1.2438400566123082, 0.027288555120678203, 0.6065457997760244, 0.1903428582987666, -0.6747175202270889, 0.04761169843041745, 0.08657985293409498, -1.1207146740882148, -0.272962965359763, 1.7062060408636772, 3.7486795837846483, 2.858005738291502, 2.5921556268619534, 5.38362721150631, 2.8286284589307193, 1.8696300564991724, -0.46104040769961757, -5.265171427098351, -1.4226629912911612, 0.7188677658975153, 3.779918985663324, 5.944049046690835, 8.046270823629028, 8.711639371851744, 5.057482069400249, 3.210346202159706, 1.0423893889581886, 1.9690546976262857, 0.32934500451160464, -0.760141242049742, -0.18280008496380015, 0.5097766759250095, -0.8558483413670909, 1.8571563921150156, -1.1065086356890261, -0.7337405848686882, 1.3509183927876833, 2.348459608454569, 3.777139786610197, 7.882495713808069, 7.080136236819994, 9.184237173483927, 10.54165334155456, 12.155245018528404, 11.00101403418516, 12.47551854097845, 10.928637107034781, 14.751852781053184, 16.634438629946988, 16.59224118410885, 13.986176111131353, 11.23366880885944, 7.556034487750447, 3.7963341490009945, 0.2984687936638714, 0.4150962288830424, 1.4702907019776323, -0.6614356651614397, 0.7528846063218767, -1.3180514734016302, -2.2494513299457912, -0.15717663318794606, -0.3583412109285811, 0.6346798396740302, -0.6057365050208552, 1.6862114533448638, 0.9145692216624781, 3.2189762797332286, 2.3684376164859637, 4.039660339897314, 6.34773760289813, 6.832387761157205, 6.138255470497276, 8.946584445293976, 5.205942831805193, 5.208230481049221, 5.723908623489154, 4.566826852677068, 3.099352040141336, 2.6382493144688435, -0.4506406073365997, 1.3268279014020044, 0.8275521097096847, -0.3092517144992955, 1.743679344068545, -0.15459569929755673, 0.8862390307471784, -0.97607637837328, 0.6137018083027498, -0.06624557691309264, -1.022437530660392, -1.9443805802946592, -0.4959096208620717, -1.1959830364570525, -1.4888553088276344, -0.2648816798157258, 1.1196990861329394, 1.9356085623610322, 2.2611506122535574, 2.5365023215535265, -1.0877049263562446, 0.508491175446815, -0.7683076118145518, 1.3716633107743204, -0.795322198940996, 0.2776113879568133, -1.9735930120495078, 0.19274756970612023, -1.020907718264001, -0.16742750115833002, 0.5432296838118776, 1.117352021593753, -0.4096568537610136, -1.6368309978872977, -0.702495865355907],
[0.5924490566243068, 0.06887596704150317, -0.20964251738315143, 1.3349205088058804, -0.5774192237855564, 0.20470802386495615, 1.1016059409979484, 0.7362444681409736, 1.1041541714176242, -1.7965360090673332, 0.8954075397215812, 1.6509547779920473, -0.18239725889344144, 0.7887483412521372, 0.5133224336277294, 0.36590934286124377, -2.023153859085946, 1.847070419875548, 2.4954313866896953, 0.9719862314391894, 1.1610138588379826, -0.5173580156964288, -1.076894063989652, -1.662678890219793, 1.013098019346215, -0.8614126875079599, 0.8388037226941655, -0.8803103758759546, 0.9984854878392119, 0.757246677649824, -0.5968171025606867, -2.3399289306478783, 2.1887072805309726, 0.7236578213131819, -1.3879611438083856, -0.9772214089897925, -0.3714017768420694, 0.9067102135019315, 0.8784565371554526, -2.5617299508411566, 0.4908027712568898, -0.13381300979626834, -0.951080970014216, 0.799721363204611, 0.4073757695039195, 0.13968054868330698, 0.7668176287414741, 0.4734886029997458, -1.6592816592208985, 1.1919116573986004, -0.5355176444590132, 0.42577027677834095, -1.3170035549328416, -1.1368192890574194, 0.9407930154818573, -0.1796259022117617, -1.2999292896562413, 1.6241377976188316, -0.16992734957924122, 0.5922556562589121, 0.5214121384812691, -0.49685551980428405, 0.780179838291088, -1.2831037810906012, -2.242935043057391, -1.7566060208816343, -3.7185246108550567, -3.29341626942484, -3.284069656936615, -2.431847880348869, -0.6280316726978671, 3.427337623691398, 1.6372634652909908, 1.4818497970495768, 0.41502657006526744, 1.8816172171582433, -0.26640815743011925, -0.27591209501112374, 0.03903213807735349, -1.4595176030383425, -0.8216049967395783, -0.24166087730608884, 0.15829409820964094, -0.17865121563968303, -0.0021840708730722124, -1.4705801567152117, -0.6079427086792306, -0.7342095243662222, -0.9049566704345074, -0.8027480540620484, -0.4706518688547154, -1.310930037794505, -6.813365544817905, -7.851775684089358, -12.316808009506053, -15.605963889210193, -13.700269234523631, -12.997494884470868, -10.052813555819519, -5.311568394124439, -6.898542966956878, -7.347221848228689, -7.049818014248503, -5.230527197118344, -1.8446032257055849, -1.5813793912360041, -2.3916000250006078, -0.41463641889032377, -0.18185518971120182, 0.2790924553056628, 0.22771893430471474, -0.13020986387509947, -0.2916076208285501, -0.4843145016826361, 1.0507138895588126, 1.533500729973198, 0.7188737435167531, 1.690079674668225, 0.9704009920499825, -3.042007445690961, -8.5411604126554, -11.274437337890404, -14.537744078579614, -19.223490151389473, -23.461318360706898, -20.703017359919464, -20.828125122829483, -24.007429050068083, -25.565373989208556, -23.422881679808267, -15.550799628865112, -6.571927855067368, -0.7096488918330397, 0.5575980367007549, 3.5802461511610706, 1.0904198411241732, -0.3820140834994168, 0.40962560972527023, -1.1051960231587479, -0.7102683193813188, -0.5536527455390668, 0.8203007586227273, -0.8063162837610274, 1.073073860675435, 0.038260683738866076, 3.3164024509084045, 2.405194875598848, -4.260202748020408, -9.668617478929699, -16.93504596154487, -21.51158951087995, -23.657540822876605, -26.717872999012005, -28.290945419542325, -28.313845427588966, -29.742293620327075, -37.79894122559475, -38.847535358334376, -25.89848376241843, -11.464026220776669, -2.721767320604186, 1.1195382850643016, 1.4869377099388899, -1.0899799208259755, 1.5445675304123576, -0.09299585059456034, 0.06978354754541126, -0.7891049843329336, 0.3111047945032252, 0.9624228884519396, -0.39332181890390294, 2.438315975534037, 2.352627121929231, 4.010668168440479, 1.716938953400963, -4.222399830724577, -12.33028318688282, -17.311532662297953, -19.471551474841583, -18.28478462788844, -17.30716460681257, -12.182837495736557, -8.115921397662376, -13.044960357358644, -14.234117351429253, -15.03422105496982, -8.172646547441003, -4.742267869251818, 1.3600637973189826, -0.15557108811810877, -4.347103058196019, -4.553359459625659, -3.130488031001981, -2.813027493210885, -0.06314464979083032, -0.7436186266336913, -0.18155770604644594, -0.9423844954268787, 1.3033693690860269, 1.126249579870851, 2.5929492699158683, 4.54306182885071, -0.26136251257721654, -7.150313247771316, -14.113091588114917, -17.825121619154743, -18.09318042209923, -16.72811706249363, -5.56370885678403, 2.1267259468241644, 7.702349242996642, 6.673291561657711, 5.821134066975882, 6.882518640209682, 5.248804676717152, 9.083362604158879, 7.401803723833469, -0.0996335700115821, -7.755156656058368, -7.90283356304591, -7.821644335145015, -3.7395670741663314, -0.5304369544101062, -0.17201538716905534, -1.9760624276422893, 0.6686038197204531, 1.1956502019852515, 1.3155107337556446, 1.8116872596127456, 2.394130298580806, -1.8110476490055027, -5.850527553762106, -15.655066224891664, -20.070630161158178, -18.06886192664508, -14.25129677506093, -1.6265098804550397, 5.149054241982026, 8.317893595301012, 13.972339835716923, 14.6526901128284, 13.902688950833621, 17.05975170537087, 16.618139147667062, 13.354675270650251, 2.820632740755744, -7.639809870305871, -11.47487528428584, -7.094150307714591, -4.514078682726912, -1.0443076049416615, -0.1759487391851892, 0.041341962173801296, 0.06588409056670157, 0.420056114720884, 1.482847289564962, 2.2120768639154127, 0.5234001865371392, -4.873162868371384, -9.60952435197027, -14.506583923360441, -13.491681899910018, -14.009817789976525, -10.456365250469448, -2.3318203183482886, 4.808515922986866, 13.535992061827926, 27.616859631451455, 26.34983035123683, 25.19298555878917, 22.869469445781366, 13.058579650935974, 13.638651307616962, 6.155487956061089, -5.11445264867428, -11.532434398795116, -8.984282999343737, -3.1012399094038177, -3.2722689035951755, -0.6015755127130157, 0.2550258922357571, -1.038328181842327, -1.001530589666866, 2.203006370634991, 1.510670173606515, 0.25879157050241147, -1.8990262933524047, -6.35722752637175, -7.390450057495808, -11.428388656214173, -8.940036080875382, -6.698428765730626, 3.1907902062919593, 12.982411335983498, 30.448729711140196, 47.96543821620355, 44.393628597503216, 29.13672905267228, 17.84737740394983, 13.64043292060749, 9.043942335173476, 3.3308560026280665, -5.952031839288051, -9.172277432799662, -7.414227588564245, -2.3218229087336386, -0.8948736915705378, 0.23007442053749186, -0.68967359949091, 1.4812282800634675, 0.5072800731330862, 1.146582546534335, 2.5566162182191743, 4.947001952712516, 4.23319098913834, 3.9943010104532273, 3.653800315908784, 1.937548936459884, -0.08944347938454346, 1.0277972661805703, 7.88689799015488, 22.62948980006515, 48.899634678543414, 63.64953912973095, 47.12632590161444, 31.86423833781427, 19.423496731079556, 10.206697964193312, 8.587053071314811, -0.33410698498796726, -5.2570978430822395, -9.21726683512596, -5.5757397750535045, -2.6349564405149297, 0.43627144927478523, 0.05093079738238502, 0.20443490894610608, 0.10306897388172893, 0.6423628220188491, 2.032686556137928, 5.6776276517785895, 9.41206102423845, 11.11234404788317, 14.133333657430779, 13.282466533516004, 8.453479629860652, 1.2975306538036866, -3.456980229411214, 6.696368441950655, 30.51149640642382, 59.910027226409944, 64.88245416926017, 45.00402385328428, 28.05400959251358, 13.137979944197195, 4.608507343824586, 2.1932183796497355, -0.7416921837102562, -2.7241285460503173, -7.651662700170889, -6.839991190416994, -0.8904112464030941, -1.0431247365589513, 0.1923421286854434, -0.25775665234494205, -1.4446530881926898, 0.07919354401026273, 2.1507799222559587, 7.050436538361119, 13.893096235916879, 16.647430857994987, 17.50134791303813, 13.949953056979785, 1.7449093944241014, -16.976979978270915, -23.605925179287375, -6.917179715465057, 28.43381798727261, 50.274261888137055, 50.749693398914374, 38.695607382055584, 19.057232025494102, 7.368634464434062, 4.145566258082243, 4.557317900029356, 1.3031274025024273, -5.289959123079402, -9.55218271991568, -8.171300544330137, -1.455617148001805, 0.3060523159968603, 1.2749840680964313, 0.9098063664674588, 0.6853724064987032, 0.4310882720718152, 2.56429077017226, 10.106508447571393, 12.142268458553897, 12.647336032779874, 13.270483355923954, 4.703831281792206, -12.937966818782192, -38.394256373087934, -41.15568798462017, -16.196586298543778, 13.982010483860373, 34.1956829046261, 37.30166030004727, 22.12651289851821, 2.1201750416317684, 4.025390111263927, 7.117672770109855, 5.35713188576424, 7.081814482306297, -2.635578111787716, -6.216804498563955, -6.332304612342428, -1.5968228518732588, 0.27383337140373415, -1.2299335197778527, 0.7115964310433649, 1.0061274852519382, 1.2909964483332454, 0.5754074138644553, 7.054325818774832, 5.0341341758574725, 3.3016961321648157, 1.4903985404494184, -8.383608311446656, -26.931524757535907, -47.32800758272781, -43.88908503871599, -19.4874955281587, 5.805848109514456, 22.21930594728871, 19.056694582344168, 5.835791888009361, -5.882610633952936, -0.5705046373602364, 0.6277872173833282, 3.743547424801467, 2.992982587390259, -0.5056457724597472, -8.217502525734002, -9.425271143568606, -6.655592041842507, -3.821276374303318, -0.8070655361931741, -0.4473091499854893, -0.6803615942671754, 1.442706921137979, 2.6596320474086514, 2.417635897716422, -1.4864692162651216, -10.983065476480736, -11.862938273248846, -21.648765561574063, -34.51370087186195, -44.17137414892892, -43.99271563317994, -24.463663719150006, -2.851164241746365, 12.853409326140666, 5.100287804738413, -9.313788226677424, -15.526245608028354, -10.396213120213083, -7.017731700192439, -3.2480798331604825, -3.6668028472931056, -8.511153601062874, -14.102576241564348, -12.33988972528844, -8.905505782047426, -3.1733768877943134, -0.5951941380915099, -0.43931697344326376, -1.4421346952618683, 0.05620543840044072, -1.3748797628096208, -1.4527021963392721, -9.527385632338236, -22.809916639080072, -32.10362386113462, -37.40867777189411, -42.62873602621636, -47.07537200344225, -46.22168594367966, -29.401364913802084, -7.842024031976073, 5.941119567951837, -5.259440729367684, -17.965924019304186, -22.93870836127544, -20.821356146297333, -15.510952861844467, -14.453206397299253, -14.036538241029378, -19.339563232301913, -20.64455481033462, -19.52379306978646, -8.68726228506195, -1.1200169218196443, -1.1913449863757313, 0.7513402029728253, 0.07135223512394982, 0.9277382950383685, 3.5085531813299458, -3.201086386033877, -15.370497522420932, -31.60547560370198, -47.28081809482953, -50.96486335936204, -51.94385420396463, -52.96802480865021, -46.82120726643764, -38.38038473455561, -18.314427369894076, -7.080106708711769, -13.1733266262967, -23.757382532233464, -29.947648600917358, -25.34494165352493, -18.33871412743558, -14.815628314019005, -20.99691273779635, -26.34427187278243, -30.434135377534417, -22.339876009663946, -9.018243786735962, -0.08376619782405734, 1.0003513606520331, -0.7154535303400915, 1.6282541053724633, 0.48960964136123664, 1.7616487147169473, -2.0482791900975985, -15.300579570552392, -29.91245377021357, -42.474114125337316, -50.984368507731595, -55.04464857376306, -54.2046900328601, -51.79232952914888, -38.52286380872197, -19.80514450756851, -10.83733554248501, -13.97751498884389, -18.245555378954304, -21.490594572367343, -19.6473377810368, -13.342500052139556, -22.466739411005637, -30.221800351042532, -32.048093302260995, -29.64814401665635, -19.83926057981557, -7.1423155641503895, 1.7490642211873162, -0.5324669829144392, -1.489459410655907, 0.4541222072016991, 0.026062646362116873, 3.917298444349516, -0.6693445929114704, -6.864655515511732, -14.911979359606152, -27.407654338963162, -35.29301393614467, -40.193405453035055, -43.1732766349201, -40.07307689769169, -32.67165459093744, -19.1209006863868, -8.443124839946497, -9.28268390129843, -6.402095745944533, -5.108973662582738, -11.9989363824545, -18.04555234287945, -24.25413556376471, -29.535246812485706, -31.562659465982986, -26.47571202190572, -13.644297352339086, -3.9312655430806913, -2.780960663325228, -1.2292287695854955, -1.826243035801055, 0.45109218115192423, -0.5363407725724649, 2.050919452886843, 2.9876430581460367, 1.552350342848126, -0.4403307657267515, -6.919020595049501, -11.124963049659401, -17.47385161091, -22.904544325226933, -27.29418377271129, -26.478463719425374, -16.048933865340757, -6.141994044132525, 0.7791211019268871, 2.7433230626265983, -3.319781708449544, -10.31863579563026, -17.30646369317695, -23.536877217122942, -24.388383907692646, -23.436554040140308, -16.641857478987806, -6.75297416221879, -3.773393722955445, -1.652344007888035, -1.1873139277217784, -2.2725167607038297, -0.4146863939818029, 1.043289090157952, 3.1125731527413794, 1.8981969773406329, 7.558934008335103, 8.226591472143058, 6.828250351080498, 5.179047410570422, 3.6169581329635148, -1.6008413423075118, -9.957399578353876, -11.099323876720533, -9.087632571912373, 0.6808978322160796, 5.710790800841476, 6.4959427761709, 3.045964506291099, -5.890728545292247, -10.329944537813029, -15.787217254164949, -15.729462032611583, -14.354644566316484, -6.9980176299122325, -5.409940140550939, -1.1976213388626815, 0.8687181342528302, 0.9501689218181325, -1.1197350078857495, 0.22870804844025705, 0.4943343347357236, 3.285957927896233, 4.203340515418334, 9.425191913801122, 14.893819469664201, 18.98139007417816, 17.007769791939065, 16.009656672255417, 15.909365861387073, 13.17079650796642, 10.566283537510946, 9.837799861300676, 7.002908937773596, 5.9921950651797316, 9.17434604883053, 6.048283423127925, 0.7976520973933449, -5.831552793799519, -6.404763155876714, -2.7796457454014627, -3.4827148734809885, -2.955546984026721, -2.309086787577764, 1.671307827381544, -0.008661070453593541, 1.2790522262859216, -0.04292340795466737, 0.7844495231859081, 1.2136769866596215, 1.321453884005808, 3.2214705452886703, 6.690881713382905, 10.793374862751707, 13.691247952965886, 14.754749275666393, 12.952795322983489, 11.377162780287268, 10.457152077403837, 8.030280029178162, 5.1347079565201525, 2.4493326038440735, 3.246135299506643, 4.762711321070778, 6.355822619950132, 5.023713641692972, 5.981455099016361, 6.276035885695497, 5.769986343745413, 2.9014358823463327, 0.4848864899913859, 0.7489661117551232, -1.5629853648784957, -0.8969001903292076, 1.3882128012766537, -0.284819557727394, 0.36971721934380525, 0.49999743763588406, -0.46274379215480566, 0.024683182241304003, 1.5254822912086308, 3.587841180397383, 6.8236315614089005, 11.062155787179641, 9.655043612380052, 10.394275735721282, 9.055205136209851, 8.57719809522515, 6.556049085522606, 5.352531270573695, 6.823398980130036, 5.834776173777039, 7.441757917888257, 10.060301480928286, 9.553316252210802, 7.526232664017138, 5.168347014255225, 1.4055643552128871, 1.6269451399557122, 1.2609556092846306, -0.2179308468816979, 2.3806615634434762, -1.7676436223409668, 0.5336266667722251, -0.6583513866972123, 0.16904236019599503, 2.2427380745461, 1.6759730622014983, -0.39685621558753603, 1.616876924001818, 1.1184012671810104, 2.3501150488215448, 2.8593858607235116, 1.2567892379056627, 3.5032211513265863, 4.846473430240229, 4.427553215701583, 3.3570106564547975, 2.011851771403773, 2.073576911084024, 4.527363701848393, 0.7173004731797489, 2.1954411661241346, 1.3808599035269595, 2.09813980977854, -1.4402021046708655, -2.5921719631937363, -1.0763745801521534, -0.4442276939121111, 0.815924339254133, 0.16941891322563207, 0.6845540539412902, -0.3533581993036763, -0.04202069252665968, 1.452229433554672, 0.32459756544919244, 0.29550948096654106, -1.3581479551307305, -1.8752672107671333, 0.008382441278082612, -0.6952652162906724, -0.5700120527790606, 0.4384939885133119, -1.2016437831321813, 0.12917701849314023, 0.21178176500899137, 0.39479127385934076, -0.7604126656173812, 0.07274332124819485, 1.8717628633535248, 0.6889986858544405, -0.7519306980884437, 2.3268876545287207, -0.38986630683599965, 1.0521785263062224, -1.2239992034576, -1.0756338859399128, 0.8641002855490842, 0.1720525877791387],
[-0.16244941775411517, 1.323588587719541, -1.2561227980025855, 0.03162838653440477, 1.4645484598252962, -0.3018761369189655, -0.22070878955915496, 0.1195608748513934, 0.3784731263413426, 1.0209011774164471, -0.507944319806165, -0.43968325905979666, 0.7206871444427054, -1.8398559629159077, 2.446789733514085, 0.38316810371186966, -0.0555887540844242, 2.265303126443028, -0.8529906567438998, 0.4295106932018602, -0.009809356384824315, 1.2815554674598146, 1.584653704014728, -0.3184567096124798, -0.9165028140508454, 0.8581716805571635, -0.8728370191445041, -0.20764168794333726, -0.025804176241113662, 1.5166321906917581, -1.0049790238113128, 0.0542539289128376, -0.7439490428461076, -0.4144384913040974, 1.418144106413237, -0.6465072764616091, 1.2912797937533849, -0.020132440831668288, 0.2104228925642421, -0.6638034482966835, -0.12449857148705075, -0.09186692349891035, -0.5058827232750456, -0.5145737392295427, 0.08369954103177987, -0.5283868507794596, -0.5183370737900554, 1.107108717119149, 0.2790278203045417, 0.2162463448721446, -1.6340557389981751, 1.913740349936691, 0.3257715348603964, 0.4303324912813642, 1.6665078529365212, -1.4156494436897233, -0.9418274256875475, 1.1189676432327043, 0.16158397886513978, 0.2279239619258649, -0.697749330910404, 0.8430859539112999, 1.417916269871005, 0.9657119659784282, -0.4519200500431449, 1.4574091140292942, 3.3406459095709655, 1.7793913992374646, 2.6045709403934003, 3.684576645976497, 4.652862859142825, 3.6084610083806226, 3.6253936083138485, 3.9118059540402887, 3.740686716434673, 1.7770206669295374, 1.0038301649750745, 0.850561967699531, 1.36775534924182, -1.0233948526956556, -0.33608268373194067, 0.5639588444133614, 0.1516520528206724, 0.5971445146097968, 1.0580556087179043, -0.22163929040470096, 0.7081940800376814, 0.20027856119229118, -1.1033908634184184, 1.3236654324028903, 0.5138078630881805, 1.0395745257385023, 1.0357109298338514, 3.6600044813837163, 5.359275816139386, 3.8096130427686536, 2.3843893463581463, 7.140264175219961, 7.4472541852084495, 7.245898312428983, 9.637036427060126, 7.71512243475335, 8.029834599923653, 5.186237708754835, 4.35714819840482, 1.2923825858995384, 1.2156061443956596, 0.877574104158796, 0.018508127411222694, 0.8747955762012973, -1.2963893327555798, 1.264393344949559, -0.22485138612794298, 0.5114540215970609, 0.7221127647660325, -1.376564646048795, -1.1853789787960174, 0.25256103625560516, 0.29214885616459163, 0.6002567577510728, 1.2742121151759684, 2.4308009917797535, 0.3377511085563483, 1.485967048406244, 4.418757601313633, 3.6622356973120005, 4.690709836591076, 2.3581865912001563, 4.231026053944189, 4.788080966989753, 7.442289670802641, 10.455360817573855, 8.549951223510234, 7.747407658749218, 6.000419781740985, 0.691799233434268, -1.9335158166372224, -1.420870928852201, -1.6300824104939247, -0.9514254061936995, 1.9086526040295408, -1.0840809903272535, -0.2779069312603736, 1.095096482766859, -0.44991372210331115, -0.7838982498175916, -0.8576679916920676, -0.6500134368822683, -0.007967103556349558, -2.2753446379386917, -0.4687294767440411, -6.764245477454344, -7.59272594498342, -7.198350924663955, -5.985522948000494, -5.290176063197268, -5.191452624924429, -4.245096773729384, 0.11152047086970111, 3.388940538363358, 6.430831791809922, 6.616414054617373, 5.481364697396394, -0.2378397381751912, 1.706261674587727, 0.14394368153594436, -1.6259301344671833, -0.6552885294040914, -1.7692011806690615, -1.462876632020911, 0.8314363844450486, -0.954303270477596, -0.9696921113775232, -2.681063895170786, -4.363585647831674, -5.78112542617757, -6.393267187019242, -8.502255524341969, -13.340840891566724, -14.51977789939017, -15.619926838381431, -19.025930662288722, -17.669799016743532, -17.469173758914174, -17.9866222743997, -15.09666552541145, -9.844436857966288, -7.154160961808044, -4.784769325612932, -1.8246516442050498, -3.7450988473996016, -4.545832152204704, -4.096894486132727, -1.450427301316495, 0.5176869257308754, 0.7161708975704217, -0.26656899611759793, -2.850804926631087, -0.9823206778741513, -0.006690771474282784, -0.6004594904205564, -3.39536473189806, -2.7762557840867306, -4.786745943523534, -5.936066253318372, -11.536811488717875, -13.59247012731787, -14.364363889531917, -13.897154353959031, -15.033940668715635, -15.427864164428302, -17.622587044341252, -18.45917311923079, -17.001296452391216, -15.06327478661459, -12.421935110944148, -11.593352273709316, -8.13379721448891, -8.929072882316955, -9.757331870286441, -7.358602455361488, -4.832072184688755, -3.6564708651580147, 0.31128862659328166, 1.1212948765488804, 1.7869753738021692, 1.2780680764757606, 1.1388975984350074, -0.07519358786312362, -1.6655025532576506, -3.1024348573611653, -6.614612789975299, -7.831511570138577, -7.837564177423973, -7.540780247911894, -6.680620269468913, -7.449922048314383, -5.672259486282667, -6.254283404698072, -5.352418139675778, -9.163705957497898, -10.265211122695225, -15.902643694762503, -16.520570340528472, -15.996223869018658, -14.59699959017267, -16.48551994335132, -15.148610277066892, -12.782723384782424, -5.614370191138336, -0.41184430014550705, 0.866505319943995, -1.027863772486893, -0.03507746486278266, -0.5959539870745624, -0.5705464600511245, 2.7554644586922623, -0.42113987490566135, -2.7235766069823595, -5.054619114630722, -4.88242887813638, -4.645275980379062, -2.009970237566856, 0.6965021232104927, 0.27485516923259995, 1.1234172941773968, 3.059389623993059, 3.5767738961410496, 0.7502146867174867, -5.69920943019946, -9.196833615014699, -16.42588174217983, -19.350591717941413, -18.73475895211478, -18.612098620519344, -18.57437012108594, -13.948877711271425, -9.157660863312822, -1.3707928389073027, 1.124305544299169, 0.0948937703879248, 0.9302899189278576, -0.2850765212999246, 1.1000425160360219, 0.25553188593774673, -1.8368136812678002, -4.435637100714306, -4.822078487405034, -2.4598545313626046, -3.9346107875887233, -0.9289850477776461, 0.4785689818034759, 0.18566735391810946, -2.764567672756291, 1.2237427138241777, 0.540970543769186, -1.928216187976506, -6.099420662911076, -11.0476576623735, -12.915497734592128, -11.275216230181368, -13.086323042636502, -13.635031033953751, -12.791075463294142, -10.062223526320256, -7.259870559955889, -0.7213745210898947, 1.115494247789768, 0.33169144388336763, -0.15488069403914745, 0.08752754261754835, -0.531568240563026, 1.676913128932299, -1.3170212944255602, -4.943000699746987, -3.8924513367182456, -3.6084940259833376, -2.72892550817378, -3.2190460062592896, -6.4149130069940234, -9.069320550376624, -12.628653932057416, -6.706724466559647, -3.0405911962685774, -3.086820304346118, -2.4957368565268334, -3.922041001444198, -5.18144868117486, -3.1013868187632507, -3.0791938942590047, -2.759635292999088, -5.620686684716014, -4.560228374739332, -3.4918350221110352, -0.1259488024519055, -0.6811322224672954, 2.0829544965078166, 1.5830155013539535, 0.14472087709656914, 1.7752620934718137, -0.8497485362385246, -2.124153621866939, -6.126663201825329, -4.264010014206993, -2.7215918709822975, -7.431031271782625, -12.428833364638034, -16.9488972275131, -22.394292621869692, -21.459578302182585, -15.070068676785914, -5.906909712560882, -0.16169000248890975, 0.9692960018940567, -2.6125976856093702, -2.9173643930873716, -0.6634424480644184, 2.485865988213595, 1.2802430115975987, 0.9511327535098015, -1.6958766664289706, -0.7707594514150664, -0.9414606859366884, -0.6906750527532718, -1.137254980902366, -0.6574731162030316, -1.5716000511347796, -0.6006608174459198, -0.060840209223788494, -2.113577468453863, -1.4412285926424246, -2.0644386548512017, -3.0162595148795623, -11.487856043886467, -19.63535140940799, -29.773878564491696, -29.410081939389862, -19.960716280573102, -4.6527216443438695, 3.3299873948063703, 4.660707246549427, 2.5786549596017356, -3.3733126673938205, -2.900539574021912, 0.21557090696152825, 6.381062802086658, 7.3809009397809575, 2.9902974953638566, 0.21883103947315066, -1.8466156961051452, 0.48266794127642615, 2.0242348107570294, 0.4597653762286617, -0.06502384964106596, -0.42997460447790153, 0.9616506307930343, 0.35666845983852485, -0.6731361471389262, 1.6593562026365323, 3.457637187647094, 0.5849104017690333, -8.554440277510153, -19.619121292756613, -27.5319380122066, -20.550128898973178, -5.885984604980567, 5.366831688209614, 12.417701349170482, 9.891822037202925, -1.991379127490152, -4.634373105326386, -3.4639222128967146, 1.2719051845541594, 5.372651815467296, 5.165344690828387, 3.6707883149701948, 2.120778119943202, 0.614648070185724, -0.014110554158701967, 0.22868662299455, 0.47792467584603066, 0.012272100836660495, 0.5426213397761864, 0.20322333614759722, -2.198690860797368, -1.6023703201869897, 4.4734824303678105, 7.130834161997581, 4.788574822860606, -4.484531647970551, -12.35500441407734, -14.400887661320029, -4.537455655684219, 5.6763633132839315, 18.371202756677665, 15.87296533406612, 7.768052021852597, -3.2285162510611363, -7.070995930531184, -5.037626410120756, 1.4975027224897284, 4.125757419353744, 3.8355853308452117, 2.0828224416366132, 0.8890108081526031, 1.7701737126672241, -0.06274724486730164, 1.8417565711108779, 0.061974187930401346, 0.1566993198819945, 0.3028241102485142, 1.686571152420605, -2.620845687785565, -0.7421218256443928, 4.60123975213668, 8.680744305091944, 6.225159493191293, 5.057010228682291, 3.8092359098625863, 4.337615896105349, 11.027017677525231, 21.669973877575693, 30.54590802232179, 21.72491326994602, 5.64101267053869, -6.983292720501251, -9.333861612901593, -4.768498579838707, -2.524869413426333, 1.1182364221657148, -1.0668578769403816, -1.9553130177747053, 0.14011494515126985, 1.7114815341701461, -1.403418064285168, 0.1574917994963005, -0.4661666230926025, 0.07530811580299555, 0.20807776154902574, 0.5002037905615084, -2.826234904918129, -0.4894347197465014, -0.68493808225117, 3.00754204793081, 6.000359837417411, 8.77988809239157, 15.677920334277784, 21.382583744369654, 26.819969761534523, 33.97736304779452, 33.643243591041376, 21.56945731763906, 1.3835234274793236, -8.963156457351245, -9.380086787229434, -6.603940914300066, -4.261338592280905, -1.3428986945174557, -4.1387108553173535, -1.9225855765382127, -0.3804273298568044, 1.6052056311512541, -0.3351326968780141, 2.0273024029639246, -0.6127511894683686, -0.11796963431403754, -1.6535825708230147, -3.375579071980046, -4.828842574004526, -4.165708695905, -4.640635774379942, -2.8114540522591533, -2.013835486612253, 5.174671011098094, 15.367818028367314, 23.7300773475877, 30.826338574693093, 30.449102910274643, 28.59909742630871, 18.194117609013738, 0.5709317093769863, -6.308082996821266, -7.571830042796852, -5.559699058032895, -4.343127549306592, -1.9331759152116015, -4.707053910988274, -1.0589455163397365, 1.4402880420813085, 1.1877669239798303, 1.0462606407306365, 1.800139844236958, -1.0032550390571122, -0.5797181628324483, 1.085466696370083, -1.8002749705615402, -7.005276177533119, -8.155101342807294, -9.145831164809326, -6.085965634454994, -4.199663384289861, 1.976338344560601, 10.548904154225973, 19.935411435766394, 21.89191354405987, 23.742767506460183, 22.508696504919648, 14.305216956972979, 7.206629098021004, -1.766770713237337, -2.9363608517224997, -4.205033203674364, -2.887477993533272, -4.762027770353435, -3.958949328526436, -0.07962180185801249, 3.5687597386340273, 2.503019713941222, 0.18341422970064747, -0.41259829680917, 0.2996693407650949, -0.13936817350149944, -1.6543169848449797, -1.3780505001070114, -4.614422015280933, -9.308810635245694, -9.249120146180587, -7.485013698792461, -2.633951292447349, -0.646885913384772, 6.636416874667728, 10.675091344776094, 14.589120128452159, 16.052283939532558, 17.145672523921995, 10.747112221740789, 5.464871545382644, 2.3538089584498705, -1.286246679723299, -5.965379954021768, -6.141053134251324, -4.8761571864337405, -2.021884008729824, 2.4229059289951853, 3.4618391463685114, 2.0885674115507453, 1.0037373135258172, -0.8326316420309783, 0.6020003379140461, -0.44339211624863134, 1.0668294308620088, -4.605023402380629, -2.327610414364162, -6.971068950424675, -8.205853832681523, -7.106978432383603, -3.460940020704291, -1.163992303214712, 1.32678258024774, 2.9956211220552027, 3.5107362624097496, 4.36204408368818, 3.9588259597274402, 0.8948642162812228, 0.36226501328556965, -1.9135096586376346, -5.570614142358409, -9.07582625102837, -8.092241199190505, -3.2710299410649797, 2.138367339037757, 3.2887480826914515, 2.2561339195502077, 0.14365182089294762, 0.10023890262655415, 0.5613150904980968, -0.45669172772417627, 1.9136955069837118, 0.23285642140748267, -0.9699180815797193, -1.769153022080082, -4.888770418263433, -5.627793010436165, -6.636561320508191, -5.879598253086058, -6.074741344145291, -7.288764881293157, -14.182046895104499, -19.458419355207027, -18.49755818292273, -17.77263611001757, -11.757476434900049, -14.01563415540486, -11.180202321871457, -12.398013465721078, -10.09134515496405, -6.409145600228569, -0.9383267046955448, 1.698988891598996, 1.9485319699751815, 1.8671476276807715, 2.5774532985551546, -1.1835244299824208, -1.1062116088772904, -0.3723548423690275, -0.9750056183795982, 0.3376583814039127, 1.135818168404932, -3.1588841376765595, -3.27523012186453, -6.716052312239604, -8.58575262044164, -10.774340432127847, -12.179665294014923, -16.99983280480049, -24.620056362912376, -28.6416681415338, -30.196599091720582, -27.424239141578365, -22.98496552508078, -16.635808309818245, -10.737202664430775, -9.269769021748116, -3.742852925975428, -0.6707235646147739, 0.23787817326639404, 1.165930405785313, 1.749625516262118, -0.3044263582714889, 1.482749341468976, 1.7496306670090211, -0.6476669702496415, -0.3963264921244617, 0.7028233565425528, 0.862360853446234, -0.9473393049348008, -2.570368870252475, -1.6525419241412107, -4.345254966709877, -7.449161922166662, -11.690929299330763, -16.537657463865244, -18.55537478531147, -19.762485156640455, -18.010208630793798, -17.654974699984518, -16.5708177987074, -10.400865212483206, -9.776493230241062, -4.593349524044342, -3.3918140678072044, -1.4529701859666844, -1.2378922673327848, -0.5980902732438105, 2.2699635322748732, -0.7757147483457436, -0.14279097434244817, 0.2931549345243166, -1.291264138759215, 0.7430313948973795, -0.05710744072151507, -0.6441331167074772, -0.05312219704392103, 0.9356550190865897, 2.5204327793961125, -0.5092517144146572, -0.19971667158074174, -1.0824655042256615, -0.9923854052478035, -3.35964932027609, -3.6346968600098313, -3.5200117346882718, -3.3531236476270765, -5.61663623544406, -0.151244132861547, -1.9787692465743953, 0.7194330541572772, 1.4963945677458814, 2.0306809018726257, 1.334727374709368, 3.1049705706488555, -1.0020381657475892, -0.32569256676337677, 0.9271594721670633, 0.8024858454929928, 1.3822838883224822, -0.44698888413471294, -2.208201848198216, -0.9239675493289764, 0.9688397853496908, 0.4784073852750473, -0.941738928733891, 1.11921059444713, -0.12056077728465758, -1.0135056873797839, -0.21880303700308887, 1.4174534107016057, 1.9221667957791797, 2.549536521730022, 1.7209024121657668, 1.7911646584719505, 3.3683264664721633, 2.971546273366981, 4.449578735542886, 3.864574018191961, 3.186832524299865, 0.09258097054897232, 1.072034034540035, 1.2091132028662241, 0.8977731192577213, 1.4477275068045545, -1.925472736486726, -0.37230082249419394, -0.1303128791508812, -0.4156400928481412, -1.2065749613273762, 1.0648141510973332, -0.28503827642880414, -0.09394000801402529, 0.44031151221650705, -1.0058486825349464, -1.77841874959514, -0.21903948327430042, -1.366595622574939, 0.5902073482851845, 0.6091174741616485, 1.3340611219309533, 0.4604175164012472, -0.7590126130652788, -0.9279753048371688, -0.3413508468584673, 0.11513234605333303, -0.027301443590090936, 0.5753823341361469, -1.2796117504523974, 0.9948189941489901, 0.890389371380862, -0.44694636590112785, 0.627891504295415, -0.48593501757500673, -0.2712184128518724, -1.1507159642538756, 0.19645394782606848, 1.670857546899285],
[0.8867572023048897, 0.3979279897822147, 0.28545267331558904, -0.5907342775458561, 0.19587854953731643, 0.7863803789971001, -0.1639377038005622, 0.21885863695781163, 0.33121462206106844, -0.2843906581575181, -2.04731981535228, -2.2150268929515455, 0.7039994682564977, 1.720999920594503, -0.42775948643300626, 0.03885747132933573, -1.0137426827486087, -0.2174830304045172, 0.023395228115830374, 0.36798238533352196, 0.06802586010911865, 0.030725753133017442, 0.004569398604897575, -0.9071828792923988, 0.35966682161909536, -1.6420214815431833, -1.6776938442339846, 1.0942504778405635, 0.03761363886022337, -0.26452519871971947, 0.7104070589608036, 1.1439841440692848, 1.0471348267091367, -0.30864903198949084, 1.6319765084091664, -0.27539012055203, -1.4328388729861756, 0.8584037431740451, -0.42556753439449674, 1.1460599226418482, 1.804829870824952, 2.036301364650713, 0.12190853477930064, -1.0408212688666891, -0.5859092015531259, 0.8773732850602244, 2.0629732759049397, -0.19004463458001083, -0.7230577634055303, 2.34458636221395, -0.5606931225848063, 2.0707856320726648, 0.920672533537513, 1.8840951708381528, 1.1404848596015957, 0.5175342745890016, -1.4939183407251124, 1.4232053917875236, -0.2093078131705321, 0.001238768825609432, 1.4758921365445716, -0.9553206659105193, -0.10715283203153957, -0.3758972103948729, 0.13503157469711727, 0.7200770550330222, 1.6157087503594076, 2.899154933644219, 1.448247891079292, 1.620833309882331, 4.206562813001891, 4.52352573527889, 2.340884126419363, 3.6294652982719304, 3.0490002823198523, 1.5419582891659134, 2.2622547499541117, 1.8520851702205965, 2.6711617399451413, -0.5380543610668977, 0.5770253563404977, -0.7604024195854932, -1.2113537359753639, 1.930197707242712, -0.1350492686412897, 0.5095043043360442, -0.87708882288266, -1.2308838312005888, -0.012980177322643378, 0.6327195955216794, -0.6350957710214067, 0.7835196262665695, -1.0863338241662386, -0.6879369959308238, -0.7811912865321201, -0.1407136915097476, -2.0687277223474414, 2.0635284470759707, 5.028759489226074, 1.2179343058421765, 4.2050235033590955, 2.558800390135969, 4.952859022790402, 0.8765244533741899, 1.2472148655355144, 0.060802845496679435, -1.2951636365060943, 1.118283274539128, 0.34312401767516437, -1.4362634413926312, 0.7912488942152702, -0.2296614084372258, 0.1281596810402393, -0.7658288899992837, 0.3251796961787572, 0.3262454458577679, -0.6701408191912243, -1.4456594383566057, 0.3874107470946369, -2.1208437190381937, -3.7046302964187006, -4.604159456557206, -6.2395372467330095, -7.032082046540548, -7.831648239961752, -7.679904524606021, -8.852492844020466, -3.7962468086375285, -6.427177887182886, -1.4300425344332768, 1.0057699987402091, 0.8863870853384991, -2.075782498374028, 0.33901231211616945, -0.31802858566568576, 0.39821185374863993, 0.12266475961110539, -1.0492118364346787, 1.5760933558217955, -0.03650084168335596, 0.638371299890079, -0.0553731022846233, 0.13667872091391695, 0.46213527465672316, 0.22187644918214736, 1.105941009112209, -0.861461919668656, -1.479630086346545, -3.300912290750918, -4.235115086966277, -5.558400614790339, -9.643172943676985, -14.072903144774441, -12.275841533133994, -13.436781517890521, -12.488589115674174, -9.928310132049592, -6.212075106591431, -1.9823027026075142, 1.441178321298773, -0.035654751177175405, 3.4722064448896774, 3.724825559522393, 1.2859869334349723, 2.3119523037256324, 0.5932757888221486, 0.4010699300419163, -0.43438300953179565, -0.438471852212728, 1.301086320573573, 0.7177554563815137, 1.691649123048756, 0.6737384004018827, 2.24916527620455, 1.6909660645797575, -0.7220713991028866, -2.469909342018223, -3.4959579331356294, -2.843553619355109, -5.728893635391639, -8.905578553699634, -7.678656446655511, -7.413029376341591, -9.417918286111753, -5.232306826963002, -0.4264332366218738, 5.583967913022101, 6.645247126368566, 6.393032911116381, 9.24396801149288, 9.00971252397593, 9.661685770877137, 5.240508642242038, 4.84838685353654, 1.1296015934316728, 0.4600077910108639, -0.22559656818534926, -0.36264769242512496, -2.64115375362484, 1.3053436867982935, 0.3104953902814582, 2.425172216170824, 3.308381979945443, -0.931094546509251, -0.5863424179793154, 0.9861415966473681, -0.745294114821204, 1.9875028787326914, 2.5718648345801767, 3.9240086361755173, 10.412002668893146, 13.555639853787131, 15.284851553344268, 23.68339621167242, 15.63229659763835, 9.049997984098848, 7.43068354556119, 3.9005871172224396, 10.554091856419474, 15.34357359001305, 14.09031064395337, 8.144893919451063, 1.152133761744846, 2.1214996715216983, -1.593274534993484, -0.00960573381314419, 0.3871942999861613, 0.5371171616224752, 1.3797531476966167, 0.7468305242090171, 0.25163814445818056, -1.8236467975777795, -3.411408179380431, -1.1362112358536351, -0.5227304953712242, 3.79184314183856, 7.252170105693142, 7.145392984324875, 17.8691751715205, 24.3947518750453, 26.497337390206948, 27.98357950142339, 18.317061321900724, 1.613719374349668, 2.3807262473844237, 3.4544067169410893, 13.029455025467394, 21.40796233320457, 20.236622383841084, 9.052822158625302, 3.0410535674998513, 0.3734179159630099, 0.24026606795859184, 0.45149233355147395, 1.029402287248234, 2.752019179784917, -0.1221302837840454, -1.4758599328767459, -3.421332174096201, -6.953314499206844, -5.732829138048414, -4.767159407974519, -2.958161545330928, 2.5993034579256764, 3.3023902602593322, 14.828473818091547, 27.68811968535428, 28.148950951210647, 20.120069261529938, 20.055198606070437, 13.361631258617631, 0.3218484149161371, -4.608083155497525, 1.5982880872695373, 11.403847590817229, 22.654724530208814, 20.83190688086979, 11.139806725437266, 3.396214083819706, 1.6121418315313292, -0.9243961845568597, -1.625568045608161, 1.1400382915465186, 1.9210668217524918, 0.12430760942681, -1.2359716330991701, -8.115129914590824, -8.34191519446416, -5.864478018319885, -4.475914287327911, -2.363742905887675, 3.7467899663007977, 5.270014543831392, 21.979317812928873, 33.93399492852916, 21.776681110678503, 6.070090998626879, 2.6056192287677122, -0.7092943287482394, -11.759588838623435, -13.900756193081776, -12.252635122474421, 0.3465461275865955, 12.87807437481555, 15.14345156733364, 9.74479179188514, 0.8411756917298557, 0.7682484437333842, 0.9089313577459203, 1.8547620493692387, 2.403040111891961, 1.1870955507171466, -1.7872814905490144, -5.539514107301685, -6.715379208134566, -5.923962922973068, -5.692347055176472, -1.833612296050735, 0.8181425783307755, 10.975880898292036, 13.480383139022521, 26.060805567275892, 21.413874561532005, -5.284535903872633, -26.156185850545274, -24.257399128129972, -25.849163696272843, -35.81149822880629, -39.72084037031012, -29.992067569595648, -11.22926132232689, 3.859935691296779, 5.97435053680069, 2.3026266974773137, 0.9359380232982997, 0.030980551925599675, -0.5021789206109575, -0.0218802870719522, 1.10042980022912, 0.5084227884361769, -6.953947947935898, -5.71101329946135, -5.1834042021750335, -2.487999721917349, 1.5913177931227143, 7.458586502872436, 15.482911286410591, 19.039484594352103, 19.75502342149251, 17.312968920732203, 1.6209050697241945, -29.627885245329512, -49.39034722570102, -45.242897513520084, -39.95979538433927, -48.89508321319445, -46.509891245718336, -32.491624590416286, -6.063967545712315, 4.546887390409697, 1.9814254471033428, -1.8890816946089521, -0.12299715421286306, 0.4440835380981086, -1.277569027851299, -0.36958729039917576, 1.1084084066046918, -0.3428680273056129, -5.046975922395412, -4.533847552057314, -3.9430247326181673, -0.39089218678500454, 11.50738307819137, 21.793165363296836, 29.220268162488487, 23.055353726720558, 12.165516019518257, -1.7709317939213587, -21.537465648024906, -49.19875592021323, -61.4405140767785, -45.36761841690149, -35.10861292799215, -42.254512915122646, -38.51397620641642, -17.55635664558452, 4.220972252866106, 10.21604872437185, 4.069885075599526, -1.282025844408461, 0.6508335632065567, -0.41777923722840643, 1.060119455181347, -0.021815082163584017, -0.20951245609102043, -1.5188345608356173, -7.476661441417471, -7.032498835280892, -11.316484578444594, -8.538912255706727, 10.353187600630337, 26.05596526265794, 29.32419421836061, 11.88964810252522, -7.178520712164179, -22.40694867696433, -39.44184361576953, -55.412508691865774, -62.0355749682677, -38.99982400959631, -21.593479180515164, -26.37429304374478, -12.880871571892628, 2.6905126107281725, 11.29683739913893, 14.582841081330454, 6.8780355190021805, -0.1598129842651052, -0.6669326187164963, -1.466316939003778, 0.2667949531219449, 0.4941133915642472, 1.4431166433801614, 0.21069965967429555, -7.645101199364047, -8.401805204368117, -19.177438947191515, -22.247251651733, -12.095314794693651, 7.293916732090736, 8.13444199013201, -15.209370776464308, -37.17054206490397, -53.618582236337446, -63.352805459990144, -70.73574959658261, -61.723479610382746, -29.157133401364224, -11.31470021321211, -7.3843621241477715, 5.362548335324138, 16.162484061576038, 16.993498005488632, 14.84586720771515, 6.064595631407889, -1.0631233350878657, -0.8568921010522659, 0.78575033414462, -1.4466078850292778, -0.6846550394508372, -0.11345268157334396, -2.4262339290655746, -4.933735255928987, -10.087713859797898, -21.238776428347517, -35.51880318476518, -40.00795326492515, -36.959425754989944, -37.46226077322986, -56.92576601020467, -78.5551935327381, -82.46935561661437, -82.6118986123174, -76.30669212810899, -55.175265265555616, -24.272640230170612, -4.48142057301999, 8.577589109896362, 15.26516434969787, 17.489932767394208, 16.470493630336083, 10.377578967024025, 4.029107690523594, -5.038539661963935, -1.7711340879506323, -1.8225615810801674, -0.3136859684224446, -0.2471940585019482, 2.93058597116213, -0.09646434647266516, -1.3591998981919031, -3.9476011551759997, -13.064693392910764, -30.659231988079153, -51.021034084441524, -62.17784309731178, -68.14799640239265, -84.41010190010866, -96.65462961092396, -93.82850613385445, -82.47572185641202, -62.16945396992773, -32.05520892051838, -7.610813140396875, 5.269954485946879, 15.083601697082104, 18.401716577263468, 19.379708081679844, 13.929862706574278, 5.35010399676672, -2.6981973656323395, -3.8034017852473236, -0.48198694278427606, -0.8329187721277448, 1.444879034049778, -0.6699002465365752, 1.4819124630102058, 0.6275595109290252, 3.6545879872769507, 4.283862932525465, 3.944702741944842, -13.208346928031228, -29.859798317201886, -42.994941628696196, -49.066631637860006, -61.15346648979822, -69.41178720971091, -62.40342605997826, -50.51781694740216, -27.930282948558677, -5.247840395168166, 10.439435516729397, 14.013302097060587, 13.176628510178448, 12.749656025221741, 13.89185980168699, 7.897210110382383, -2.0964690872976757, -8.13209741234535, -3.256117552848964, 0.875663752337915, 0.007183811788260626, -0.31706990371416294, -0.9983380621661782, 0.23179845995068757, 0.8853503353206797, 4.351214624363269, 8.818689906515575, 10.081428105725655, 5.0869818562599995, -2.338495895571866, -3.214295027260564, -2.1261579359524285, -0.15339707091346994, -9.946174971066272, -7.779127366939881, -7.44770911610502, 2.3378308921354387, 12.039438956859675, 17.721937622611144, 13.073714423857979, 7.943229736428958, 5.004148450862405, 4.0644779127808865, -1.8995436344770333, -8.857575718788196, -8.415840930424334, -4.768277036296043, -0.6947446675776492, 0.16187183991830106, 1.6558853643606635, 1.017967141007487, 2.041193601296066, 2.8644550544129923, 6.336704730233667, 10.196021994918482, 12.735583701816239, 7.213933514312918, 10.082190917669621, 17.801344832214493, 28.577741318042072, 33.32735448167491, 26.570342602680704, 19.327466122072856, 15.11068912872699, 15.46453261557467, 17.643873608141732, 15.356062076179365, 6.711251482537209, -3.2581382965405714, -6.427689291274538, -7.992246480804995, -9.506923217433025, -11.362150130728427, -8.185305213618223, -2.0466412077855103, 0.261732292581643, 0.1591918069200703, -0.6166568984976295, 0.3995586052554109, -0.07258769129666756, 2.3161014694884035, 3.3460917563038377, 7.739092866901881, 8.833977368665039, 9.705876738194151, 9.336686898293891, 11.89839849802784, 19.792554827608374, 24.619456232140596, 23.740808890734222, 20.097707921807046, 16.146113644654655, 16.875837038020865, 15.007829427153446, 7.07544286770885, -5.022841693521517, -12.384689656083255, -12.414322479522207, -11.605130303632714, -13.244312865278573, -8.567499117510803, -6.48285578191962, -0.5490083238650294, -0.5792715924600006, -2.5762252002485213, 0.3257911261751293, 1.7911727939702056, -1.5356458099987573, -0.35509511078200673, 3.449732224066445, 8.73707018031271, 8.54230887152619, 10.697761971246319, 11.442310054217339, 15.679032599372574, 12.872576963175657, 18.255497514639323, 15.410432550460657, 16.862664697413443, 14.429703692339503, 16.64131032372892, 12.686171653569701, 3.496429200049717, -6.8290513391996335, -13.431046698246918, -15.57721293979259, -16.050059860215892, -11.058375335109956, -3.8735833776335475, -2.018384686266222, 0.03093509031714991, 1.604988779194605, 0.6308950309707256, -0.12256678036732403, 0.5803318913268076, 0.5229943584426322, 1.6455669788957905, 4.126219262087305, 6.101535710623355, 13.493637379484174, 12.371210935704424, 14.686471794285579, 20.435402372576654, 24.627199430898994, 24.561153043284186, 23.69660018568128, 21.661837477104054, 19.450178485528568, 15.016088800920253, 6.549715996701895, 0.659515904042629, -6.8606819766483, -16.11228703473788, -17.42543345118432, -14.481196209658231, -7.960006232452661, -5.434681355712951, 0.4119121233526405, -0.08254024752607335, -0.19132576683964894, 1.8687004867561285, -1.1549009812990536, 0.09433233690355775, 0.45926885292254743, 1.688182891983934, 1.9177726057597868, 5.183904667456433, 9.488326010010498, 10.686893578266348, 11.920027205803454, 17.198949495342447, 18.45477823210409, 21.34936295331404, 23.476583832160962, 21.095967413333586, 17.376232260904324, 8.148823368226223, 2.193690534939195, -1.1074513378274677, -9.929676310124862, -15.389822650571947, -12.534932759698908, -9.879055355622997, -6.540442897396839, -4.356427500408253, -0.8290845878386052, 0.12347365185514302, -0.3503917976324531, -1.7074085684296931, 0.5462183308794013, -1.0700990807246118, -1.1875993011610624, 0.8846843873020114, 0.4799821610970395, 1.26045972999405, 2.892377729144259, 3.558845777075515, 4.709567195746093, 5.413361093281391, 7.6256754838699266, 13.346487354810096, 13.033312071082737, 9.944965172486725, 5.210289751910921, 2.727521160758609, 3.131099111308491, -0.8685021687992845, -2.4830391691055524, -4.970044484164989, -5.2716260819760805, -2.734772355317259, -1.9055543832483965, -2.5395489378351583, -0.05970405891130061, -1.1777863259974954, -0.9567130422250519, -0.4829191002305124, 0.20236150103830602, 0.16731948640056782, -0.7112772183009971, -1.029854639477406, -0.7461926424960378, -0.07478429061114324, -0.8885978695300354, -0.45482770384087723, 1.6273456155334316, -0.3369827369238457, 1.112529044550579, 4.471179609707068, 4.582490250575197, 3.0841227492772747, 1.559486875522921, 1.3857522762946917, 2.905510492997346, 3.2765601825712123, 1.2620039609338136, -1.0295403446137887, 0.32490242357415267, -0.06444510995749182, -0.17198917386498977, -1.8600772671181107, -0.5107987046098573, 1.0206588344303438, -0.06565044942837263, -2.1768897527360656, -0.8282449764654, 0.7106206409440079, 0.5529360867847956, 2.048849385273373, -1.0342125965351634, 0.6039519865528199, 1.2461301000298721, -0.9946269741892058, 1.2142224796593404, 1.790761076006272, -0.0026212897173911575, 1.43054569973576, 0.8598657203227825, -0.6040968593702091, 1.3774433567701274, -0.6741087150232903, -0.04154150417777511, 1.1947257308619492, 1.7974152765952514, 0.5209923058634405, 0.36131835943330276, 2.4808474772523716, -0.09353454015520651, -0.9376043535135513, -0.4434626569582636, -0.29225524805385816, 0.8526751120665345, -1.6013726144636458],
[0.019106828200365373, 1.025478032758102, -0.7414951599539877, 0.263009664484822, -0.6555540961682365, 1.389949377947136, 0.07951148835575697, -0.4536711729251844, 0.0644231958868578, 0.6250952096917074, -1.016410704373667, 1.4497844813344345, -1.1885688107266372, -1.5343754404744225, -0.2986470114404067, 4.352330098321137E-4, -1.1533985288592712, 0.5088714527881248, 2.7642224672509284, -1.343567917250345, 0.8183907031293473, 0.4108308071098497, 0.8401229303178577, 0.6622027251401189, 0.8246286092658367, 0.4907731214231252, -1.8044644812652701, -0.1876728506421134, 0.03305649080639966, -0.7678986240123878, -0.4857313506538461, 0.3320297502999468, 1.259554960014482, 0.8646626595517574, -0.6677103436329399, -0.12689823148261092, -1.2820583331030821, 0.8799733016992194, -0.5911969050275909, -0.21033666335586346, 0.5448733247902305, 1.724607278154221, -0.39219069962489006, -0.1039784684674386, -0.7796891928244489, 0.2651685329816159, 0.4924252939355759, 0.18021935255699417, 0.35493388003351745, 0.15217367884678068, -0.04605076391013074, -0.3560774416682995, 0.19386024348106304, -0.3114225797007887, -2.3249725674945307, -0.3633008355772835, 2.2842672354458746, -0.4008940715374931, 0.736519667243999, -0.7656184035695607, 0.6432469669781438, -0.6574392316079936, -0.37549681855454514, -0.5052218117353783, 0.5889694691895637, -0.4342131060088447, 0.30472466017549305, -1.6545690313770338, 1.5188681286523622, -1.4029892929202872, -2.7454974872110895, -0.004736405094355772, -0.8549875686996413, 0.8708743260774691, -1.2094083588678743, 0.059290791009787944, -2.0527635561830353, 0.7382907219293586, -0.886140870369906, -2.754151429710527, 0.3708061807407605, -0.05786103221475046, -0.4285748493944141, -1.6047171236346918, 1.7825961265819859, 0.030340175860786866, -0.598736266045315, -0.15293154481967555, 0.4318424780848067, -0.24943403886694837, -1.5634696630737006, 1.9916546583102157, 2.3774582905708317, 5.209123413052292, 4.877172612350703, 6.716797885889899, 4.574739200720184, 6.347009328078644, 5.396590575618069, 1.4094410704576528, 2.968545887576664, 4.682386781898303, -2.165977853864091, -0.8281386405866391, -2.795238406513487, -3.8564771423946125, -1.4918127802765555, -1.4607022326096866, -1.1271180772107432, -1.4907346337876133, 1.5272270991667882, 0.9730468532536509, -0.10090424537096344, 0.8146587229640952, 0.3773118197695574, -0.3307758066526931, -0.36923130804955784, 0.26370616078521053, 2.172860543682017, 3.312571529452882, 6.1138864560148685, 11.43232417562734, 13.04672305611169, 18.129499093777017, 23.902500540043025, 30.482486909635295, 34.833985381931086, 32.628760844686745, 29.13958145817773, 20.84489458702046, 9.661462914274118, 0.7224808177639849, -5.782115759844844, -12.287603080590314, -9.332105379907402, -7.6105924665979625, -4.279656094842141, -2.09245070237793, -0.6517922106298121, -1.823911999680606, -0.6109944987025896, 1.0911845840301244, -0.934513329574158, 1.7888474732840238, -0.9180466929202775, -0.7772702114285454, 3.4685902218980402, 6.949769391622203, 11.613171555778932, 17.093225275825606, 20.743461401142895, 27.226281921753905, 34.62891691399646, 46.12486286484614, 51.96723301754874, 57.75147842885156, 51.4043438045903, 43.49395358886242, 25.570075491616702, 5.911587008975012, -10.632638711233266, -19.206949846106507, -21.229140593887667, -17.99967897653779, -11.040582069661506, -3.863206143795964, 0.6154589142690927, 1.0575225925457883, 0.5131848232646263, -0.815831297805887, 0.5780962693166214, 0.5201966838325562, 1.0518139348193192, 2.2580696379447085, 3.5938790457075767, 9.105062911437335, 14.571278638733514, 15.133271664691724, 16.811942665819267, 21.461757147775096, 23.368671003006263, 28.667205776655408, 30.423207224714055, 34.95223931107498, 37.77043533456202, 32.736585193823004, 20.727298262488322, 5.007144647373162, -8.212816924204752, -18.99960740569124, -26.118788666049756, -29.551177425526635, -23.139650308120043, -10.800183040066848, -0.6670539736382176, -0.3690717978790818, 1.0920801279256933, -0.12176297006127933, 0.3150938305946219, 1.0357615831487543, 2.7369231056230157, 1.9625008086441955, 7.681596166733298, 7.810527045720158, 11.275963090114562, 12.881568305725363, 13.456772328463211, 9.037822567817031, 6.046117889092367, 1.7355588898207894, 2.1410116753466855, 5.42304692906006, 12.648139243660388, 18.6191187973769, 18.227790199041287, 13.074323036489037, 0.476556203454707, -13.506814308794459, -23.2615590288777, -37.29700199816053, -32.92867740828342, -16.626868606539766, -4.7791011523822595, 0.04842475415958919, -0.2906284650338259, 1.4202926735316006, 1.3819561925062054, 0.9839064352499279, 1.2307426703465165, 5.710363609915063, 5.018231563323098, 5.996261150802528, 6.558303536044616, 9.382519295308052, 9.594778275793445, 1.8699042823183456, -4.15743369087793, -6.7364005081596074, -5.077078853156845, -0.06296441710727489, 9.10318320167348, 18.122163666724386, 26.55221512957905, 26.891196622586826, 18.959724278762774, 0.5452079539116006, -14.337783397809455, -29.793371980129095, -36.690181499722776, -19.667457861703493, -4.318791319785807, -0.9240280072764325, 0.3088716301948775, 0.7818374591497301, -0.20091777489854862, 1.1077973205900493, 2.3273120671117855, 4.918130185473644, 3.1085957363458387, 1.3753208824099448, -2.5427282290057365, 1.7069307924130868, 0.9761598003039488, -5.1305575461306985, -5.523982181625158, -6.714673607637, -1.15639412039526, 4.054417725866768, 16.842519639294284, 29.11467194360027, 42.092813224248665, 46.13405722030258, 37.0247409558725, 21.792008363712167, 0.3081544048281081, -18.01569183842614, -30.216679394740897, -17.176131952362613, -3.5075615192186937, -0.7422300759401349, 0.015821946717176214, -0.3559840415276878, -1.3984906274810485, 0.7959274324869503, 2.3086998569066557, 1.7508336748245479, -1.3406189178383605, -3.3113068467742184, -6.91122406212191, -7.522300169957268, -10.58449078896115, -10.375107903228498, -13.66965123875521, -16.994747153376643, -17.03884725304892, -7.4458462038771565, 12.347490369182081, 35.46153609778979, 51.42662635043736, 59.63868131746658, 57.14606790228283, 44.952708484683015, 26.14075758647908, 2.0698108732140708, -11.74081775598642, -12.06996870279464, -2.3449546755798405, 2.017143162886431, 0.045572671634036964, 0.8650452935950373, 1.4056869857875687, 3.8193391422533254, -1.069230227035358, -1.8837074434769308, -4.998140445649074, -9.74770842263225, -12.5698275471463, -16.592864725437824, -18.543903560464702, -18.650652280287822, -26.95557805684858, -37.577294516995934, -41.78103470075485, -26.143006325771438, -1.5845912587062567, 25.782077536969016, 48.01489874175751, 64.40209066723182, 64.83521579731949, 58.326084748378875, 43.18797394273116, 22.03410366418571, -0.003621150779055243, -6.06709183503936, -1.7659102689315258, 0.8452605440952182, 0.8775629290506081, 0.8836536052490875, 0.3740342083889172, -0.08480292560473011, -0.03498607143828245, -0.8815288583888026, -5.445479572846126, -9.950496571278446, -17.924968504011762, -22.273481792714513, -24.487124256022486, -23.91803211318274, -37.235958053527085, -56.04856366151094, -58.15581057151595, -38.589721821879195, -10.553694291376909, 7.812056369123309, 29.294571260044197, 46.22257998012564, 53.914767441960336, 54.16964954509162, 45.2308683577583, 29.44519125751811, 10.397586273726025, 0.39516265633954434, -0.20152117920904988, 0.915393271985413, -0.6045308510499499, -1.091310850483431, 0.562357263756258, 1.0799636756560338, -1.3250043959607765, -2.0607108611392198, 0.9539537777131684, -1.380386791394177, -12.734165036836195, -18.7795719145737, -20.761154848358636, -21.172152621369907, -38.214702752205646, -52.104665171275094, -53.689600273918444, -37.251896540200775, -19.693315416183477, -3.108798544068669, 7.924078867502632, 23.38460283760215, 37.55543896433997, 44.36292903474958, 41.456096661559, 30.904679449309246, 12.843984323055164, 1.818140774939316, 1.3761370236117798, -0.6978092599998771, 0.1991728498456924, -1.627296244297902, 1.4833955606045883, -0.44550900177522446, -1.7976255468795135, 6.159936516917965, 14.34697807895792, 15.574520320533374, 8.639597277814923, -4.001419213071041, -8.392622759037275, -13.655604632938847, -29.634762688751724, -37.80140933618817, -35.82830998020481, -25.87067506842047, -14.228146748313236, -1.5928184341478726, 5.867932309758069, 17.107906437340134, 28.992042555477145, 40.30703816648306, 38.16557729595174, 28.823422976058392, 12.892915845614212, 1.7271600249049894, 0.05845341507187469, 0.06315262693043884, 0.39556056168659925, -0.46412521622565306, 1.7014347644202164, -0.31439401241367537, 1.5868470343681083, 16.61400110018657, 31.259560728570058, 36.44941945180783, 31.89736700240072, 22.621134563921913, 12.55406498884153, -2.0325985626410796, -13.624258524243944, -19.719998068506392, -19.606024214649082, -12.6099055265249, -3.552427688846794, 5.130136967981513, 8.530945423850795, 18.437896413447916, 25.261108121559996, 34.4075600267036, 29.28380597401839, 22.168939279591843, 11.043821532161422, 4.324311953251036, 3.1269202826788005, -0.8425551774580384, -0.2507955822307393, 0.18244634568667353, -0.4869594009532457, 0.885609171020598, 5.455985218857812, 24.9662868601524, 42.354601998093436, 51.530882875464464, 56.143779294202524, 50.60375898755912, 38.26092446406875, 25.408511334682387, 9.234897435316675, 0.23096236286710364, -3.683356276466092, 0.7922273239088452, 4.576444577788084, 10.776784255293583, 13.541371870302996, 19.824342469367956, 27.768152255772478, 29.033498932243727, 25.65820542605259, 19.107383752308046, 11.842490693841867, 5.695897901462285, 2.705654027027472, -0.09365601994709732, 1.0814404018879078, 1.905627595134193, -1.4979265491965765, -0.3691333247931557, 7.074680954302292, 24.457073597647234, 39.03374619731665, 52.20999091348844, 62.22250922193384, 64.89220636321639, 58.012550015736316, 45.54550587319473, 29.986376000913705, 14.2848599242797, 4.589033188754199, 8.844749157808263, 7.407453183182491, 11.744498259042718, 14.825453076359093, 19.103740106365017, 23.047294380662667, 22.697704254899584, 23.59389585348843, 14.35216274579511, 13.25302684221372, 7.079368200287801, 3.172211547473046, 1.7414928350925805, 0.5199301489279085, -2.3902551440208195, 0.4611196042575355, 0.818307270163422, 3.570846203740906, 19.16144561565452, 26.582821207843793, 41.75613558949347, 56.744043821387855, 62.35128595780718, 60.25744935330874, 48.71320520704969, 31.363603423353993, 16.397827467369154, 6.667857725845722, 7.491817509935141, 7.264601005221986, 14.008794618995303, 16.524252882196564, 21.14460183355159, 17.50597556020866, 18.037202849856246, 14.729296484511556, 13.383037588504623, 11.837866275923107, 7.115668135485718, 0.4546711802448416, 0.21595562757779968, -1.2737614174891203, -2.0671908251941615, -0.9892860769488662, -0.21071625128411217, 5.314153744392505, 12.493788884546563, 18.480705570179897, 26.14145821023693, 39.140697968016305, 51.294387724753044, 49.717133531131665, 40.967404627180755, 27.51606927905749, 12.345062496143436, 6.980134056796584, 10.626705071403807, 13.223583205358928, 18.846339571198122, 19.974981023220526, 18.49038827125779, 12.247151786802966, 13.546985541854118, 11.663521477410416, 11.672076089504221, 10.702070247271058, 5.295424067374107, 0.8244168820351083, 0.5993537121038646, 1.170663028205436, 2.301855934403301, 0.12922954056503122, -1.7121152441110703, 2.7612313466063783, 8.213891156846332, 8.68502987130916, 14.853416495408622, 23.587663551210035, 33.066204489038896, 36.52525996052775, 34.34073463598408, 23.42670410551452, 13.298658469643636, 11.49250026606644, 15.285322001146866, 15.27637708196901, 16.79024995073494, 13.783752530992857, 11.119998363105006, 8.454090919909994, 10.53814565020347, 7.1504652314386785, 9.25584699043682, 10.19293486612339, 2.9999089335283844, -1.3207010710404485, 1.6139101058969818, -0.17933137458554044, -0.9837111928870732, -0.5416263166782408, -1.9661712338988722, -1.0984287185046715, 2.9052329278550397, 4.914141921167422, 6.621482251697828, 14.339059701552356, 23.10179474408109, 29.69846443463206, 28.65718911303505, 25.55552267327976, 20.939867130054385, 16.240601126893946, 11.70695407947446, 11.921692114023154, 6.132994319916998, 3.8220611073185484, 0.9277314400144261, -0.5038516931521709, 2.9150690145927753, 3.5947710275227083, 6.700230327530696, 6.64116838262315, 1.6080888512633953, -0.8093904377033703, -1.1721206116151788, -1.1752740265761112, -1.079307128791673, -0.15142993299598478, -0.026845526087903606, -3.127867012967859, -1.4734157235252305, 1.2886700566715081, 4.779413101869909, 7.269364328425128, 12.838632492679725, 18.91590436333067, 23.853307661529698, 24.667992004732607, 18.835090459014747, 12.868511424908375, 6.1497741830814405, -1.9256550948111508, -8.133342956453568, -9.557713015765895, -9.986897077617696, -5.778900297905991, -0.44929463779627365, 1.9648204422243842, 5.034784942579122, 0.2136680883392754, -1.0704188271875987, -1.064464542014243, 0.06151295747627403, -0.6943513641907604, 1.1885902531664763, 1.203994754995646, -0.9921933247386214, -1.1705141812099276, -4.527144553543187, -5.186191363977779, -3.6107701045086515, -3.860468261988804, -0.5268872533690413, 4.05596305950879, 8.42497006077968, 8.853535812369536, 5.492395730249279, -1.2768245248626846, -6.355709101446059, -14.67686889127826, -17.153922758923052, -14.245219697122273, -11.959400872299762, -6.796525502567307, -1.7968162121088709, 1.2271930784124516, -0.10730813386937403, 0.15688588668155173, 0.8660110437161034, -1.1378855254992732, -0.9463723713515636, 0.361495499718402, -0.5961349388585516, 1.4892604296611032, 0.2438351325477717, 1.1657627952544842, -1.6611039010789945, -4.269686974738096, -6.923783484441497, -9.290701676785945, -15.05137717011827, -14.579702255222376, -15.760624514373239, -12.547938094289595, -13.13425795652857, -13.308800437207388, -11.417441070795798, -12.026724484318303, -10.653047613462503, -11.552192693144832, -7.946664245616202, -6.181493470245069, -3.182060155607438, -0.9830369761333647, 1.4681003693405947, 0.77428090063866, -3.0058037603787553, 1.057966732649764, -0.06268050487108634, -1.2321136394529433, 1.6230482457073923, 0.1569910732766517, -0.3935161559818071, -0.3837210510259387, -1.4123668710946542, -0.3386492579449759, -1.1281772598619317, -3.700381774288336, -8.173407967393251, -6.961216112298314, -9.193831809522656, -12.756885307781555, -10.503028086567916, -5.322014069048804, -4.66696324486741, -5.127224795670938, -4.099173852997018, -1.9180233537323386, -5.238770549221584, -3.3609662850960698, -1.9698127529079703, -1.9516832208443864, -1.4946908112722939, 0.40476269551494826, -0.6526528979995923, 2.7791463625480133, -0.952142827557682, 0.6698021935620883, -1.4649978544518267, 0.2879897234299848, -0.7079410224162772, 0.6241149536838291, 0.16185967057970943, 1.5321171181214697, -0.15822301916012832, 0.9945741376164547, -0.4876661943612311, 0.43690820118797674, -1.4661217076864164, 1.5831070737155681, 0.5648797146345657, 0.5524158189243407, -0.943510825860919, -0.9959939374069471, 0.22542056978643005, 0.04722373461473195, 0.3856707945200097, -0.56377943317048, 0.5943990664727998, 0.34760252486160975, -2.590114310927543, 0.6069859156866739, -0.7014341280640396, -0.5116721882675246, 0.25552276961937354, -0.3649996166789367, 1.4859309142866082, 0.04953316895641469, 0.7645225117421236, -3.1615535836810365, -0.01299453286093882, -0.6081059864826012, -1.8696742425748363, -1.840090273781824, -0.4772763334975329, -0.3619880894234012, 0.7106523084827938, 0.6738517419219129, 1.2802098044887105, 0.38496150649200805, 0.7156116636079246, -2.4989233055421782, 2.021806607623954, -0.590712141772158, -1.5372471450338308, -0.3682004038020682, -2.576442240340603, -1.1107069230365734, 1.4389555717958202, 1.6780239228697453, -0.878862524984613, -0.2734491919721052, 0.4525721102497656],
