-1.0
[[0.03391130596912485, -0.035699311796171876, -0.025214542889957944, -0.06625614212159664, 0.03348158618654872, -0.014903144778285306, 0.004529813732749403, 0.019944834428586005, -0.016221240176077362, 0.0044146886152522415, -0.02859183074211661, -0.009769466414100952, 0.08201676911973683, 0.014394291958222966, -0.04638579303148431, 0.0199234848829388, 0.003021129622517635, 0.03446133392567283, -0.01767524817789674, -0.0109817794934398, -0.027941300726581093, 0.05689837530216866, -0.006357638659746796, 0.04200821604617834, -0.009815768154913774, 0.006159943131723888, 0.05003263666073613, 0.0747509227242755, 0.018497027965851138, 0.013070761808732099, -0.03206801041995171, -0.024980203856906608, -0.01155439105246579, 0.042435659074317025, -0.030486770176735418, 0.02031456489977465, -0.010223585009972261, -0.03518781814893659, -0.0558540144177762, 0.011003654624278833, -0.008119217726203928, -0.055249556969443156, 0.023246777845262197, -0.004172995387128701, 0.007858500995771947, 0.001185210372653283, 0.012805698371985553, 0.05092990752954973, -0.011129447137846627, 0.05164283463063911, -4.764313797665427E-4, -0.003753830800752267, -0.008143735359290522, -0.0511250546250203, 0.04117031552875629, -0.043893961560777184, 0.06634236777918485, 0.05514261020705223, 0.008433125073909425, -0.017217013981487995, -0.02612625016878058, 0.050333430556005074, -0.005877693983371515, -6.961514951124029E-5, 0.004464163755847963, 0.06317523207510346, -0.025289350744222835, -0.05133894367810754, -0.00585703990280792, 0.01600073596351536, -0.005822641209682262, -0.04646889174773772, 0.041397047815261455, -0.046372456861863684, -0.019457090844780558, 0.018945087076192132, -0.004456283651155866, 0.02933761956769017, 0.01446326335373657, -0.04823539364521001, 0.05329566754037888, -0.02891872752471174, 0.020168566150215, 0.004064864666220352, -0.03398096600450445, -0.018453585559390417, -0.05198536699151408, -0.02638010756154597, -0.0521889312384708, -0.05034908803260129, 0.009449292658646155, -0.041493270087096586, -0.035131727004549536, 0.010214311143277786, -0.009325956691523996, -0.010577491688383359, 0.022837598563627538, -0.01494008010870321, -0.03507348677738984, 0.04893960092867349, 0.048016443797293716, -0.005051839112369992, 0.008768890752338462, -0.041089021929235234, 0.022664013329321563, 0.007490072469115161, 0.05181176525189723, -0.018419457160956047, 0.021692545895458864, -2.667773922746126E-4, 0.01743290946148315, -0.020263581849401528, 0.03438778050147676, 0.030000547049938136, -0.037455766508444246, 0.004843266617591394, 5.844951565582107E-4, -0.020394178763970785, -0.039205262709757334, -0.02271235274740183, 0.0026794559006684707, 0.0237928617271548, -0.019532639665426604, -0.037638205484660514, -0.013682194326708804, 0.05129313534783234, -0.028644901916096335, 0.002884359540798918, 0.04646118146756401, -0.03124116717442613, -0.013851755527928672, -0.028331854797125612, 0.043449579127022735, -0.046146147321242045, 0.012233730497731033, -0.06437832916705392, -0.029806549293078567, 0.006040184464911232, -0.019393692386794024, 0.0016659996229625707, -0.022165218517215538, 0.02052849262003441, -0.020064953044093867, -0.0221330116708311, -0.030903479607151733, -0.00798533196345202, -0.023024866549142636, -0.058649027421613445, -5.827677895862074E-4, -0.058566311454661, -0.01762755643077784, -1.2814436816994385E-5, 0.02157462942695319, 0.025362996277667162, 0.014485112871243317, 0.002517679425288687, 0.01547771658867149, -0.016327891072047723, -0.01579571260127595, 0.01628704535241781, -0.014343925745816801, -0.015399205040148098, -0.019957806986985276, -0.0012013026997138685, -0.035261969717776974, 0.027535441815084265, 0.006491603633801036, 0.008670553571498292, 0.027748851192453423, -0.008014687426792542, 0.04223964119791401, 0.04116461010843692, -0.010443821119401033, 0.03480396948989504, -0.007706346520888785, -0.027400095880949625, 0.003287868162702677, -0.07325407805364412, 0.030903978236678672, -0.00525411320081657, -0.010116352204391157, -0.01548394547490438, 0.00888786866389797, -0.038558736465258626, -0.07575016776982758, -0.015867243638594142, -0.005081343394231497, 0.05101795206034514, -0.04501294384641399, -0.017631609587299413, 0.006840872779794764, -0.043441777886046286, -0.007219506540381589, -0.013601991831653204, -0.033877992287805234, -0.05401704732502865, -0.04510742216370147, 0.03473146966396261, 0.04304244687504965, -0.06656710464092039, 0.00796341596498415, -0.009704090469283281, 0.021120118371281783, 0.02977550284405957, 0.048691857698160854, 0.03822031384523765, 0.046691059338886474, 0.011591398189607966, -0.037955656555300775, -0.03268756296758266, -0.049339151872113705, 0.0410260780100092, -0.0654615135852319, 0.03221153290892255, 0.06160184401302176, 0.04424582799807696, -0.034699802154870805, -0.026348190600213577, -0.04376330494979291, -0.025865747372278664, -0.020064204364855696, -0.053449519140403835, 0.03683016240970465, -0.01030046060188873, 0.07059019341880321, 0.03693997368874343, -0.020982635029029934, 0.052848688821527094, -0.004208220716063618, -0.06718696280704742, 0.04467559765449671, 0.0522121840134505, -0.059913364302620016, 0.04230895981101772, -0.012684772984647165, -0.01901083894817288, 0.06404669553624869, -0.008794010382917583, -0.06558352277549832, -0.008955482460966068, 0.046773850637402255, -0.005275954338946245, 9.602162341324539E-4, 0.03562454370745048, 0.011237399669707146, -0.05841541128974973, 0.05731510019768888, -0.0031780871184478544, -0.1050352132676868, -0.010057354022934412, 0.03137931898253663, -0.016607031685686873, 0.02061634063570262, -0.0636490573101877, 0.023988309832125635, -0.031852237720076525, 0.03556932514248343, 0.007176661401285868, -0.010071909423213852, -0.01668122573314795, -0.05078590670236259, -0.04355287499459194, -0.005640405187357785, -0.0038529776630499175, -0.010298331136337864, 0.07653344583983072, -0.04417733312118587, 0.019903513886327145, -0.04605621347277341, -0.052578905474663644, -0.056580536645807464, -0.023443175312910326, 0.011752169387049516, 0.0011154254417088353, -0.0024896343600047835, -0.00859368388654086, -0.0463875863792691, -0.0025451546666518765, -0.008365940041855887, 0.010211115575392688, -0.02418547158764502, 0.025661661095870567, -0.03798791683392528, 0.010956035996848424, -0.003700515164021323, 0.04415725792496332, -0.03236145328207032, -0.03907723376703846, -0.00204243983154724, 0.04772731934608443, 0.034767479336158626, -0.014628900408899635, 0.0012847246907705578, -0.02928416737192646, -0.015014733355338405, -0.04735496933448389, -0.045953321049798324, -0.029027557495578143, -0.024496495381279904, -0.013223018084124058, 0.012691207365103915, 0.027400045431495386, 0.00892566552309575, -0.021605275129891053, -0.032220479975569406, 0.03169377713770819, -0.005978270042720435, -0.014814793030427814, 0.012117044139326833, 0.02753842211747493, 0.005560140851575977, 0.022461713972976242, -0.006414786242050783, 0.013563700093236842, 0.01157332195624888, 0.0018981829079866858, 0.01580637037056818, 0.03866050006085318, -0.026080777690445315, 0.004265118928141489, 0.0022418519108204043, -0.02469758626608324, -0.0852988714866911, -0.0021888202740859204, 0.0024257629897083952, 0.005747499409524151, -0.01618205992760812, -0.012414328518244876, 0.022459392434748898, -0.03965893007392773, -0.05122852823697603, -0.006450103131941502, -0.04277615707720199, 0.0070822812664614555, 0.025352807504438277, 0.0076241434931988645, -0.04074399468928985, -0.014286364492207047, -0.020540518901084482, -0.011708312882303952, 0.010107085859282394, 0.0016351484937902566, 0.009944663752350577, -0.028412827175584295, 0.007544649969381816, 0.010457382527781927, 0.008331154731317235, 0.1052711204311164, -0.013330470807677814, -0.010679565467386187, 0.0744312026810866, 0.030844414574229755, -0.050712527599592286, -0.01910005040787351, 1.8473201959170863E-4, -0.01795025322805761, -0.011639820901115771, -0.011582750629852322, 0.008422464923966269, 0.0016939078854612914, -0.03333965141559186, 0.010992325676930882, 0.10105289306429877, -0.007424328238352254, -0.005078472454214398, -0.026271620071878016, -0.017228462006926983, 0.02805926367311867, -0.01486049489654229, -0.03991905742600173, 0.005624568565780438, -0.00671013390467221, 0.08543754173718647, 0.009369753818374406, 0.0275702163505667, -0.015585853781029843, -0.0031283896834210603, 0.015235538925258118, -0.022499418774621836, 0.05784655685246914, -0.02413633337991209, 0.0239675654108274, 0.022804849235377598, 0.028607435938444423, 0.05759872804416707, -0.04043532532190691, -0.003738179642171683, 0.009924093505575302, -0.013877722909893494, 0.028498322976908196, 0.021026266441588955, -0.03307711593739589, -0.018867156116879735, -0.011841753707881429, -0.03220393028733631, 0.016189898094792838, -0.023190164474017772, 0.05190614432683477, -0.02420570564182406, -0.02472516349491274, -0.01467966447059972, -0.004793230822930052, -0.012540795571584624, -0.024302143811388434, 0.04511041185201846, -0.012342697000462867, 0.0038724790640003556, -0.03992678896428862, -0.0023870829016391123, 0.033318056136423684, 0.006928933454157501, -0.026950408758923284, -0.0037339833423677233, -0.02968441422171299, 0.0025869859999125113, -0.051942939646429195, -0.03199235991260497, -0.02049377338472546, 0.003921964228334901, -0.0018021102814824402, 0.016671667554104746, 0.02777220542843515, 0.07972323343055278, -0.018762785375233553, 0.02197485402857196, -0.023393258265516602, 0.006925365933505827, 0.012537067992178403, 0.009297557079026244, 0.00942983471754037, -0.013891331245021812, 0.02381193373732361, 0.03551273702145454, -0.012079904292623652, -0.018860136472864258, -0.030770274711467576, -0.010765560599360829, 0.013144952386519667, -0.032249219130054366, -0.06132950385946584, -0.005962780887313777, -0.01580100752098777, -0.06242724146544541, -0.02407249758536543, -0.09194701798667744, 0.0065300488725425505, -0.026763686218671263, 0.061763532979589655, -0.004328270357655776, 0.03654049506571897, -0.009395323184804039, -0.004950601188212723, -0.02414938062600448, 0.01804540724395928, -0.012040030717894838, -0.06301934329537091, 0.004348540280242054, -0.032406639286437416, -0.024662400263378022, -0.0064314462859450605, 0.005210715159987145, -0.0165742449779525, 0.020599011237861224, -0.04670095188749641, 0.03341597888665262, 0.028356476157300546, -0.004911701462603764, 0.05663192957143302, 0.003237661081419934, -0.029227904687921327, 0.08938564100923843, -0.07188308496338405, 0.027845788663722264, 0.002594756416073522, 0.02803413767076366, -0.01752513351903768, 0.011327585221514684, 0.04348522372055768, 0.014669836558801967, -8.491841911056385E-4, 0.08438253144222105, -0.040714672496394, 0.02338297340758322, 0.0018019715758834899, 0.03566087153369359, -0.020020557498129896, -0.03675344771522825, -0.004812129877359474, 0.08638105618116586, 0.012890409568815228, -0.016255854655523084, 0.037627014845819554, 0.00969431562211911, -0.01196851969212512, -0.01129848373365008, -0.022178576320570038, -0.007388157417487028, 0.02447264075829872, -0.058070709811261424, 4.381490620178656E-4, -0.02396034350263294, -0.044181111817837196, -0.04778591200667781, 0.04496835436392842, -0.00884803990406676, 0.0648632377803504, 0.0027597342717323283, -0.020982685253496836, 0.006236799822237493, -0.028204340254992386, 0.05116041734339979, 0.024063510275587053, 0.02822011958986184, -0.008176251456567184, -0.041073993001861944, -0.006203384376512689, 0.056638360352767404, 0.030957036487359726, 0.01867885967032517, 0.07211624639330358, 0.04272274904554692, 0.01617959980041822, -0.016013177459011867, -0.0059703871051935775, 0.014445981706278976, -0.0068338944160578115, -0.015923268280975254, 0.03727563688821621, -0.0027660207229670566, -0.030926719113654372, 5.733464425920818E-4, -0.020610906450137374, 0.080760852604025, 0.0355782697442285, -0.041016786268486, -0.008499918246588026, 0.009775768518347619, 0.08192170445873627, -0.025325293749214838, -0.0077021479339251025, -0.017368503555768255, 0.03102658219170981, -0.06518587831426044, 0.02503184272445508, 0.023624609285244107, -0.028789305148616474, -0.05792849469069888, 0.020136455408505873, -1.7878954555984E-4, -0.011843877955429847, 0.020974142442913745, -0.018355576763813573, 0.01425514183393502, 0.007352662184924405, -0.029260711430293077, 1.6345230772219155E-4, -6.563275168197548E-4, 0.01603889764448325, -0.0187652305823842, 0.04999528176979962, -0.03311363239542374, -0.025988310129988812, -0.05779966538274458, -0.016589861672698776, 0.05542661614115167, 0.03903057195429346, -0.01818679227710146, 0.019679441476360422, -0.03837232513638017, 0.013730200490833244, -0.015780180406314976, -0.03773546868245061, 0.033556548292922025, 0.010618848059885172, 6.455570440057847E-4, -0.038775858506102774, -0.05201339663674557, -0.018364682508121257, -0.020889546707455874, -0.0569577878000046, -0.024124682507827844, -0.02710056069754117, 0.037953080760981014, -0.030003568868241643, 0.03611224573442646, 0.015309563665517506, 0.10017232881954237, 0.03633493560599877, -0.021191066877394, -0.0643352507885772, -0.01923757063015784, -0.0560424160091254, -0.026704284756262138, -0.008954251649888917, -0.009361555862808815, 0.02290975071077036, -0.041006012214545966, -0.0042927609847871855, 0.015570130505343116, 0.03309334616678536, -0.0018476691386802337, -0.02860546791511295, -0.03342800133661637, 0.062258321370858814, -0.011180955802260539, -0.009551772649193994, 0.03820510538787743, -0.02340921489342837, -0.009774591164833785, -7.274076233947806E-4, -0.019396711733276315, 0.04347346144733672, 0.027731957934579058, -0.07445110459016206, -0.03342233814661403, 0.06046783883101825, -0.0035350819639404256, 0.002951370617104279, 0.053992970051466506, 0.02075810314876981, -0.01655356108313398, 0.0022052156993784917, 0.041830960253527776, -0.027879571908507175, -0.014668469661204558, -0.017314161433207697, -0.030495375214033747, -0.07952950370923713, -0.029054304439717883, -0.017465552020490407, -0.04565192601721296, -0.0449610365394441, -0.015115375380422678, -0.020247243274172193, -0.02600940841538657, -0.04148396517420812, 0.031128170620353713, -0.045319787429992875, -0.006093185585154234, 0.059680954691757215, -0.022149351093965226, -0.008951639598787637, 0.00246781903088239, -0.022367664901872995, -0.03246236662711509, 0.0012832999506996717, 0.03746494863547598, -0.01112602099620301, -0.002146774050922861, -0.03775638990672222, 0.007721059402669819, 0.024441075312951078, 0.008978693459053786, 0.010967202373080883, 0.015598096999459661, -0.02886363879136767, 0.06088763587636671, 0.0023277574280922858, 0.03142519797752717, 0.03422628792863828, -0.048118458029954646, -0.04986402021828674, -0.013591332695213542, 0.02357350312226657, 0.07789719683300626, -0.009144569217234335, 0.057626798926493014, 0.05205404311510748, 0.004528844844659164, -0.004337108738387572, 0.04162111991551187, 0.013966244621068949, 0.03654992340697145, -0.009308418568427682, 0.03667838309859639, -0.0015418226659297868, 0.04040586334745845, 0.08233642378932685, -0.008266292561094474, -0.0913287119961504, -0.019710762207868486, 0.009024647025389671, 0.004880061593789684, 0.02080031857407239, -0.021481718676131106, -0.003193603913599764, -0.031594472074211545, 0.030398233169426535, -0.05798720734527045, 0.0173605096159598, 0.02392564301640094, 0.001518574026826157, -0.02710458017014706, -0.03363231831397702, -0.07048565858264154, -0.035961861205162635, -0.005947781650486187, 0.016396700376707783, -0.014476155498555144, -0.04127341825928189, -0.03222600728537266, 0.0027148348185878526, -0.044848667716671196, 0.03747917151073445, -0.009658703368683016, -0.037589080776841984, 0.027099342656786696, -0.038690159625573414, 0.022501182116793157, 0.022969186791397433, -0.07675829341702488, -0.03422105475242729, 0.022601401114327322, 0.021390147356354926, 0.05705757371542431, -0.013208986257501937, 0.015119931011899899, -0.03351671815109172, -0.004220688783350689, -0.07326586865710323, 0.030996129519657373, -0.014594012981206989, 0.09408574789666392, -0.006221178352911254, 0.04592374578426783, -0.0065020835757212845, -0.008831455241974909, 0.0011895209154170617, -0.0026071595324610136, 0.005290891393485229, 0.0484207218164744, -0.0663514368506365, 0.039526289533899396, -0.062002880177399675, -0.015214150972506535, 0.017783861719671588, 0.002983323066578271, 0.011304146689066348, -0.016830234300967657, 0.01872774936789395, -0.009320281932537955, -0.06837737121173723, 6.198313900565555E-4, 0.04529710124317053, 0.00543534850145008, -0.05394591949313756, 0.023679804156492398, 0.08796523760739468, 0.020708145163507847, 0.02743467170312597, -0.009444911140278745, 0.06738762957761071, -0.03652872304358794, -0.020977665381811617, -0.008037910817646524, 0.026237307765319167, -0.08667504101470887, -0.004837246688712772, 0.0034640981430018093, -0.005806677731182796, 0.06909422905849492, 0.018154534661658946, -0.02775975401267661, -0.0048575563093318985, 0.028587883424983286, 0.023594432994470147, -0.047357207485690556, -0.04107333921195536, 0.0010038040445310872, 0.06620117916212448, -0.00994948704753614, 0.01537537789259393, -0.04430273242906234, 0.08766779336224706, 0.031126684853476392, 0.014164035777504108, 0.030394662701157527, 0.0696973785082334, 0.013226121621863051, 0.0020916856700415993, 0.0665247224285745, 0.010011495392947562, -0.0326104134393724, 0.04052858872039371],
[-0.015328875704683938, -0.03724538394591276, -0.04461100916340722, 0.013846274452535919, 0.019093116490936177, 0.026232410875227725, -0.025712294488883042, -0.01266216911315953, -0.03835786331567692, -0.03304322584060453, -0.021082491924053513, 0.006898484440129246, 8.992789584594881E-4, 0.04341471410939513, 0.014552969898450655, 0.026443833565028274, 0.05274542273104149, 0.06016691662172728, -0.06272207774150255, -0.05077452359200878, -0.03276255742917456, -0.02468798303987569, 0.02779201979550166, 0.012182656525983191, 0.06022050894612342, 0.025570343889816185, -0.04345439620987159, 0.033341979016902626, -0.010836125299237843, 0.04448892402764476, 0.0050585181791549735, -0.08064956098523143, 0.02955667320053775, -0.018384067683441054, -0.0468153100593557, 0.010909982458607253, 0.017650159104013893, -0.010351188538020103, 0.062430419764365246, 0.055028978951297866, 0.0038981144773085597, -0.03360978853315787, 0.011667706422325628, 0.0025761508105574525, -0.04733346868560014, 0.014545961700505625, 0.04161341939610408, -0.010880669169195997, 0.06196815113732624, 0.008102043500012738, -0.028854046621391856, -0.002924115498977658, -0.045690856120913954, -0.009980139018439664, 0.06522144885032763, 0.04911085620173707, -0.012505432738807647, -0.007416227726433915, -0.02970576927717485, 0.002558074315964133, 0.07047964249049168, 0.021664374151219034, 0.07669742142202858, 0.025921163079611422, -0.03648691061873944, -0.053790090439731174, -0.01271343709943957, 0.012159597492595446, -0.0033531955757283532, -0.020304846690236657, 0.0033307994476172035, 0.006380425734945598, -0.052545995411563906, -0.0035718568600392455, 0.02715632149088414, -0.007694709754499954, 0.03000181485819296, 0.020368478957481683, -0.018635877855465742, 0.02095216293475794, 0.013737413945109422, 0.0015119710683695645, -0.009997803642039704, -0.03048383236838948, -0.012423396286301696, -0.04860945474125923, 0.05306224217494406, 0.04631839100687972, -0.03504187138719266, 0.035249636787450155, 0.0376946163559699, 0.04348718792060407, 0.02831386528903066, -0.004204110890883629, -0.05243563550887317, 0.06564722646807959, -0.019249563272141054, -0.03258623391514991, 0.028592162805659765, 0.015491446598372564, -0.03946761791408372, -0.036660847605067166, -0.007525106623242094, -0.015977826689006134, 0.04239900502201448, 0.02684155367874416, 0.06516811463727193, -0.06294249758568318, -0.05721227956298592, 0.005081448664046971, 0.006799221155237035, 0.03608284796287498, 0.008192513672106003, 0.016814287511717322, -0.06139972184131153, -0.030120041225428173, 0.01864335957389166, 0.01653607659067788, -0.011646446917008665, -0.04310198023650717, -0.038747830011637376, -0.042054682787808294, -0.05638037731996729, 0.03958371207998355, -5.337483642864552E-4, -0.008541828408618063, 0.048638971370613085, 0.044768860589704036, -0.023201206029378443, 0.05886659674805916, -0.0011522504717916325, 0.02537194349932239, -0.013012352358935674, 0.014195970640288576, -0.03489116779187153, 0.043603769948578945, -0.03296013415199367, -0.0186488144611782, -0.041711921826262065, 0.011718790387304756, 0.010002600579270299, -0.018308146821062205, 0.03258892929734283, 0.0072840417930575205, -0.0061821227776134345, -0.01726911883622556, -0.01756732756087508, 0.012029884658438418, 0.027782011095269173, -0.03201903999125328, -0.03677574388797045, 0.04678092875637273, 0.004930948831631849, 0.06429116170054863, 0.03868677767884306, -0.02386966815690612, -0.019143428894310043, 0.04188437098982084, 0.05078153744119537, -0.011840178742197961, -0.02510840181130946, 0.03434147326263614, 0.02212167719212475, 0.00971745865244362, 0.028974594183540214, -0.009070342713714334, -0.028987390222291746, 0.04555687113821494, -0.0064539901397521, 0.001402013555196925, 0.029180072605655475, -0.0038681283160160044, 0.010264283669321675, -0.03724931113476743, 0.04335043403894789, 0.04125147032043301, 0.025498909606059824, -0.008101216660067747, 0.01625184785224553, 0.039912089856752354, 0.019590908426315133, -0.009533425725806993, -0.02285239885635589, 0.04717341878838009, 0.012881981877689259, 0.015484787782614558, -0.04238361406638062, -0.06831965657181881, 0.053862685057484996, 0.03744131668515364, 0.0433451920266017, 0.028036451064271262, 0.04747199453124585, 0.02521492283617029, -0.051190427179856814, 0.00790210489890879, -0.01918816312101564, 0.02795479845093846, 0.032268688058723155, 0.019282788904672197, 0.03423665551864928, -0.05023441927900032, -0.02418462751846514, 0.03872512109325253, 0.025256931033487372, -0.04125249866474695, -0.03989325035848947, -0.04409892855797658, 0.002163845906924641, 0.01059144172947403, -0.018060073128173544, 0.0027351494631928006, 0.0233696494390267, -0.037224985534124067, -0.03564024064847514, -0.012053409999991918, 0.0065891867331194206, -0.006095036217810782, 0.021053994773057284, 0.021290798039333345, 0.011150538192712544, -0.020471892187455622, -0.045665228096684496, 0.003375834935376884, -0.09730970928258488, -0.024959942583686234, 0.026994994091185588, 0.027153590236291297, 0.06926431870915277, 0.05621445935135917, -0.01673185709518494, 0.026027128857940972, -0.06503536211002728, -0.016962698151375168, -0.012175285289392185, 0.041845085766071155, -0.03531470850711036, 0.0025528278931147876, 0.05773013902964851, -0.07740559471837911, -0.03477047790774721, 0.033508872110855084, 0.040634264703246874, 0.05460333323934179, -0.0068289798041709015, -0.02986731569064948, 0.0538494178580972, 0.022293182879502882, 0.02182501701301894, 0.023112162656232928, -0.02502149361455986, 0.035861811837730455, 0.023367803836071527, 0.03840456903727809, -0.061751419710858776, -0.033227590398433794, 0.027428256341637723, 0.008066758446119522, 0.03668525196941979, 0.001963615129503849, 0.018976179989197307, 0.006723105933383116, -0.0147790412777013, 0.008059374037798675, 0.06604018850006048, 0.001828387345448221, -0.0345418207053942, -0.0024509174125078134, 0.010589421913258752, 0.02655396660008134, 0.0284867370531602, 0.011492384838830364, 0.021906363072450117, 0.022549919891626795, -0.04596342829455028, -0.018502706390870833, -0.02156547664507574, -0.013704497559703141, 0.048841133270655555, 0.008874586772206735, -0.004228320044276546, 0.07185934368906341, 0.02817201110398639, 0.008080456825146276, 0.018821187894247093, 0.045482800307431605, -0.04395749467459823, 0.027158335969076595, 0.012529058548835218, 0.023367559491774475, 0.008540010108587267, -0.017070537589873796, 0.01044703474701045, 0.004328143907069281, 0.032009907329507585, -0.047502455294979117, -0.017222835104130106, -0.06747144090985663, 0.020489788564541124, 0.036113987568067725, 0.05808600585970632, 0.006999650775404322, -0.0284301126180894, -0.008402050392185808, -0.014745169559100959, 0.007829156006336263, -0.030511416491986076, 0.02598541485952844, -0.043467725679509996, 0.05604922854854112, 0.018433876598661313, -0.0719722393478949, -0.035226566724006134, -0.016508992555018066, -0.04073619885773612, -0.003972321622123443, 0.05734520753512608, -0.0019411681236756108, 0.0014083200222873846, 0.01667990070246519, 0.010794321763369617, -0.02617595095057961, 0.019658032667656977, 0.03196622852189853, -0.012654893961298095, 0.030947394832101478, 0.013309316485773324, 0.04500979786889793, -0.03782808496859671, -0.05314653492165911, 0.06599022568898347, -0.05895830816401086, 0.031245370665754564, -0.019031258233081216, -0.009983318069878332, 0.008508766331293686, -0.009325293540380622, -0.008557571616594942, 0.007113442337673476, -0.033541975316872676, -0.03302491880937016, -0.012667545325178232, 0.02383837951607869, 0.01527963911665131, -0.013760814362506138, -0.02303003628084946, -0.003493623608668217, -0.08265941611065533, 0.02077334441746228, -0.001862490186813701, 0.00788199681193733, 0.035754541993180324, -0.003145002934368621, -0.07819623659295474, -0.09602349133178288, -0.015588758824144676, 0.004809789182832891, -0.07593700901815525, -0.004111180778556797, -3.288195530222234E-4, -0.0011555092066037793, 0.020364859907373307, -0.015141053910277797, 0.01928396601725422, -0.018317187036655004, 0.005299344418338571, 0.023132682738973977, 0.04192020222522691, 0.030404988235613235, -0.04483927593173548, 0.02213179563064221, 0.010405754157316758, -0.041085016745482934, 0.014262196450534444, -0.01945356850671374, -0.03879384922558088, -0.0024321561994772945, -0.033215937885798866, 0.01213682602138741, -0.06375916374185946, 0.03324277249551257, 0.011798177224068415, 0.0554044162326204, 0.012744943659477832, 0.034840262789466246, 0.038223412033921, 0.011896485593822434, 0.008711740770320584, -0.018980337609025035, -0.014834138954672524, -0.06158576581761669, 0.0010319671674039947, -0.022517787209970854, 0.02870401864667441, 0.029806583695688855, -0.04050219683014993, -0.03595748560497973, 0.018279343044738817, -0.005587159621461117, -0.013572778989155754, 0.0027743790022139903, -0.03044558751055671, -0.0018429076293445192, 0.029625416203934652, -0.03696424392416327, -0.019653564172813855, 0.04824038890050048, -0.02820615618187351, -0.004793839691014215, -0.015793075951630566, 0.013602505683162945, -0.034666686166064956, 0.02061923002336733, 0.006437153903990854, -0.07768117195514203, 0.051129199682236136, -0.03378761271540661, -0.018420854589536257, 0.01011557847178703, 0.03978675761724765, 3.544801246107987E-4, -0.003140245217177342, -0.03107936734044801, 0.03462645535288043, -0.002148304439503766, -0.02470001605024042, -0.02147314021742035, -0.023089768948661927, 0.03238872609546045, -0.06443519908291731, -0.05197651467447679, 0.02824416599545415, -0.06564608920474437, -0.047520884592678635, -0.04643670166537441, -0.05033702810943528, 0.0019610864372312407, 0.013376746965507271, 0.02148146612771203, 0.00480026297970389, -0.017756041981232224, 0.006094823643553718, 0.032167969936827544, 0.029689413369091196, -0.032253258416265654, 0.054001569159136245, 0.00822603905378704, 0.07475252314374574, -0.008870055305645715, 0.016956964219491208, 0.03561445764186293, 0.00747972142182228, -0.015717739714218654, -0.07186209150854363, 0.008328351730896162, 0.03333991179179525, -0.010524192540019755, -0.012437213693573344, -0.003599628256741446, 0.005133526742456587, -0.007063591140267124, 0.024330225728427187, -0.013620779093822586, -0.018393555405628977, 0.023148683392012055, 0.08549820940663452, 0.011179780723411322, -0.03284769413665658, 0.027139513282912947, -0.045945755398955235, -0.06742119063925119, 0.04189963972279992, -0.05954520634244775, -0.02170726064564718, -0.0251979315357795, 0.04908862001992881, 0.05055210497135383, 0.017882165476723715, 0.05826394515157686, 0.011072612061502878, 0.01734660428872954, 0.05646611025460675, 0.051331773778475934, -0.055434091216585706, 0.015786176295238978, -0.0192959058335837, 0.03624493980584047, -0.049441004351439166, -0.08496053896100939, -0.06363679461626462, 0.015755859488742745, -0.07150242369736691, -0.010811286055528136, 0.03779046556956157, 0.0664669275854753, -0.007605522911054878, -8.658202333851918E-4, -0.07403343254156014, 0.012077173975979617, 0.03290680008560321, 0.0012300839315445911, 0.02545364567236164, 0.018849141499917378, 0.004118074615609325, 0.003688519252330787, -0.02264589509736899, 0.07536883660191136, -0.019832428649113713, 0.051012180206209914, -0.034301356907992984, 0.0036191807840027933, 0.0543630846742144, -0.060088009753077806, 0.09328898684655854, 0.031435732576689114, -0.017255871074001543, -0.06270319635789762, -0.028341651687388947, -0.0031219770681927095, 0.027411327717610595, -0.03523076634209872, -0.03635682861915484, -0.03887688754395814, -0.017656108754272953, -0.01101369431317885, -0.020057368433789285, -9.492283817871863E-4, 0.037341597079879364, 0.024823503559828864, 0.008781012495935525, -0.016828717998308096, -0.003911829344141656, 0.002875088169387303, -0.06849539241413082, -0.0013293496872935646, 0.02074571221963865, -2.9091691477908154E-4, -0.03963825500558417, -0.013369197188875529, 0.00766706108921772, 0.03292637955219137, -0.009901308665671404, -0.010012641073952278, -0.02109308563458472, -0.04498304829536899, -0.050265415740503326, -0.025362048379302674, 0.04459216873696905, -0.033541348632348596, -0.009598790667011952, -0.011549639950333077, 0.053916472115037646, 0.011103209318133923, -0.07134953433134836, -0.021848814478496466, -0.019315637245177358, -0.07371372136528946, 0.05164804510493393, 0.07453582328228217, 0.03677402174083644, 0.021118674752677542, -0.0346594792219919, 9.255782509935828E-4, 0.02812164323732132, -0.0082431412776548, 0.01903975067709055, -0.018937024574433917, 0.023546925951974492, -0.035882479836186656, -0.011379493454417725, -0.01792574062877919, 0.0590936167850273, -0.004187068309670435, -0.007366642819816353, -0.016704717414399013, 0.05216967454180634, -0.037413968510374776, 0.013463606045022194, 0.04580949779407019, 0.00873209871932931, 0.01754152194491844, -0.02927566186815886, -0.03866332801698445, 0.03702293934935864, -0.04244704228869894, 0.010619941740503595, 0.017358035046469548, -0.032348559605891766, -0.07083801300951238, -0.016292282283707653, 0.0769159102235173, -0.022582328865194786, -0.037726118026724945, -0.001884998252220808, 0.030451250950740895, 0.02941819261297159, 0.013788215035987096, 0.016958910486997467, 0.07162191017456417, -0.06311465743996822, -0.01050545605604034, 0.05379720998109811, -0.07691915981354437, -0.012581403636930338, -0.0022405663785465485, 0.03615467827092097, 0.0036168339376961914, -0.020073618035544295, 0.021753294836938882, 0.03971182774356428, -0.04882611449848951, -0.009170524210615283, -0.058309529025843784, 0.025161259339537546, -0.01260512516490653, 0.01568230117669359, 0.016852608709921203, -0.008620782690670922, -0.020984299032640066, -0.02408408597745576, 0.015179159764224471, 0.03333461862947471, -0.0635516266758859, 0.02139139186002081, 0.03957199256804435, 0.06791260540454508, 0.01368204050609793, -0.003394527216671195, -0.02050763191178397, 0.007591232511002089, -0.019223583210960342, 0.028851669682556525, -0.05705610828109081, 0.030545459485853098, -0.00441428519460753, 0.01647403099582775, -0.034214670638239075, 0.00817678630825072, -0.03965923956710112, 0.020797125406026816, -0.002473790974890829, -0.023674861562196982, -0.017891734335226096, 0.03797459180443706, 0.03609448242984204, 0.005919338910062318, -0.03529934125812415, -0.010477330855922295, 0.07125669353247654, -0.06241973681907408, -0.005443053737566923, 0.0512383734065706, 0.01919902269460711, 0.010211341637157565, -0.013380192139234384, -0.02934334283159737, -0.023219085548864288, 0.02420005500036485, -0.016764077900097398, 0.05378370714975046, 0.02782206660669983, 0.04433044435814259, 5.620418697780763E-4, -0.03213255860219417, -0.026114710666905166, 0.018815426803438395, 0.008845582760690725, 0.02703731540406123, -0.004912144243717273, -0.025225708894911054, -0.020127089472083613, -0.03807473689184173, -0.0796176895170989, 0.007253746840176831, -0.02767383006090112, -0.009323331184037826, 0.014960967322929786, 0.020889027866992038, -0.044009064310400414, 0.05921028787203799, -0.003487829398073349, -0.040032616224235186, 0.07480866008466387, 0.07864992184399884, -0.018196370385165642, -0.03732496684738805, 0.03458809449373522, 0.0715189020864354, -0.045119540244533275, 0.01104786576985964, -0.02964960503766301, -0.011488194150340327, -0.024880745161172373, 0.10316382629187251, -0.0011324190668595944, 0.023258058868635762, 0.04968610739390468, -0.03444077221435643, 0.038583465936913475, 7.999587383920028E-4, 0.0393350095040881, 0.033147818051946956, -0.0030656289001459005, -0.028714029695751927, -0.033937290071053464, -0.08437008357619356, 0.01711588552847839, 0.0026175092556369054, 0.008773664034058621, -2.182430894179191E-4, -0.003100450955826574, 0.029674791677873867, 0.03454780327590516, 0.04118066379211106, -0.05245557459768695, -0.008673471184371015, -0.014611456810032225, -0.00449164312783287, 0.041568528497533515, 0.01618785673824152, 0.02253684244741746, 0.012499272264304735, -0.018988973491332668, 0.036605005957410196, 0.059413888895726866, 0.006702030074771236, -0.053715520223783, -0.02680640423133901, 0.018966887031987484, 0.06297142628659205, -0.02059125742397782, 0.009312605399392807, -0.0273075228355058, 0.08047844551435177, 0.015689750061585534, 0.05102969880506901, 0.005760601749977222, 0.04318629774587956, 0.04250830784918243, 0.04580188111919633, -0.04598178571298021, -0.031539662833727077, 0.013844667904975594, -0.004880336563386593, 0.006796333599755227, -0.011872618511722903, 9.539816865431767E-4, 0.005011240057021411, -0.005214910225563909, -0.033116659633950433, -0.03109068849066621, -0.05250944203081503, -0.01126927068314357, -0.03102411913410508, 0.0019971102081975103, -0.02483969555933047, -0.005929402494390341, 0.04126606447024396, 2.5791554676902E-4, -0.054073719952493056, -0.011888003655396873, -0.015354200518636714, 0.07399059333155415, -0.04150726542364046, 0.028219534231829692, 0.061284741431156885, 0.04442547203236905, -0.014350323420234918, -0.027857076596881948, 0.040540639545982214, 0.07500560154749447, 0.0036656411076572766, 0.01729893255172283, -0.015033938133513638, -0.01493613911165734, 0.008567807092471388, 0.03518634782041303, -0.06525785453770898, 0.0015040640426761988, 0.011402796341572602, 0.022712914560656845, 0.008672968509928122, -0.034187164559622764, 0.048018705014871814],
[0.08919543370443182, -0.023028170122796565, 0.0418605777364469, -0.060339479172117946, 0.0351592978375739, 0.04283743009649473, -0.003695516114937323, 0.02455026012569692, 0.03182280292349327, -0.02892155615534518, -5.974438599425635E-4, -0.013765963839014756, -0.009479830968708275, 0.007683991448125873, 0.02458168620697233, 0.02974055722137792, -0.01778134542609152, 0.05303784003912733, 0.01925652265407003, 0.026027407019654926, 0.02497163010281387, 0.009617416141546443, 0.023910007739551008, -0.01571068068818536, 0.015652706759010277, 0.04035545656051937, -0.014580804085892221, 0.010788034915866383, 0.04403544655842475, -0.0014556624308768849, 0.006547713010473958, 0.07556550791770626, -0.004638933817516492, 0.017367891724529915, -0.03856257670212809, 0.041856930705563906, -0.02685068495346169, -0.024108141729816797, 0.0214203563541727, -0.054186751184509115, 0.026689089339544298, 0.044404016064457257, -0.004424061900340351, -0.03142122891332138, 0.0029408172014256757, 0.05236788687568329, 0.042869224218943, -0.042380159611999715, 0.022840829546788326, 0.03924803577642721, 0.024123122389505963, 0.003956882617258873, -0.01237926617428669, 0.004194021514921658, 0.004688834357811519, 0.024149159434442985, 0.009663863071718936, -0.008958025562185523, 0.03175668994561254, -0.0649613567991193, -0.031864093333748116, -0.030544318307347957, -0.058090616052408596, 0.0427492935167436, 9.864267380861752E-4, -0.02473879921996386, 0.002059931131502543, -0.016311233451216472, -0.04480538542427869, -0.026446171454304314, -0.002926109926041853, 0.035691885693464195, -0.043073335286232826, 0.011665457194350439, -0.018244852634241835, 0.007374984606901835, -0.10452489525588878, 0.043728091611650206, -0.008733817539564464, 0.012844861528840842, -0.007784771946768785, -0.01924291371716272, -0.015413006840576449, 0.052278679719423383, 0.020018807599802044, -0.0055646669080748135, 0.0626253509858961, 0.01678535531089634, -0.0032016689360799774, 0.05006961717257376, 0.05390002385329774, -7.511188823222397E-4, -0.060685920718181345, 0.03992910861306807, -0.008228215205855595, 0.06637341685078875, 0.01018297891460174, 0.0025074969968792286, -0.007088184695231548, 0.04022154727428562, 0.03528545230463618, -0.026759580618808284, -0.004676525398174294, 0.007550307782448605, -0.0010115045865929538, 0.02714015573439061, 0.007361315176801757, -0.014423415331492037, -0.07207923567926469, -0.0697603362553041, 0.00999074631192327, -0.0035795355595142383, -0.07607171644621917, -0.00834713258936241, -0.017028150229586928, -0.05892696457517183, -0.04629993078068765, -0.017417119145497546, -0.031231516351552847, -0.053748092625304514, -0.009027897351672023, -0.0015710006398157218, -0.023628258109155986, 0.0021349627685342478, 0.029646283129770197, -0.011034254995482171, 0.05497489692525891, 0.02318677900991295, -0.035075881239727304, 0.010237670228700193, 0.04388751876359479, 0.013441043051490478, 0.009102395237900976, 0.002068543243627657, 0.022697160630194144, 0.02227061741877497, 0.013181917032644347, 0.011779152989292638, -0.03599036646760153, -0.023869089911399913, -0.0023597579548460886, 0.002485305625668551, 0.09093621713457646, 0.0023210009495093975, 0.04598408087855589, 4.694418927452925E-4, -0.06723090088524612, -0.007268811940021811, -0.018599859806996393, 0.030107276623520918, 0.029876981424287512, 0.027341926186044512, -0.07802827879309247, 0.056010501400691935, 0.055203686902093034, 0.04193150398784308, -0.013092886645563878, 0.01314778720882072, -0.06661633404947702, 0.019665485426629648, 0.01319977929058599, 0.08689329473944693, -0.07879941257415538, 0.009424297330090942, 0.019060461289217488, -0.02134218674309401, -0.004090900612994429, 0.018390472402719026, -0.019595935501183943, 0.011711096017648925, -0.019812382000837347, 0.03863700891327119, 0.10489114209742274, 0.016044724120381045, -0.03909995149342719, 0.03321043924240576, -0.09286855199206355, -1.8273576608874298E-4, -0.031811890879546806, 0.00431196154973086, -0.05377284952792246, 0.03656004456615118, 0.041392522093662606, -0.05140936255658576, 6.019647856267991E-5, -0.026377608851719542, 0.028241162705050265, 0.0018588563225036738, 0.014984585649506272, -0.001734596622880298, 0.04151040737573525, -0.017519224682639386, -0.002299159701960602, -0.028172946659021567, 0.04209085821908277, 0.08007594413774302, -0.014366093693565585, -0.03506043102408436, -0.016514354742287123, 0.040653654374390114, 0.031167957857536215, 0.027595000626166814, 0.012668231442702066, -0.036305820967250435, 0.04176464290052693, 0.03257716253681007, 0.034189358320964126, 0.036743988779917226, 0.029811329467081003, -0.0010920005626368545, 0.027389768464669065, -0.0675370612922819, -0.06651425976343887, 0.034183059470672954, -0.040285604460971854, -0.03594270556247216, 0.009661085941789646, -0.05780229337612054, -0.03782490906110777, -0.003955311102672585, -0.050459995231333356, -0.04325170030179649, 0.013188873347794377, 0.05243997987773854, -7.255362997477576E-4, 0.015403182531047485, 0.021611606895495985, -0.08123732456501519, -0.0379076508566435, -0.009836859968532868, -0.04035916574979909, 0.028964607706536725, 0.02806961241569828, 0.06222900286972321, -0.032869687688322775, -0.016379892456190825, 0.008205739318490064, -0.06713909946158994, -0.014826226662166226, 0.0068945383959897215, 0.024371641916851473, -0.003214816429545204, -0.004622234549923539, -0.04986099392786087, -0.017823927055704507, -0.0020042283403430687, 0.028361501448378266, 0.020358379577414296, 0.0097076223102073, -0.003299341503023348, -0.023751687999260463, 0.026582284174798798, 0.026225236452968564, 0.01827185147921632, 0.05438461725476862, -0.04071665789239537, 0.017259217613958117, 0.050824387286777205, 0.04154126126578885, -0.024100971426712272, -0.012002862825210629, 0.027025215097615435, -0.006031016597363792, 0.0021697053287368174, -0.008664923078635417, -0.01341486196675773, -0.023786114212371444, -2.738445176131977E-4, 0.010889943473529834, -0.01813364378713029, 0.012576155346371267, 0.008073041261978879, -0.030255555152446996, -0.0056411585984198235, 0.010435962195119641, 0.056741736134027346, -0.04276886932651556, 0.00651604128897659, -0.015458621436206589, 0.00443382500337284, 0.012429188108034273, 0.024294138007598724, -0.037944021058322334, -0.047383550784211095, -0.052436381065864276, -0.007155900450082902, 0.06286925369528389, -0.01019180969193842, -0.012401014953623871, 0.01915485304586123, -0.026332722454379738, -0.01620736113926693, 0.010560742519303556, -0.004729749417124776, 0.013925763985530498, 0.039517927166951024, 0.007050718550608836, -0.007939418809177598, 0.027953718257851173, 0.025896977937204076, 0.04032006501464725, -0.00423711251178664, 0.054917192010816816, -0.0319576700460897, -0.009516589194514036, 0.013397642658093534, -0.02449828966304482, -0.026831792827669974, 0.02677518726245263, -0.026482041454583053, 0.021422658401755865, -0.025750797412452203, -0.046076227956480066, 0.019729713137287185, 0.02843497779331482, -0.021161634654230172, -0.0011873756905169985, 0.08827378904858955, -0.018667455230722142, -0.09158918469690233, 0.009236444425948382, 0.019543785062817506, -0.0048278622413331475, -0.002247530160274542, -0.019064354948132994, 0.027033563014494357, 0.018747382853103955, -0.028310166833533067, -0.03451032768792478, -0.017818206013306463, -0.014750910395745753, 0.0021226417043933216, -0.022852486130197903, 0.0171918142279092, -0.061486550172905115, 0.026460669449605536, -0.03469890389646922, 0.013162634953572177, 0.026936637374812552, -0.003828646581015169, 0.04577604795058821, 0.045428572190578866, 0.030991705688591616, -0.020649966022055908, -0.024735120678360697, -0.03566781014425733, -0.0564709651534252, 0.04524937655144696, 0.02653224443060315, 0.004605615637745308, -0.033108011942403696, -0.020299031365855678, 0.03815117763597261, -0.029733631645629345, 0.008455000125033203, 0.00858900529142013, 0.014941705404019215, -0.007617877741636659, 0.025380878985987815, 0.06503971248307437, 0.056055745889358265, 0.008488911421320631, -0.01360252882477735, -0.019306173753411794, -0.009978940806964615, -0.05643069553457538, -0.026820649585507592, 0.0015302781707446508, 0.004655129149186698, 0.024615777556823214, 0.0074079268537857205, -0.013117969454026114, 0.016455097903645004, -0.003823456071382593, 0.035765336707674754, -0.03862642951927724, -0.04832959522139478, -0.009744004534327496, -0.006086332879305737, 0.053475597648765465, 0.01284659802552589, 0.053118328334595906, -0.00652274800629224, 0.033347678387731255, -0.026969557957710843, 0.027152874851111345, 0.06472511258319118, -0.06029281176680594, -0.01015449299296044, 0.002578596020257414, 0.02377128584756928, -0.03850992439500022, 0.0018916407621281535, -0.01391345200125503, -0.011591434486765698, 0.050753343405986286, 0.001373638528384671, 0.04144906091762289, 0.0021467256795721966, -0.051463382645335766, 0.011781318804209075, -0.02706495818771648, 0.06293093053030202, 0.026130077370223687, -0.013669156179000401, 0.014466205159592264, -0.021346713814784403, -0.007251251574790072, -0.010336817626276506, -0.0013087845284848964, 0.09689594717442473, -0.0022328317038285903, 0.007139373953712252, -0.023494563072544574, 0.003922686956542804, -0.07575840558700166, 0.006183992428114782, -0.005811162249109769, -0.013067132316799254, -0.019459543974647695, -0.07397546078174479, -0.01344940470408662, 0.005440602878654804, -0.017369141116257644, -0.00770291830596464, 0.018426003504387913, 0.054263597472351134, -0.011685380508763572, -0.05214034250666892, 7.908505098703913E-4, 0.03130685930988163, 0.03037864284192731, 0.014578755688458825, 0.0671446389770871, -0.008241570624300623, 0.05204637490470787, -0.04729527259237171, -0.01235359386664831, -0.012601392423191195, 0.05320857794906394, -0.03217424091868187, -0.011316775486721569, 0.09446522095523922, -0.017604067862325934, 0.06202046917760694, -0.03730579758840828, -0.011591011433169077, -0.00142308078313331, 0.04074695614484969, -0.001282100789483248, 0.0023482708518368076, -0.058309661663198696, -0.009378020924011752, 0.018410264539144995, -0.04715216585220893, -0.009049056810121161, -0.07684169414557454, 0.03295563474030678, 0.005564286413204936, 0.012270311933657295, 0.022149706968264505, 0.11408314913423223, 0.048967591663421815, -0.05014183693616574, -0.03367878115567556, 0.02363279253822015, 0.058826115652615495, 0.044169298890988355, -0.008600575898204229, -0.01046739306418138, -0.0063700254003334475, 0.012620761591566342, 0.009186607753640259, 0.08214793442059339, -0.01594626525907445, 5.264184477240272E-4, 0.013006680747042537, 0.002549457113129868, -0.04841964317821511, -0.0822036145628282, 0.018720276021319333, -1.5326799937229296E-5, -0.027528532688487494, -0.054291929060430476, -0.04574108811225377, 0.001178801161467783, 0.01335203126904172, 0.003629733030369374, 0.012709443386073766, -0.009978600633813966, 0.07571451020851086, 0.003704389461884091, 0.006727857687351528, 0.01754461002134306, -0.002503047743079128, -0.02177493739034831, -0.05668594384867125, 0.03505689200994514, -5.877316347939712E-4, -0.010021460568420817, -0.03356042051306126, 0.029564601556265595, 0.04345326386932256, 0.038034457645082995, 0.01966273127256767, -0.0030263727693732186, 0.0011942072281727466, 0.0030694667473806824, 0.01283089397383942, 0.03745273895763403, 0.06313353540085431, 0.04538272398616062, -0.012799228265291554, -0.01926347001941222, 0.0242077921946459, -0.040714063326703805, 0.037700974675894526, -0.021106449582250768, -0.04382340803390835, 0.0027366571739906023, -0.02055168984882002, -0.01599897679797049, 0.019240670335763276, 0.01677138885353083, 0.02791679156955012, -0.022670580083965882, -0.05974416784554639, -0.005242836315113708, 0.03217224953748445, -0.0029198397306666158, 0.043339848443695164, 0.03168496776544635, -0.04368462643372852, -0.050142966395177346, -0.021739004400950907, -0.04537466479625205, -0.04652328145686417, -0.02673380399739349, -0.019749073493760875, 0.025022377302796193, -0.04420895532522373, 0.04700888630471402, -0.0048476772972336005, 0.011457931173724746, -0.03454562590104514, -0.0038900934863480537, -0.003907684905903794, 0.039217147374302895, -0.02167737704987135, -0.01977929631288719, 0.019470663139605916, 0.013212364013475914, 0.06526911178744975, -0.00915649678335202, -0.003182281286005335, -0.006488010061703039, 0.02222029783147017, -0.015597293338962986, 0.02944744167291006, 0.04366826250106726, -0.02411555430778398, -0.060137065378800626, 0.007417447463330097, 0.012247666845649709, 0.002176413035109809, -0.004031117243090227, 0.020520687207138094, 0.0032968178735807534, 0.04804973591944672, -0.0198296397283908, -0.05867883912023897, 0.033903938716156705, -0.03375192263841367, -0.00846256232508967, -0.005325967828528242, -0.03442330869478801, -0.03343395903789608, -0.020089156142644355, -0.021953752588622637, -0.03063201649520327, 0.030688083770732878, -0.06811417897264146, -0.0015667292407216247, -0.018431264004345527, -0.03747213569222961, -0.031873664765826946, -0.03806454278054603, -0.02272265496219759, 0.01169533367731276, -0.035291930667406816, -0.0017048867469432792, -0.023681618280000847, 0.023649991035069335, 0.07822302342056942, 7.689230421090606E-4, -0.018520363509101766, 0.03574390170641502, 0.044496527296609766, 0.015302195931653804, 0.010632771001867368, 4.3540823598317335E-4, -0.025633187460861552, 0.00940877953258232, -0.014090303055788293, -0.059486967266789495, 0.1053449362246756, 0.01269027664874755, 0.04213732722364053, -0.024015998015804892, 0.032690765138404874, 0.044568185309360964, -0.05565844695375306, 0.03315611046536795, 0.10339280167737541, -0.029866106615103437, 0.033477889101715445, 0.02519336864005761, -0.06577680843488677, -0.02011627415332373, 0.0024250589636910487, 0.02340694055548221, 0.029360733884198253, -0.01925741940093808, -0.04372912659162857, -0.032368181494247396, 0.03753747002026449, -0.021054711325441726, 0.0290875818416518, 0.001774711784218121, -0.014497232799882085, -0.042611870411945404, 0.08301675858549107, -0.001758963522730821, -0.003184236374277006, -0.014522402471768753, -0.01771912462463391, 0.07998322191060425, -0.043445955341359546, -0.014324343105339005, -0.021608395951283867, 0.004458710721644319, -0.02282242601997187, 0.04804896996555369, -0.014633797613575094, -0.02697854459872543, 0.023200861898636925, -0.020927878257812282, 0.03674037513895797, -0.06598337694469229, -0.004614163788449295, 0.004698962354759118, -0.023650736029315805, -0.006401911514408956, -0.051487583377166364, 0.06562957064419067, 0.03081765207742427, -0.010989224833204124, -0.01926399664615353, -0.019926687328464084, 0.00598319620120724, 0.0011142343359788183, -6.28380071245852E-4, 0.0026672909316340725, -0.015852114265865885, 0.033480781673755934, -0.10175723306448456, -8.93573909829563E-4, 0.0023040381307629335, 0.027349337706345702, -0.05943659329424246, -0.06978849690780135, -0.03667197263951593, 0.013445496446021837, -0.0170117408117587, 0.046990907980790045, -0.015414961136785614, -0.022954475665230883, -0.014848033258827746, -0.015201317758430397, 0.08633798920830993, -0.04108703767895575, -0.026486985459243977, -0.008912510912102857, -0.05243419506087431, 0.0743177420329501, 0.024626961833092625, 0.009097787907661812, 0.04676374525333205, 0.05983728521769475, -0.005880651101793895, 0.009106917295911048, 0.001778824149835666, 0.018389062946092886, -0.0065367130259413745, -0.04605745614694117, 0.03142285025255415, 0.01419498004095256, -0.017105730770879853, -0.022449829300719513, 0.042045434162072924, -0.062478152819834314, -0.02796603383255349, -0.012614001350999363, 0.0185436829135494, 0.027725494160111736, -0.06901717475566975, 0.04487293765155498, 0.019692038041256157, -0.005421529549217854, 0.0722745266457839, 0.013110375584931314, 0.055289558223899936, 0.0010845172646012013, 0.007577505761067621, -0.04044656937774208, 0.0029990296967908362, 0.028723401175698045, -0.027286677615140798, 0.0012001189324994297, -0.015236044424163457, 0.0697722904344202, -0.0173409562825087, 0.026035050946213518, 0.005119715666707242, -0.045202683662048285, 0.01975710860031291, -0.0016998002834192774, -0.04692161577091951, -0.016488212294730787, 0.03647893919879839, 6.567783584964752E-4, 0.0054805092239291085, -0.06428903885899064, 0.07023698961811731, -0.02633113238924392, 0.009942966332999823, 0.04678853143616812, 0.03641320110038881, -0.02345017216934333, -0.013540890066823292, -0.019584089416811546, 0.022039007262076298, 0.018130685169377766, -0.02744610272027976, 0.05291124279159914, 0.016683797637009536, 0.074905620661217, -0.07606875703908364, 0.03680724765772036, -0.012269377261941248, -0.011793528667782395, -0.0066974795371295475, 0.029390566637450762, 0.008377033447100361, 0.031002195193327198, -0.023622517780159086, 0.04144354773235779, -0.018201911192761537, -0.019876263717872815, -0.029121414524641138, 0.02633410922177438, -0.03478501127681996, -0.02743529197835806, 0.013815796009751012, 0.019225856696007126, 0.053667991460865504, 0.034949617532096376, -0.060479133619264144, -0.035457412989639454, -8.921297985559005E-4, 0.0968531130459473, -0.0038483135387167087, 0.0011530239622203722, 0.020543232561021953, -0.014728326313899347, 0.04510082812122934, -0.01708130593869806, 0.035048193037698544, 0.05251332271293478, 0.029924472029192066, 0.029712731492328243, -0.020855690781991287, 0.056556427829918814, 0.004265224708362053],
[0.03854238313974627, 0.043337252621653076, 0.04644313948055938, -0.04706108819740662, 0.016300461285107492, -0.01424259963465499, 0.007201838029829002, -0.029229358748494184, 0.07417943692880781, 0.06491590564515123, -0.026603979979278037, -0.003231355675844061, 0.021442811766251558, 0.00940238095255778, -0.07135128321791788, 0.019251525448890087, 0.026484457996329987, -0.0042206335761902445, -0.03760712849872023, 0.021925989957397956, -0.09501909058689524, 0.03952967464480829, -0.004641625991414566, -0.04795734949336246, 0.00535547314141406, -0.03601443400570139, -0.0635577092086868, 0.01929789574510951, -0.03763380540470235, 0.03473882868965492, 0.016225395784035892, 0.016559922957968008, 0.006085380580988645, -0.07464529477554273, 0.029767493957063483, 0.05577773028787553, -0.03205976268352115, 0.039524093395038866, -0.0036052834828748936, 0.023865898191519998, -0.044012210812709264, 0.0029622367587166707, 0.062060083896918826, -0.009635725362491286, -0.005061934182082411, -0.0461716283953912, -0.03376216485480134, -0.09217935646048235, -0.06664291969949161, -0.04739946084512243, -0.02979807885770348, -0.02644302941788321, -0.01004334532880218, 0.012783653723472746, -4.398143468928886E-4, -0.01624303322393187, 0.05315960730925651, -0.02710219216390152, 0.013643119954564343, 0.010720848511230282, 0.007525563152049193, -0.004447520818008041, -0.005140913688947824, 0.011826430265134233, 0.004647409445529464, 0.0033119792861162787, -0.06891724800299805, 0.021886754116672385, 0.03555483432400983, 0.015270449299049438, -0.023925248495264444, 0.03422767582556472, -0.044518021687573565, 0.04232299872358337, 0.018779942685803182, 0.01887139120508919, -0.016164008568764168, -0.04758954041934551, 0.030870983615724844, 0.017208404699729087, 0.03840969725533978, -0.06700727241607121, -0.028867853310367373, -0.06471142754051533, -0.00451454658670864, -0.01643357159291753, -0.04595209500616844, -0.011343749371202754, 0.07773532051411224, 0.010500121204283131, 0.04284767911967742, 0.012631190116161014, -0.06563845617972291, 0.0357554436805376, 0.017887025049170665, 0.00391217828777701, 0.058817062667463824, -0.014584059741539592, 0.06851604997111127, 0.060279943439746346, -0.05017206974107546, 0.004727762421620484, -0.00918702964255454, -0.001491965704067295, 0.09341182468936945, -0.024063987001948613, 0.028875989692997952, -0.013522530415476932, -7.038258729629567E-4, 0.04874991922974612, 0.042656988310989984, -0.029163027541709925, -0.0628719749021213, -0.02182408339156156, -0.021355868758225902, 0.04310013294990111, -0.05714840556873712, 0.025525134608200665, -0.026750673882391406, -0.028738542934616, -0.010784900540274372, -6.647412510608136E-4, -0.007814770353202457, 0.011908437051317767, -0.016899497627694333, 0.05881678897116923, 0.010226096348152702, 0.030670147665993207, 0.03904699902104696, 0.02548514687570263, 0.014671832069231559, 0.01606767656342953, -0.02171809378180697, -0.010943617627471803, -0.0189827316685495, 0.014302861561725997, 0.054174314064477716, -0.0349171231027383, 0.0341033653178412, -0.08577687663410852, -0.09341578086326455, 0.0074540603504889965, -0.004890433343264081, 0.015811098341660005, 0.05021675587927219, 0.04600504337511929, -0.0019818452301364363, 0.02032531734394614, 0.012986240632512715, 0.0065562065665850724, -0.041582301191841024, -0.0035300518788718453, 0.014489789945963876, 0.046794851800315715, 0.02328768461755471, 0.044116615521937894, 0.06068782676958233, -0.010761849793925969, 0.020576494716736653, -0.03992149051372645, -0.04654801160639086, -0.047786737680946934, -0.008402235792750378, 0.0021461479935602455, 0.08730167976161984, -0.0026797269017002747, -0.057047861091806075, 0.025288273437481062, 0.00815650481762421, -0.008463579012086763, 0.04807143344904553, -0.023286096235377755, 0.009264381570679535, -0.030707887504986823, -0.01678747778799598, -0.032233573395390604, 0.03492998861140796, -0.07237465622523799, -0.012717787356300008, 0.013366837506907158, 0.025952920486884412, -0.0638239510476203, -0.0029602251312519923, 0.07817383018686518, 0.042197298283391346, -0.006877013981059597, -0.023268766328885148, -0.06372706600242008, 0.05827949502555807, -0.031721538954196014, -0.04128437852524581, 0.056110546815535935, -0.03588121846888086, 0.0031663482484950204, 0.02669402474482238, -0.004461906187241782, 0.023784196716280338, -0.0015236294218324172, -0.028959874907678616, 0.0345715886652077, 0.06434097464061889, -0.055545829814100375, 0.01922142927992008, -0.04741785741327156, -0.00914573133252254, 0.01133227792026636, 0.036780542766212544, 0.02710849297614806, -0.02279196703920913, -0.0794175369447668, 0.030262849865711126, 0.008545763357316764, 0.008087821100163166, -0.08807096490588295, 0.032638803105047146, 0.022924766263360725, -0.0037122068620915115, -0.04215194448544084, -0.018614448482979436, -0.014925196965858867, -0.04334726438781704, -0.019489524324150697, -0.04470540465499228, -0.017899926259094562, 0.009939403305294095, 3.6351657034226764E-4, -0.010923419913598539, 0.0032880292491713346, -0.03356286182420104, -4.142706651989862E-4, 0.02416656833697105, -0.013694815398771388, 0.0171532363851222, -0.01676000869333302, -0.0013614982975880252, 0.01829130340736145, -0.03891377746630786, -0.04959197335522477, -0.001969127456752882, 0.023860619202676066, -0.03970062524625156, -0.01718308665424227, -0.027435405953246835, 0.01757634018634294, -0.00593483511534935, 0.016294511856328894, 0.017481531214212493, -0.015911409584289115, -0.03356514003149649, 0.06995599233429177, 0.04968470461353156, -0.009874646548988534, -0.011162188501671041, 0.0026809753186088484, -0.011633956391498262, -0.01767152906656134, -0.005956843355071633, -0.06494568071089933, -0.004852299920688077, 0.0785873479160507, -0.038886102095475564, -0.033699691171912946, -0.00635425178535254, -2.4412121710056512E-4, -0.0217663714726489, -0.04015131504747844, 0.02540823865956837, 0.03441104250022908, -0.02878297192867119, -0.04400669066927313, -0.04393678561283639, 0.0848337195521403, 0.0071136590764326125, -0.019555984785104695, 0.003029874552637618, 0.023933840893727184, -0.04964261957164902, 2.1055512247545523E-4, -0.004848449071572252, -0.03572955251931608, -0.017927296522752465, -0.028626729357832035, -0.04721843012294685, -0.008461787091376748, -1.0614751741495315E-4, 0.016218827198454567, 0.015131918620738332, -0.08948680953157126, 0.031707131549585835, 0.024522952133360452, 0.01640756729904442, -0.05499994061104714, 0.005579271082827443, -0.031862609461080896, 0.018229614574773356, 0.036887286365923484, -0.02371507256320404, 0.04017342723678237, 0.036409948417475704, -0.03605744165606426, -0.006818024471024239, 0.023681698490538205, 0.016541032923321354, -0.004025661324838123, 0.02189648268199992, 0.045195086188137945, 0.0013871869112826833, -0.0322564345099381, 0.034046411158948894, 0.03931192810422792, 0.042891297179982905, 0.0529738673228013, 0.02664971373250747, 0.010198274949050465, -0.038386682860890954, 0.007234921837412517, -0.0017229826053470397, 0.008945949221748151, -0.038111218095054966, -0.01941423738069244, -0.062069865132671355, 0.016694043785197447, -0.016850753289649478, -0.02955745733964368, 0.020075938656896813, 0.010215933533448195, 0.031610968324591, -0.0501831451756334, 0.006044868012579595, -0.06001751275586002, -0.004526381098490999, 0.05454551016100885, 0.009345763425321169, -0.027464602891679187, -0.007079428154263721, 0.013720556434660887, 5.722303913867762E-4, 0.03961121530189461, 0.08542487876079237, -0.003582589992541401, -0.010867341254466548, 0.025254779196760096, -0.09645013105711278, -0.011070690191552617, -0.047079323971951116, 0.017735403276004955, -0.0567361987842689, -0.010011599279574878, -0.009228443388993781, -0.010892505463598419, -0.016849805801992388, -0.018978429133795677, 0.039604130804393664, -0.0038891404914182556, 0.016279904909371087, -0.06475090746033857, 0.012761491559587999, -0.022668756924592026, -0.009087827106887774, -0.006732594046877712, 0.013956355883326499, -0.009219201515278793, 0.007745929599612928, -0.035052270100944805, -0.017703439336887127, -0.030877809169009413, 0.023812465046393266, 7.501785098752858E-4, 0.05937414860004555, -0.05518713092225469, -0.01094801922543619, -0.056547924196912853, 0.006544975645098604, 0.053419307181257265, 0.05094554801025981, -0.046788611655517745, -0.018432901048521407, -0.006893828965285791, 0.022399818559283476, -0.022234921681259266, 0.02112372475236581, -0.017982945700401237, 0.004022964631048529, 0.04637804442974685, 0.007375502134994971, 0.035845956896441496, -0.06949722715952424, -0.022437450812832032, 0.041238587690682046, -0.008618838854238423, -0.009594925266782134, 0.040753028473561735, 0.04710636745807952, 0.01789632041755585, -0.0048793812396263165, -0.01445946395579034, -0.04027182915501243, 0.06082261204498046, 0.08708453857873269, 0.016981547222444146, -0.02022253094546834, -0.023232923071454213, -0.04855358283823304, 0.017579057357365976, 0.0058014237179281804, 0.0069310288282646215, 0.012675614990503221, 0.004187906602394642, -0.011364501295051873, 0.07181995620352787, 0.008596270197855634, 0.0072427056823080255, -0.026904722143958414, 0.05430210210976181, 0.02351348598269024, 0.06797930828168457, 0.032056520029841794, 0.0071811440392350245, 0.03599683476453929, -0.039191443128046045, 0.012498170592564441, 0.001968029192034412, -0.0010940589567728259, 0.06576543178967383, 0.019817795283974017, 0.07918167188661339, 0.059346278416526545, -0.016950362977909715, -0.03571422680251242, -0.0035245839313096773, 0.003244744480938648, -0.01756522391498783, -0.028519198610922978, 0.0467888178919838, 0.036576060388858904, -0.015738731084509995, -0.017446164379757746, 0.0799711546401988, 0.04198296733208423, -0.04989481316399449, 0.022822824810005703, 0.00849562789622753, -0.05150288847963785, 0.008769019241611338, -0.0467625409925821, 0.009705896034798508, 0.0070115859392645115, -0.028375788257637646, -0.07472718394557316, 0.03326184834966725, -0.0687127873545003, 0.008859435178961731, -0.043436670244451844, 0.049500119364820606, 0.08045830586128166, 0.06759399207191223, 0.025979007038571728, 0.013685604412627035, -0.019349965853807938, -0.03334395962537999, -0.06334365931348283, 0.0073361707801966325, 0.040139093219591096, -0.0430035333034683, 0.023897671779846728, 0.04590313075017642, 0.05373000921689038, 0.04815487492318655, 0.02384964008968179, -0.002794680287210996, 0.04798354314855467, 0.028555109689041024, 0.006656755523723088, 0.034831580264689056, 0.02552150417312502, 0.04615859613378883, 0.00993378049522373, 0.02188612722576397, -0.00443767173471621, -0.03254171776460787, 0.005204250037939767, -0.013959357556211216, 0.04440091999956246, -0.039256461021537174, 0.04491905708001381, 0.019143600382421903, 0.0428900051830838, -0.018566668015088158, 0.0016994061671658685, 0.058009853882214454, 0.06719994831956345, 0.03311177739647822, -0.0804643690476279, -0.013599925698440794, -0.040683326512608496, -0.003635563653051938, 0.05287376882468122, 0.0069751796123646405, -0.003601328427254202, -0.05399127733960602, -0.007008157008134547, -0.01813925496648117, -0.059394219423825376, -0.038688715208529886, 0.038179233708651325, -0.031086229734742794, -0.01834170194545256, -0.029282020580343186, -0.025911618353546603, -0.06291706462434885, -0.05090470624099761, -0.023248801153331722, -0.02166150682450199, -0.025535522369639792, -0.026875361441392236, -0.034566141088941585, -0.0019010178608854095, 0.02675034243976519, -0.030903553145899106, 0.005367340243490095, 0.0057771351964742215, -0.022219094157246103, -0.014897018858459099, -0.013392903481037737, 0.01434531574605378, -0.023480741474848955, -0.024799879641033962, 0.021047681182369136, 0.011567760074818417, 7.26318302877317E-4, -0.07573305402309517, 0.018837895323236153, -0.03110594432881505, -0.05757392563941099, 0.004746431825960379, -0.041521870241829566, 0.006674086283098816, 0.04460346662672753, -0.04132350543333002, -0.018626199903451192, -0.050539764204843185, -0.0029812546827478964, 0.006853429279579108, 0.036574484712367614, -0.02699658122650605, 0.0038751656903179355, -0.0018817646600231314, -0.019180924970571767, 0.08860349455995158, 0.0443383991750636, 0.00890782878021949, -0.03766624844160038, 0.01180902506619076, -0.012998697123483274, -0.01677744641709076, -0.05798795827808247, 0.01977992769565984, 0.021844346537026663, -0.03197769641212384, -0.008351968760663612, -0.014993253497395309, -0.023295290305211224, -0.06252762218491922, -0.026364306412194415, -0.0017756304101540692, 0.015201529827826231, -0.0035363830292459942, 0.0012487282704863028, -0.09228485184569249, -0.026506362659962163, 0.044338160948442666, 0.016877362138587194, -0.03257600753529505, 0.044301128524651116, 0.01676720828111542, -0.02237312373421609, -0.0696671320739959, 0.02973707190953225, -0.026003986007998258, 0.05228690772489163, -0.0100477027858828, -0.0644180761086408, 5.567112546329265E-4, -5.295124002118556E-5, 0.010393063136513071, 0.008037499954246899, -0.043491251897918436, 0.02830849021295506, -0.004402474300218583, 0.02087560639101779, 0.06275711117443226, -0.00909625524798873, -0.001693097974509047, -0.03896855332908662, -0.0019048256859663798, 0.03533542882099884, -0.010230005497908925, -0.007870915267351076, 0.04808510964840014, -0.006961682752921076, 0.0313759275074954, -0.0038219950387742532, 0.04109631029836989, 0.010886893644201288, 0.0025095720138983584, 0.04677377256936136, 0.013752907588484391, -0.035820943817810404, -0.03799231684445028, 0.07736379845576002, -0.08758520708961558, -0.032888345224420454, 0.08494279940878724, 0.0413847296937671, -6.247322596153233E-4, 0.022051953178966938, 0.035560250544776024, -2.8888428371019644E-4, -0.019386290053982045, -0.0389940640469395, 0.016150734186435867, -0.037588386704424014, 0.028761846714181704, -0.009678840515350475, 0.0026643432481799306, 0.0020461892389565927, 0.07834441240231796, 6.204392088885336E-4, -0.004487924669768275, -0.014410170924175842, -0.03503514150581436, 0.036123372805887614, -0.011479647362211914, 0.04541523456500511, -0.040290050168125556, -0.009976466970720483, 0.014721889061859662, -0.006077921129445848, -0.0695995993381811, -0.045515134428652106, 0.08893886763610234, 0.06724164740991316, -0.07911231384415104, 0.028662140287557526, -0.05647694256275775, -0.013987564745857902, -0.017996243526656148, -0.010033778587642511, 0.04076535747670174, -0.027495904158877017, 0.03182763259652992, 0.046029673101078535, -0.02005908918861096, 0.01357787835663421, 0.05753884425032969, 0.007085274715006328, -0.03896813358113794, -0.03373444337867148, -0.021200594296301393, -0.05393180624827983, -0.05083979185531413, -0.045218052575130126, -0.04322118258584383, 0.08246459355420535, 0.0023767027327917423, 0.052926469675037176, 0.004740638600559692, 0.005452184943756331, 0.04126983813855323, 0.017212741437214157, 0.01883609559835295, 0.07847937198196728, -0.003917227718399, -0.04459432420583382, -0.038536789195314565, -0.060444893577601126, -0.03475550882657914, -0.017316737532113494, 0.044580262296623215, 0.001738313436230442, 0.012305718735568636, 0.0712387663445669, -0.028049426730253135, 0.021255595469085925, -0.00511762625884367, 0.04996302063990151, -0.0586926003167849, 0.04485661480108239, 0.024019638862868408, -0.012417609840151143, 0.05544807903182085, -0.01767351095913366, 0.020289006570944373, -0.09977709559402469, -0.03526884388607455, 7.427118381204972E-4, 0.01889763706367325, -0.01008986236414002, 0.046915571477886324, 0.01869578647192908, 0.04596617953073377, 0.06167702208631653, -0.0448524344628076, 0.0058087572719910385, -0.02716175499583084, 0.056813760672101324, 0.01865285470055905, 0.031107666543986306, 0.030222199571133486, 0.0025468751143259984, 0.013366855393086468, -0.0039886347829557215, -0.007863735548397735, -0.03211625504993361, -0.00533727728392385, 0.017926859744578305, 0.05145162549666486, -0.015243666816935012, 0.039082615745219595, 0.0018861014278209916, 0.0335898793718779, -0.015035847953157882, 0.029085083051301874, 0.0339618890009226, -0.08575427918066424, -0.006712736416357286, -0.08555850834483769, -0.04202408772867478, -0.029984248436653895, 0.021724474709253212, 0.0401651370145775, -0.005100086012766907, 0.02503384683866918, -0.0076286654991110986, 0.016403409675783347, -0.12024044525773196, 0.009899728517818425, -0.024323264018059374, -0.017282801607657775, 0.029717626792420675, -0.027348389226966443, 0.03888355829757877, -0.030482441523372244, -0.0295818297884435, -0.013463118517901744, -0.00291825221224121, 0.049989164199932094, -0.06725784700685575, -0.03213321845251451, 0.0064105655795286196, 0.03143971997874898, -0.07061158143446669, -0.023091097758532138, 0.006751146814505708, -0.04961513139310879, -0.01924081761998909, -0.031828147664552484, -0.003286574881179912, 0.032950560737218824, 0.005317489223103528, -0.00837372784657296, -0.03061274824097098, -0.02196156084532078, 0.03467219539735885, -0.013837292476260879, 0.021412381253242376, -0.023911459211243987, 0.0665972065293171, -5.198757654740963E-4, 0.041734924665950815, 0.01973255535898037, 0.03474131261506716, 0.024948786864956034, -0.013289787043946419, 0.021937609088001152, -0.030881719513729946, -0.009544528567044934, 0.006693708779554318, 0.02538524583812177, 0.058387335758635535, 0.0016232717198858902, -0.025852633193612074, 0.0033307283459184855, -0.019406214788936456],
[0.046716475356282476, -0.004199092608708199, 0.0022361072734699817, 0.02144107649704503, -0.020576891819466595, -0.024856701968605073, 0.008926258146402593, 0.05736343163877509, -0.00369831596262989, 0.027467257757576684, 0.008607636968888879, 0.032715285244577244, -0.007515525360265999, -0.01970010014233554, -0.043091856439083566, 0.028280313341557114, -0.02553877098051402, 0.05989619607081841, 0.009091717192938702, -0.01038218279413604, -0.015947788947634888, 0.017755378378052213, -0.004340875331895372, 0.014277715076988088, -0.019494115745598294, -0.0715364909523887, 0.018152487818508523, 0.03468940890975325, -0.041181576222013475, -0.009515321281698632, 7.4662607926995E-4, 0.03949083860582104, 0.0159861987107143, -0.010799680896058825, -0.019314930680516727, 0.00465833266720926, 0.05737775129126775, -0.006568247432847202, 0.03494324501002719, 0.021397116155519886, -0.02043730734862479, 0.030150556284129517, -0.021880309436600305, -0.007065325892592686, 0.012128985562111602, -0.015965369959283805, 0.0021341551784155558, -0.04316322182550813, 0.006877715919607065, 0.045765043828599083, -0.06170832370395623, 0.0165889522581403, 0.019056325255677662, -0.0015479928842085813, -0.017610880339726097, 0.005649545394663933, 0.024217915374523512, -0.0406140704555374, 0.021344078045351645, 0.05365717584707852, 0.004109315819640037, -0.015948443074255865, 0.05419230494477012, 0.032804833700590966, 0.0317615061713031, 0.005363753047433457, -0.07613194755139294, -0.035949845988036286, -4.2232483519039305E-4, 0.06447753786011405, -0.03711830537788074, -0.0315104617197444, -0.003939042144386877, 0.050183539009848774, -0.025950537135438177, -0.026523574164132722, 0.03737029177403034, 0.0854557630473478, 0.022974270376152833, 0.059145424019572915, -0.02772615075530886, -0.04506592716529654, -0.026394602762066007, 0.019730117987072728, -9.532127262334621E-4, -0.04390097780378786, 0.005532976867846956, 0.0534878339542628, -0.05744601086335209, 0.009759707436845264, -0.02721089007737068, 0.0720296230207098, -0.01899216951128455, 0.0061758819812952614, -0.038845636428878345, -0.03433941743391233, 0.030089899496186654, 0.0066363513182344765, -0.0689475059949385, 0.0628241142040181, 0.030954628475071116, -0.008713215838457359, -0.017842764217548726, -0.020851921102902522, 0.042039223732746496, -0.05050033393438431, -0.00853627345712857, 0.015003896953459498, 0.03274714036275777, -0.06169309258961581, -0.007755728573684095, -0.027387316290046575, -0.027209056824004266, 0.0037725668264956993, 0.026673641824452452, -0.11672693699243852, -0.009938301663838687, 0.027376779625582156, 0.07702630297911738, -0.044427216939542165, -0.007210055112862349, -0.020449591265287167, 0.006082415046085426, -0.04693650604780907, 0.0012184997314330485, -0.04782633781180757, 0.013497646217313534, 0.03315036749657536, -0.017123312407129002, 0.014240100897834491, 0.005482374518979076, -0.042179164119055715, 0.050611838985227864, 0.0022884356017443715, -0.04096545181698397, -0.01909093765964936, 0.030782981355409328, 0.005243119292876018, -0.008379810163106053, 0.035072992212389215, -0.036414714986057396, -0.02895353244842954, 0.015096318513465956, -0.004009905782908463, -0.02919896272897035, -0.02204676351649176, 0.04211038387338905, -0.035869752228616936, 0.022782407889823997, -0.0012333144974971022, -0.02913395025552514, 0.05111541029577534, 0.031232151897239317, -0.020301138043051985, 0.0235190169171207, -0.03204218610741988, -0.049709774945124845, -0.03992011719545873, -0.04201387435606798, 0.016400647547419763, -0.037471485681923676, 0.02551731530642099, 0.026327097839582324, 0.05310644249965002, 0.06344345448473401, 0.007175217996455633, -0.024693811993345593, -0.021908338483225688, -0.042373999562514204, 0.018564672016443805, 0.03308570482929694, 0.033635131602590004, 0.02501374374860699, 0.023000740784361404, -0.0222543953955586, 0.04876377530874625, 0.007890373595027197, -0.02611895748028009, 0.023368680548603443, -0.01313573311947637, 0.030236324017401527, -0.022564838014990013, 0.0013699500621098082, 0.005580415631874476, 0.0271108923260431, 0.027642158656471454, -8.263558204203792E-4, -0.014329701010547239, 0.06189300913051942, 0.005790805235895083, 0.005160336876518337, -0.056983316405846085, -0.0020824169530281335, 0.06762099139614589, 0.043347496166143126, 0.060069960230848825, -0.02710229088117069, -0.0036290962681122846, 0.049202759166371665, -0.01728513948541341, -0.05031337324373294, 0.058044557769317835, 0.02857844680518484, 0.0019015006704258142, 0.025035915109626362, -0.016813155832671362, 0.012415160844706726, 0.01772551823561717, 0.03116213652609748, -0.01915055744342094, -0.040343444701419075, -0.002203836086160708, 0.002809611645552823, -0.10922209900480596, 0.03768011272439408, -0.02089691942369715, 0.03324043788968206, -0.07042990577487665, -0.009946208548824557, -0.013357763326789573, 0.02499541370344779, 0.03678801380643427, 0.03761468447150329, -0.03588667051904869, 0.007091029917079287, -0.014930090678262007, 0.03954153835746812, -0.007940292383908186, -0.003943401300318948, 0.03459607393083244, 0.009324818601856579, -0.09107603822233519, -0.018757475344751594, 0.004558894847362577, 0.030726656108485635, 0.025318381044645594, -0.01794722952177329, -0.03042674753024887, -0.00848520337015072, 0.018930714046461204, -0.003986571445056426, -0.016990687972058806, -0.035063475517210334, 0.038656249222118466, 0.022621488700125408, -0.02010689771961036, -0.036002000914054644, -6.049416613558231E-4, -0.020243717750903934, 0.013318369857935866, 0.031413925939713414, 0.042330252529294225, -0.03852828537783064, -0.04568730337750266, -0.006172961985618231, -0.029503295480306762, 0.015867633866727147, -0.004167453240092289, -0.06745052789071662, 0.0032534608490182655, -0.021618132526617734, -0.02732346199639393, 0.07408929413243352, -8.061206188278048E-4, -0.03350395883224714, 0.04078226390684599, -0.02835333130426117, 0.04736773325304085, 0.03460944239610965, 0.02934982441292346, -0.010922269684968011, -0.005338876371540019, -0.030811514715383355, -0.014841430339520564, 0.009745205014053474, -0.0424282472145439, 0.0473264146153796, 0.02075565427717505, 0.010150861055264295, 0.0108601023024282, 0.003358918695424216, -0.010231223366268643, -0.016990386497046976, -0.014121828336730478, -0.01564955427734371, -0.02763917236777707, 0.003418179807033808, 0.011570413259296536, 0.034898040753643736, -0.012840282135754028, -0.011345070428581133, 0.09708489586802047, 0.019889336264370255, -0.04329267988691545, -0.0458446368889548, -0.02425017700808795, -0.018807847550908235, 0.004778785622864934, 0.04345447244464006, 0.030275606559322075, 0.028435494417587828, -0.035577738531316606, -0.0111098963136684, 0.014185376887468069, -0.013326319739989411, -0.042738959496223076, 0.014840877799305529, -0.00525965806251197, 0.031561265058131484, 0.01611023281996519, 0.011519556430846187, -0.06050237985295651, -0.006743791768819089, 0.034196702123698255, 0.02168023242874903, 0.00434664567105445, -0.03716427398463593, -0.025348986479466262, 0.004951306685382907, 0.019994203559614846, 0.013764316940911446, 0.04825654025662333, 0.023681467191324742, -0.015093638832751794, -0.06584553597284591, 0.09189187801993244, -0.052410831084211754, 0.03856751054070943, 0.006069846642007701, 0.014962950680774011, -0.007648080474420825, 0.03364326339796327, 0.023514627795263084, 0.04264921761771375, 0.055276844574638155, 0.07212268371929233, 0.016526489309216633, 0.0557314920493441, -0.014569131972429353, 0.04092835440452285, -0.0407128297933417, 0.02342824273699742, -0.06607892404625403, -0.0025094220386414515, 0.04085014336033486, -0.03147403197312568, -0.029732792192742552, 0.021118921890525368, 0.018220437359565852, -0.0394086408705606, 0.019161812790468847, 0.010467237431060514, -0.040762566015003894, -0.028215901209889777, 0.002911746626760622, 0.00860016253182656, 0.005336886735695206, -0.03432540995999423, 0.01182259687401612, -0.06162891468639749, -0.054346016213070426, 0.032444761658776584, -0.037191960505079495, 0.05208573137620611, -0.014406811450156829, 0.030779414869497847, 0.010243951111503918, 0.023468398550735303, -0.017397785465799672, 0.03335061212129535, -0.020173599255694195, -0.017993161280776097, 0.03973029448570292, 0.0077618459432173435, 0.010699016005381689, -0.03786268840594415, 0.006940453487675756, 0.03910414828450836, -0.023104099068027645, 0.03742433353741046, -0.07818130063444247, 0.03155276425038988, 0.011736859683416482, -0.009547997613660623, 0.0018941719697466073, -0.014257172252019083, -0.048273542328867484, 0.01930012540482332, 0.055618099480352304, 0.04845342844254037, -0.0029550632900128826, -0.040446803117411466, -0.007501334224090166, 0.10529250075740268, -0.013843326474420164, -0.037298666461479904, -0.011556296056706066, 0.007685281248704004, -0.012716574871879702, 0.023335227837267665, 0.045635273601510686, -0.05875852884628511, -0.02116700863150037, -0.05763089158520417, -0.0703597396804922, 0.03546365283159776, -0.0019918509329630144, -0.04018684209508728, 0.015169323474949956, 0.05417207338820638, 0.01824667823027473, -5.183422450125107E-4, 0.0668195075876152, -0.09058734001973136, 0.06637865796099854, 0.027922635235513953, 0.03213561345413513, 0.04741948589014644, 0.015880246229480696, -0.02267194768493822, -0.04132349540307407, 0.0686132564572524, 0.06663189252052529, -0.002949208595642003, 0.03067214661961543, 0.01690792986435881, -0.05477825655014301, 0.029535594688092585, -0.015144443318097679, 0.048559299233927586, 0.04275555006302985, -0.06843093043739411, -0.0016729362928168334, -0.00627887026235413, 0.025418773914286368, -0.01797146842477803, -0.07879880317665806, -0.015293387497271133, 0.024889334702264655, -0.007198801610156904, -0.014744749597675697, -0.02776987827102454, 0.05984984659936018, -0.034116122019696146, -0.03150423149618478, -0.03214723043622224, 0.02829254020987163, -0.004491052484700417, 0.0019870537919814894, -0.03239421763489646, 0.046095037549729496, 0.07153385199158246, -0.04558151018831099, 0.008629413675608993, 0.0030531473237991598, -0.040124058765620016, -0.03360314594449277, 0.025073861225793165, 0.021110705472801694, -0.019465086579012435, 0.0029824752700595915, -0.0030006740238973234, 0.06675106176955721, -0.06615269053760826, 0.03300401138285575, 0.03621040192979088, 0.013932497565104516, 0.0619240029992706, 0.037157788220364404, -0.10461258154192021, 0.0065523415772294254, 0.008048653375414367, -0.05638280999873093, -0.03860440004984838, -0.020715838730181197, 0.032378929452622336, -0.018087857633770348, -0.08150823704930284, -0.0050972810799406855, -0.002581110284009732, 0.009991286688280148, 0.04653958989895677, 0.041110624476940756, 0.022205617655900567, -0.026302585333737537, -0.04615138529660662, -0.022958357219975706, 0.00812731242288892, 0.007576613829476574, -0.03622685712302037, -0.02074427182721517, -0.029503082887433935, 0.023889090755752934, -0.033573629075942066, -0.010364800310054035, 0.10635277822513622, -0.04362863565081495, -0.016752302857103576, -0.04788183658420105, -0.022824564245447796, 0.08493857171300921, 0.005799938360632663, -0.03304773139973459, 0.019683245076039583, -4.945231568422355E-4, -0.029653959699507258, 0.05716556076039891, 0.004351853067513892, -0.06722671864019666, 0.047414953006707124, 0.07761717507561787, 0.005755745647195865, 0.0018518743914663386, 0.03629754619765356, 0.018461072170027706, -0.025264194309117704, 0.03035852544409785, 0.046878424179041055, 0.030270102866691295, -0.02388638753770601, -0.06883389205140726, 0.003550892607511965, 0.005442870361886059, -0.03776955459576954, -1.3783222821434955E-4, -0.050855862882358945, 0.011432734255960557, 0.009139060339557584, -0.06559712822282035, 0.03216340852700666, 0.06118373627394651, -0.07994370883777749, 0.05308238061781002, 0.058435261996019956, 0.01969498228022568, -0.013140956952961627, -0.037908955193616145, -0.02234650706588039, 0.014706065776893831, -0.0040324591335082335, 0.020666312987651165, 0.03823701910667412, -0.05091537958814628, 0.008822669788877312, -0.0189802234755929, -0.02222787759620835, -0.05163807354153664, -0.004946222316974278, 0.002190753133958298, -0.03220554369282444, 0.0024440996940944338, 0.03458866996138819, 0.04716476719026943, 0.008337419645388158, -0.005216762412673019, 0.02128165794908249, -1.2564540429683675E-4, 0.043047370121766335, -0.04262676489932316, 0.014927682677156646, -0.022771452558524228, -0.05376309837706909, -0.06461718379775613, -0.0785157424680086, 0.009188146574584414, -0.008544450224384426, 0.016027519085584196, 0.016777720275245357, -0.06006639219481053, 0.027786399291931472, -0.02010155331942508, 0.015550571136838982, 0.013392754986356935, 0.025420418503379023, -0.01633854701940581, 0.025823603133813357, 0.04993821341711076, 0.01627227598883291, 0.010329591952771491, 0.029069654571411124, -0.0355923811007527, -0.02642997713930184, -0.10383651370948577, 0.06761919339020812, -0.01571876091934492, 0.07673238516056612, 0.01931299848294434, 0.019473318941273052, -0.02345094971132514, -7.218433533566663E-4, -0.01903808928470106, -0.03543119294563542, 0.03500010081005316, 0.02475799709917875, 7.804791291450852E-4, -0.0035763235808697834, 0.0044044198159332295, 0.0015927706035646, 0.013302149284032592, 0.053714157997558784, 0.007359850759153452, -0.028937458670123203, -0.0452561826178582, 0.0035313991689572568, 0.06979648500257643, 0.08376672438072294, 0.0590705814098038, 0.0550119657405276, -0.0018948935006120997, -0.05352575870505808, 0.053418316432949586, 0.030578890349411508, 0.015509996730603376, -0.016590081960263483, 0.0014943461282376836, -0.06449844563385439, 0.02851895323209302, 0.03141429849004407, -8.80948531872008E-4, 0.009152605261991827, -0.0013285492475663453, 0.006879090082640622, -0.018421001071523193, -0.02332773885772124, -0.011230267679989416, -0.03888461058544875, 0.009759191004117736, 0.01534103355350681, 0.015696658765062592, 0.005634661132826563, 0.03944058214237519, -0.004501750833797564, -0.05025552881222733, -0.0990081421769792, -0.024253400158595003, -0.005314345081904008, 0.005810904287301803, 0.005152887993557895, -0.042444156614106214, 0.003654842629294888, 0.048452425690514, 0.029410202729368878, -0.03110809856326725, 0.002712979232234574, -0.042297959398932196, -0.002113549747903999, -0.034073429171668404, 0.04053417174054395, 0.045872101483126475, -0.005951138622454971, -0.023388030116766233, 0.010013711019016646, -0.04052215179350561, 0.015375528037087517, 0.021638875582543005, 0.03435173465472777, -0.020968303165883512, 0.009722567641001868, -0.059458911515289946, -0.003752399463220385, 0.015239036234210234, -0.024209428897379613, -0.053190346408542165, -0.006698971156991563, 0.03916416652887159, -0.02201449418331774, -0.023437521359788032, -0.00205913418167555, 0.0014599369415886326, 0.01297286163097504, 0.010674235747595772, 0.0029103535187874016, -0.022293672284257635, -0.03888550668978289, 0.03068005308043411, 0.01559924474664444, -0.02950704792201105, 0.016030192260842516, 0.02620483331841151, -0.023383554858145198, -0.016774242107432724, 0.0015270516046003333, -0.014340360510092081, -0.019990661680820036, 0.036793503991657005, -0.0549136696430668, 0.022627764543657163, -0.019884448190394283, -0.04089595876930628, -0.033757407370419754, 0.030244806632779515, -0.02412586403109836, -0.008532460684320998, 0.031352192842080344, 0.00931564214085924, 0.0342028506441384, 0.040608865283670234, 0.02709155751575787, 0.02052732772413556, 0.017171018192037747, 0.01580986836033902, -0.016223891073303597, 0.007782267513083994, -0.008806560555593215, -0.003568038268086557, -0.033823983835151616, 0.01578962167148134, 0.013137277636162044, 0.0293985115546308, -0.06260320401597222, 0.006782861192683125, 0.011511695589693227, 0.048462589935371156, -0.06772730195791107, 0.005162663831721979, 0.0013893898611974207, 0.008789126985435505, 0.09081464098297547, 0.009196580057607128, -0.028893192070606765, 0.047459438237585846, -0.01939347551630415, -0.006069080890970152, -0.038849007987116393, -0.06555824577455537, 0.011400287444455034, -0.03539471726333544, -0.03829895370265314, -0.007837458719468466, 0.007758758051839884, 0.007875859059417853, -0.024792423842722924, -0.01452849469577318, -0.018334842491352456, -0.013308914749578682, -0.017977096093300966, 0.04094999127436559, 0.012701389433456065, -0.016427492615927897, 0.015129148656696515, 0.0038691907556723864, -0.0871930624513328, 0.017561903572072896, -0.08291670958410421, 0.0010562292792992158, 0.037898692469442066, 0.025202998148576444, 0.08888553576622506, 0.02997714023261001, -0.04928412572501962, 0.005323786892289865, 8.111094465308095E-4, -0.02064801288798715, -0.019134152560503125, -0.04378140635078361, -0.05175317119829471, 0.03450825665379384, -0.030247777102390266, -0.006013242247232281, -4.7148642821816944E-4, -0.02058304552667255, -0.05602763270844309, -0.05262235242003076, 0.03810397681601243, 0.007838752807978673, 0.007119136559865507, 0.007205115846581544, 0.015963147687390343, -0.03002535896848302, 0.01977296952738839, 0.06257687905530158, -0.02548912932396877, 0.013658688744676418, 0.02005160857941827, 0.030344978163659823, 0.04485596075354308, -0.0233740424081473, 0.04390253933167433, -0.00978415137182603, 0.009243753571681473, -0.05935749618763888, 0.012417739762806763, 0.015669216570125814, -0.0034956866215886456],
