0.5459166666666667
[[0.031762580746208385, -0.07113959010611827, 0.0011648543719273397, -0.0019853801944578636, -0.08746139742519739, 0.016957827350077427, 0.004777692524250984, 0.04848229275476963, 0.027577955970100997, 0.019258006508127052, -0.022327790854107958, -0.03356255800251671, 0.030483427994356674, 0.004798061048882175, 3.7913498573548824E-4, 0.05727110698974846, 0.008692187454710334, -0.04636463875560982, -0.00124412542145434, 0.03981948738922879, 0.016978196917568883, 0.022281077374252643, -0.05820656134946285, -0.04564929668846873, 0.004386543026108015, -0.02981840462120271, 0.032507123457042875, -8.408114638665915E-4, 0.01467156045316044, -0.026753756782002334, 0.048910541956480105, 0.030678657227513718, -0.01717194967580509, -0.017621548578954822, -0.07339713824737096, -0.058982019372244496, 0.022597405051573274, -0.023677528627568337, -0.04514684088669641, -0.030491680884430383, -0.03827752473898278, -0.001052153002864696, -0.006399544778864955, -9.371484091529912E-4, -0.05837165494699683, -0.03946656252352285, 0.03385855488973535, -0.03332851175483476, 0.07242665727447782, 0.04390532288831527, 0.024039083338466407, 0.02057886718048799, 0.002880413725709789, -9.308486685668936E-4, 0.016318362319000437, -0.0034708933242433957, 0.048008244911121704, -0.03410384861964084, -0.010197046007831952, -0.025456964128259835, 0.03902280477876742, -0.021524758270260652, -0.031178767072006227, -0.033765403548768176, 0.008670220086847265, 0.018490376097015798, -0.0017335562370432232, -0.003174189421501902, -0.05758509942083923, 0.0759511429588048, -0.0812808590525459, 0.006971130562099217, 0.005671645770227937, -0.04109587195589045, 0.08927161665134063, 0.017700261737067027, -0.011331846051690799, -0.010585907057219866, -0.008378986613804098, -0.023397757131913444, 0.04568436794749041, -0.006903684571895572, 0.04318496282627193, -0.0066900674535609285, -0.058264531712098784, 0.022305578234673443, 0.019061045851284437, 0.0452711391285649, 0.10793908448496667, -0.02747247253266451, -0.02013678336305515, -0.023904371467042343, -0.05850141537865244, -0.03462944306559484, -0.017330414348085525, -0.01806491304066795, -0.07077646358765782, -0.08438055396985794, -1.7573321709181002E-4, -0.016956280371709962, -0.02402819220178021, 0.024806071361621534, 0.004704680753373074, -0.033901647585038094, -0.06456754432476743, -0.014717845655157191, -0.028427602025290634, -0.015032180908098708, -0.03247875538882817, 0.06272818449390362, -0.03142559950619218, 4.1899678850549786E-4, -0.039915689102805275, -0.04628116624825701, -0.005115001335587278, -0.04424589023584637, 0.041168950401435464, -0.05797371180573346, -0.00489069319690888, 0.03742138043175194, -4.785430604069588E-4, -0.014223521343283611, -0.06271361344580556, -0.030810075018469843, -0.07140745649498875, -0.04809063047936995, -0.054888242096448256, -0.04026756945678594, -0.024494245925793648, 0.0042633326433172015, -0.04918882315453856, 0.03302645549673935, 0.03655986491578393, 0.014788205104571558, 0.02348073788393561, -0.060144699008639994, -0.03215747892991799, 0.020812811954877896, -0.004576295171071078, -0.024895282274014875, -0.013065176173676226, -0.010792461775784166, 0.05706374764145023, -0.09691088460138397, 0.0016170496226845484, 0.012702209346457188, -0.05870414111603314, -0.019135050556178847, -0.013773877560259317, -0.07213495150116957, -0.001791835996634226, -0.04287316437593515, -0.11458977468896167, -0.03608837717534916, -0.027912341241827905, -0.04926533807715042, -0.08874535155387624, -0.08147921774117152, -0.054622592796408895, -0.02845457182648696, 0.03325890659185273, -0.06431416145662221, 0.06999398483207375, -0.009520894485043594, -0.07107993523098009, -0.021059916117957943, -0.034590548175855405, 0.03203118314678101, -0.007179331646602089, 0.018061142472574513, 0.034850181579204574, -0.013146506099872187, 0.006901228697913226, 0.036727874528947935, -0.03588061701862989, 0.03681043044100201, -0.07570611855618414, -0.15121690586693198, -0.13070614088544336, -0.061944469579965196, -0.05914577564194282, 0.006937022140848924, -0.049565111906899204, -0.04757524848268755, 0.009982762344525022, -0.013663254949557311, 0.00373513187663244, -0.006206226968390348, 0.048186264260192006, 0.043613139000222616, 0.028694409655570404, 0.013689076195450697, 0.01488723530346813, -0.051399410746082765, 0.005221884776413013, 1.225750468755963E-4, 0.06415240849739502, -0.012363687015965526, 0.036627788595963856, 0.04062294716958612, 0.03347931740115968, -0.010694082789977629, 0.02196454501278999, 0.0072539160366835165, -0.014365042410829336, 0.0064888382367626314, -0.026149208661441048, 0.02441691550997424, -0.024168550638565045, 0.01709751054843012, -0.0422452099123052, 0.10231568978280857, 0.04190022083927415, 0.09235380127340335, 0.004025259024554796, 0.06906367464865638, -0.029132359341894815, 0.008289208490928814, -0.001711583724732965, 0.0035861616443211984, 0.009114663706642512, -0.03655661248481654, -0.04752677160234937, 0.02371034734623315, 0.05237675709513501, 0.0404244337382026, 0.028634001094948017, -0.015435047854890957, -0.041079309401670885, 0.011169875765682406, 0.005452203710286742, -0.0040566178451993205, -0.002071437352875303, -0.01060668240438101, -0.006096859101214695, -0.0036453347680249016, -0.00903463342671174, -0.023524813493365253, 0.14260164613087742, 0.15190465045512652, 0.08876653189695922, 0.10462652409772837, 0.04874437628121821, 0.07293044676931562, 0.019869645125263832, 0.006863670133647205, 0.05159857736074189, 0.008713273057051088, 0.004805866242053255, 0.06251230178452431, 0.06968607499882723, 0.06095253331274461, 0.060674704043424406, 0.050233531349308885, 0.03151539858876626, 0.0022117327025296036, 0.0010222700992226859, -0.042320872840617474, 0.04527954072817353, 0.014858722139231251, 0.06026177398152462, -0.03411266446205479, 0.0804305352222441, 0.07485991545809625, 0.020000147182769237, 0.03038064924137899, 0.14864564748815967, 0.1293480889919024, 0.20100110220657183, 0.09908480633377384, 0.06271555748419502, 0.07081675672639604, 0.02348553756398169, 0.02535215707740636, -0.009375117960763707, -0.01457392232811698, -0.011909440417357553, 0.005642966088059486, -0.05151637900644233, 0.022534499027992583, -0.007452135206370321, 0.05345187289825746, 0.012837153840263963, 0.0010025459810625763, 4.185920771155966E-4, -0.013026165600876312, 0.0485755228149961, 0.02106522794430721, 0.0331726133151708, 0.017062055601707198, -0.02120959531539616, 0.007040175072960738, -0.04828256169489926, 0.13599213884497136, 0.1488485170621275, 0.198712782715616, 0.12954619926059172, 0.04549527799210647, 0.06653028191675577, -0.011978459448264391, 0.05916357774384253, 0.05258439388981359, 0.01730529439099342, 0.013963335412904695, 0.034432936421361374, -0.036490489878524913, -0.006094035447232622, -0.016621459772232283, -0.012742674937798713, 0.03146104000269121, 0.03375986506775444, 0.016843098086621395, 0.02104974505490803, 0.07104290875968912, 0.03441095806372968, 0.06607562624038918, 0.08857941329352526, 0.008927215359522369, 0.0742908371799431, 0.043126914567985425, 0.0545121681723525, 0.14625015282188672, 0.1803281197290404, 0.14529968832688167, 0.07994515152709578, 0.025215027863603807, -0.0697243080641009, -0.04836117853611741, 0.08737018888911828, 0.08498496526065352, 0.06785575135352899, 0.06881055371284975, 0.030820703598366982, 0.02495027130358537, 0.029987356435426177, -0.015721459709903206, -0.10500899990985577, 0.0029322134371307317, -0.047074582929422855, -0.013131500000868431, -0.026850777626211852, -0.0053185681195865525, 0.06914797540573706, 0.09858777396314648, 0.04056339375789428, 0.1459125904279262, 0.011434418984413351, 0.02707167939051178, 0.06712482989678284, 0.07351829008947051, 0.06878163294494889, 0.05784969799112698, -0.027062193727958383, -0.09103534303720552, -0.058292948999493305, -0.015578946891775573, -0.05237907365012907, -0.044423006123416, 0.02781893650454755, 0.019789856944621608, 0.0114108520674869, -0.0743058193658509, -0.014923747780378877, 0.04030172433903285, 0.009264796049437063, -0.05318882492072282, -0.013351114525782939, -0.04540442574763575, -1.4279245499422045E-4, 0.05662528056927419, 0.11406903077416478, 0.10911719760138607, 0.1332110627081382, 0.053037454985446944, 0.05140293618873462, -0.00807122403088615, -0.11349301007910821, 0.043232727309989845, 0.14695371626208506, 0.007124455112280868, -0.05469416993402044, -0.047833877990541625, -0.06838450585320578, 0.01631350188166547, 0.016500054328210455, 0.0224061851529366, 0.0864613382904116, 0.019925374402932204, 0.03544230840420199, -0.028871352204474482, -0.10498808650945456, 0.0021233399183896756, -0.01043981733655103, -0.014778521034886104, -0.05086994318274345, -0.041193135813013884, 0.016092523006812368, 0.026258482212361767, 0.0855676514914589, 0.09507965620349688, 0.0610159669253954, 0.09416999569995016, 0.005580981434583573, -0.05839557215119095, -0.025885998097934453, 0.014837713682360781, -0.052209653367045944, -0.05960796749412056, -0.026910855922845884, -0.0773386744073596, -0.014586279030925981, 0.057351139371984806, 0.013249295107436698, 0.11179473458991411, 0.03665734100977114, 0.062170647991358956, -0.0019413810444936566, -0.010578247319064444, 0.04365955592467323, 0.03763685730459438, -0.05250553152468008, -0.005813406805279572, -0.023890247832464486, -0.07911606861367745, 0.018428103445977364, -0.02195750223788879, 0.0028486468302874124, 0.06984268429819611, 0.057717161365166726, 0.053216006956088475, -0.05013301278307176, -0.12268309782000555, -0.09251733674748326, -0.06992959702913432, -0.005101851481969655, -0.1411679089456297, -0.09486063519551269, -0.02447262946072132, 0.034996768750012695, 0.07044525189936232, 0.11245644038420126, 0.07649930864016799, 0.01681125515040432, 0.07666975745188079, -0.07249393762081482, -0.027177204974121058, 0.037963556769828405, 0.009491914422452216, 0.03239689422640707, -0.016446768791234054, 0.051671582404330584, 0.04494138759650176, -0.04699033062135069, 0.04752159768833913, 0.11312298523628656, 0.017250539674519647, -0.05137803607903662, -0.03259263022111515, -0.12212595778373818, -0.15554167298619687, -0.18050547476099849, -0.045699995115998725, -0.07391410284822876, -0.10138397835685631, -0.14105515281572012, -0.04838619044735989, 0.004540931665090562, 0.03599212034685403, -0.001379029482288, -0.0073097934701116885, 0.012756279882917967, 0.024785271314799785, -0.00963140044758274, -0.08963385036506027, -0.03375686431506785, -0.04205974255259719, -0.010149126719286417, 0.008974082125056699, -0.03194068345563004, -0.00643060270770359, 0.0026682552240148033, 0.04871225478005029, -0.04848075877438673, -1.8807905745799424E-4, 0.002420239684837485, -0.14202794679440361, -0.13907769598057204, -0.1940874773572706, -0.12614546592879985, -0.11113443187680977, -0.13532745634686194, -0.15983858030956571, -0.06231663559348385, -0.03760422297874022, 0.03331828270642752, 0.04541008619311246, 0.07969851318286175, -0.020404829118662312, 0.004535772425829027, 0.028824334301006244, -3.215513903913073E-4, -0.026659354548100235, -0.01444830290941974, 0.02755109980080345, 0.03096482065788567, 0.027229218600019926, 0.044331761055948354, 0.04377966790172984, 0.024725374137818463, 0.032798796603157376, 0.028564439432419653, 0.009067098570719669, -0.05651973137686065, -0.08662146243334566, -0.14748463598147676, -0.15992548449800967, -0.1905046922843206, -0.03951186800696862, -0.06625129223221655, -0.05920668111110428, -0.13129907318521644, -0.030844561606761047, 0.009040490512851966, -0.0271112848632343, 0.00948974179655428, -0.056459146448819685, 0.02066260433206117, -0.0014466620464370539, -0.10194569917360151, 0.020698494333477365, 0.013076224800312041, 0.012907268159693145, 0.06255252997388794, 0.005040785565391062, -0.012408065905689498, 0.012062852779526737, -0.06200492517545542, 0.0261962346535238, -0.07104839207309403, -0.008514540290882538, -0.008091139893490152, -0.09504322117838462, -0.14241934650800192, -0.08299302866034863, -0.108632156070526, -0.020805005813254375, -0.04740257711966178, -0.07495109304047728, -0.07415078063530484, -0.030839278701018397, -0.07390368624925253, -0.015947397660078414, -0.06275471928457875, -0.01930053537734906, -0.011336592301014338, -0.034642088872784874, -1.8967624169296288E-4, -0.057297813773204274, -0.06211990312691683, 0.04864558706682313, -0.028422117539340513, -0.05170188961688081, -0.020075038893582503, 0.004514133520120206, -0.008174013602527314, -0.029556651179458583, -0.04023930854935227, -0.02773621894381498, -0.06319863614042814, -0.12209661005885852, -0.06469343662790701, -0.09244935648020897, -0.020173433774069514, -0.07010650871022124, -0.040223585588756, -0.005566225092930516, -0.0380313085492929, -0.00771770757555987, -0.03471829368396381, -0.001819007138818042, -0.05594496642420664, -0.012450530435822007, -0.0801724386298318, -0.059613088129541504, -0.02766312324902543, 0.0978369421879921, 0.016685134181705984, 0.02678363678857688, 0.08101507541435973, 0.04124858281056174, -0.002780022771059654, -0.03469068352980782, 0.08032898831618768, 0.06786714242670173, 0.0400086726135536, 0.0528444371786154, -0.05459830606011268, 0.039904920712586334, -0.022773965339900507, -0.020569744643807553, -0.004104759973337494, 0.10759374510724773, 0.0664587593171171, 0.0418807016191486, -0.010204287222890055, -0.00729807510056655, -0.055046072156595516, -0.08313249229552601, 0.02847373748025256, -0.09992410166390647, -0.07625275716926092, -0.013122195711734301, -0.04045991098894072, -0.05143623015195784, 0.04388594112308445, 0.025948353598206228, -0.014097613151013634, 7.579268719556678E-4, -0.019760070223132465, 0.06197749589421262, 0.009458633321023738, 2.586746713541826E-4, 0.02366384149363757, 0.04307679678905579, 0.04664874019561777, 0.013070034932531505, 0.07695557861863762, 0.10115798024748848, 0.12298782338343497, 0.06715276987391783, 0.06684869327187991, 0.07684793632947091, 0.07030261120569839, 0.06414764176986978, -0.016702129049694814, 0.009362821878336071, -0.06089965941165701, -0.022687481192131934, -0.0438378517978854, -0.06370782863310441, -0.01816948326319835, -0.01163396002614844, 0.011232332857364682, 0.05148820437113738, 0.007222839312164773, 0.0436975958398395, -0.013191611412671073, -0.09857003760582647, -0.008358884843138303, 0.025814794769219433, 0.025245730860453265, 0.02770724144368685, 0.04618408641512903, 0.052671202619200365, 0.1375416637640704, 0.17361365139020857, 0.10452385405225019, 0.11257345059084466, 0.06826207828208285, 0.06582857521443851, 0.005349087848897179, 0.02494173703078181, 0.01596377079076967, -0.020166345709787616, -0.02540760813970013, -0.04344288861402579, -0.024858302834166086, -0.022580369903288232, 0.00585525206006773, 0.028779274407710775, 0.03617048913925141, -0.04598316819969835, 0.050064988744087206, -0.0011026251820121077, 0.06051408332802279, -0.04985066518126151, 0.0030226740711370875, 0.0659109068497815, -0.01896035992576428, -0.010164541600242551, -0.0029180717385604705, -0.02860123055600027, 0.00737650429409057, 0.06382913141239377, 0.06287254731559862, 0.05041502914323411, -0.010646201349156899, 0.019095895882765616, 0.002568554820160159, 0.04876594640991732, 0.026007655677580694, -0.0012530376081635367, -0.02292518713928901, -0.019640804013550433, -0.05087597358345163, -0.02042297252108458, -0.01309055560605874, 0.03672398335599884, 0.02741219347174333, -0.012494220701174013, -0.02516214300590911, 0.03803653413161623, 0.057100762049560806, 0.008996439845147742, -0.017551614596985926, 0.006251393663696098, 0.029893830647537242, 0.028733302775840085, 0.012054398932711438, -0.023329933355382932, 0.06972282951359156, 0.03424294622045293, 0.03774094279436013, 0.07354329684753833, 0.07379613512336554, -0.037411672137830074, 0.022177789357417366, 0.008142047376974217, -0.03480834992548877, 0.00133173165590325, 0.01862439694146473, 0.034919940948341874, -0.007361984682944741, -0.009500831570590881, 0.011011842264127035, 0.0010820722191041865, 0.024309625719828278, -0.06192668383515102, 0.05145728635998381, 0.02065022517799184, 0.046140032936137096, 0.04863861158408688, -0.004439191341740027, 0.025893143201724044, -0.054729658686480574, -0.03459692750986689, 0.02665228313874746, 0.03359956408490496, -0.027774792658071933, -0.05577181117405417, 0.047360789161657896, 0.03913853281508466, -0.016814607249029768, 0.0030309750765774193, 0.03778275651271465, 0.052980496139039115, 0.019455287374296994, 0.0355192906546339, -0.010989997684405178, -0.045695982141698586, 0.06964189234697722, 0.0415655859038554, -0.038901645221419465, -0.025117917638437223, 0.031906093793208426, 0.023550052138490065, 0.011633647639229031, 0.004832545458884578, 0.012578087865464492, 0.038994708448814766, -0.0032353272254722265, -0.020513471017540398, -0.023550268870877973, 0.03382995916059369, 0.00948890259926226, -0.007444091457548999, -0.052833121804594936, -0.001507576782093744, 0.007381563846805653, 0.08029028862446486, 0.028724782684313548, -0.011887616459269725, -0.006401077261529833, -0.039369061708412985, -0.004661765068522043, -0.04252776519857617, -0.024876176290196606, -0.036937339305602786, 0.0037954153379537235, 0.040955545652582935, 0.007068037677441595, 4.163574688768888E-4, -0.003059510976880469, -0.01290553551968766],
[0.017015808032144843, 0.032505592018378784, 0.006722514835607937, 0.008366604248078198, 0.02430396968438922, -0.04660432979154228, 0.009780451155758322, -0.04351144578067466, 0.03843491669683517, -0.016222607778387237, -0.009169619550678873, 0.022427720044540383, 0.0075150576409749505, 0.0011256979122416136, 0.024556781208568274, -0.042395248625331575, 0.019735784846564536, 0.06175356638321976, -0.0019320947974495611, -0.07614710480349597, 0.009375314063125684, 0.021470622359899185, -0.00735736378772518, -0.012285306810882224, 0.029267021000466614, -0.058815248782885056, 0.004458358913388153, -0.0035319704786627017, -0.0024715573183562785, -0.013047882299273339, -0.06086755110436494, -0.0032782602962555104, 0.03845383100285044, -0.0634043192613209, 0.05565748930653056, -0.028157393231651548, 0.015737648125067304, 0.005240925046576941, -0.06761283254249342, -0.009696322434733099, -0.04849740493639725, 0.0767707725230086, -0.014669022410527722, -0.010246095967770095, -0.019122425628785945, 0.03696372513598659, 0.06709646618729806, 0.018040877460468153, 0.004813347766759906, -0.045385316029572104, -0.0220250555864913, 0.008655568941553272, -0.005872656942204473, 0.003736558291467879, -0.035485497664983226, -0.029754831407842856, -0.01319026002799188, -0.05604451060018771, -0.015147989533206585, -0.04836447956627817, 0.013437481733252493, 0.004499276123191475, 0.008935983896118584, -0.017096800481890554, -0.014244447215597643, 0.06567635127915275, 0.08472533625928626, -0.01638127681430335, 0.007471024567381047, 0.04172692327152766, 0.01570395433856995, 0.07326434172104723, -0.04223556071069905, 0.019232837135485955, 0.05914575601051414, 0.0379096632367563, -0.03195004746154777, -0.0051096538776794756, -0.019771267739710562, -0.002307471218979668, 0.004464309891342175, 0.03983120655445628, 0.0044216286820177655, 0.011206263750243403, -0.02694929822839467, -0.0012911609542131694, 8.668201682456677E-4, 0.02497099497580047, 0.013517278020908371, 0.01568417615034296, -0.0013964116545798612, -0.021024369126014467, 0.03156507486088558, -0.036297485541776385, 0.04312016426952392, 0.034037361320737654, 0.04495476372694803, 0.03791425686615207, 0.03755607688553367, 0.1216725203836249, 0.09363623937414625, 0.012967709929039445, 0.1294576470243637, 0.07488726807138371, -0.04761247584060521, 0.0016150567496465375, -0.033570562148591165, 0.04620536191608653, 0.04383506498789612, -0.02897455463753577, 0.030018409547574454, 0.0037391420061469874, 0.053238147123859915, -0.0729949796749542, -0.005011786696908175, -0.03415283518849775, 0.05339975274976372, -0.04078508562163006, 0.043766174766867914, 0.021110579054645508, -0.041722164227585484, -0.034737493387885864, 0.002970967431903665, 0.08546305028483503, 0.03598536367093251, -0.01858700911170779, 0.03774649675152464, 0.0690244457300594, 0.0373488831212557, 0.08113656764127167, 0.036641268296995655, 0.06557403126722508, 0.014185742746463944, 0.044840600724795586, 0.04939500275067025, -0.018112719282161405, -0.03221738257740492, 0.002140061424796849, -0.026162394293049347, -0.029522202200987932, 0.06991524335331387, 0.04442070615975556, -0.03709991190791851, -0.023485784786596586, -0.0432036476019975, 0.028530243816759098, -0.04212722299473294, -0.05413058026434001, -0.027262816208629723, -0.017737394868232483, -0.06719454838901054, -0.05455130838659466, 0.024002843719100605, 0.0445527025696898, -4.029400230245385E-4, 0.08499392506342472, 0.12389198620070659, 0.03573615941448962, 0.12378027672324639, 0.026842162556697514, 0.08650124442740416, -0.007369063957877502, -0.07307053508804556, 0.004368582513595895, -0.06380963553507875, 0.06048179898681259, -0.01559746959836695, 0.03248090214015322, -0.029923225132474942, 0.02155232811388293, 0.06284366375527062, -0.056073539545816, 0.019958625880523193, 0.018231110253376228, -0.031243637164849826, 0.006715962660834687, -0.12162776076108321, -0.12142374498020737, -0.03684239307004307, -0.021060146387548617, 0.0508944071729789, 0.054922965724112004, -0.03535971403497782, 0.06515390696989568, 0.062343620282083505, 0.08006920711077495, 0.0425546357517951, 0.020352357426801856, 0.014359811219563562, -0.02432775688030887, 0.039827050804446436, -7.360575851519583E-4, -0.03212458400426605, -0.013915001087699618, -0.05060344228885959, -0.014384365914875883, 0.02199327805756903, 0.019864862594980125, 0.07416545129945276, -0.02105225709053608, -0.05786748952208497, 0.005772458511933344, -0.08359037451922602, 0.04505541732577609, -0.07051119551568265, -0.08671114587682921, -0.08078484595376444, 0.009673438480335963, -0.03817993646521717, -0.05375293391351732, 0.04760752969771605, -0.037891148334407945, -0.07089561689749263, -0.04333442543048792, -0.03326201974840761, -0.01206617245627373, -0.036426526931243264, -0.046273982348673935, -0.023395640465009495, -0.0015814738535706867, -0.0015543008251275435, -0.019094289348232013, -0.05658360117134518, -0.001203794439972513, 0.025222724204919132, -0.03650315027152752, -0.008222401048106634, -0.031196317904686622, -7.405732412418213E-4, -0.09676725579858132, -0.11110960292322586, -0.05794059194383661, -0.022982633495536607, 0.009150951988134594, -0.05105731176051624, -0.08780345009981816, -0.010287631388239847, -0.02813867371812611, -0.044762857254913496, -0.05419736706186831, -0.03596688156540579, -0.10133519998330115, -0.11046642873257895, -0.08271506986139919, -0.013897901843192846, -0.047230247535299384, -2.601939295832587E-4, -0.056805033497349104, -0.03851409836601049, -0.039531501674832374, 0.06828801607249754, -0.023253303636445743, 0.009859060217767881, -0.061404523694227386, -0.039291425156517075, -0.02936218887672534, 0.011015330979580155, -0.05034245021696544, 1.2589290784859394E-4, -0.06306030708103309, -0.049934129737617336, 0.011504759428035255, -0.034678486087262886, -0.03297383096477595, 0.01277773038273082, -3.5418422538914177E-4, -0.01645234049129318, -0.10935442707673201, -0.09996481087690506, -0.1540396990376926, -0.08519780916316534, -0.0782990944631491, -0.06036456495648213, -0.05009764805471909, 0.009878894117678895, 0.013807621576805656, -0.01564910970840899, 0.049989826723847025, -0.04849382078576615, -2.1128906167596151E-4, -0.06356805376565722, -0.0015617822430449145, 0.048912129080542106, -0.0703162402656, -0.008376244754588391, -0.03344334844372147, -0.0600237055624267, -0.08832335421585184, -0.046130308424973156, -0.041209425335556014, 0.02272333245789775, 0.01504868774728506, -0.011140739098830099, -0.033356497832949514, 0.0075811045139398845, -0.023442172072586625, -0.15576006515668472, -0.14662471798506227, -0.12005944223434699, -0.05061862739287747, -0.007998051295942929, 0.03184698047066439, -0.019195987748509155, 0.011015419716782469, -0.003386761960312935, 0.01781955307790315, 0.002521875890337828, -0.028836901898415774, 0.009568892630426401, 9.664327180348919E-4, -0.007662840046075392, -0.03988694392638347, 0.013663550379813809, -0.030888303263689677, -0.0424321564473874, 0.05461265868485832, -0.015654414301445263, 0.006496297722638697, 0.015301421360920804, -0.0028401328874637583, 0.017422509736275897, 0.019473512956870543, -0.048095229060745315, -0.12763551607565715, -0.18146028510697243, -0.14927802121360598, -0.20443554524625876, -0.0036648987570895774, -0.0076282130851470014, -0.023107876514759623, 0.04655681460438957, 0.052160433614945864, 0.047389300866366585, 0.06732380414930235, 0.02328275723506239, 0.026421413215329523, -0.006407609646845402, -0.027618531014535177, 0.03760655666787714, 0.0054156126605471025, 0.007997491500870663, -0.008494820084135168, -0.013370768418933122, 0.054749251941695276, 0.03106151980454376, 0.022407065888300454, -0.060292304085022765, -0.010486493633873648, -0.02306512144074137, -0.026609590777802807, -0.03170265284482947, -0.045183591153707084, -0.169155395216589, -0.17906209511427174, -0.10518996990182114, -0.07386774879638307, 0.06576993461800767, 0.03391715914260073, 0.008198170307369253, 0.12244636816458374, 0.06765573727672039, -0.0030253566358902357, -0.014112600082026222, 0.05085223823997527, 0.006274542730547488, 0.04945433328274149, 0.0022837949823220085, -0.03734421898116398, -0.046735317497999154, 0.06800859973226346, -0.009861933833268761, -0.035830814339599934, 0.017492094574194435, -0.05275695956427491, -0.02225669463804626, -0.06436136187092062, -0.028574691095153208, -0.03637787382184435, 0.004360729170275974, -0.04336705828868826, -0.12112280943076836, -0.1500885829098543, -0.16834708825537864, -0.042703561051575585, -0.03898346228680381, 0.08723449701980049, 0.1372383280972434, 0.01732683133948861, 0.028247779552839653, 0.028896807494046314, 0.016115859121083802, 0.06005850780980899, 0.029498937423692723, -0.011278169663226876, -0.00792623444773162, 0.02003391791147166, -0.02121188338771504, -0.05210455773794908, 0.01962047072944647, 0.003022203647329534, 0.026008867533502157, 0.03768588154989829, 0.009338173849499042, 0.009800951830153495, -0.04562003215227287, 0.006127605138444202, 0.07447553432493866, -0.01623996198874234, -0.10870286798981882, -0.11310031010422118, -0.16393843424459018, -0.06947834017155458, 0.019683923906256586, 0.055230485576481705, 0.14650961920317745, 0.05791111655552696, 0.020838491370137276, 0.0029369250661717416, 0.07806497162888267, 0.005925104793305475, 0.0024336992605055573, 0.0059128535209198385, 0.002888355622272304, -3.867743208348463E-5, -0.04510092869220604, 0.04834850899414839, 0.018569909499308528, 0.0954241174678735, 0.06723707205691697, 0.08769053681588988, 0.09339847717670868, 0.05422856272500458, 0.10522222190610656, 0.07110111741362683, 0.09782672517413578, -0.020050928277703346, -0.09760351549915708, -0.13793069716632872, -0.12722649279240547, -0.10901053128032331, 0.051710055295955966, 0.04233406495502136, 0.034807761768341924, 0.047320519798625456, -0.008910887828395145, 4.5237146115669066E-4, -0.016522278215174747, 0.03598295728038862, 0.019798581963655092, -0.03133784655232545, 0.022383132531442262, 0.018038935174811626, -0.06969713044117828, 0.10597636216895304, 0.061958321712484776, 0.12812618924587416, 0.11047141058986737, 0.08869981387347743, 0.061675874507895384, 0.07741940149922774, 0.09442450993828508, 0.03007943824199673, 0.02289749132501035, -0.08627056126882036, -0.1139242892241708, -0.14558471194251904, -0.11326677696369002, -0.062160169483248984, 0.014983317540269693, 0.017602637538004257, 0.07325505240295344, -0.012853649442178991, 0.023338675986702508, -0.0020269964185637805, -0.056888365310106936, 0.008406688357210172, -0.05121993586534597, -0.05355514882252981, 0.01841149328916969, -0.10456276666543565, -0.04151833449838972, 0.05644881168074235, 0.057962397241450234, 0.04875971210295001, 0.08389098479109655, 0.1178971111748963, 0.20676274152573104, 0.1659781393992762, 0.16588206270009706, 0.05867026557164988, 0.011148733590836079, -0.027094043614105015, -0.11582670735788743, -0.10032416111486368, -0.008138306209697436, 0.058015872885991096, 0.019616023301281482, 0.0773508119933731, 0.07857308922086947, 0.047433423005238555, 0.09140934438533166, -0.013155507197778929, 0.032548775621445994, 0.02472109888634116, 0.02799998920237313, 0.04062000504209663, -0.004618510188668439, -0.06245801306744204, -0.023744228250537583, -0.014434749073784985, 0.10344842479047316, 0.14243349437431987, 0.11104416670378953, 0.19802512878891843, 0.1663271262614302, 0.14336177000138517, 0.19825571058008942, 0.06178000106615757, 0.09161089780780919, -0.05169157553238822, -0.0237896860803474, -0.02695038951138955, -0.024577292762288473, 0.03447100121877035, 0.044919022466713275, -0.006540189150402096, 0.08076443912347299, 0.015665054217047305, 0.008455553960900562, -0.06535234444772037, -0.037235263481254235, -0.005279157608701793, -0.016713805714422915, -0.022018227502431837, -0.021072605938476572, -0.012519758994839156, -0.005541648752894792, 0.06689530330687599, 0.052342647039660246, 0.12373210509046483, 0.071334730087539, 0.14859881280968634, 0.27443169228232145, 0.13271592854201225, 0.18256133174563152, 0.12612610156628173, 0.09290114705168025, 0.07309249076989359, 7.994117023731481E-4, 0.02206631141508951, 0.007438792949156301, 0.05137379276134373, 0.024507538457132168, 0.06746353011914775, 0.02395320375693905, -0.008867584539335489, -0.05905322971492533, -2.886953614812737E-4, 0.009594985602815714, -0.03626290116631006, -0.025158567999974745, -0.0321648683408874, 0.011272759373396795, -0.04093826380736029, -0.04590663995769149, -0.03370133519352362, 0.028082461769437475, 0.031018513332317966, 0.07787896471565642, 0.16138579252359497, 0.1742403824484844, 0.14336537047259976, 0.17208978077951861, 0.10546892498405831, 0.16394236093623527, 0.07059279028299456, 0.07836722254623925, -0.01883761186753759, 0.0038716883988959092, -0.002707728383785097, -0.006821362003050785, 0.03923925185754567, 0.0501715760322525, 0.045443066129355225, 0.058345145366870195, -0.006579111796653158, -0.02501629852729756, 0.005334438379658668, -0.04636036862030197, -0.022447199884601123, 0.02116955073689344, -0.06590616858373954, -0.034527832043267086, 0.06481310877814163, -0.07328859368513865, 0.02541852076800992, -0.009159175674646572, 0.06210159041374791, 0.09792340929842501, 0.0497914134534883, 0.0825058197549966, 0.013779932857885788, 0.0691198842333628, -0.01810725226001211, 0.030645914058286466, 0.06240066001199724, 0.06154590918156644, 0.00708124040154607, 0.03571284880802245, 0.06785655600277397, 8.049768060020148E-4, -0.04325875618721338, -0.017870273323969323, -0.03906867419767963, -0.03259480851227789, 0.015829140842089775, 0.0340694505098124, 0.03423125894095409, 0.06686326545858072, 0.013059888519415927, -7.588940159576595E-4, -0.019333580272816658, 0.03440857533324051, -0.03649906153219741, 0.031167005931682878, -0.010237030182078161, -0.045515876688216356, -0.09911200591384854, -0.04714378450295376, -0.034806969632619554, -0.051578119947143314, 0.05281420899607148, 0.009956414806933352, -0.019514990997153644, 0.01337455992447487, 0.033037568805386004, -0.04373330964321503, 0.06194143638606294, 0.02005626010667077, 0.01878795392286948, 0.06283730849896586, -0.010234118223359139, -0.045740591161477294, 0.03669264265727136, -0.044691638620022844, -0.0017018112831816434, 0.08510455133060994, -0.01756318508439, -0.011994644610591347, -0.005990197952631646, -0.04771253405636381, -0.10911269280895589, 0.00975007872474984, -0.05220275794665869, 0.05899705299800005, -0.05334375890719642, -0.08432166614492242, 0.01828240294965562, -0.048318684310791525, -0.0010786143978726414, -0.03548417492376425, -0.08174227878449002, -0.06503129333595563, -0.07459924283311686, -0.05111339939082151, 0.031818206285684277, 0.036990313643574, 0.0017015750750264433, 0.018036001105978503, -0.029233483479165205, -0.08281980684412779, -0.005999150280089552, -0.013098265044682842, -0.02933899047000213, 0.012638510768364905, -0.01218212698767064, -0.019614904208178623, 0.02926910732585479, -0.08109422421686856, -0.031908240629894856, -0.0929681679688215, -0.02227330318464093, -0.04252140571227908, -0.08933183671963722, -0.07138292727061148, -0.007073752666611065, -0.06181102414352785, -0.0663279149849273, -0.012771784662176443, -0.04537225560852836, -0.046454580994792716, -0.010014759070389559, 0.06679039810510537, -0.014232964507119996, -0.047723170222695066, 0.024850468298872514, 0.0118672127153317, -0.054565213050002906, -0.003950157087026023, -0.0381669039278646, -0.006331027463046687, 0.0020764208369100723, -0.04926080133972231, 0.01681641623570622, -0.04745051003891626, -0.08659343661748282, -0.02086888173155663, -0.011639796309313449, 0.003905561086716891, -0.041244027240944114, -0.06794724313700873, -0.11304621765934394, -0.06036913893418131, -0.11936865115866609, -0.04093254684087511, -0.05382856735299076, -0.01619070923676838, -0.04598131007243131, -0.028217994581530695, 0.006465832976344422, 0.007630518910066534, 0.0053533450115560745, -0.005769365734615934, 0.07373479344012952, 0.014743199578750253, 0.012726131084447367, 0.0465759302066932, -0.014844939845291843, 0.018431155176072852, -0.033447318752394734, 0.00756767274511428, -0.03616960449054088, -0.032096699067374085, -0.06286291279278658, 0.021812610498115264, 0.008954866963403979, -0.06399869011501677, 0.024503070549533688, 0.001497951701269138, -0.10990840009922896, -0.027542184270119698, -0.018847219074558913, 0.03559437643539307, -0.03297154968343666, 0.020728344747318994, 0.045202103827812715, -0.0052710792148691465, 0.016525370609923255, -1.9543787973354107E-5, -0.0034106045290797815, 0.015278489771039344, -0.002007835231975312, 0.01833592775374582, 0.045393376681094694, 0.04692967808247211, 0.03412808429191135, 0.045946676647263915, -0.04484644661986562, -0.04841044116679656, 0.01938878906398416, -0.031012348432779363, 0.04325064689894573, 0.0660265098062226, 0.042347962965852234, -0.019288935239064817, -0.06648567575952513, -0.028971432900728223, -0.035015635084143716, 0.09172680448917972, 0.021024475161629433, -0.018952281163631422, -0.024133717450120846, 5.383104808836736E-4, -0.04318941188241746, 0.020108613167431323, 0.06966038322600715, 0.038997622383163615, 0.007952300507843712, 0.01648158149951584, -0.07638773523299432, -0.01941694814128899, -0.038692094444392186, 0.05131519102582236, 0.04190961081523117],
[0.07070407377566999, 0.014202575075879352, 0.0033828609090924043, 0.024288623231656915, 0.04475659569347966, -0.021369791356977842, 0.02389420696946874, -0.01123937866704781, -0.05018149182363145, -0.03001388325001133, 0.004432746990406953, 0.0456383527070563, -0.04446915859912906, -0.0010231321065858978, -0.0359747673446923, 0.024328116366931978, -0.018696600913862573, 0.04614533212185196, -0.004710532627960601, -0.02580011710976898, -0.016714263127146915, 0.02946561825630517, -0.020118070683507905, 0.017361714847685516, 0.028518931270458965, 0.04456346955210557, 0.049973674581839364, -0.01238848448166319, -0.05789058231828452, -0.021186253038268453, -0.023928963979130077, 0.012414990830603934, -0.010443193939423803, -0.03846665937529565, 0.004962392251517506, -0.05975646993857788, -0.004573724003749116, -0.004723813622426212, -0.054400370168085965, -9.091473858183618E-4, 0.023472389371799383, -0.02016633318446067, 0.02072857039133026, -0.017194507745753145, -0.0758803158665108, 0.04358145702026123, -0.01646269462241506, 0.045776432118435566, -0.02303359226073149, 0.018400808872337384, -0.0025784079821902436, -0.01949242234595417, 0.012402716446546435, 0.021103976035024816, -0.007547697951051038, -0.04388558713938245, 0.04973790704418525, -0.013167366864463894, 0.005038923352470364, 0.009130630799836588, -0.004285638158352536, 0.07522207931019569, -0.0010004441998007288, 0.009418057054994865, -0.01811298820648083, -0.020233191837529255, -0.0022784457325963976, -0.006786153256824891, 0.017800581486697706, -0.013062392750480227, 0.010553719524096715, 0.031371279019985134, -0.04022201136890149, -0.007529487671702982, 0.04863704273525183, 0.056370812058168615, 0.03830799570109072, -0.0034835148920767302, -0.03420120614024807, 0.009488455405770356, 0.032996153967345294, -0.056674248725415245, 0.09442510791524568, 0.049178916270192795, 0.044554239005395145, 0.014096239652051746, 0.016705556836693405, -0.0323754158584435, -0.01988886997518315, -0.00996821377743218, 0.02642722586527449, -0.03626405082089431, -0.021518077094159843, 0.04423757232718731, 0.016976403033024466, 0.01704992671586217, 0.009889115631029368, 0.0487845928968242, 0.04461367882371218, 0.0035278262541681865, -0.03291035504824485, -0.07937525484195342, -0.05479113648784686, -0.03719824580920889, -0.06715420607563613, 0.006133984854526035, 0.028893963769580533, -0.01853146468676071, -0.003538543742524542, -0.022505319691854278, 0.008041667249759923, 0.026754242581019085, 0.06509710826307116, 0.027345003905227285, -0.042645170902084036, -0.05780100849425253, 0.03189823103793821, -0.007875749743236992, 0.05389294673341586, -0.03559589386316197, -0.07036705179571091, 0.0656884368264044, 0.02829026241649185, 0.04114009349290889, 0.042335051477822044, 0.12020175940105798, 0.1269857952499227, 0.06401574366356087, 0.10505405465686903, 0.003618813851371631, -0.01028298510573634, 0.04728659095731183, -0.023226872120944417, -0.06324930684976961, 0.012896506340348638, -0.018896210747141078, -0.020767476056131693, -0.005006858664736619, -0.06798972460768318, -0.01016327365889608, -0.006546749598327536, -0.03582953161375516, -0.02536767895654819, -0.04671595134912567, -0.06698998460002578, -0.06725872052247989, 0.05052574982571721, 0.056278141589741405, 0.00807420128618405, 0.03697154703574719, 0.1510219593191274, 0.046885726721044504, 0.13390146688704763, 0.11659331673776907, 0.21541944471034588, 0.09785161717501467, 0.18686823236328434, 0.17831776437291036, 0.13099260672002955, 0.0989449120253189, 5.009774937397401E-5, 0.016925200576058515, -0.04545710421635501, -0.053379876920210845, -0.06453042234794343, 0.008393558644794945, 0.038616357593122326, 0.02311026389422857, 0.0332116375741714, 0.014696804839915662, -0.0034686890021653634, 0.03143905660557292, -0.007581319612343208, -0.013383206454081814, 0.014037713874171591, 0.022386645624064543, 0.0689206804112647, 0.01992002882409783, 0.06814544517485721, 0.09515359797033011, 0.05733675012832312, 0.10681448737563053, 0.11715910701871075, 0.12876433068722817, 0.057006288017812115, 0.03594086216093238, 0.0575218525220824, 0.11971696689653014, 0.0255193143755336, 0.039607446248731096, -0.04125630960964672, -0.002041360038401255, 0.05108124717889072, -0.003338141788892579, 0.006121424274146677, 0.026793808191226245, 0.015690356241796363, -0.008231235363351129, 0.0190886282053452, -0.09557808912778745, 0.021161358134912364, 0.02276330149582285, 0.03135974040334304, 0.023387757979003134, 0.021890230350168075, -0.04791948626998841, -0.002434033663036038, -0.0484768109545009, 0.015243476482940966, -0.0063534434151065085, -0.06481286435514619, -0.029935556649733977, -0.020630906782461895, -0.03663774195317808, 0.12900671879433429, 0.09198132479471742, 0.044394833751067626, 0.016144485489405183, 0.07075574215719305, 0.06458226975675257, 0.0328145030439436, 0.026435656808492067, -0.004978142461750897, 0.014492729838943185, 0.008263551672566113, 0.039343708422982106, 0.011480106778155042, -0.01243438106608077, 0.11289148143804095, -0.01006244596235236, 0.04484259654845421, 0.0019478422586942624, -0.04465613721973855, 0.06205543707193796, -0.061144456580215625, -0.0535294097629125, -0.0939453982901962, -0.006762422016483366, -0.034717797147165365, -0.06098417295367317, 0.03821912484646602, 0.024682687831590548, 0.05741945908684043, -0.00771104818678779, 0.0660862536671417, 0.012868297205262787, 0.022908615888939856, 0.03523547723036617, -0.019796423630268727, 0.011615561425584982, 0.028800260796818602, 0.027436421600383447, -0.05232176763988165, 0.013580282753703732, 0.007285166270245203, -0.012292669470048553, -0.012919358601327655, -0.0024508116455215006, -0.026260602082245725, -0.05839017391242068, -0.08781718371302238, 0.0367878299636687, -0.10158895662118063, -0.06173273361274625, -0.10986099644496608, -0.009717780102220961, 0.0625964034096756, 0.04840093783951317, 0.0669365625012863, -0.03007692728694788, 0.011267072616711834, 0.06700345645277513, -0.03892480907254177, 0.0682425525039462, 0.045590654523942384, 0.07275381883692299, 0.0028387678524460116, 0.02802850589118279, 0.0013930463110719037, 0.03902447404107737, 0.07597814342427059, 0.03017957259722371, 9.670293497305031E-4, -0.035914615555137835, -0.07219088973424369, 0.036854476263985504, -4.347298189589838E-4, -0.07223513030438428, -0.026114296820959577, -0.10691210811827119, -0.12939180663360128, -0.08817289991935681, -0.05779430762524152, 0.01775569162483344, 0.131580367896218, 0.11042531365883858, -0.016988036175452897, 0.012939149012322525, -0.016967966686322822, 0.033517130979078893, -0.010588016416079146, -0.024147699172103576, 0.01894650673488498, -0.02605625155983606, -0.008445722072631575, 0.009892902868395037, -0.014684167895129113, 0.022146469898238326, -0.061213251628217516, 0.038441459941217886, -0.011982914869596526, 0.0507495991929086, 0.015845698964646496, -0.008261081341395703, -0.008481076350251962, -0.1026898730306033, -0.08202659260019056, -0.1446447955989622, -0.11103391588946454, -0.08832099326619575, -0.05968736273787709, -0.04500718103625951, 0.1502373713424143, 0.0685778956578723, 0.011519562516815983, -0.07861277532470698, -0.04280547660458265, -0.02300041688247058, -0.039461092049740035, -0.0034454919730131065, 0.0031774114212385425, 0.002891525220738291, 0.03647181618078475, 0.0060734800756472515, 0.01930232963769622, -0.048641784362332546, -0.003065230882942686, 0.022768767381365847, 0.04546433503777359, 0.02195050182488205, -0.04582080095340911, -0.011348218752362728, -0.06106339745789779, -0.032206428130393115, -0.11115523338702654, -0.12787481503036446, -0.11611145612668758, -0.09022627833378417, -0.021801883434163876, 0.05666930740372907, 0.10459142663629607, 0.014823536949906941, -0.09949156537220663, -0.09725229067094944, -0.10649044312227354, -0.05602710419287416, -0.013851870534648572, -0.03539524193957328, 0.07204059795380399, -0.019494487829377787, -0.028554722027399032, -0.04023258722613786, 0.008063424312714347, -0.014579639754583774, 0.05830939785777331, -0.02014936813704551, -0.009997881725625464, -4.4245341861489734E-4, -0.028242629462225107, -0.016446318916840057, -0.021410739340552296, -0.11988612288280975, -0.08759278898498446, -0.09436439524112943, -0.05811438171147109, -0.053485214892164394, 0.026091123535323127, 0.024941802816167955, 0.07452453194218137, 0.008653465786783865, -0.10216979001804365, -0.14853190511454903, -0.13328238318290583, -0.07106256704046394, -0.054634274249111374, -0.003607760964505036, 0.010557156110157074, 0.026847638884124725, 0.013047499472549594, 0.009023570383833873, 0.09873779904333485, 0.05432242861147045, 0.05240378478224691, -0.03472261996366478, -0.00942015804125565, -0.029372421902022806, -0.07907168647345957, -0.09011960083065382, -0.0314607677181876, -0.12184260115907855, -0.022902556635583153, 2.970427183109828E-4, -0.10897739398122804, -0.06464639060802525, -0.003331359588575659, 0.14742538099301958, 0.058860194914795924, -0.06557801710726205, -0.19755186176541722, -0.14773286638047786, -0.08417447681878915, -0.1075800442801845, -0.006297912152781817, -0.015131945176361917, 0.034939091817751095, -0.00907481196804089, 0.015096482915759204, 0.015985114073080606, 0.025968538116906064, -0.02181127389404287, 0.02876736962974206, 0.03803083826742, 0.0218236222198977, -0.0017606180908069928, -0.012448455983703031, -0.03515313201849926, -0.006917591909261132, -0.036662532975231525, -0.09474850894197291, -0.016080899522803758, -0.11183608224990935, -0.08425962931431806, 0.031009412667117865, 0.01103655641707766, 0.0606274322263032, -0.05346931011504949, -0.24851153526297032, -0.1247003928349858, -0.14930011940852173, 0.010542966744364318, 0.0022768941831394817, -0.03898564221889208, 0.013259943999326285, -0.004157179399760261, 0.023170117150833888, -0.014298305277927194, 0.019603605801506274, 0.008634746746957645, 0.02942166346815135, -0.017935039529987346, -0.0010551751672628431, 0.07500698036157483, 0.05157439669489041, -0.027987060048610676, 0.05625952935005978, 0.019270884087944425, -0.0030510002308422927, -0.007899122221304518, -1.2619933616366704E-4, -0.05313864172870141, 0.008044974922790936, 0.013195199201013324, 0.02306531865190226, -0.03821377027442796, -0.16489469351544084, -0.12083068851047853, -0.019798551747753728, -0.02564846645996372, 0.021430927410030217, 0.025475708448055544, -0.012724769253431861, 0.041806491418294844, 0.05453384805598362, -0.035124537052551315, -0.04645984259464645, -0.012544477309754717, -0.03549702780458915, -0.018702188407559616, -0.0044962771558329714, 0.008230156439386389, 0.021911811933384085, 0.13750694822927442, -0.00248156307753426, 0.040204843326722244, 0.01480435638853246, -0.020726261899088768, -0.051111218163511274, 0.03964639574838704, -0.05709046964175904, 0.020296732081392342, 0.00898566647306995, -0.026124881958354097, -0.11273820207329932, 0.028851123113928553, 0.05971386346351959, -0.013846281611790615, 0.04328155162071028, 0.07321823064370092, 0.020587019283792765, -0.0275880026807512, 0.04469048220823269, 0.001445096974258917, -0.018971285965058537, -0.014132455396225428, -0.012806735149283939, 0.05720633429659907, 7.346567741874404E-4, -0.03158044667024281, 0.10421743010366748, 0.02727810427160592, 0.05873409683640351, 0.10792858807032801, 0.13084313103789807, 0.03796918793628045, 0.01336367058626726, 0.0618185004370443, 0.03951595742023295, 0.005272977912565919, -0.015285237462927816, 0.028391150450121045, -0.0418389151112212, -0.004752924329934607, -0.027839755412819727, -0.021782128057261603, 0.07080829424078697, 0.042987924572066565, 0.06562597512490319, -0.004510457580842631, -0.004568219424776743, -0.01929708064635717, 0.035610854428117754, -0.027928958905282568, 0.042080351276412506, -0.025789791459833216, -0.010231839757585941, 0.02946693916512119, 0.041049959687536546, 0.11715663191766809, 0.1142488542880664, 0.057792484200083635, 0.10446192363941983, 0.1227268693615794, 0.10736532718609887, 0.07245725780413927, 0.026099210725417824, 0.0027150241652904674, 0.0070190512934625434, -0.01606902739737447, -0.02728060376644742, 0.09745701881637954, 0.031229266833771432, 0.025155732868777064, 0.061776425873046624, 0.06735369465894207, 0.08849817416258586, 0.028818610308726192, -0.028825274909855036, 0.003290573956975934, -0.013817758255820477, 0.02134827357772288, -0.00245410181702417, 0.05418166611612803, 0.04255487831792074, 0.0403186968381694, 0.026200443814368386, 0.08603466867575334, 0.1337241219678551, 0.07869982926724861, 0.12291738993574393, 0.152496728051146, 0.19090467107134934, 0.05019102798449716, -0.006037789113576239, -0.04616176254045302, -0.005043983182687475, 0.05631364974500403, 0.058693382075347494, 0.03796052010307149, -0.053814080743008016, 0.06314483992663406, 0.03207682468503035, 0.05514133637397018, 0.00967531593865518, -0.0074194255365673, 0.07915375871559607, -0.044650044924859814, -0.030033447806136496, 0.013224009868888251, -0.022888800204291054, 0.014260036549142456, -0.013850286136688155, -0.034649546704361246, 0.08077490393449321, 0.021300846497990144, 0.09615469315998358, 0.11529151442325793, 0.18348078356576847, 0.15762585767526882, 0.10303235221579742, 0.09116471873877535, -0.032769796238016916, 0.06763546936563629, 0.008024344454315232, 0.023317144397099865, 0.07007576542636783, 0.05966982480457353, -0.021317218877387346, 0.08772940976411804, 0.09350779252312598, 0.03779253703778022, -0.01081588101253478, 0.01649544325693271, -7.863338133740544E-4, 0.031121646954509856, 0.012306487213558186, -9.228185280101205E-4, 0.027169746419088734, 0.02759661129790998, -0.03923451745498842, -0.014119387413831681, 0.0566194523790887, 0.018078869851847302, 0.016646435272326673, 0.05170495772124971, 0.05799853351984756, 0.09570142694770364, 0.11774853204826222, 0.07005068035544496, 0.06265634069772599, 0.027190798332085875, 0.06057486988059467, 0.01660712536930429, 0.021581228560193587, 0.01324306539038169, 0.08020999594663654, 0.026072253246081402, 0.027850768233275643, -0.0018923054914457475, -0.05529937240748355, -0.013560005933036579, -0.0017914481634840667, -0.01553782042464535, 0.0042903113027397705, -0.015623068695678458, -0.005397035122790398, -4.18082580189582E-4, 0.055126704831440825, -0.024588578424363412, 0.017175763553414266, -0.005770162730680333, 0.05279108812713987, 0.029351407188413906, 0.022586346790289504, 0.001761275948625561, 0.04774901104189631, 0.10411933136796737, 0.031020739789054685, 0.1259427365116444, 0.03554364515291284, 0.06014762044117674, 0.05283266989135242, 0.0627842637891825, 0.004992325453326832, -0.002759884994457254, -0.056507648336388897, -0.0747170670285189, 0.0056431548853743746, 0.014902051412327647, 0.023360530246929242, -0.004476031497140411, 0.04292422500650773, 0.10198420639513812, 0.06260510097087757, -0.0020842685491189667, 0.016228110200761817, -0.004568627992250502, 0.023616977785380463, 0.061701757972509645, -0.020057978835500603, -0.005616950220595826, -0.04777901854204714, 0.002680493646765947, 0.013459119291910081, -0.03896712005415765, -0.035557319438572446, 0.037378791275997345, 0.0395349492359737, -0.0059505438327432545, -0.020960246162104776, -0.07145230954309399, -0.042817796917170935, -0.061190982770004634, -0.02068768040168883, -0.042932799780224996, 0.01520475804391527, 0.0033031796630679996, -0.061564286027726775, -0.04482162487759458, 0.058073823792860434, -0.0046270617407427606, 0.04214596235528566, -0.02658777429647898, -0.0419053055590094, 0.02439457032598202, -0.012089278853834588, 0.006566285465074854, -0.03585665669740203, -0.01798109165318769, -0.003669123622147974, -0.14754525068648702, -0.052629643213888494, -0.08761435557714192, -0.05095085909006455, -0.07304269064175574, -0.07443854719345523, -0.08888458131990978, -0.06744702606726224, -0.057150620545143825, -0.030499198108189216, -0.023992197785285014, -0.07850278662931037, 0.011865613255981967, -0.036855832010693784, 0.017399923881242105, 0.03232238096091812, 0.05618682220168144, -0.03461174812226185, 0.06398698463125833, -0.0082711780709024, 0.038671362502684666, -0.022738877668821707, -0.010597515870952161, -0.011230614114409714, -0.04574452687278636, -0.0458527124211887, 0.04008728084954982, -0.017015351072957135, 0.02925900787483615, -0.009380321824876142, -0.04115235498169326, 0.008681988403209275, -0.0513671580201057, -0.07522036557110279, 0.0027904083492980205, -0.036002542876744655, 0.008725514394928078, 0.052058607855767894, 0.00812489557170842, -0.03470820160762083, 0.0720042623709745, 0.024717951227544645, -0.002919491223836327, 2.4302586879757456E-4, 0.018622767190012816, -0.035998783058885056, 0.004687131221111192, 0.007686433887629883, 0.016053955536873568, -0.027242029290879818, 0.041406238216718884, 0.08446940737299796, 0.05509118262829397, -0.03736392238699473, -0.07456948744402925, 0.04992370277720207, 0.06197835191267653, -0.015677912806000886, 0.02906831421385569, 0.05778674393552548, 0.07236103654686114, 0.023177978158292548, 0.08859250763621335, 0.020830146463037887, -0.0019606280463302507, -0.017375852439182892, -0.010387708345823076, 0.07373505623117564, -0.005189587265046313, 0.04448967322256667, -0.019985608342994513, -0.021007185448734696, -0.03743210745829395, 0.04907287477608952, -0.10534084963289111],
[0.04138947648030959, -0.054446307843629825, 0.04016923483249953, -0.008937535903871127, 0.0376904457455431, -0.011503871849124646, 0.004193184082777255, 0.06258748660785338, -0.007807214096954513, -0.05101682397074384, 0.04837668068333161, 0.025511793334603745, 0.014922987617365985, -0.029424322544001208, 0.041223343865727416, -0.023668746239553354, 0.011673307547587124, 0.025642150120847893, -0.0011598536402100577, -0.024627508342963293, 0.049216723784177296, 0.042506791436653826, -0.09694969477994102, -0.02193754496273525, -0.031065466097653104, -0.02603244962184009, -0.0676313103378315, 0.019971793283725087, 0.009614099816442252, -0.039347985105012154, -0.012811926990502329, 0.014546522448807886, -0.0514973050822623, 0.00796569425110026, 0.0022678624826548547, 0.005607525642416687, -0.005409269922875806, -0.002831006871761013, 0.002748737280012518, 0.011725868425969134, 0.019852971189946327, 0.012472124996772815, -0.03253639701777874, 0.036710057709543074, 0.07306643604002476, -0.01661801775097408, -0.06092479512204902, -0.03428623067645931, 0.03979565928381178, -0.060419451519363336, 0.0027262135350190264, 0.03076701008335398, -0.009309983931181624, -0.015595934698390868, 0.0032932142836861605, -0.078347861367799, -0.0239525615452629, 0.002802530365989759, 0.06681831782719651, -0.020975662803773314, -0.018378399507991302, 0.036984562727606585, -0.005741829339292457, 0.014058386651725692, 0.02849041129274879, -0.048780203879241736, 0.002877600565471552, 0.007861671235511168, -0.025470915209329634, 0.04201558371409841, 0.03366263172089512, 0.011685558007733878, -0.011333456466370241, -0.047775986347676234, 0.015430095048105762, -0.007155307104325108, -0.0018865398708229435, -0.011463613854944998, 0.02548174421318346, -0.004972563115484152, 0.06093709352135048, -0.05929683106487254, -0.01814034006156501, -0.04124847855200385, -0.027175610968048065, 0.014293000335790533, -0.05149296538284828, 0.00476218947594478, -0.03668259479994372, -0.015043956309210285, 0.04114362153155088, -0.04486222976693592, 0.11302880264880981, 0.019804391154093947, -0.040484059911461576, 0.058711280336784466, 0.013558461196345963, 0.024729611052921017, -0.011985549107505445, 0.10609651050071182, 0.07440636088039623, -0.005245382745058015, 0.024854628039539785, 0.023763616066321113, -0.0173648081766425, -0.02667534227437017, 0.0661987118279928, -0.10774971704004066, 0.020604918622391184, 0.05677003465236301, 0.009633602239326116, 0.019906901614085815, 0.038247659094341094, -0.03328656268827585, 0.032025035664938244, 0.058409410860160604, 0.014031313821425112, -0.054110701884487106, 0.010694464300787741, 0.01613930313175501, 0.016248718361321683, 0.011942997367072774, 0.008944232110293255, 0.11487639172071738, 0.021700147994384782, 0.06003217466024776, 0.0866522133720414, 0.09614927591364218, 0.15037372879003716, 0.010057976869673862, 0.06445125530779548, 0.021817054179533057, 0.0065085404301284695, -0.03784713591150432, -0.0042021572544889306, -0.02396683437961577, -0.011547147074103776, -0.042376741709476105, 0.03958742927310289, 0.0473461073796349, 0.05730376536260157, 0.03458956894429246, 0.012737386182051974, 0.008727264235853759, 0.02174862948256589, 0.015019830722735423, 0.0528023745682158, 0.07499100313857875, 0.05495048200236761, 0.06229312276417251, 0.0162627422565431, 0.09695759932651477, 0.12376399577577521, 0.08135753809449348, 0.12727842457560262, 0.11013116454045475, 0.1530516285989966, 0.06172078786455377, 0.07725415115597517, 0.059714662831548235, 0.0314480816388571, -0.001571889074290438, 0.011014305141614687, -0.0362799581727414, 0.030246566323505267, 0.024801539288450684, -0.036398287573627286, -0.03130805784685055, 0.0066674368556980754, -0.047324923649050867, -0.0038463272952979056, -0.011678613366582128, 0.00923859950580125, 0.029636297755928534, 0.03428613320416378, 0.07544734931034928, 0.10208979445738593, 0.0801365651476292, 0.09524959782396714, 0.02172317518169205, 0.049772402176032404, 0.0931348246073158, 0.10918420405141725, 0.10223142353413105, 0.0975037201941221, 0.07151514717617162, 0.08575285202577652, 0.03415582539817887, 0.029070227417098287, 0.006432894928107583, 0.006042298892205122, 0.023488801247921295, -0.03313458019032667, 0.08082604745649109, -0.026808611546537214, -0.009580021043870719, -0.02061766873638732, 0.019458099347368096, -0.019469352068807757, -0.010740035468762768, 0.02374888838164308, -0.07388030826903914, -0.0013181134523435976, -0.039799982550657725, -0.09004891774867323, 0.01813970772427721, 0.04496633863532155, -0.019501876312574273, -0.009706113989445105, -0.09536308727647208, 0.018821924058607217, -0.029233152179112473, -0.038816348669588586, -0.06321936608179314, -0.046895090665063324, 0.03562070845096614, -0.02327928180419542, 0.054747293304687084, -0.03879248790885703, -0.003904295787647226, -0.04659099777884625, -0.08791986454470847, -0.02053148797640616, -0.06030377426605697, 0.0013237478103479462, 0.028808305305510647, -0.005333982712967652, 0.008046553383462501, -0.04510439452213661, 0.007296721687532235, 0.07848196036930409, 0.02440204070445879, -0.057657709764544686, -0.0023239050322926428, -0.13311734067611417, -0.12365483518808525, -0.0708310107792845, -0.13283657236284097, -0.07944529022049365, -0.08147831564071116, -0.11639167486330575, -0.0670970683810522, 0.003316648112067135, -0.05490961281462976, 0.028633389933041795, 0.034088643680047305, -0.06288054641328457, -0.03192708369694908, 0.021324145610081786, 0.03230220509764182, -0.03602350920995556, 0.010790516789024015, -0.005596833568638127, 0.06804106962923248, -0.023648353911941, -0.06553800740742081, 0.0832685500350288, 0.04902445065628014, -0.07883054793963044, 7.455039994050871E-4, -0.05033538461929323, -0.10586891653078812, -0.14551733905934472, -0.1274508473634199, -0.14050764731738305, -0.1000617573834008, -0.017622805709731796, -0.04549097210738822, -0.0366018975854489, -0.08440707984225337, -0.03463109378239941, -0.029714731136890587, -0.06655961052904284, -0.11414698871216399, 0.026350782290711364, 0.016847706597625117, 0.019289449511782526, 0.06530857447211022, 0.05948624179154749, -0.03041352530468825, -0.023545968984035295, 0.03357925605501972, 0.048595996841941325, 0.029629481030905215, 0.035562307564416584, 0.0022164640986268094, -0.028590114574042265, -0.025520078972717932, -0.04499575643938293, -0.05989153787484935, -0.11617809008029177, -0.06355250086085205, -0.14310870814435023, 0.03803619828386193, 0.06407890164444405, 0.06485994576392909, -0.045816894226788606, -0.03373943394575943, -0.019609500453250196, -0.05567044977314514, -0.010659238939538782, -0.020699022105303652, -0.043919449566356315, 0.013791865758243541, 0.05872613065232575, 0.024463273113175536, -0.023234981810779095, 0.03001152525107963, 0.03164600431747158, 0.015885141378249354, -0.004510577193934312, 0.01375818959582473, -0.023470839997351924, -0.0297130814249433, -0.08013340591487617, -0.028973504272912325, -0.021914871640315147, -0.06602018595292786, -0.03209062158747917, -0.1846348805510576, -0.015601758529748029, 0.020248804083906058, 0.0830590779484419, 0.03890381922167907, -0.027952186072938985, -0.053740688370642845, -0.07906435046634144, -0.07134883811366291, -0.11309054461514771, -0.018346498399001734, 0.04767630555451122, -0.03907403939000939, 0.017178759535726004, 0.05173704276460009, 0.00894379124456312, 0.09549812858546602, -0.02084630259767463, -0.015068360561594699, -0.04953476411437675, -0.059687850070412454, -0.04051976993236165, 0.08485166347268669, -0.034242031351972194, -0.07037695283630814, -0.06021779382008923, -0.05026341879581103, -0.07061469008927179, -0.03931357769904774, -0.0386537294164915, 0.11955230655473786, 0.15364647936856224, 0.11117515552752277, -0.019413845586504542, -0.18072241509446849, -0.09285868820788652, 0.009558678007668969, -0.09315433855305476, 0.020447147001471027, -0.011761905191820141, -0.012359479248668443, 0.016684730343856622, -0.018917138155682498, 0.05199446753972992, 0.04152953849388056, -0.008488988208084563, -0.02683048941945096, -0.015350404366956921, 0.034875208688561664, -0.010944055458742248, -0.09477260906378307, -0.05542038358411093, -0.027341870733178255, -0.07634184193441045, -0.04411363682426174, -0.05259821990713743, -0.03979657635909798, 0.046658962833923456, 0.047275772381089376, 0.09173756195690058, 0.1268449081331628, -0.03893008504110713, -0.0962874836294129, -0.019486401671473547, -0.03701070082686982, -0.016214385622171635, 0.0011535698538217172, -5.172571282897389E-4, -0.04302693901831365, -0.04360784258484709, -0.02776872731073863, 0.0170744685757057, 6.897050048086506E-4, 0.031719291940820585, 0.007939024777021629, -0.018482778466844204, -0.048669584441874074, -0.03515000664606138, -0.055705454356193465, 0.030541595301616688, -0.09703397056031168, -0.06611517142646171, 0.030571114951332155, -0.0023857104877255276, 0.034638271080115746, 0.06984321216262933, 0.12928418199003403, 0.0699745736041064, 0.008979254544583575, -0.055458790379821286, -0.10465727104310625, -0.07044151837058232, -0.02346516094326031, 0.05126853318080996, -0.026399430417084292, -0.07417453193241734, 0.0997617435386475, -0.029373546537253596, 0.020063241599245888, -0.04491536740781915, 0.09392204997659173, -0.014310331717070758, 0.014899364017390832, 0.009314546689099487, 0.041161855724875476, -0.005574761995650024, -0.01527901116827118, -0.03647024157291811, -0.034987958496104074, 0.047162688926599944, -0.04437599246386109, 0.032672423082705335, 0.0638802221074711, 0.08997099640157709, 0.1544149051834996, 0.15561131465291395, 0.06276124964174092, -0.07363779096853701, -0.10741568506953862, -0.0685632663191032, -0.030614624475512185, -0.014387829436180883, -0.03517117327889432, 0.052920012022205316, 0.0744347445933267, 0.014617033188344952, -0.004648273762344368, -0.0011996622550411481, -0.0015331002358877288, 0.020867723704446922, 0.05923879225608241, 1.6545782529896666E-4, 0.007677012569050741, -0.0014806082158323427, -0.005086612162192046, -0.05766073466741364, -0.017410149841895307, -0.0259377957436274, -0.03018686575061994, 0.011387523033208374, 0.04386166340674457, 0.059700515827496886, 0.1164365080030184, 0.04357927691615148, 0.07644683964954296, -0.08175162149731963, -0.0315651121220433, -0.05005230675345716, 0.02923612244066106, 0.021513775026555607, 0.07753045571412771, 0.027415345931098407, 0.018187762727062504, 0.04358797576071496, 0.020273242534114822, -0.012798744291650574, 0.12448497206738267, 0.03361849661151662, -0.031934312082475935, 0.02098331112760835, 0.0768082364699802, 0.02624585792519598, 0.035591945471563816, 0.08892782995359261, 0.0336529086311519, -0.10233151363396648, 0.04875912105527141, 0.06897261392675699, 0.09765909884542232, 0.04621433983870749, 0.09559852009948462, -0.04447339609990582, -0.07671471636397678, -0.03434104984566054, -0.09007333199744677, -0.004532280358828187, -0.013047458890097636, 0.01052584732005869, -0.0036062561593243983, 0.03627330118340049, 0.025457445861710632, 0.02308115935124682, 0.008642256573747545, 0.03641420596091615, -0.009904038137473248, 0.038363970025687213, -0.010010854239544313, -0.011657637712822968, 0.07967662191595061, -0.036429555855593175, 0.05578523092374531, 0.07591427274075829, 0.020347163812410224, 0.016754223808007045, 0.05237770271583993, 0.04246348584832137, 0.09437633610375862, 0.04520554423884336, 0.09092069211912943, -0.005384414321493814, 0.07440013721275421, 0.0010324661040375033, 0.01474385824876451, 0.00931508843463335, 0.09686304412924691, 0.09488871720828979, 0.02259938845901016, 0.030062651242469197, 0.026648639125599123, 0.025239248317779586, -0.026093500806702367, 0.0010560116690086446, -0.0035407641229432576, 0.024007889811759275, 0.04413061261616737, 0.02696517389426952, 0.04629750186864539, -0.013743181590331562, 0.09229311668421594, 0.006239528946972711, 0.12243192871855248, 0.06800591590595638, 0.11631560735537008, 0.06284745541642081, 0.16504260668708493, 0.084245206841238, 0.04061692212457467, 0.01243543230646154, 0.02654838705238232, 0.015324412593995605, 0.06435082665645048, 0.08119373472073514, 0.055358060059592325, 0.12119751958413834, 0.05674783325244494, 0.030035603871591467, -0.021664093045491533, 0.06108033440288448, 0.06276678996262477, -0.03787003638737756, 0.005987241124678544, -0.028999856562901317, -0.008443301061018762, 0.03739705688177048, 0.05491106183522014, -0.030613678796082337, -0.013029789108511353, 0.03531825276448146, 0.08839250336652299, 0.06500107128855599, 0.10014944448570724, 0.056948349690709214, 0.00443793002599536, 0.038212716090517976, -0.03769478116761697, 0.03458604831586734, 0.0303281786306569, 0.05072906679718022, 0.03195102286426837, 0.007257346024857801, 0.02501191556737903, 0.026934621150438542, 0.021694445302835055, -0.029558009783748722, 0.06527107850493503, -0.011416094381440046, -0.03178308615993333, 0.024935812953614394, -0.007520789734353415, 0.046249669602275854, -0.022815611623846526, -0.008542052649535673, 0.006342021136932928, 0.06921268498420234, 0.0594523645317514, 0.15300124104861085, 0.13866308543525557, 0.09000756414593047, 0.06169873142376848, 0.07426314532340071, 0.05576706331570015, -0.01700841346432043, 0.02716890801903494, 0.023767226228372882, 0.04906806608747627, 0.08574668336540309, 0.01659726398319114, 0.03883267770011578, 0.09930617860122225, 0.030362117049668864, 0.08052985545347374, 0.02705206780044854, -0.009237714879611388, -0.002130962828887279, 0.011553646893781976, -0.0274172120582887, -0.03066371732457932, -0.009165883955929797, -0.0019378836099577788, 0.04675763111618895, -0.021643150495144137, -0.01615869779908502, -0.027345170800583716, 0.025503314681321373, 0.1533963016947059, 0.1140474197574882, 0.014247936866950943, 0.042613447916834864, 0.002615915794290245, -0.002881723929214328, 0.007839886664190679, -0.04147177281901825, 0.0047586078119024764, 0.08621528219486611, 0.03353899801109453, 0.06852283974527353, 0.021255195065232293, -0.029086922137520396, 0.021139774414489186, 0.013481213532707304, 0.0517334033235378, -0.03857361863015831, 0.04221534393198491, -0.003543088329978414, -0.03366659233095552, -0.021173611409827254, -0.0016575336957766233, -0.013920817912675902, 0.001743988350962004, -0.005806452269380608, 0.005946422876706607, -0.0026684120815395687, -0.045818557118554086, -0.009922558931571877, -0.015070926191225404, -0.012223525329393836, -0.029480887598162357, -0.012112487839678304, -0.015389788572696643, -0.00351693122185143, -0.022149415145955142, -0.00391455936707938, 0.002512654874059418, -0.004086022198740092, 0.03260476968065424, -0.035723545181223657, -0.013450989122896937, -0.014473383636971413, 0.01697030710719313, 0.05230238375995281, 0.004321097365308335, -0.04975157014398513, -0.03088003449027583, 0.058006840194180904, -0.03544268783644565, -0.028995074164323214, 0.10282211481832908, 0.020491671048942492, -0.02325047533900157, 0.004222264413041607, -0.034106142663132236, -0.009678862945603783, 0.015236760815551864, -0.07571037303452709, -0.016285052458258682, -0.013332217723178243, -0.057576401369807365, 0.0029756864278980937, 0.02070762667626572, -7.258987613948176E-4, -0.022973937408592462, -0.0289124576717062, -0.02160289885743253, -0.008366920904015735, -0.004944906881944083, -0.04947553641338956, 0.01342239489530994, 0.04629135521095103, -0.08937854575796254, 0.07594288376149852, -0.01218460898646335, 0.0017240320521246279, 0.0027114751726312757, -0.010606041206300522, 0.050808363214891905, 0.037878917347711843, -0.0033489107224335224, 0.00663149190283793, 0.052774654171765696, -0.03016346119781033, -0.03809988020376823, -0.1397265980005056, -0.08444190177390953, -0.10515346365965912, -0.012162705097122898, 0.0384445640536589, -0.007525217495452991, -0.09747810653130892, -0.09124774669179317, 0.004558377915276292, -0.08627738143004687, -0.023710852183418646, -0.010026971092293432, -0.009676030172093992, -0.03605491035324121, -0.09574719257296342, 0.09122724853966854, -0.00642938414444344, -0.048218734778631735, 0.013302432141834474, -0.01384244219913079, -8.424371481401821E-4, -0.03899240443980851, -0.029062471264259416, 0.01979224829024915, 0.021887496650982982, 0.06111440632766338, -0.02238402768036037, 0.04336007650683067, 0.012340734056908218, -0.071971488727294, -0.03289303665092344, -0.022220337197715295, -0.023999348340949384, -0.011544247665125561, -0.003448063103749542, -0.04338206450083732, 0.012516576212479532, -0.010894935689285627, -9.240393546937957E-6, -0.040337944136399635, 0.029750170918603387, -0.005154051556921109, -0.0068149067995884145, 0.004031751647134399, -0.0647732905447419, -0.013245949933715667, -0.037411538233421755, -0.0544220539997111, 0.019492619460754618, 0.0050339466933391796, 0.023688503106116133, 0.011058829198160081, 0.01109911838578647, -0.09490595881191817, -0.06293731682927683, -0.029735140477571115, -0.009378196099049517, -0.019720233177473175, -0.05798165201098237, -0.002758509256931642, -0.056949575308772, 0.018972807869744656, 0.028458166562311406, -0.013616868324144951, 0.00600673101940379, -0.06982797071435631, -0.021832474889347177, 0.011214520769824201, -0.04362389660589238, -8.752556587644189E-4, 0.008616987804331256, -0.002139716323423799, 0.0445132035711699, 0.019318223771142947],
[-0.03886765354233938, 0.03559748267640516, 0.03728060250793659, 0.03837864445197414, -0.021517226066001767, 0.08056796353089103, 0.032931265420830635, -0.03365720534520026, -0.0057392815013037205, 0.009196715017459339, 0.04554760329278673, 0.0171220638417456, 0.013834079846238157, 0.04343212558945573, -0.07221254726957356, 0.014023921148460227, -0.021112196200693344, 0.017844815743208436, -0.010449448542343712, -0.019477858487577087, 0.004954259853472338, 0.029024606833249544, 0.013793874533794754, 0.017500111466257524, 0.06703020908015193, 0.005363918373518059, 0.017363509741173604, 0.010866876094791417, 0.0030523112635350695, -0.028265378319415828, -0.018791733011013497, -0.009014854579544703, 0.06225099300315159, 0.020974282401342356, 0.010818721376277554, -0.05241991467890591, 0.009720670156667721, -0.004398905666023297, -0.04158283821286991, -0.011617014108977393, -0.0380434415624395, 0.001082180112230802, -0.004844674875718836, -0.003370387887310278, -0.012154368979606879, 0.008020883310533258, -0.019553629583802783, -0.02229556653586967, 0.05777210419960256, -0.017836515350526366, 9.944365820774578E-5, -0.017130847907531818, -0.025300851492083134, 0.03262529570566321, -0.049721961600083874, -0.04106168514466811, -0.014713159705570081, 0.04719978769992311, -0.03376661647386451, -0.05145432329464011, 0.04332270172022915, 0.01425453942761756, -0.046179100835113354, 0.026677077950078988, 0.01778269725160831, -0.007361252261665227, 0.027009232416839474, 0.01599657891926696, 0.014565959958597994, 0.041697904249867045, 0.014123506784922574, 0.00553048809942098, 0.027372933851809913, 0.019244280849595116, 0.03751623769626867, 0.011321651070544114, -0.07474285083633138, 0.01779696859376004, 0.0201140253095492, -0.05360962394767697, 0.04246992060291658, 0.01171002051717932, 0.006725498048128301, 0.0573673132684781, 0.0031158942100802654, -0.04894301418524747, -0.027031580224549805, 0.0029870717599765864, -0.012597704401354149, -0.00944953396690963, -0.009570949735550255, 0.04679846386703066, -0.024116172405195792, -0.002341438238037098, 9.875842999219884E-4, -0.052716224040059274, 0.011515631529994417, 0.002408102493377737, -0.008998122266484374, 0.04028861329812635, -0.026410543416987762, 8.69634565758166E-4, 0.035970932881472864, 0.10257322711820632, 0.024597851030194212, -0.03648541619781303, 0.011810077858648625, -0.0169055680952091, -0.025092336770224623, 0.013260982065487054, -0.024653030809458052, -0.011544543524408798, -0.010943926487345922, 0.0718441360987172, -0.05771681115665433, -0.06413789448719985, 0.015441020122841974, -0.021359370894112793, -0.003512264737054906, -0.04117737451583105, 0.024024646929381072, -0.04410657644775803, 0.04985911176922516, -0.05421208634524308, -0.04219736741397388, 0.008214373667726677, -0.040223328535110854, -0.03285841263674306, -0.022573456136938647, -0.01163096431261435, 0.028255421182909298, 0.023462703618881205, 0.005706895740893337, 0.04448098707258842, -0.0031294516515140702, -0.004729788484369911, 0.006409814922303419, 0.04474235624925503, -0.004770546268857092, 0.05942316332925771, 0.06871913318841827, 0.001665170143157956, -0.0270737290964672, 0.01842615711278313, 0.029300159113198845, 0.009412322074239437, 0.03524196947557213, -0.009441405500072168, -0.00746016823114917, -0.02453713795841573, -0.0093735591142654, 0.019731093569961073, 0.030218160661626615, -0.11728236109725221, -0.10006252563070693, -0.03325171633949465, -0.038062773238325937, -0.049759062059386086, -0.006480570802016835, -0.020570827140931128, -0.03653012782365917, 0.002896931260050091, 0.042108017607109076, 0.10172536353114787, 0.05390174222986158, -0.04471556676606739, -0.06091765535990606, 0.017685886877143234, 0.027888295204870073, -0.004583476456922703, -0.06925123829222818, 0.014839661835133546, -0.007773770767356943, 0.04747994163032413, -0.003629511277378269, -0.005799038085291096, -0.017011810440795458, -0.011497404311071092, -0.03573748152680403, -0.022755278956332066, -0.05748690356727667, 0.01217332105780305, 0.00802735290209374, -0.03169961591800826, 0.001984690204371062, -0.025474504762738815, 0.03598540625079858, 0.031280610692059126, 0.025185984258478355, 0.028149001809013502, 0.02520696391874119, 0.051188093148903366, 0.06083687720160292, 0.0636208434423152, 0.015446651410446172, -0.01763667021480894, -0.02738165251644533, -0.02506026035156368, 0.040761547007732706, -0.021478622242861095, 0.05019237014763727, -0.0378021221409045, 0.054742459180378414, -0.015753531494604515, -0.06251411655384426, -0.03874486565523505, 0.008775248164401577, -0.05093385418678591, 0.03246131917674729, -0.009888330653114251, 0.014013583279701279, 0.038356611391285614, -0.015833939475976947, -0.05509670273671398, -0.016692313132986938, 0.02582068715501773, 0.029565065498092544, 0.042014047290161595, -0.01744931121664751, 0.018173148904708333, 0.03189272298278859, 0.03907516200188054, -6.130454605850689E-4, -0.0024491733452259357, -0.052962586296409944, 0.0192294093640127, -0.02617939023350968, 0.06873614176818935, -0.024542004979562576, -0.033440775094715915, 0.03258381179778113, -0.00463411856114232, -0.04087613207204985, 0.023731763785242867, 0.06591008196765968, 0.031912708247381454, 0.01565493199398209, 0.05838439143471458, -0.0018967540960267673, 0.007843834893311806, -0.002286623504963055, -0.03779554957541039, -0.06665635097508339, -0.07567198850714056, -0.016889939880871955, 0.03185099600584727, 0.0418047331152003, 0.047357062142039115, 0.016875275907843563, -0.06478353833014783, -0.013133488385108963, 1.6269555254350932E-4, -0.01943542486807359, 0.05680132341625139, 0.09818654935979547, 0.03935584906850926, -0.01760929906531511, -0.016717731787202556, 0.05764170635655729, -0.002627144171952181, 0.00511350742293625, -0.04273259526303079, 0.015099296925665412, 7.953049638424311E-4, 0.02346487483534009, 0.08495116191206134, 0.08986058749186787, -0.010926618441652793, -0.012251714487201406, -0.07896737554079594, -0.08486007437609698, -0.05618263232573496, -0.05850128072490529, -0.006975938762464152, -0.05058884915487941, -0.007970374589085557, 0.049550012545489644, 0.08726669515767342, -0.042642861157795316, 0.05100303960408169, 0.026578677345864894, 0.007997201784772619, -0.03485250289903182, 0.01866640807045863, -0.023178400923031105, -0.0593462493246656, -0.03313611320596735, -0.005774480031829944, 0.03718068980610747, 0.06497665575604161, 0.011409918025747543, 0.04067145947494943, 0.07228569868869358, 0.031494410369235976, -0.024636048479813846, -0.010343351757871, -0.028691202146938065, -0.03313843121466257, -0.06660902001879654, -0.06790576630744596, -0.08720701703144791, -0.06361730664809988, 0.013305855979303033, 0.02623337428215716, 0.011322130301159498, 0.054962831962672036, 0.022481797340346523, -0.04536005859427914, -0.021402586110498115, 1.39025423243759E-4, -0.006672026006402298, 0.006075901164454937, -0.020947209977169867, 0.026267523183065522, 0.04991592060327615, -0.02295397367555722, 0.024206245284310344, 0.11943679663889925, 0.088412613180116, 0.19042381004610243, 0.09484572642280677, 0.15096191102579212, 0.07594079203495821, 0.11284000116746115, -0.007814578075834036, -0.10336626813096673, -0.029689353487056067, -0.10781647014537601, -0.04552399233720263, -0.022499275816708728, -0.05990242072803316, -0.011772352376674207, 0.03870637284195942, -0.01584289562923536, -0.03708154946168473, -0.0037183495763603476, 0.014036300182693832, -0.06236319135308717, 0.02796142726121709, -0.027207879177496338, -0.030355452080112647, -0.0018264670722360442, -0.02028050468693797, 0.05815644278811746, 0.08511926796331602, 0.08502353015007466, 0.11172206268111953, 0.09701032993290232, 0.25329970036011695, 0.13344159607804995, 0.05544372777205946, 0.02228206270548377, 0.018120848351516537, -0.009350169321458227, -0.017389769554251925, -0.013388932049777664, -0.021437775280408744, 0.06200052518539308, -0.022004040797871306, 0.028371062103025004, 0.04820356594769749, 0.029056989777852475, -0.03029089857638378, -0.03641841436714499, 0.01854892465724453, 0.004805767246969656, 0.05596066337322642, -0.03974145675918615, 0.013562741153899872, 0.021987707831271134, 0.02797265818050739, 0.019583426671882613, 0.08113084276026086, 0.1271113420066695, 0.0967265383576042, 0.14620824428949591, 0.1724458151692986, 0.07260994113911338, 0.04745027091959604, 0.05082297315170019, 0.079447062515021, 0.037437573021866344, 0.027739860910872258, -0.009331060625577233, 0.04268719283356173, 0.033041635318150325, -0.06546947103412787, -0.0663839751431691, -0.060620731955751336, -0.04711318870626138, 0.024147186773889325, -0.038243168044279595, 0.03303446042601353, 0.013631963230625965, -0.04883287289490773, -0.04483390303789036, -0.04137397458053479, -0.00701838738305123, 0.019530279135838553, 0.04414486195030643, 0.017919736370935538, 0.059014349256395836, 0.11058039116595714, 0.19308872336416036, 0.10768559389778742, -0.02344981755518536, -0.008265646043227269, 0.08142346282803983, 0.03864793447284749, 0.0670278941120112, 0.02395302162051264, -0.005723711718445306, 0.05380895425208058, 0.10079176108651917, -0.07752066628842652, 0.013515606807619004, 0.035668666931385117, 0.0037931710920662367, -0.010105430065710977, 0.027828261914328516, -0.06311825495888684, 0.04244352742537949, -0.010566147447817196, 0.05144995131463203, -0.05574481457512933, 0.015531629157464975, -0.06223295793969511, -0.0925238314095165, 0.03745818464572066, -0.06519752563723435, 0.010478709810096954, 0.0049815687278527135, 0.036078078726279106, -0.08405558655954816, -0.038915853398802845, -0.05232504844694572, -0.030736969454847357, 0.02992811908692316, 0.08990337248656811, -0.008761985239543068, 0.009890117801938072, 0.008787329038029779, 0.0067040976861855225, -0.06997350288967705, 0.06350773875189264, -0.009522257390309343, -0.010532459826438105, 0.016438574757444407, -0.019206071624923302, -0.002072559830036299, -0.06574263999619785, -0.03798848107324759, -0.022260092060160348, 0.0014560308600034104, -0.05065198937025912, -0.11848360335981935, -0.10339418279947968, -0.02512767248987734, -0.009309656731129923, 0.02253372363647607, -0.050081745904515494, -0.11142506405566811, -0.06581090580334098, -0.060262482739777266, 7.886320128385217E-4, -0.06836351499818959, -0.01847680373758302, 0.026084476326968573, 0.03483302073351214, 0.009958089661176606, -0.035907264500707116, -8.644267757345282E-4, -0.019596771174827776, 0.008712861004833256, 0.007788697555933376, -0.004474325284977831, 0.03200684472364098, -0.010504700485886394, -0.029688254581887456, -0.013818309884674184, -0.01580550566515056, 0.004731913647097755, -0.014010165105929777, -0.0624344089690977, -0.075962215867179, -0.03654119112922848, -0.04638842753567283, -0.049070659972284, -0.11126168139322305, -0.14605854863188966, -0.10129954589512194, -0.09006129967319954, -0.0674288170379931, 0.03133758242692108, 0.07530233531674095, 0.06292444195620714, 0.03969694462969107, 0.04767994302295104, 0.01643523666205043, 0.02337418034193604, -0.004130658984940406, -0.035926926084674946, 0.01482074269000382, -0.04087727468828783, 0.029696932004842736, 0.0018413515463722597, 0.005049244427385986, 0.009932825544654312, 0.02333794266333088, -0.06550191311617636, -0.0060400539558799924, -0.042137796626322326, -0.046896777660345786, -0.03188283020995573, -0.048809089302998286, -0.09581322598885764, -0.08704777904699547, -0.10671210734391316, -0.09218749878380385, -0.039977745498448014, -0.05967764851846587, 0.048888007806050106, 0.09560681397952062, 0.04187555052072576, 0.06490598796418026, -0.0375716990673882, 0.025619664610628156, -0.07823210963024349, -0.05743730810058604, 0.07871205950182678, -0.0337502766312377, -0.0033690911558639136, 0.013773062816912925, 0.028701520981260362, -0.025743603429928447, 0.0068798156592368345, -0.0882418224145071, -0.0014773593342655002, -0.012949576057607442, -0.011925154265533531, -0.08768455048345507, -0.06863629669666267, -0.13403892664696673, -0.04132737602605082, -0.10957468783629339, -0.1027955213840283, -0.06335054448238889, 0.0375662300869609, 0.009930972180888401, -0.006033614046875415, -0.010299969822670816, 0.09067503116805062, -0.024889343937013392, -0.047474613497524264, -0.05315547850372972, -0.04197092792835081, -0.0438964586128427, -0.05601183796575858, -0.005661227693043494, -0.01672593637866895, -0.04675224287241968, 1.4467748559300253E-4, -0.034206286686721335, -0.042950442482835985, -0.05714207349971897, -0.07178971376768971, -0.024275702847554655, 0.023903871048194185, -0.11379482443998128, -0.054442167473083516, -0.051639744801985216, 0.02062795657267024, -0.01510572995272536, -0.023559393060325232, -0.017687011524393087, 0.03662084376856072, 0.06672461713227269, 0.028090996867325635, 0.09453088649678225, -0.05749142420625577, 0.016725300536567, -0.02236398907179302, -0.049657280558449785, -0.07879420422753712, -0.01767226723897376, -0.02909938523115186, 0.005189973715160428, 0.0017697557533373242, -0.04185115360656856, -0.01400961820546724, 0.018419722115910878, 0.03591842797435009, 0.014253976477708452, 0.022158758470126355, -0.08891306543727942, -0.03136582099906417, 0.03199281650498158, -0.037811298461613144, -0.022536766950505768, -0.01985140554450112, 0.022527384048366107, -0.0012330074080193283, 0.05657158664307882, 0.07591582503729294, 0.03505197806437351, -0.020359698908730572, 0.019714415692637426, 0.019629963900844816, -0.08360867995879682, -0.010848663857291253, -0.07405570182634373, 0.03484306774537158, 0.013536597474696247, -0.029703850871293454, 0.05746293709049024, -0.0027632145419640534, 0.047119207153112914, 0.0022041613319027094, 0.015541549120193952, -0.012976691328000374, 0.02453190390204985, -0.053616188069989114, 0.023613022565294798, -0.04398421541931089, -0.025495813610526115, -0.03418851387598635, -0.007452811532912997, 0.0266960808708764, 0.04070197162950161, 0.06337680357444725, 0.03634648707619274, 0.03383296504242182, -0.047333011419524916, 0.022083967954030625, -0.025142454349160407, -0.018437969637557314, -0.04725634633945669, -0.010847810886653663, 0.003688889350173148, 0.030592994404088542, -0.018916207288118842, 0.04216504472303391, -0.03880316663453472, 0.01739987679487331, -0.022120602820985536, 7.91957208888218E-4, 0.03213071680659629, -0.059533881543657095, 0.04601488016757477, 0.044195719383859126, -0.00818421045522638, 0.0027712390120676134, -0.028037015385929558, 0.05634383745765918, -0.0034467892179482745, -0.009823663124215287, 0.04259891082010163, 0.04479468943490091, 0.1144915392099019, 0.020978146062247023, 0.03314109120006194, 0.016136996319775325, 0.024947544132143847, -0.003317783222938951, 0.04021732586493898, 0.01585800441060446, -0.029693617074178252, -0.022505141009842626, -0.021321525352398164, -0.0026491138183084646, 0.009748572751646312, -0.04595510925529055, 0.021920485851379724, 0.048072861348422216, 0.003153474839532472, 0.03809527176796002, 0.028894340818101934, -0.06861317542584205, -0.05027212536081683, -0.001395640121405557, 0.016970047651042916, 0.05266583302651668, 0.024858288925372223, 0.03087948183740988, 0.014538366157569172, 8.715599422576389E-4, 0.008517693517737195, 0.023507509056858278, 0.05306621305122676, 0.0016909764570772932, 0.05425092474768308, -0.003184685815765765, -0.012403951361386846, 0.027501017456414992, 0.076628974827314, 0.0225705792828604, 0.039807119417322116, 0.03746107613296135, -0.03040709620530747, 0.0034823289205889773, -0.028080812216574495, -0.050221905414226935, 0.060355137488924154, -0.03581855759737861, -0.04591417579093681, 0.0372505685347151, -0.029050073095683464, 0.025246366619750785, 0.043363911802548914, -0.05489003934522425, 0.017877330186683738, 0.04294771575715389, 0.04515612966828948, -0.020807984317646248, 0.0636991045071477, -0.04192460325122658, 0.02413391760110528, -0.009039218704769363, 0.026263840885269018, -0.027358129244843755, 0.01093054573531777, 0.008990237236352295, -0.035296087063252594, -0.07727775195764892, -0.012139210671869769, 0.005476160933624513, -0.0013875884200351466, -0.02637955985382057, -0.009990829974867995, -0.005238712244260645, 6.020193994890704E-5, 0.034757812280252515, 0.008802288169856076, 0.030708959543728497, -0.05120026399919271, -0.006243928197513471, -0.0092162270999235, -0.023473421652643465, 0.013214666060895108, 0.005880381445391848, 0.04612823597038649, -0.016534493440473617, -0.008989776869148883, 0.05535077645307073, 0.03307561430489372, -0.01263015803632339, 0.05793463832063429, -0.07004463792014372, -0.011090196067975781, 0.042624519378820384, -0.037737022282388864, 0.0372903966482174, -0.013957845931970796, 0.013026446590517934, 0.0020388639126729074, 0.008133122438019348, 0.07178136350502388, 0.0259309179772101, 0.07049241970997715, -0.029925736666669197, 0.006128841292212744, 0.006983708204289509, 0.018101411289016826, 0.03707740969938572, -9.357066112328856E-4, -0.0018096833780384856, 0.033226978467889655, 0.02025136836452598, 0.025214103022515984, -0.012675203866746155, -0.01394173161453762, 0.03407672351440888, 0.028431148260991215, 0.030518486435251013, 2.0304469021083842E-4, -0.023570954278634867, -0.02753000141724567, 0.038448565742815966, 0.015575918727876057, -0.010794476078669795, 0.03120317856047305, -0.06012300966948327, 0.015013054285389274, 0.033645988937093425],
