0.884
[[0.031762580746208385, -0.07113959010611827, 0.0011648543719273397, -0.0019853801944578636, -0.08746139742519739, 0.016957827350077427, 0.004777692524250984, 0.04848229275476963, 0.027577955970100997, 0.019258006508127052, -0.022327790854107958, -0.03356255800251671, 0.030464473835424017, 0.0047499832779668814, 3.718186039459931E-4, 0.05727080214050723, 0.008692187454710334, -0.04636463875560982, -0.00124412542145434, 0.03981948738922879, 0.016978196917568883, 0.022281077374252643, -0.05820656134946285, -0.04564929668846873, 0.004386543026108015, -0.02981840462120271, 0.032507123457042875, -8.408114638665915E-4, 0.01467156045316044, -0.026753756782002334, 0.048910541956480105, 0.030678657227513718, -0.017171892451071636, -0.017621189206150002, -0.07341643308850859, -0.05902033197727519, 0.022400078001228417, -0.02374942301289142, -0.0452053396291112, -0.03053409748015219, -0.038284365280737066, -0.0010327768362042092, -0.005965031853603085, -5.36512129360949E-4, -0.058843876230849274, -0.03973297887282742, 0.033756512978893156, -0.03346989127944676, 0.07225127719975885, 0.043815623503043764, 0.024022634421670075, 0.020579871034127718, 0.002880413725709789, -9.308486685668936E-4, 0.016318362319000437, -0.0034708933242433957, 0.048008244911121704, -0.03410384861964084, -0.01019676498359666, -0.025441623203228854, 0.03903763205497643, -0.0215396885520752, -0.031161354207849958, -0.033878271991824055, 0.008025052237781058, 0.017153023988247633, -0.003731947739857612, -0.005630208655782709, -0.06061198421532785, 0.07288542437445515, -0.08392154979528016, 0.003424098268055723, 0.0010191700063155603, -0.04513362027550148, 0.08541655441578501, 0.014057281048945333, -0.01435155588479517, -0.012840217888551879, -0.009998199686424961, -0.024074147952552964, 0.04548420161898926, -0.0069047395047560495, 0.04318496282627193, -0.0066900674535609285, -0.058264531712098784, 0.022305578234673443, 0.019084718461309817, 0.045271189219566466, 0.10790957881744855, -0.027539099605665484, -0.020637723781609683, -0.025695762317512427, -0.06194585265624393, -0.041710098118507524, -0.02571746536330171, -0.025168163848987467, -0.07464185600720435, -0.08491945846753887, 0.0011072042941143022, -0.017843971741197184, -0.026685485966462575, 0.018881271952972213, -0.005339446016774298, -0.047702961255083935, -0.07970855713011392, -0.02705380129565925, -0.03608230679619009, -0.018619605683653673, -0.03423181306823347, 0.06265930484944437, -0.03138403353823591, 4.1899678850549786E-4, -0.039915689102805275, -0.046277124703621206, -0.005031274940944614, -0.04416557523804743, 0.04169794653467161, -0.05743855790565981, -0.005292806196612624, 0.035972213586828526, -0.0045174898871325675, -0.022074261284630272, -0.06972620955095502, -0.03232482120641898, -0.06685870468571271, -0.040432199748452, -0.04997271436527723, -0.03148842559511337, -0.017760823697021685, 0.013609762888440144, -0.036381180717382916, 0.04666390004037709, 0.045045669309775924, 0.02294673697850973, 0.032504635755119214, -0.05359258021088464, -0.028885321289499322, 0.021819358171632382, -0.004629148210818716, -0.02493594558024968, -0.013065176173676226, -0.010792461775784166, 0.05705500500494977, -0.0965744116735257, 0.0037206898093303607, 0.016192194637197423, -0.055862691632205655, -0.019232992287867536, -0.016150890579656227, -0.07431822081545111, 3.624247038958161E-4, -0.036087630218751686, -0.11236218761332939, -0.03945624520968425, -0.043368892076634774, -0.06434459002846471, -0.1033347919599229, -0.08907346194103005, -0.044402576445330764, -0.008037101160547025, 0.05555724736683352, -0.04053534473234873, 0.09363435393972493, 0.011065375409236708, -0.0586245497525164, -0.01693523318264266, -0.03380051970323812, 0.03204629758660865, -0.007179331646602089, 0.018062029811696877, 0.03489677819458076, -0.011782068161252527, 0.011264025870694376, 0.04178223369296397, -0.031150902376968465, 0.03785497598954989, -0.07305080375370104, -0.14409375321704862, -0.1186773051909591, -0.04802063395557426, -0.05184039317503438, 0.015381165264601485, -0.04360640563853875, -0.04421089180789674, 0.02367722241699819, 0.019661351342376735, 0.056939988050469875, 0.04438652538723623, 0.08968063476697877, 0.07218011936106332, 0.05256157222731859, 0.03699637066798096, 0.03335648451075245, -0.04309712767713779, 0.007148251126460262, 2.7753766043974457E-4, 0.0641531215538462, -0.012281767695453302, 0.03637369202344839, 0.042615905454228165, 0.03661263461547687, -0.009039368927031015, 0.01913202357677871, 6.224520761498904E-4, -0.02234343520450064, 5.457934305791446E-4, -0.03568616984201823, 0.017816959075253557, -0.015554641744200416, 0.029876780253012714, -0.030320363621793096, 0.10537964121765038, 0.062470908707036775, 0.1506656848994863, 0.07299324851747492, 0.13283375730513922, 0.01447235714623268, 0.02520750152286166, 0.006393756489506199, 0.018787945443046915, 0.022496358775006827, -0.024728283134346687, -0.04448245454470668, 0.023886817079424444, 0.05238794274870364, 0.04042445806196651, 0.028851369319639438, -0.0137439187013137, -0.041736763837649946, 0.004743767657293435, -0.006511668037853184, -0.02271215281846339, -0.02785054999646232, -0.049771115350187536, -0.0446964257242549, -0.029518131764728773, -0.020391391092630703, -0.03730606636071627, 0.12370451758883376, 0.13306791204876983, 0.086964617318085, 0.13960371808161923, 0.10442357133682599, 0.1215811455216288, 0.054499830086366406, 0.01340436895043152, 0.04987946566849694, 0.01706810036683968, 0.018710654633347895, 0.07465471708844668, 0.07256112445146573, 0.06089814610725778, 0.060681366152281736, 0.05035640462799071, 0.032187807203831874, 0.003843436524116757, -0.002891163136538078, -0.051884582566291006, 0.033749081904716066, -0.006076540418295192, 0.023553502178091518, -0.08334321870913432, 0.037337706856519055, 0.04534473694637028, 0.0016840864717306539, 0.012109529059874866, 0.13776253209586248, 0.12645475410956264, 0.20035600152105595, 0.11761782201209572, 0.10626063470452606, 0.11008503113987111, 0.04852121331089398, 0.02337905417811542, -0.01837108630174476, -0.013698757454305273, -4.534896930160623E-4, 0.01549341292595868, -0.049710893277803536, 0.022684659475522607, -0.007443843451772666, 0.0535459609502743, 0.01373428344738448, 0.003088632064813125, -6.968994973206252E-4, -0.013375957120135864, 0.046716808658478506, 0.011029256465994796, 0.004874825094440022, -0.014757499552700204, -0.04740327885518398, -0.005270271343098588, -0.0657109656878287, 0.12521967034425407, 0.1692614133491233, 0.23109790761685134, 0.13748280593602302, 0.05833196508542345, 0.0940016151738013, 0.01592989872826521, 0.06748137060254698, 0.03422610327432969, -0.004535643460729758, 0.006079660686191911, 0.0370538471364029, -0.03251494104626358, -0.004834171156035582, -0.016510239107203877, -0.012737226990541483, 0.03157893217300235, 0.0344141086862147, 0.018684072101931473, 0.023818902213538606, 0.08278834374374536, 0.05328229269821363, 0.07692012294745955, 0.08293642771982722, 0.003023361904441412, 0.07508990365742312, 0.045958912157182105, 0.03232270173536309, 0.1343091600660927, 0.20859097119413508, 0.17294420872045982, 0.07583931074332496, 0.03315848906776152, -0.04936987532019846, -0.04339245302623824, 0.07036561881404434, 0.05284839452740066, 0.04577506813658443, 0.062441172419402655, 0.02751758993265867, 0.024873380666561137, 0.0303592696472295, -0.015647624099962284, -0.10500173008402112, 0.003012979596048432, -0.046842434391664536, -0.011578779367028943, -0.019593871720984892, 0.022623966417220302, 0.10966445998312521, 0.13833672804379207, 0.07106813459590222, 0.17128099072911832, 0.03963402034369556, 0.03541712078336317, 0.04200159588180536, 0.0626939403221351, 0.0993495633483093, 0.06876347038064907, -0.03299207373393189, -0.07953460049218435, -0.03988138841367627, -0.025015598999340617, -0.08192807617653598, -0.07393911091119472, 0.02346248859468696, 0.02516791111274595, 0.010053724260095381, -0.0754364708089995, -0.014362774104172468, 0.04040496397924152, 0.009265697104497345, -0.05312928221077754, -0.013170977616041774, -0.04421926864696664, 0.009942949742555784, 0.0943560049473489, 0.1690310274548255, 0.16907212756468637, 0.185934341103262, 0.10219253177142809, 0.09373160110997351, -0.003249470634894068, -0.1363629750288205, 0.043248472606371546, 0.1661432753688555, 0.0036825091562494865, -0.06648238005650677, -0.041240642191093954, -0.04536299697242244, 0.02146860079354077, 0.004480896728131526, 0.01803666242763058, 0.10105040494053556, 0.03640213050161812, 0.041197462583521784, -0.029908849842274918, -0.10467935370879936, 0.0022115650823857887, -0.010426515649864129, -0.014639182850795717, -0.05075938387061513, -0.0404707403691237, 0.02533049243939553, 0.06519637086174317, 0.13998137651387832, 0.1484640898192421, 0.11463269644115695, 0.15481793412098502, 0.048336719010910495, -0.06645205270613887, -0.04045098450849442, 0.011859861045901178, -0.055095218984851126, -0.07398163638276843, -0.06428352388572227, -0.0772723279071102, 0.021607263516472897, 0.08770947657949339, 0.03211814042549713, 0.13234519568686637, 0.06020439212309521, 0.08697776232989263, 0.011663612098137552, -0.011158272256887007, 0.04281641025342659, 0.037577803420728806, -0.05250121509015465, -0.005590408227256028, -0.023369585274528492, -0.0784827110902384, 0.02553001979751786, 0.005896135777453195, 0.037768758600011366, 0.10003621509302252, 0.09076896708673282, 0.0884838071421694, -0.031841579244418335, -0.1423709361340568, -0.12355316029696775, -0.1030102112406636, -0.028730202843986044, -0.177353145359899, -0.1404246822491288, -0.01930425098132916, 0.07832809613898575, 0.11498953290486881, 0.14853109195969477, 0.10536735515252782, 0.04649441430536026, 0.1009574570098542, -0.059668854410419074, -0.0287884323437793, 0.03699327668629443, 0.009413971591423051, 0.03239667145492579, -0.01629723354578284, 0.05312048699973057, 0.04634300035063291, -0.04220430258063051, 0.061612167506497055, 0.12889599217282638, 0.024992091970666742, -0.054885055363194865, -0.05402445310704657, -0.1645096697622195, -0.22232122188726114, -0.2605595968355862, -0.10766388202792927, -0.1176920739000971, -0.15340008835935906, -0.17529672989929837, -0.035558475544049804, 0.04390470336993065, 0.07766316266550526, 0.03336211966340425, 0.02126857055428768, 0.03722561430246278, 0.039767292930996886, -0.003379164092144028, -0.09594479022069981, -0.03523103621120665, -0.04214897976710527, -0.010149126719286417, 0.009092283701029399, -0.030007888481601682, -0.002859520386578515, 0.00520706062538297, 0.05242623073498501, -0.044093483357479354, -0.01084197676598794, -0.03631320775410503, -0.21406367940247376, -0.2300558977113073, -0.3086747841805033, -0.2435056376729327, -0.19693460545848912, -0.20062252689077512, -0.20271741577337563, -0.07545494483728993, -0.018518234038928407, 0.059680487910151986, 0.07806200071621026, 0.10520882581959219, -2.937453306202634E-4, 0.017842005953003347, 0.03042577170814581, -0.006483526026557215, -0.036169974124561646, -0.015656689298419315, 0.02752184643787358, 0.030971707155823095, 0.027261118731609107, 0.04726078575032244, 0.05181359700073591, 0.03060394039052493, 0.03176223532061631, 0.028579812096532042, -0.01282097462147216, -0.10783690449851388, -0.1605341238572645, -0.2358430039300422, -0.26323644932252227, -0.2963024067010723, -0.1126013910658742, -0.11128586367760651, -0.07878851687752816, -0.1295576190120222, -0.013840769702900239, 0.02993427095031985, -0.0017572810093586006, 0.028493524604292893, -0.04210259208632895, 0.018793355019519738, -0.019101374416842582, -0.12016267486150971, 0.009442145865212137, 0.011626242792765555, 0.012720630450300351, 0.06255580409580053, 0.005149219681036865, -0.009341678096648001, 0.022614196832008247, -0.05087931497443329, 0.03497386115867509, -0.06492411048063473, -0.024479753167077876, -0.04023287620463409, -0.12777467834204762, -0.17497611743819474, -0.12561132237029698, -0.14541223528751215, -0.03121066425896091, -0.04547845030114943, -0.06846493478222927, -0.061521314251131554, -0.009490329387892564, -0.052273304820323184, 0.001465390963618114, -0.05177606788921038, -0.01767246529947317, -0.02886779622138107, -0.06075413090661986, -0.01940825436037169, -0.06604753176143931, -0.06365675533338497, 0.04855727817831638, -0.028422117539340513, -0.0515697662519428, -0.01788097091976915, 0.012870252941694273, 0.003356834409110179, -0.015211239211117625, -0.031021841537270493, -0.033850930393425877, -0.06278460683114802, -0.10714583822073923, -0.044952283352087806, -0.07659991781047047, -0.007606170171252728, -0.046846774811678774, -0.027105809463453843, 0.0010570626154255928, -0.02576172840720069, 0.013329460431414267, -0.024992385420001952, -0.003801192190444009, -0.05838518143346501, -0.025992075621828054, -0.10612933376748522, -0.08902486653559445, -0.04565438076774994, 0.09256710211562168, 0.015702872620918608, 0.026794761649699773, 0.081017229144222, 0.04130745355548298, -0.0012404803629267934, -0.028978983169273827, 0.09164670411535149, 0.08263044566403635, 0.0541632340432412, 0.05892140691151835, -0.037928605645524104, 0.06631122616543143, 0.006353226886675536, -0.00547595313858518, -0.01300770809124632, 0.09110671605031145, 0.05045243208488293, 0.02908535636028926, -0.01220740991969113, -0.009677774887394748, -0.06647698087019327, -0.09787075848300252, 0.015580253628946862, -0.11971682498455934, -0.10318050200035055, -0.03751839792734004, -0.051920089905476224, -0.054284494510499125, 0.04328686745098913, 0.02595110367990219, -0.014095526725209561, 7.600068075709554E-4, -0.018931832750672676, 0.06509312303283397, 0.017416209238689778, 0.01468418493851199, 0.03928533754010501, 0.057016208561937155, 0.06871710042692099, 0.04638779010710387, 0.09344222305218301, 0.08955633476295927, 0.0833670309775753, 0.025440533491607135, 0.03472872438030983, 0.061571812192220465, 0.06595046808045633, 0.05587924200722699, -0.038769955720949226, -0.009439609159854374, -0.08375093496419067, -0.04675221237444195, -0.062399702968404074, -0.07355788480018541, -0.022080501624322447, -0.012419445675888421, 0.011258477305143103, 0.05149328144503762, 0.007222839312164773, 0.0436975958398395, -0.012747004072502024, -0.09605642207005187, 0.0016446436821738611, 0.046178117335943215, 0.050007937516817015, 0.057080858357128735, 0.07775317229181826, 0.09033542794139793, 0.1639434563009256, 0.17374786913814366, 0.07373213031753752, 0.07089649492084116, 0.03697553235228234, 0.0447252112159432, -0.009460889098358303, 0.011248846372411688, -0.004498892763578931, -0.04183058454948509, -0.04438963575527872, -0.05807566645554277, -0.0329488098802069, -0.02568931183955618, 0.0050272750549613015, 0.02850969354557265, 0.03627110808830669, -0.04598316819969835, 0.050064988744087206, -0.0011026251820121077, 0.06066230484539081, -0.04836160574535416, 0.009385890038687872, 0.08042044492463774, 0.0033649708904035206, 0.016217157524577204, 0.01984919035304836, -0.008619464655365438, 0.02252097471701336, 0.06406715851799841, 0.053442947046620726, 0.034877485393078896, -0.033313284985693914, -0.005522158463782821, -0.019875437285301407, 0.035486571238159396, 0.014485049231962855, -0.009362735948568023, -0.02844390684155021, -0.021522327638440242, -0.05114481394939719, -0.020776442334053857, -0.01384710705257713, 0.03622675554045305, 0.027400170599274676, -0.012494220701174013, -0.02516214300590911, 0.03803653413161623, 0.05710542899708847, 0.009317594207620829, -0.01561632128081158, 0.010984008983699403, 0.03817587244303267, 0.04261251018352769, 0.03279758797855557, 5.28325601462457E-4, 0.09365540666197364, 0.05917255592170173, 0.06008715292244532, 0.08934518090308323, 0.08223037488576021, -0.032668523745033776, 0.02754115661190405, 0.013636389556020072, -0.029163078333707654, 0.005772118274531181, 0.0206364085665459, 0.03693123674154438, -0.005829646828157771, -0.00872049093997264, 0.01124720316133215, 0.0010634232960608483, 0.024292839359573833, -0.06192668383515102, 0.05145728635998381, 0.02065022517799184, 0.046140032936137096, 0.048645471921028964, -0.004199821361118883, 0.02657707934641814, -0.053304796376420445, -0.0326284569608827, 0.02933020174940104, 0.0369128971675812, -0.023481223761723687, -0.05116729917943978, 0.05186454458354765, 0.043776372038341, -0.011939003436256639, 0.008277533993370086, 0.042661399150772404, 0.056413801338596234, 0.021710526734181983, 0.036858994403719536, -0.010480466070136578, -0.04535130724422907, 0.06979556360705383, 0.04153138650872582, -0.03889833014128796, -0.02511702238281259, 0.031906093793208426, 0.023550052138490065, 0.011633647639229031, 0.004832545458884578, 0.012578087865464492, 0.038994708448814766, -0.003225460680789583, -0.020487762268038882, -0.023510221953176366, 0.0339289399748631, 0.009628790234763287, -0.007311134969569169, -0.05255309939670186, -0.0013466973246340204, 0.0075765353948325335, 0.08061204460470901, 0.029005073808646427, -0.01164231034814508, -0.006107351953165625, -0.03909316088931524, -0.004421649021305337, -0.0423917810023339, -0.024870623250972577, -0.03687441855906937, 0.00382176382192609, 0.04095236599060542, 0.007068037677441595, 4.163574688768888E-4, -0.003059510976880469, -0.01290553551968766],
[0.017015808032144843, 0.032505592018378784, 0.006722514835607937, 0.008366604248078198, 0.02430396968438922, -0.04660432979154228, 0.009780451155758322, -0.04351144578067466, 0.03843491669683517, -0.016222607778387237, -0.009169619550678873, 0.022427720044540383, 0.007634802616602456, 0.001399098829860145, 0.02456924545839162, -0.04239472928158894, 0.019735784846564536, 0.06175356638321976, -0.0019320947974495611, -0.07614710480349597, 0.009375314063125684, 0.021470622359899185, -0.00735736378772518, -0.012285306810882224, 0.029267021000466614, -0.058815248782885056, 0.004458358913388153, -0.0035319704786627017, -0.0024715573183562785, -0.013047882299273339, -0.06086755110436494, -0.0032782602962555104, 0.03845434073846323, -0.06339835505388608, 0.05608190931677899, -0.027207178378919703, 0.016771551464780144, 0.0060875106706019195, -0.0663507409866695, -0.007732303332601746, -0.045669447654059905, 0.07864458491911344, -0.01378506228637089, -0.009448338025656618, -0.018203192884746325, 0.03749848183914404, 0.06741074042524792, 0.018457330749214722, 0.00513564080774468, -0.045219895211786564, -0.021939565552659742, 0.008697305299638051, -0.005872656942204473, 0.003736558291467879, -0.035485497664983226, -0.029754831407842856, -0.01319026002799188, -0.05604451060018771, -0.015147539817435085, -0.04835582441986493, 0.013478746023849861, 0.004540840195003881, 0.009647128289285165, -0.014663302921075426, -0.010828863738308296, 0.0700936056752839, 0.09277889906710626, -0.006153403680805766, 0.020938930393326734, 0.05576699056619666, 0.02834209825507145, 0.0833795719867247, -0.034083744598314945, 0.024863730507450655, 0.06277104574506079, 0.04009122768858151, -0.029951069684082732, -0.002927649338967188, -0.018399827984100822, -0.0017362110407802183, 0.00467961001275906, 0.039842559157509776, 0.0044216286820177655, 0.011206263750243403, -0.02694929822839467, -0.0012911609542131694, 8.623395917315356E-4, 0.025007777842092606, 0.0135294314161443, 0.015584681429308115, -4.5153300474969624E-4, -0.017935206597408423, 0.03662916814023919, -0.029978478570952746, 0.051219365815846275, 0.041125157181082624, 0.050328623245220486, 0.04362844015401108, 0.04002470996698541, 0.12344945830566896, 0.09594658540800785, 0.014368154405420932, 0.13166017564832733, 0.08099056441702196, -0.04003920719092902, 0.008577445700227414, -0.02885619677120841, 0.048575406338923634, 0.045179384610455314, -0.028733095227161606, 0.030048589684796994, 0.0037391420061469874, 0.053238147123859915, -0.07299629593148606, -0.0050716273420797755, -0.03428701021781649, 0.05255449943322571, -0.043675278939098325, 0.03969020922830577, 0.016398810085570766, -0.04648537603930728, -0.04186424358488355, -0.007917458371829677, 0.07010241941743646, 0.025263141835397046, -0.025130238166404466, 0.0324044840944711, 0.058776001373506526, 0.021938695887578224, 0.06597679344992467, 0.02556452788601352, 0.06738258045962907, 0.026608349496146353, 0.05672601363838475, 0.05605590409855483, -0.015444909049037904, -0.03324309585140388, 0.0011431502505862964, -0.026486231300495135, -0.029514104091244667, 0.06991524335331387, 0.04442070615975556, -0.03712477822477966, -0.02405146086904, -0.046417833579165575, 0.019230023272533047, -0.05528161665633655, -0.06710686338850914, -0.03958769253703173, -0.032503127918083935, -0.08422088440041096, -0.07134134316868068, 0.02355180341584581, 0.0644275338362332, 0.03746999598775607, 0.12706638308975676, 0.16135757959486074, 0.06998772225185604, 0.1531469419130748, 0.05502754445429323, 0.11189222974158347, 0.016357250073521894, -0.05831982215518967, 0.008335817777111006, -0.06836858750936974, 0.056363973346696676, -0.016898105710141127, 0.03241263312118135, -0.029923225132474942, 0.02155117497273059, 0.06271084262097726, -0.05821546274894814, 0.012201296960365442, 0.0022975691953356324, -0.05039410668797235, -0.006121454576950776, -0.13660345617850966, -0.14239164359118459, -0.06054048318946761, -0.04677579983716125, 0.035892425752070634, 0.047520169647769284, -0.033399725866458924, 0.07264785736380144, 0.06318636130771478, 0.07858646139636623, 0.0388297363097417, 0.024607341597396342, 0.021264912268781837, -0.011443470455742842, 0.05226634238976118, -9.995181374488824E-4, -0.04536819421579733, -0.02460544951586954, -0.05404663002974544, -0.014907796593238638, 0.021993386509766885, 0.019765610006815287, 0.07383338681292965, -0.024470301468918508, -0.06901236296863672, -0.012563164522590558, -0.09940345147867476, 0.035814309837136786, -0.08487716412541614, -0.10607881531747194, -0.10541010797880612, -0.010914486442906872, -0.05835073273301058, -0.07774593076896666, 0.019918518366942365, -0.05829539598602189, -0.08614237667593867, -0.060377164667735204, -0.0566166612218191, -0.03963566217535896, -0.062859643950774, -0.056789347677700046, -0.025867379399486252, -0.011336005457644923, -0.022352890183517448, -0.035734237068730246, -0.06179251803636753, -0.0015514661233937538, 0.02529153493114077, -0.03649813133471604, -0.009164481411546351, -0.035834979732022924, -0.014418615772708861, -0.11471149525588038, -0.12301263066544493, -0.06684398856507377, -0.0348511865455439, -0.004989703795747319, -0.0631199642032205, -0.09268549548856704, -0.0196061187762538, -0.03970380835968682, -0.0582252122016573, -0.05992530920894245, -0.03690709030471588, -0.10780153857055476, -0.13561376932899477, -0.11496586496649569, -0.0541205999116865, -0.07670737926805102, -0.017540625915963944, -0.07129164355699655, -0.06646434897004205, -0.06033553582080085, 0.063864591702643, -0.02339981639802132, 0.009857322452153294, -0.061568500499599284, -0.04031275123223268, -0.03429288226017076, 1.7046068824469248E-4, -0.06302739224008543, -0.009037268946344604, -0.06713550942328375, -0.055740739501518616, 0.007502720438797085, -0.025650526798006387, -0.0201251505151725, 0.018903146918508133, 0.004329071717176007, -0.008476686488096342, -0.10528651639466009, -0.10481956947981103, -0.16547100471723758, -0.09860561789785226, -0.09533978586424854, -0.08819984900902762, -0.06888633060527147, 6.547884428065418E-4, 0.009652650219008803, -0.033947718009492714, 0.03398827199658936, -0.05123859350845885, -4.5274736922713745E-4, -0.06357024978079409, -0.0016680295664269352, 0.0479481199372063, -0.07489516750754356, -0.018249603690942647, -0.04371573740173476, -0.06955168553364188, -0.09565879444290584, -0.053573019261677575, -0.04020463314688341, 0.032033808687677204, 0.022338623790520144, -0.010761494894689897, -0.03290118290501736, 0.013195468860038253, -0.028215073132728245, -0.1795236089060476, -0.16553483964750118, -0.12149048265831619, -0.05175368885822139, -0.008049260598907999, 0.03759201667676861, -0.00615772490411231, 0.02679751263869159, -0.00455971936649091, 0.011031394572229439, 6.741034991240324E-4, -0.02895693014586158, 0.009568727277036077, 9.366735710934267E-4, -0.008215403907562938, -0.04317486114272295, 0.004208589618768225, -0.041381987268159275, -0.05701858207147472, 0.03772478125898997, -0.03538426028830154, -0.01076917578488817, 8.409215213061883E-4, -0.02245537714367354, 7.734750470886481E-4, 0.017217710749278668, -0.038685622389769116, -0.13500207022474714, -0.20941053697294076, -0.17937647234955006, -0.21591008120143476, 8.829605053045562E-4, 0.005642051442187538, 0.005017595357814092, 0.07865930237759211, 0.08093528361600723, 0.05756919686065692, 0.06582691755281324, 0.02234453914105675, 0.026457861344490692, -0.006405506366732431, -0.027642149281707284, 0.03720456769403974, 0.002974247742788989, -0.0028360409579906588, -0.02237175740283352, -0.031109433340057845, 0.02719614514893428, -0.006912590402294414, -0.01831587952604728, -0.09932393948583085, -0.041216732876813364, -0.03395955711327128, -0.015834552784111233, -0.011081244815673269, -0.03849902326899864, -0.19426683969509925, -0.21672363669102332, -0.13073135042255032, -0.08303650141672109, 0.07498364965256359, 0.0641926421703602, 0.04584659057058397, 0.15885675323595116, 0.08496941899281503, -0.002336241659938738, -0.014571091384713056, 0.05081672976800594, 0.00627662088253251, 0.049455093946971077, 0.002079335087578522, -0.03929626455629065, -0.05688043610354674, 0.0539783034358056, -0.028382452643635522, -0.06455518238577326, -0.026000431306693945, -0.09385239713036876, -0.055548305295336685, -0.07718608028819002, -0.02333116269856375, -0.006978399053619164, 0.04710012959862711, -0.012812698285767445, -0.1412779832663594, -0.19510233257942539, -0.20583809005653975, -0.06130069388981913, -0.046174836072716684, 0.10003082047889235, 0.17030321306659413, 0.05603065184626493, 0.047947530225126836, 0.030403252195638764, 0.015726421320332598, 0.0599555160781513, 0.02950046500187371, -0.01145466899274377, -0.008128883875634159, 0.017835747099187692, -0.029793198561042965, -0.059228190623457286, 0.012674257193524469, -0.009754178127678143, 4.198140303281154E-4, 0.013984394263148204, 0.005197878202792009, 0.026046004816060276, -0.029538903421661544, 0.0482965309951521, 0.1260194188259242, 0.01060536057997238, -0.1361785959823781, -0.16931318162262365, -0.2106683737168569, -0.10098711816635132, -0.0019560189658086044, 0.04600578378656575, 0.1600973128763707, 0.08419150677905261, 0.03625817781176533, 0.004037081710718746, 0.07770870593086378, 0.005918331768701054, 0.0024339252597881506, 0.005624165047378528, 0.002205509268692865, -0.003589322798919334, -0.04988941423825664, 0.05396382389435983, 0.027468927717582147, 0.10130279234034409, 0.06610740439966527, 0.09389808448274738, 0.1151252857457451, 0.07973393251591122, 0.1178459778971697, 0.10487707059513116, 0.1373839705528409, -0.014456053137240405, -0.14233964062336935, -0.1980665415866351, -0.17076142296823507, -0.1426412531413341, 0.015715043379061242, 0.013801099117040798, 0.026802242715771665, 0.05886078374285717, 0.0015979096773705214, 0.0020197994031683937, -0.01717087844917468, 0.03589472216337885, 0.019797015214033674, -0.0315116355779309, 0.019998175492502893, 0.011153829916638238, -0.07291460888869741, 0.11808773226439842, 0.08252582406692248, 0.1423057953014138, 0.12090987323408538, 0.11171555972124118, 0.10092531677823595, 0.10721492903406757, 0.09651695133434471, 0.04537296998034266, 0.044252137566483864, -0.10392216745653508, -0.16634874953132095, -0.1966339352783783, -0.1453862974961948, -0.09086316539453622, -0.021473875845579308, -0.020653708504610485, 0.0537871971681554, -0.01101772476581207, 0.028847833756911703, 1.116797294205788E-4, -0.05721377890749321, 0.008260262949691594, -0.05121993586534597, -0.053685311757238986, 0.015216291945861058, -0.11574745186444439, -0.046846903612290734, 0.06695784716784856, 0.07529415088131002, 0.06403608369862315, 0.10222670825102242, 0.15502045082941118, 0.2678609199770566, 0.21930010146033732, 0.19093817345297315, 0.07374644391390452, 0.01780823760835522, -0.055683027605767724, -0.15992192459642782, -0.13134401449723454, -0.02047592398282446, 0.03790928683565422, -0.005490879597948296, 0.04590302177427975, 0.0624481208867764, 0.04706809653675203, 0.09891776494560471, -0.00917552869894335, 0.03267974268438506, 0.024692380433551334, 0.027988116786292667, 0.04059316180055955, -0.00824693587624294, -0.07970845020833629, -0.0337055038688174, -0.007876239663353757, 0.11136352976242953, 0.15478703178902958, 0.13557466429282866, 0.25243965957002823, 0.25159460597977495, 0.22778986336647888, 0.25808550700435495, 0.09436266313562736, 0.10535284252524552, -0.06321156203017507, -0.04580011761655069, -0.039448526269181404, -0.027836140584989948, 0.022145047451898135, 0.026270808547104205, -0.025473422963827822, 0.07429185665552182, 0.02447225708368688, 0.020291815230105096, -0.06093455879502195, -0.03696393091372956, -0.005328115989886979, -0.016713542418551372, -0.02202477280237582, -0.025176721024217308, -0.03241564600269945, -0.02077461050613399, 0.06606476456649954, 0.05641991060501409, 0.1311307825441857, 0.08881661228404555, 0.19423947585967366, 0.34371761362227615, 0.21065848982932975, 0.2379376345008258, 0.1537974591693602, 0.10594407610110372, 0.0740126605537285, -0.008014298973794647, 0.011564703898081487, 4.934596177418189E-4, 0.040022621704486394, 0.01028958188423348, 0.05868647326205752, 0.029018159925715423, 0.004160237715107655, -0.04750579131258836, 0.0027689870208163683, 0.00985648410911135, -0.036266130896122115, -0.025158567999974745, -0.032185787219594246, 0.00847801774155828, -0.0581053696952802, -0.06019708967498842, -0.03231849582955234, 0.04021251301494145, 0.042049720021985586, 0.08455031332525327, 0.1720286459433112, 0.19572765473779913, 0.15998813224532785, 0.17924117701456455, 0.10802117613138373, 0.17021214731775974, 0.07692197939941585, 0.07398136948116356, -0.029181850507802247, -0.005797446281826489, -0.014680155433449837, -0.021270504142828425, 0.03962817351452126, 0.062175722382841685, 0.06295677149328631, 0.06960525987342062, -0.004217453629839454, -0.024591433496699035, 0.00533547785567017, -0.04635888012360074, -0.022490650540458883, 0.01957763102147985, -0.07596486256216313, -0.04685312773755042, 0.06853411116279508, -0.05150772554628395, 0.05656527379171263, 0.011439685391053275, 0.07720322327120717, 0.11268916438118948, 0.06061930229718751, 0.08700016734685377, 0.02437732173052116, 0.0839073954208804, -0.004851243624396973, 0.028465903911992878, 0.05877296697021846, 0.05530340205831359, -0.003293363640453639, 0.028329339930795488, 0.073142953103131, 0.015314787221502682, -0.028042177697218094, -0.009742555328512493, -0.037323127074898384, -0.032202718731157244, 0.015829308969268242, 0.03407089249099172, 0.034231527592374064, 0.06590024898363428, 0.007837234124950743, -0.012384921012252264, -0.020591371171274162, 0.05385567496140166, 9.825479231553052E-5, 0.07391625288462685, 0.027272196117241, -0.00730250138563359, -0.06145683500417492, -0.010499598608796271, -0.0031522863405689635, -0.02766189362395946, 0.06794853147756763, 0.018317149800708605, -0.01779610788450521, 0.008781872960550973, 0.023264462302062205, -0.04678891548188556, 0.06682031435475269, 0.029536213952141434, 0.02543032957203976, 0.06563921571103891, -0.009682445013786652, -0.0456804687493635, 0.036692953045908534, -0.044691638620022844, -0.0017018112831816434, 0.08483861009949958, -0.02117609805141992, -0.023611104965905547, -0.020482526761250362, -0.055849497404295075, -0.10625536728114449, 0.02996840430909342, -0.017131425864579032, 0.10744889820116656, 0.00702509198804829, -0.023627913900931843, 0.06596390319691049, -0.015056292953104629, 0.02217622539745093, -0.021624103949272236, -0.08408077773524494, -0.07611625715606994, -0.0866203445808516, -0.0605250507930571, 0.028425647477622797, 0.038501658920530785, 0.0024394945918848592, 0.017882069545323277, -0.02907106524024348, -0.08280573077329005, -0.005999150280089552, -0.013098265044682842, -0.02933899047000213, 0.012525227042509204, -0.014225433430628475, -0.02685427963907632, 0.014371111332207602, -0.10409650392574625, -0.06241333428404612, -0.11895500189996926, -0.037282034438057166, -0.04390167730187129, -0.0736733583033797, -0.05037223196049005, 0.007379294779689427, -0.05215146907062104, -0.062255304178438074, -0.019806787828848333, -0.06184353205133411, -0.062343766032445715, -0.024880838229593586, 0.053461094919809264, -0.023798858069266824, -0.05169079445701655, 0.023358089500744125, 0.011887140770134766, -0.05428114272032226, -0.0038702367694119534, -0.0381669039278646, -0.006331027463046687, 0.0020764208369100723, -0.04928011418471274, 0.016265389837043155, -0.04997019985803587, -0.09427604304914154, -0.035140073433738934, -0.03555908515702225, -0.027367104510799312, -0.07636676200120052, -0.10395982313333314, -0.14947181588225536, -0.09873378040148686, -0.15745807537589215, -0.07550546243529692, -0.0834471994810252, -0.04258485509484208, -0.06867554899377012, -0.045890174091498044, -0.005881079168262877, -6.44811073791112E-4, -7.744344210348874E-4, -0.008751441223437077, 0.07262532211609085, 0.014402027444984826, 0.012794046952659663, 0.04665947847007549, -0.014844939845291843, 0.018431155176072852, -0.033447318752394734, 0.00756767274511428, -0.03619926748854815, -0.03275959549485033, -0.06439902206292891, 0.019227541372367856, 0.005619308560609, -0.06832047894169405, 0.01953547756923847, -0.0014709120951523482, -0.11244106122657016, -0.031000379314573858, -0.02479324797538355, 0.027839922779370512, -0.039407549419368255, 0.015015267415978853, 0.03990416296709496, -0.009778565791427378, 0.013628410552540623, -0.0021312479308410307, -0.00505379966438058, 0.014533653162465349, -0.0021252841777283328, 0.018327800568344883, 0.0453932500966968, 0.04692967808247211, 0.03412808429191135, 0.045946676647263915, -0.04484644661986562, -0.04841044116679656, 0.01938878906398416, -0.03101854399142363, 0.04323535505642695, 0.06600070239572016, 0.04230626042177467, -0.01936245111814471, -0.06660198787455368, -0.029161730855349104, -0.03497860960680074, 0.09144587881699738, 0.02038049736387886, -0.020001413049640964, -0.02493152945023983, -3.275188499736783E-4, -0.044055741290168995, 0.019426528670303523, 0.06937548305614911, 0.03891654636810688, 0.007812809832592147, 0.015968815611916022, -0.07652464357710231, -0.01941694814128899, -0.038692094444392186, 0.05131519102582236, 0.04190961081523117],
[0.07070407377566999, 0.014202575075879352, 0.0033828609090924043, 0.024288623231656915, 0.04475659569347966, -0.021369791356977842, 0.02389420696946874, -0.01123937866704781, -0.05018149182363145, -0.03001388325001133, 0.004432746990406953, 0.0456383527070563, -0.04444763809437016, -8.953130675926381E-4, -0.035884967519327106, 0.024331858026322196, -0.018696600913862573, 0.04614533212185196, -0.004710532627960601, -0.02580011710976898, -0.016714263127146915, 0.02946561825630517, -0.020118070683507905, 0.017361714847685516, 0.028518931270458965, 0.04456346955210557, 0.049973674581839364, -0.01238848448166319, -0.05789058231828452, -0.021186253038268453, -0.023928963979130077, 0.012414990830603934, -0.01044269231012032, -0.038464467105451844, 0.005017893191270895, -0.05967289319016302, -0.004652951208138242, -0.004896053809250732, -0.05435762064866644, -7.770970918585934E-4, 0.023878385977743284, -0.019636479657765084, 0.021294781431875905, -0.016161245600024837, -0.07416276396754408, 0.04411869230364737, -0.016348651183686065, 0.04587059633810647, -0.023049690270570296, 0.01836587793708645, -0.0025229548817922395, -0.01947464284913595, 0.012402716446546435, 0.021103976035024816, -0.007547697951051038, -0.04388558713938245, 0.04973790704418525, -0.013167366864463894, 0.00504055797110765, 0.009143929021102455, -0.004225594166926021, 0.07520306788648423, -0.001269230829290417, 0.0091487925408145, -0.018610540765182544, -0.021388674212135105, -0.0037887784475132097, -0.007659613687935459, 0.016564506266776444, -0.014828174309290286, 0.007962476792314222, 0.02967836101127953, -0.04149009459254235, -0.009341523680799702, 0.04502666127262129, 0.052062082400586594, 0.035166130811557894, -0.005283123025621484, -0.035117199678098905, 0.009169810294970174, 0.033043476720622855, -0.05655217105673813, 0.09442510791524568, 0.049178916270192795, 0.044554239005395145, 0.014096239652051746, 0.016712700154575755, -0.03235105423754054, -0.019944951396510462, -0.009997609143523711, 0.02606504073598459, -0.03611863033383529, -0.021406346805529365, 0.04417882660757526, 0.01703571210574004, 0.01735299918569579, 0.00958083840817039, 0.04760104342407396, 0.03959169800882189, -0.0025184009410380123, -0.03984655904910396, -0.08920305970058057, -0.06785541270479635, -0.05110721592134042, -0.07746121188332615, -0.0012484314248260937, 0.024301604501035058, -0.020786311474619037, -0.004232252670721922, -0.022464368186767864, 0.008021792670059851, 0.026754242581019085, 0.06509710826307116, 0.02734493602709335, -0.0426316453935947, -0.05777185427922956, 0.03163282947473901, -0.007889639523397747, 0.05485814690246226, -0.03382953107874962, -0.06759359144051666, 0.06920445396587678, 0.0342916479588417, 0.04979116786365914, 0.05482434707612439, 0.13366597920364803, 0.13977043841613038, 0.07664617335761198, 0.11240294282936017, 0.003036605479490873, -0.017050423084595916, 0.03721319600882942, -0.03228581817322493, -0.07144695838052968, 0.0053263635037053, -0.025372454404748133, -0.023863961819348373, -0.005674472122770993, -0.06805336465447688, -0.010146647325000948, -0.006546749598327536, -0.03582953161375516, -0.02535198110557676, -0.04647481530872808, -0.06659456708264117, -0.06579711854746985, 0.05310995585236382, 0.060290943348654126, 0.011815323397404404, 0.04072547872126413, 0.15665804834238903, 0.05976805079129734, 0.15538083374930012, 0.14657077887477618, 0.25250418442032796, 0.14377473092634527, 0.2353908264227898, 0.21428001239532138, 0.14978453457941293, 0.10706815514302497, 0.00657122108139141, 0.020907851734975898, -0.04863386094282586, -0.06215651578550371, -0.07079790393869656, 0.006508498816617806, 0.03863933996654441, 0.023072369595674633, 0.0332116375741714, 0.014698343533585128, -0.0036334661824700674, 0.03205106096150707, -0.006126819519516568, -0.011104486410757368, 0.01728251495416295, 0.025509620000689643, 0.07039243074193618, 0.016983650374681775, 0.06162853759515514, 0.08577418128342361, 0.04547178888683156, 0.09046394916494074, 0.09533418631505218, 0.10720190937648888, 0.03766337173711236, 0.018112819964130854, 0.044832258661987236, 0.1161600487706302, 0.03665820563552611, 0.051234002405388966, -0.03694414964225827, -0.006698231776045939, 0.046290824597303194, -0.005329079856968057, 0.005887646798067525, 0.02684214587727307, 0.01569395435398987, -0.008160181406435511, 0.01878708410529069, -0.09494644626127756, 0.025483677729703443, 0.029342197737514803, 0.04258089562136447, 0.03412361148927725, 0.02899406555636131, -0.04692436507176508, -0.01109701809208626, -0.05897025540477025, 0.0043985803468861405, -0.021892453303331758, -0.09499034585816947, -0.06803975115650227, -0.05811941530914664, -0.06165197370897865, 0.11491053678178322, 0.08824914851806274, 0.05423126697796327, 0.032285275301271045, 0.08332286176262423, 0.06866965671366995, 0.033685250835000936, 0.02676497565080082, -0.004369450460147315, 0.014645671656434196, 0.008322484731921135, 0.03955560348844802, 0.01089498107560382, -0.010876598962614368, 0.1200183528781504, 0.003561788460935735, 0.06712602505608302, 0.024995150727935095, -0.025890966158223117, 0.08098394374785546, -0.03614810855318734, -0.021003776410913038, -0.05780478569523165, 0.02019782946918308, -0.01618212973696553, -0.042709193477789925, 0.058385192951863715, 0.04861827720750482, 0.08247601647318147, 0.02015614301245149, 0.08758058923120353, 0.03502698873959415, 0.04512392828563701, 0.050754836811265025, -0.011216296566972291, 0.015062284728651325, 0.030588919789057943, 0.027813152892251187, -0.05231448636106607, 0.013667869368921347, 0.006960757853556534, -0.009861619942053057, -0.003804115544265966, 0.01401308947089838, -0.0014210522358835184, -0.032810283401376546, -0.06648895127652718, 0.06674980335296589, -0.061659260778874465, -0.03136241347438672, -0.09327561831079177, 0.014447113071567081, 0.09685820573790023, 0.08828984874033897, 0.10752755779027232, 0.015266731973342522, 0.06159621339350033, 0.11214526406200305, -0.0060568616284812065, 0.0983751609707608, 0.07849110851385403, 0.10281792087211979, 0.020253936637869133, 0.034124392273921764, 0.004057531416397252, 0.03938198941644714, 0.07598749236257756, 0.030262958853888307, 0.0012444680825968338, -0.032657537006127446, -0.06534297420798592, 0.045454375109499685, 0.008165153264218194, -0.0672863797512452, -0.020775137591556206, -0.08706048102888507, -0.11869937301443367, -0.10832546069261122, -0.07888546608183485, 0.02513858648776408, 0.16834875533972665, 0.1427123821870335, -9.318883953726577E-5, 0.043432695506383685, 0.03375009720556494, 0.07439857215213656, 0.017108403476656903, -0.0010388872569297013, 0.04491926144164686, 0.005490258496616248, 0.011793369027586166, 0.017464578790545963, -0.012137199892995089, 0.022594597027742237, -0.06120006452976848, 0.038691436335874047, -0.010832895336339013, 0.052663182074028175, 0.015794924297181177, -0.017724510334859153, -0.02733142243829019, -0.12936910968079374, -0.10111893903131833, -0.1503654471696762, -0.13864173666831708, -0.13773257815575057, -0.08485984986648494, -0.02774405622613713, 0.1850862703494734, 0.06546738231268238, -0.014035190019393429, -0.07533302696796343, -0.009575428146046805, 0.004231534873729831, -0.03214676882446818, -0.002901337519140865, 0.012606343818776117, 0.02189847287335012, 0.05109302728915387, 0.011619296250293388, 0.021176148666304826, -0.04849494724727214, -0.0030326525832304707, 0.02306136094379947, 0.046099660715030286, 0.02203133339080117, -0.053797481023668166, -0.03596382206800004, -0.10269259461396625, -0.08181158297916087, -0.14885513274120724, -0.1563568083844793, -0.1602870837100681, -0.1323528130612075, -0.024360341049836188, 0.08429091019763504, 0.1254235602484259, -0.019390976201377974, -0.14783384881783726, -0.1114450049116353, -0.0944752356134771, -0.05135550365381105, -0.027071599008912355, -0.05071119913499765, 0.0662467246658474, -0.01417520234780018, -0.02153740551814548, -0.03615547502580667, 0.010102925376760526, -0.01443336389481545, 0.05831076200700506, -0.020020636412624495, -0.009657371505607663, -0.0011887931421323526, -0.041584220050655464, -0.050893383862118315, -0.07506232601580369, -0.1762640122924633, -0.13261284893009992, -0.1296407220546983, -0.10011696533987989, -0.07040527034505566, 0.053342471355074236, 0.0720949761987142, 0.08970717498219255, -0.0256114420492505, -0.14773481065166766, -0.1705921823488272, -0.13975553222370335, -0.09003793987911604, -0.08320524385536913, -0.028909008668948123, -0.0013465801144772523, 0.027339862431466203, 0.016914690543429447, 0.012461394082172544, 0.10090199206013843, 0.0546600939092916, 0.052403441293655546, -0.034708012368946536, -0.009374806624439833, -0.0312623272697986, -0.09301192374795315, -0.12202659936414811, -0.08014780767806971, -0.17133716828895892, -0.05951636954506299, -0.024156339879558498, -0.12585875706225705, -0.0570857088059563, 0.0399584990949495, 0.2128527731124143, 0.09806506361740831, -0.07550268601703342, -0.23423757632102757, -0.17527058080397323, -0.10727935848048677, -0.14624677663118033, -0.041987196851903205, -0.03964096401559922, 0.020324804395463632, -0.012178130729805746, 0.017249513187916392, 0.018483407114607813, 0.028151796078628617, -0.021760026432423772, 0.028766178955008895, 0.038032835954610544, 0.0219579155508191, -0.0031445870202303876, -0.019820994292794467, -0.050427036935772454, -0.038502760959817035, -0.07720814493579421, -0.12717981873503956, -0.03055469316635803, -0.10983416620249997, -0.0655435641341552, 0.08169040214799422, 0.08954353460944997, 0.11086248147434917, -0.06111710933278094, -0.2814274073993109, -0.15775739751328174, -0.18220093703802687, -0.032648169426283485, -0.03231655619304861, -0.060171070084159096, 0.002596109628199438, -0.005071614530199078, 0.02790916144328182, -0.009793884509973488, 0.021892202432607536, 0.008861387874345532, 0.0294155022966233, -0.01790063832168611, -6.791340347726039E-4, 0.07622049399171117, 0.05429245355409271, -0.026855166489410616, 0.042439804410552374, -0.01670760015785011, -0.044037661972870075, -0.032177802603496564, -0.008187882774620504, -0.04574032268027087, 0.043582827488519466, 0.06277548326096068, 0.03961553819364682, -0.06939024610130853, -0.18611295149962379, -0.1426574942236261, -0.055658475956655074, -0.06354284552224507, -0.006692301496824224, 0.014932394956629555, -0.010046991514441186, 0.051825415160837836, 0.06540904498144916, -0.026333822182658013, -0.04328857447299032, -0.012121588457649927, -0.03549702780458915, -0.01869068290351856, -0.00412160633007838, 0.012913612614193921, 0.03313052091210201, 0.15229722802715914, -0.0019330243632477973, 0.014329863056186026, -0.02132365914883318, -0.04918665694644815, -0.06331194281377465, 0.03542630105126824, -0.05082633997140712, 0.013881072615778598, -0.022937188264895696, -0.061844437877549015, -0.11071850471305093, 0.024013444765352686, 0.034110558273657714, -0.03659158591440363, 0.03070960148939375, 0.07744282446536987, 0.038750654368423246, -0.010125211014614515, 0.06167546534655844, 0.011019722186293735, -0.01633381472363025, -0.013801246215142348, -0.012842986144124607, 0.05721036041630297, 0.0010672820873425706, -0.02575898664575338, 0.12089572499131256, 0.05169584066631954, 0.07673208653648445, 0.10949626452970747, 0.12684209787255923, 0.04350154591877537, 0.03172224276644039, 0.07727577825118279, 0.04508823965318298, -0.01010775806579231, -0.045372306312746205, 0.022198547457867222, -0.023004716954803536, 0.005540881914121333, -0.029881530814989253, -0.03224929321348979, 0.06565776920702258, 0.055561197395742404, 0.09043482805371307, 0.01876489736949322, 0.014192388322818083, -0.011010172841914061, 0.036540417085053706, -0.02776508016975117, 0.04208042892146332, -0.025726007590231005, -0.009628801246906899, 0.035013418184424, 0.058265431342157094, 0.14437822846866388, 0.14495455904950447, 0.08959478935200049, 0.14230440809302292, 0.17375981068039267, 0.1580474832031824, 0.11327527777069446, 0.04833970481127915, 4.652452254315764E-4, -0.004477176816851885, -0.010840796606031553, -0.010045058424137054, 0.10980134123699045, 0.03946190702319546, 0.0205941487593234, 0.0604472189884928, 0.08207395118566067, 0.11275094981324052, 0.05027716063366616, -0.014839747204081056, 0.008955627753543876, -0.013093436656640521, 0.02137908966255304, -0.00245410181702417, 0.05425691398717991, 0.043271856593635326, 0.04570534781680217, 0.0434585315861346, 0.11354600804530683, 0.16957850656367582, 0.12189731144414429, 0.17127037340389067, 0.20360618855477633, 0.23650656519405708, 0.08523790243026363, 0.006463063902861659, -0.050871504178868016, -0.015565036796030595, 0.05501145948403299, 0.06983750641040565, 0.05228396072139883, -0.03841669931619196, 0.06659808417161905, 0.035829915328456856, 0.06980876932933226, 0.028675094164978588, 0.009139207827847615, 0.08783900381415687, -0.04210922204280599, -0.029665176764821673, 0.01322141639751872, -0.02288852265147636, 0.014304881915460445, -0.01305601493554355, -0.02946998842931954, 0.0931127809726229, 0.044496057240470004, 0.12995373623543302, 0.15249361621023483, 0.2126646636544352, 0.17622866729907458, 0.12297903180930357, 0.11107059893740401, -0.01957406080222587, 0.07312472240243571, 0.006039234289259724, 0.03257094406218725, 0.08840271535257282, 0.08154911317824416, 0.0014870937389514218, 0.09968939382913047, 0.09749023774111375, 0.04507106809852245, -5.537510037063878E-4, 0.024719201973659382, 0.003159599152462174, 0.03253466600237017, 0.01257300610811631, -9.22867557341381E-4, 0.027170015298377967, 0.0275985755840322, -0.03818464189983106, -0.009834565737504956, 0.06475136989707346, 0.03449080291783758, 0.04219130579090187, 0.0767994168784273, 0.06888032053587081, 0.1005739469358374, 0.12979392084684896, 0.1052545254803921, 0.1091320056848034, 0.07336951543105119, 0.09577665550891774, 0.054590129098497864, 0.06331161595274264, 0.05146784934768716, 0.10654406130634209, 0.03752655027368708, 0.027183439632481744, -0.004571611672567442, -0.05449657263814606, -0.012466669982680648, -7.626249949124466E-4, -0.014925703523263383, 0.004368510042465144, -0.015623159211366939, -0.005397035122790398, -4.18082580189582E-4, 0.055826906963414406, -0.022684457534304914, 0.02041558530715045, -7.062698287991732E-4, 0.05953376311426532, 0.032109027148148096, 0.017679675203507206, 0.0017816480050188645, 0.06084406958108805, 0.14703248975036864, 0.09804625273366688, 0.19430964608372547, 0.09137987592753387, 0.11698028192316158, 0.09874371782107043, 0.09203965885911858, 0.018657081195274636, -0.0036745310964748047, -0.06800488309962302, -0.08629287914955217, -6.637131478332112E-4, 0.012689249779399574, 0.023277497253622152, -0.00418733615983932, 0.042993709692801335, 0.10198420639513812, 0.06260510097087757, -0.0020842685491189667, 0.016610553450311243, -0.004298209442858542, 0.022460709209994458, 0.05608335059578347, -0.030786602773052514, -0.023125168736913882, -0.06496356244177778, -0.005318408177473466, 0.021512291266386315, -0.010560088670940595, 0.0033888588494013524, 0.07592182778359523, 0.07303056536589679, 0.020304455562833338, -0.006553276824736856, -0.07369184458354569, -0.05090762284958891, -0.07468464645312638, -0.038829931641394706, -0.05741749830384541, 0.007554873968668199, -7.892783125006192E-5, -0.06143816145375942, -0.0444070772761757, 0.05817122191135427, -0.0046270617407427606, 0.04214596235528566, -0.02658777429647898, -0.041889498688997134, 0.02417131341244335, -0.013926868206292407, -0.001185336016008354, -0.0492518227949426, -0.03876339045399505, -0.02541325889975583, -0.16287396094507098, -0.05583298296331972, -0.08263450635028464, -0.048635818146890566, -0.07545564421782355, -0.08064625944745328, -0.10009324466355066, -0.08640206572482628, -0.08099946818653041, -0.05165476810489859, -0.040276428000992105, -0.09114693915568253, 0.002320754011281776, -0.04125734795012225, 0.01569540709371975, 0.03194437578388745, 0.056231912303458254, -0.03451066018438656, 0.06398698463125833, -0.0082711780709024, 0.038671362502684666, -0.022738877668821707, -0.010673820396075215, -0.012841095982102473, -0.04838427518321015, -0.04898513095121339, 0.0378730711655369, -0.018595603490169157, 0.027805657737793858, -0.005596777715717262, -0.03474022270447385, 0.01308698707985161, -0.05127272689281999, -0.07956129503030533, -0.0010803890170390223, -0.040219758309640946, 0.0021373508780437, 0.04476106041547654, 0.0023870833411342336, -0.03898595070482023, 0.06990817467343548, 0.0241307029897515, -0.0030716927247506354, 2.328362982250833E-4, 0.018624411234341966, -0.035998783058885056, 0.004687131221111192, 0.007686433887629883, 0.016053955536873568, -0.027242029290879818, 0.041406238216718884, 0.08446687880136325, 0.05510743586028668, -0.03732945581933354, -0.07447046428619185, 0.05005002067826885, 0.06203917644549588, -0.015540437478033783, 0.029716159684432163, 0.05819205176578392, 0.07276557142268503, 0.02297279951291603, 0.0887167355855342, 0.02101722921098616, -0.00213812895200026, -0.017883792741938184, -0.010652305224142372, 0.07347009644024088, -0.005373433431990813, 0.04410384372514573, -0.02008936661990994, -0.021007185448734696, -0.03743210745829395, 0.04907287477608952, -0.10534084963289111],
[0.04138947648030959, -0.054446307843629825, 0.04016923483249953, -0.008937535903871127, 0.0376904457455431, -0.011503871849124646, 0.004193184082777255, 0.06258748660785338, -0.007807214096954513, -0.05101682397074384, 0.04837668068333161, 0.025511793334603745, 0.014948698978947256, -0.02934227650265772, 0.0412519953788784, -0.023667552426505395, 0.011673307547587124, 0.025642150120847893, -0.0011598536402100577, -0.024627508342963293, 0.049216723784177296, 0.042506791436653826, -0.09694969477994102, -0.02193754496273525, -0.031065466097653104, -0.02603244962184009, -0.0676313103378315, 0.019971793283725087, 0.009614099816442252, -0.039347985105012154, -0.012811926990502329, 0.014546522448807886, -0.051496248486366226, 0.007971149128248565, 0.0024857556286352195, 0.0061057911293459196, -0.004967511231856308, -0.0024625158765495536, 0.0034917092720739883, 0.012798557903943283, 0.02151734696915722, 0.013591458167777473, -0.031779406775686934, 0.0376271300649105, 0.07435869366993647, -0.01587645606695903, -0.060540674866335034, -0.03390464357229832, 0.04001914699229159, -0.06030195667392929, 0.0028322467429655806, 0.03080690692809862, -0.009309983931181624, -0.015595934698390868, 0.0032932142836861605, -0.078347861367799, -0.0239525615452629, 0.002802530365989759, 0.06682000203717513, -0.020976164446488338, -0.01835610137052255, 0.03700420112247054, -0.005447869278818626, 0.015007188139103183, 0.02980397999389099, -0.046954520202071866, 0.00627194327632294, 0.012646460785824898, -0.018723452133314097, 0.049454758467475886, 0.04093280469211019, 0.018837774520147347, -0.0040782009817416, -0.041873009506645895, 0.020002374042795864, -0.0040715650797419085, 2.372049520245843E-4, -0.010073479383458867, 0.026224795906333333, -0.004672440977659357, 0.06105576475365523, -0.059255249441223866, -0.01814034006156501, -0.04124847855200385, -0.027175610968048065, 0.014293000335790533, -0.051489551509612604, 0.004794971758546968, -0.036636896666563355, -0.01483217852243085, 0.0418678918752172, -0.043001064309083924, 0.11614387227003432, 0.024785766219861532, -0.03278973700018531, 0.06920917709527308, 0.026996300466418283, 0.04055249988649644, 0.0037678652009653646, 0.12090371722050929, 0.0875617257484477, 0.0070113855433522505, 0.03555529725611329, 0.03191309952957757, -0.011312746929060077, -0.02280226043011087, 0.06865101774005648, -0.10670181737245052, 0.020972750638521682, 0.05678712075519285, 0.00961465317406609, 0.019906901614085815, 0.038247659094341094, -0.03328655042835972, 0.03202671201653179, 0.05841554890250218, 0.014222035217299723, -0.053134491784417745, 0.013071822257419515, 0.020678656023192032, 0.023957272081492457, 0.022487695095996855, 0.023784402231133858, 0.1317417099022578, 0.04308737522755331, 0.08236015414022137, 0.1097553436019541, 0.11837872864747319, 0.1731651185029855, 0.030739546293298194, 0.0816250273351134, 0.034724063377128994, 0.014351778837777864, -0.035382678804047156, -0.006104644461242271, -0.02777345154593864, -0.013929194618481862, -0.043081020761808315, 0.039436156689003174, 0.047357351262353756, 0.05730376536260157, 0.03458956894429246, 0.012776630690547085, 0.008914067440222283, 0.02331441111867239, 0.01935195567777166, 0.06048069198690657, 0.08705183985871827, 0.07166873138481997, 0.0835284454393193, 0.03841388154514942, 0.11885316042656059, 0.15091639576420812, 0.10952715336565982, 0.1608991337358305, 0.15554562329968596, 0.2126893976758612, 0.1199265345569206, 0.12344230500899307, 0.09237317376137161, 0.05169026467303635, 0.005670099644193431, 0.007556245122841616, -0.04441225805556037, 0.024142771744876116, 0.02240724660738889, -0.03669342640152945, -0.03130182803752092, 0.0066674368556980754, -0.04732314644453192, -0.004066533398416523, -0.010762148224069025, 0.013501119597452534, 0.0378518735846163, 0.04652389705419073, 0.0928193888525005, 0.12139024666317699, 0.09441860694754586, 0.09366737084369277, 0.001044878739132533, 0.012532897755630277, 0.0357976212508023, 0.04038919001085301, 0.03983511132609646, 0.052349848552358184, 0.04763536496264388, 0.07813869080520364, 0.03892476861910538, 0.04140796814263438, 0.012798971610055132, 0.004182788561749069, 0.014549738123675444, -0.04197530404452382, 0.07632142334691999, -0.02742958299389979, -0.009541819586354774, -0.020616562994213748, 0.019523715602651384, -0.019804244149226855, -0.009424568072493464, 0.03222933841171123, -0.061397144936335114, 0.01689286933784192, -0.016953003453696103, -0.07188297807153224, 0.0176656394721608, 0.013952878105318508, -0.07833520804632033, -0.09259237919927615, -0.1976255104902809, -0.10212790079492391, -0.14898131072259144, -0.14268523707989225, -0.13761988732812197, -0.09568469961573062, 0.01292640739992441, -0.02612636744387215, 0.05958708257765423, -0.03591689840952939, -0.009098992957536573, -0.054177478780034996, -0.09287035681775072, -0.02114678164555981, -0.06027640927031228, 0.0013594999900109444, 0.028981606771079034, -0.006554086999121386, 0.009406930682221632, -0.035111048265685986, 0.022796472059902685, 0.10251645917085274, 0.04983043965527418, -0.042565095399472966, -6.48688823348235E-4, -0.14899182013058332, -0.1550484944181058, -0.11346774727952859, -0.1892751713095742, -0.14668308591901658, -0.14588454361895042, -0.17355112281454138, -0.1116691233202855, -0.027121722472187675, -0.06136631603252494, 0.02981785155715657, 0.04457826003522615, -0.051536803261476936, -0.031454461524898135, 0.016686308796627337, 0.02766250560888547, -0.03596600301735605, 0.011088006979162192, -0.005598826088466797, 0.06807600746941847, -0.025116259401106605, -0.06496396336568969, 0.09224798121369111, 0.0644284603231992, -0.056125280434768186, 0.02405881718730407, -0.03706087978239281, -0.09842303363109925, -0.1410184302890299, -0.14163517116085475, -0.16709018326733543, -0.1256279251886567, -0.03696790350641408, -0.06331143280525048, -0.0561698212775592, -0.09924757698181814, -0.038378099208857756, -0.021934404172777946, -0.052314993565634564, -0.08936100235129417, 0.052189148231572634, 0.03242052035548811, 0.0229756352242147, 0.06354945538230904, 0.059886047526119104, -0.0303401952415968, -0.023548984048100203, 0.033589351093983866, 0.0476411063043837, 0.030940690479395308, 0.04120608009627134, 0.011302965460695312, -0.01910577238951001, -0.017469190248844392, -0.03973341962290395, -0.05002742282674642, -0.11635816953632702, -0.09187480067355185, -0.17073633967748805, 0.028467492108850773, 0.07076119155808544, 0.06275829296513921, -0.05933145990488486, -0.03536098239571347, -0.005351460131988905, -0.043081827265022125, 0.00422758839115529, 0.00544136175966799, -0.014112260505881269, 0.03902095699188931, 0.07028171324206618, 0.02653287753574073, -0.022550799412596873, 0.030138730670171265, 0.031646567739402116, 0.01602323214051314, -0.003921704060941055, 0.014716783200718793, -0.021523207153125924, -0.033459510295247394, -0.09177001669662042, -0.042350426017242995, -0.025416180205650868, -0.056528129250250546, -0.04180564133218966, -0.21115014125278558, -0.023793678793008994, 0.035693613657037083, 0.10644264751366381, 0.03103339303308801, -0.04287066379255283, -0.0479922842036311, -0.05754106410429705, -0.06061266119281044, -0.10886295148343626, -0.003358286713113618, 0.07334800506127617, -0.014417160413470648, 0.029750391292556286, 0.05466451554094648, 0.009531453261554608, 0.09557067213521546, -0.020837967149753434, -0.015036076708487323, -0.04932382764305208, -0.059121849206915496, -0.044876509706595104, 0.07037447613701124, -0.05565386369848535, -0.08765119472752234, -0.05995200326772386, -0.042806303353171364, -0.08222225126943791, -0.04356666152056632, -0.012219385255346363, 0.16259520505453248, 0.18868894102900047, 0.1052563847859562, -0.02604026697694272, -0.16899224716794273, -0.07960197876370399, 0.00781496585784564, -0.09531986872413337, 0.0335253774083783, 0.008237872510076225, 0.007714229030442352, 0.027467960113202964, -0.016270734023786645, 0.05259848519238862, 0.04159210701940793, -0.008487826214605183, -0.026867229049564244, -0.015551284174722294, 0.0354164420717918, -0.01875212552701917, -0.11323064839848991, -0.07454566642986593, -0.03260114295951233, -0.06642389344811346, -0.03747413939517061, -0.05928393263085026, -0.01308521006923684, 0.11194715493133069, 0.13349937578887164, 0.14900720763286307, 0.14298402108754354, -0.037511520236174815, -0.0887390980088931, -0.012356006184246367, -0.04007511772968888, -0.011444603749685695, 0.018926913301799474, 0.02270023989303659, -0.022837100719734493, -0.03358646779166595, -0.024982732456664318, 0.017886543264047868, 8.423479375863687E-4, 0.03169825768138291, 0.007933724414724282, -0.01856006703558411, -0.04889626003534575, -0.0416560014202312, -0.06741755218880825, 0.024129923624107208, -0.08467175004005155, -0.04326929492832799, 0.04126289673020679, 0.006165571563473672, 0.08204180063995395, 0.15900403708704872, 0.2412883292289026, 0.1561621240126769, 0.042576260453249845, -0.05708754979597554, -0.10917580458644699, -0.06780007572208457, -0.02291107770588562, 0.06481223830526928, -6.122134728490774E-4, -0.049647298097180353, 0.11719572477657764, -0.022131466471279802, 0.02217555725761399, -0.04429001081213228, 0.09394098341132164, -0.014318065344358496, 0.01491357078053037, 0.009446979669430512, 0.040911161940586666, -0.008091905223789981, -0.013206320951532693, -0.026344234722382585, -0.017581380744636887, 0.0671320161459837, -0.03261426592624558, 0.04728074842503675, 0.11160237085249493, 0.17576146777696325, 0.2672576814316389, 0.24252975821949288, 0.08505792319809292, -0.08823773844747826, -0.12550575647751502, -0.07478810883576015, -0.0324423319154904, -0.0012572618427516172, -0.009951307406690951, 0.07506957860902934, 0.08768006274003505, 0.02146641015349393, -0.0014760589732284802, -5.524740747081969E-4, -0.0014955902857462207, 0.020862887685012252, 0.059319499078141213, 5.723159292096382E-4, 0.007890146285809535, 4.7386433031228686E-4, 0.0037380861933842303, -0.04411389853367143, -0.011146285079123172, -0.03158298923439016, -0.040574777881157965, 0.0034418926813067864, 0.06228916579905344, 0.1064439482522102, 0.17637104407126933, 0.07647172001353436, 0.05828224396407312, -0.10122990620131447, -0.04932240351311811, -0.06597967963880898, 0.02276367632665717, 0.032279087454431823, 0.10177811174162861, 0.048640207905441754, 0.03095122610200676, 0.05056778957571107, 0.025187302845139013, -0.01139495829870434, 0.12456924544289034, 0.03361849661151662, -0.03191899105277742, 0.02149423471165549, 0.07886445377234118, 0.0321303599967251, 0.045786494775862864, 0.09549477404565024, 0.029457181955209893, -0.12486425393036439, 0.013171523039035595, 0.03974971872156636, 0.08726657022318503, 0.0475491697602842, 0.08370107624225384, -0.07399592862261449, -0.11314953156936429, -0.03665929685952926, -0.08788698018464308, -0.009346934314937154, -0.009467645607712126, 0.028388016096062365, 0.024109620785940283, 0.06212980592746354, 0.039443852871984576, 0.031321483941769895, 0.013295665040083532, 0.03753600670279335, -0.009768290464449488, 0.038319588822217546, -0.01000704796537329, -0.011116600446497222, 0.08348656152384419, -0.026112701028856187, 0.07156769734068821, 0.0864779584783745, 0.02272727236166505, 0.012926963329472187, 0.0436988456604029, 0.04423983068966239, 0.10467997527942864, 0.04951675094474694, 0.0688671043981973, -0.03945541148166414, 0.06552346877571823, 0.0321439662065962, 0.04978195631969977, 0.03528749149646886, 0.11398780003778343, 0.11546278704292903, 0.05061104912913509, 0.056465440576813, 0.044197731430240514, 0.03571360261871313, -0.021981116902553038, 0.001448335694113527, -0.0034664373288551494, 0.02400796932335119, 0.04415853242476572, 0.02787058030530538, 0.05169512214276668, -5.56794364632051E-4, 0.11076897039523065, 0.024462095512825972, 0.14394754161073572, 0.09508617572431517, 0.15149852231043207, 0.10262050945348013, 0.205949725476234, 0.10847514134600407, 0.041015204371394526, 0.007835692994352047, 0.051041155316702856, 0.06936639437387047, 0.12195046330204637, 0.1255122941145419, 0.07920005353558933, 0.14113639227098837, 0.08205077895026636, 0.05289190355450013, -0.006881944274828609, 0.06845801145335227, 0.06503003636196118, -0.03755697434908191, 0.006001685413561448, -0.028999856562901317, -0.008367365856709495, 0.03850162856834438, 0.06157412105872494, -0.014806526819964166, 0.008379218490916007, 0.059269247355370876, 0.11952077252586572, 0.10112367410218431, 0.13743981365410962, 0.09219796904917314, 0.03512721325005186, 0.057867622794092945, -0.02342106989616307, 0.0563917637825878, 0.07276568670100085, 0.11483407326503796, 0.09546346113114147, 0.06018196824291755, 0.05071813607710675, 0.04274734157604546, 0.03796327365335055, -0.014794509757310179, 0.07599907599900974, -0.006671227617613665, -0.030824537139306135, 0.025150377363790225, -0.007523373590421212, 0.046250093506384815, -0.022757129609534833, -0.007348257655877429, 0.013030034204637981, 0.08367554472253473, 0.08252310345704532, 0.18103118288682107, 0.169316951292089, 0.11443788156312636, 0.07465860804100746, 0.08643319324770896, 0.0683379813687058, 0.004546645127169938, 0.058452692487185494, 0.05653387934665747, 0.09742520256012027, 0.14133007200448267, 0.07598671160883075, 0.08796501878454004, 0.12322267186173297, 0.03735052158675385, 0.08449442885375763, 0.03319960714004098, -0.004338203230105514, -3.00582462173675E-4, 0.012035135198433975, -0.027272412762561524, -0.03066406444789686, -0.009165473298824243, -0.0019348654207666629, 0.047976081752427666, -0.01616212842440802, -0.004014075970483481, -0.008402607817084797, 0.05166534955493077, 0.17775838312814957, 0.1221780398009103, 0.012226727767140472, 0.04153907748922601, 0.013254953452895825, 0.020226185276105698, 0.035303975918311144, -0.017939527722608963, 0.03734652966475857, 0.12870781761853664, 0.08231858395863273, 0.10721168082321696, 0.04002782757711971, -0.026599489396955188, 0.018440199422512862, 0.012286562441126058, 0.050451892414391346, -0.038899477949480246, 0.04219815213970148, -0.0034812561622736687, -0.03366723317400329, -0.021173611409827254, -0.0016575336957766233, -0.013161695839230545, 0.004218778926267804, -8.064674588885075E-4, 0.013008755569740245, 0.006854584141483872, -0.04049221939926794, -0.01281312776541937, -0.020303746185684982, -0.015531958235419165, -0.016276760274424276, 0.013174438530093861, 0.008097361856673901, 0.009560451541698446, 0.0027328560554774426, 0.025547715346427555, 0.03326512854186408, 0.022698222547235566, 0.04226812819638954, -0.04121488955900745, -0.022458916104679736, -0.02073552534896601, 0.013435366408869482, 0.05110712512508462, 0.004317613424379258, -0.04965833840436422, -0.03088003449027583, 0.058006840194180904, -0.03544268783644565, -0.028635423231013767, 0.10285529575211229, 0.018580624791627424, -0.02943404352237954, -0.006898437386442679, -0.05186239280934749, -0.028960239336032326, 9.87550998271725E-4, -0.07990845277114664, -0.005832507530160258, -5.620443376436945E-4, -0.05065458513161054, 0.004671386926635166, 0.02426337157867665, 0.0035006201530638032, -0.025077126842624756, -0.028001847714134723, -0.028251209838305577, -0.024291603541262443, -0.018687487357295557, -0.057256930008390716, 0.010010298853240266, 0.046085628656097444, -0.08901251193492371, 0.07604714831910582, -0.01218460898646335, 0.0017240320521246279, 0.0027114751726312757, -0.010576039336551941, 0.0503053070188993, 0.03515714985526074, -0.012054488071799605, -0.008348891147914166, 0.027738451069994927, -0.06091972419115645, -0.06767115339204043, -0.16324113599295823, -0.10576597235755904, -0.131180634707074, -0.042585072007873925, 0.005519747312149139, -0.04191658611613118, -0.13109257012269265, -0.12514037588011867, -0.023404857032319704, -0.1070204273793473, -0.03971949756243452, -0.021668146951558886, -0.014926066802497036, -0.03791754839859575, -0.09628649213243322, 0.09123111544705263, -0.006320703164215757, -0.048218734778631735, 0.013302432141834474, -0.01384244219913079, -8.424371481401821E-4, -0.03905775608291104, -0.030601384055726846, 0.017192017478873105, 0.018100219811067932, 0.05698397986039902, -0.028072526958319518, 0.0361182873103399, 0.006613771007515836, -0.0783249158607574, -0.041661012004183845, -0.03516828212861072, -0.040682249978227204, -0.025958429300257393, -0.016158199888057154, -0.056322131007351756, 7.777198749792031E-4, -0.019452132304639415, -0.005388099565523522, -0.04261607928195882, 0.02909288995034257, -0.005310091322890426, -0.006844260779011228, 0.004031965195145014, -0.0647732905447419, -0.013245949933715667, -0.037411538233421755, -0.0544220539997111, 0.019492619460754618, 0.0050339466933391796, 0.02368072336665025, 0.011049868964366449, 0.011093499072410732, -0.09492188271927626, -0.06296244585710384, -0.02982150562582336, -0.009718062692272232, -0.019637290699492937, -0.05814508399284577, -0.003329677652230857, -0.05834443612770969, 0.0182149138883105, 0.027677732103166666, -0.014791982032756236, 0.004947417151361432, -0.0704054581024041, -0.022043796928491694, 0.011124434394524135, -0.04392276037393531, -9.643037005284819E-4, 0.008616987804331256, -0.002139716323423799, 0.0445132035711699, 0.019318223771142947],
[-0.03886765354233938, 0.03559748267640516, 0.03728060250793659, 0.03837864445197414, -0.021517226066001767, 0.08056796353089103, 0.032931265420830635, -0.03365720534520026, -0.0057392815013037205, 0.009196715017459339, 0.04554760329278673, 0.0171220638417456, 0.01386109597800216, 0.04348010808489917, -0.07222498125639491, 0.014023403065676003, -0.021112196200693344, 0.017844815743208436, -0.010449448542343712, -0.019477858487577087, 0.004954259853472338, 0.029024606833249544, 0.013793874533794754, 0.017500111466257524, 0.06703020908015193, 0.005363918373518059, 0.017363509741173604, 0.010866876094791417, 0.0030523112635350695, -0.028265378319415828, -0.018791733011013497, -0.009014854579544703, 0.06225287674642442, 0.020981558010503013, 0.01094419634974432, -0.05208273286409221, 0.010289488692143278, -0.0035341907694594887, -0.040199526344367305, -0.009869620203492102, -0.03618747590424186, 0.002518036436999193, -0.0033093112898331394, -0.0021578554390045525, -0.012008866969571106, 0.008704220828762665, -0.018880266663636253, -0.02179871740339199, 0.05819514230849311, -0.01751029329874904, 2.0886593150855885E-4, -0.017107708107354236, -0.025300851492083134, 0.03262529570566321, -0.049721961600083874, -0.04106168514466811, -0.014713159705570081, 0.04719978769992311, -0.03376578046057697, -0.051457175972127144, 0.043401954244449134, 0.014294282074819148, -0.045580082024482736, 0.02828712599049095, 0.020471270976662584, -0.0033560187120081266, 0.033682154895182864, 0.0238744206564429, 0.024917619646748122, 0.05447145919726056, 0.028311650020665196, 0.018352970609774696, 0.03903085997875047, 0.03017983339345522, 0.04818527312146017, 0.020288931948387687, -0.06850117959043363, 0.02215677375925459, 0.02258551887124044, -0.05271268630925053, 0.04242956661240507, 0.01151135552592344, 0.006725498048128301, 0.0573673132684781, 0.0031158942100802654, -0.04894301418524747, -0.02703352794063702, 0.002990993585554597, -0.012529200041476883, -0.0092410834468892, -0.009027619853806382, 0.04689138368315226, -0.024562891641067994, -0.0042470219531011546, 0.0014258960075461135, -0.04756955577913436, 0.022373845105591057, 0.018895168886331824, 0.014939214114602249, 0.06393947160775056, -0.003619367807093314, 0.026178416845899458, 0.062295731720463356, 0.12458004109935739, 0.0410444777127199, -0.0252618318528889, 0.019501043313602928, -0.013024380708323341, -0.0240412785817927, 0.013375053427803318, -0.024549091133181603, -0.011544543524408798, -0.010943926487345922, 0.07184774655051607, -0.05772077957768521, -0.06415343621118409, 0.01575839068766509, -0.02109056472586823, -0.00460867282088871, -0.043952519372478446, 0.01893458602516885, -0.05013717651681988, 0.04834849123437621, -0.051887238465633576, -0.036692312488071456, 0.017303669688482015, -0.028596897631630477, -0.020393552333560324, -0.010660439179307755, 0.004034456368663434, 0.04751636713900373, 0.040318740118817434, 0.01590395891114714, 0.055822559701802575, 0.010489707185970865, 0.0065379565474177935, 0.013770233156443218, 0.04685143760336598, -0.0045459393488209016, 0.059449297370237936, 0.06871913318841827, 0.001665170143157956, -0.027116164469216456, 0.018236275810547875, 0.029818353172097797, 0.010534512715844765, 0.03347441687127127, -0.01433530358201739, -0.00849060752266873, -0.01759435865300068, 0.007199056365193747, 0.03738877650905234, 0.03876807135118022, -0.12748375311307036, -0.12744015773851697, -0.07411657345328537, -0.07947798491353875, -0.08205810295044433, -0.02829785341582834, -0.03287664246067084, -0.04329136206125392, 6.079284460417917E-4, 0.052625076978179246, 0.12074514365028577, 0.0698232166951438, -0.03736310030350343, -0.05913533723883727, 0.01782110676460996, 0.027888295204870073, -0.0045826154717281, -0.06922345374475393, 0.015151917036975417, -0.006554837989435006, 0.048373315410006563, -0.006866378860516784, -0.008800328258136182, -0.008347554785588053, 0.010355472102599917, -0.011164274204432055, -0.0070973376000220195, -0.06504066597248231, -0.01875580186848026, -0.03678945345435935, -0.0821185808670236, -0.04275679878880972, -0.05692869167293082, 0.012427459106535038, 0.010461731282588198, 0.006585337665207214, 0.015248698364091533, 0.03104752772581864, 0.08088933386162245, 0.09555054270099696, 0.08336859566176184, 0.02093949432533755, -0.01698301446678621, -0.027382392335852532, -0.025021223623944235, 0.04033242378197382, -0.0216478359005514, 0.05000062138393516, -0.04183803737734767, 0.045639283602526046, -0.019135039520725514, -0.05560805068660099, -0.027435907426032524, 0.0075024721436346715, -0.07567099213013932, -0.015489274539698386, -0.07001894030696913, -0.03869341319858856, -0.005136340521844193, -0.0445275752712348, -0.06734139656744349, -0.028484991877026147, 0.01253846514813804, 0.016284305035457733, 0.03069326873262695, -0.013315004482294057, 0.0602075419962273, 0.08677819583392218, 0.07372171921396657, 0.008424472164989054, -0.001852214639184632, -0.05295586752999636, 0.019114509546884453, -0.026836848534099077, 0.06755443193072, -0.027389586065629502, -0.04342707692694165, 0.02015785761547772, -0.009520953968114138, -0.037089919217084905, 0.017325330963165176, 0.033993229459608365, -0.02144191428013025, -0.048707869338901866, -0.0070423580335104785, -0.05449079989079207, -0.029742821555258966, -0.028169650997034234, -0.04990148121106567, -0.0648658272143838, -0.07289598642845639, -0.013240143889227337, 0.030903133470033064, 0.050297310352854424, 0.09239278690246568, 0.08541681488573973, -0.020327038658205537, -0.0038833554951469354, 5.408623388005942E-4, -0.01944254557608263, 0.05668291677845031, 0.09746575966205391, 0.037641717080005896, -0.022518391024474282, -0.025469792924414248, 0.057084010070448034, 0.009162422241787427, 0.020848368914853012, -0.04967676222537837, -0.01874185429509634, -0.04323091514851174, -0.015369126066763644, 0.06142838070567165, 0.07804975090495206, -0.02806568394202743, -0.0434668679922286, -0.09786554634201929, -0.08566944186956248, -0.05532649688956117, -0.06168434498226855, -0.01958796279868689, -0.05786015494789685, 0.015048847011993691, 0.0988154382549698, 0.12036962751877647, -0.03660073960704029, 0.05153297636033667, 0.02656705133413997, 0.00782748048316827, -0.035663542021054796, 0.017780216513893922, -0.02509498836444703, -0.056497829305378146, -0.013853414163151681, 0.029616232487578775, 0.0666164225018796, 0.06652160723861895, -0.008411859796088326, 0.026212649895159663, 0.08388228423797411, 0.0705195988228764, 0.009344380610653598, -0.008343663254702096, -0.05760312715681569, -0.05968290651011628, -0.08173405611868645, -0.08788583464771901, -0.12086683047555032, -0.11256091256478869, -0.028379382346075354, 0.012267539820290841, 0.023546720581412196, 0.06954393824864609, 0.026148176542875972, -0.045200030778328563, -0.0214132087212212, -2.4817241091644437E-5, -0.007307570862466184, 0.0054105164487569584, -0.019930178152372875, 0.04132001293291716, 0.08976710736866778, 0.030125100927472896, 0.06296874413079478, 0.1327417707408584, 0.0855992104857898, 0.2044374732222707, 0.1440245289939904, 0.2208184012537587, 0.12210055731393653, 0.11315870311471139, -0.029555479371094685, -0.1131469426423724, -0.035686470224255765, -0.13475120318400122, -0.09433716841477877, -0.08060920729442278, -0.1098030710624124, -0.038419238948844886, 0.032303952416813435, -0.012190337908276413, -0.035787785183842624, -0.0036729934698355626, 0.014027969999281168, -0.062496986680468096, 0.027387019514464005, -0.027619153030945396, -0.026564951453044106, 0.022472970416378944, 0.03161326164243671, 0.12001699377216037, 0.13328447761551854, 0.1066860073795308, 0.122218221302219, 0.12789751047445308, 0.304430339035314, 0.1899121099227889, 0.08812831543713522, 0.023445286157683407, 0.017243502830712753, 0.009873074073511038, 0.004635697685483954, -0.0221370585473735, -0.051663898880951575, 0.024931010949194813, -0.051037132546587094, 0.011040060277352541, 0.04044298287571394, 0.027700616933588634, -0.030375025224563316, -0.036425312099952444, 0.018548778150570433, 0.004731662089245233, 0.05554213996877256, -0.03976340431451584, 0.018542448241556694, 0.04623732379835237, 0.071929192096883, 0.07125215246065729, 0.12411215556100272, 0.1513400956127321, 0.11315084176087169, 0.16956502439455587, 0.20185114391737316, 0.09714723288145101, 0.05559714375898768, 0.051825270834531444, 0.08880423995453311, 0.06626923543571436, 0.06207751408088422, 0.004929937560187107, 0.03429955748491614, 0.02168550020047388, -0.07119731133538744, -0.0686483901444239, -0.06093444134688827, -0.04951412553867829, 0.022934129642679647, -0.03840650164643752, 0.033057537253767644, 0.013731316760126844, -0.04896024841869929, -0.04464395636441681, -0.03955412264030795, 0.0034921178045372956, 0.03422083042069105, 0.05877427324076931, 0.0377026279928948, 0.08474852783315742, 0.13519268992246858, 0.21129057227886638, 0.12944470400336525, -0.012384645272051029, -0.004908603730410886, 0.08775837304114883, 0.04265803800458983, 0.08475231282532134, 0.04518898353138282, 0.0022229052292073695, 0.05459508088620524, 0.10397271824589864, -0.06906145870391112, 0.022884152118459657, 0.04046485389629374, 3.118352781922706E-4, -0.013889571908158272, 0.02768959584080016, -0.0631114103046153, 0.042619437853282524, -0.010116639091941697, 0.051358052154766395, -0.05951949773267645, 0.0015216652660957736, -0.08435170436581087, -0.11547558348901403, 0.03024982943788741, -0.054050028510071894, 0.032032910472367254, 0.02904116981975814, 0.05894759813269151, -0.06971594030705659, -0.022469795155990898, -0.037229195376673484, -0.030280310256247476, 0.034767606671772804, 0.09835267126360119, -0.011279572370449008, 0.010614303083862391, 0.01599614743355808, 0.0226058274873635, -0.056446066448907505, 0.06783182137267521, -0.015423145219201326, -0.015464610629511207, 0.01596898522595309, -0.01921013719732369, -0.0019308346862826602, -0.06415318642420524, -0.036991532443428975, -0.03054583967434508, -0.03084423999782704, -0.09717387265940892, -0.16220808839322623, -0.13814031195619128, -0.04645284483327555, -0.02404306661731151, 0.016995108883519613, -0.05101986974061311, -0.10204532500529633, -0.05070672867079279, -0.0535538496986684, -4.1774883873117567E-4, -0.0713249752410699, -0.021078043122663, 0.02007909254072016, 0.033170421361850305, 0.01566962043124282, -0.021014435591512795, 0.006217199740979766, -0.023969028223508982, -0.004972762371751641, 0.0017643931503525019, -0.005107872060380428, 0.03200684472364098, -0.010424647094595032, -0.02771182671190266, -0.011219368060328637, -0.026634310328637844, -0.03035415600899162, -0.052546290490935656, -0.10296010971409253, -0.12272400693088803, -0.09175938228477475, -0.10175711243017685, -0.0962882340881152, -0.14443318605214905, -0.16496616049540966, -0.1115917667439704, -0.0862018333941742, -0.05655335242390171, 0.036570211381523214, 0.07299838574847259, 0.06439545862539243, 0.04331728623392041, 0.060223834903117265, 0.02530553099402742, 0.019648731341501056, -0.023761551256614312, -0.054556295104167964, 0.009666740905569989, -0.041299917406433816, 0.029685726525854286, 0.0018615923060587682, 0.007752528866628987, 0.01646403012233977, 0.01715774396476033, -0.08798014255737847, -0.01783639087672563, -0.0641157056564769, -0.07983442634605263, -0.0779665465577079, -0.10279441898039667, -0.1438871825470216, -0.12559268608061555, -0.13273654589866526, -0.09488225069940713, -0.014984235220768912, -0.028934803367769737, 0.06697694679524471, 0.10492130134508132, 0.05044242876578721, 0.07948793456763115, -0.0217204795195181, 0.02571700054737153, -0.09950811409037955, -0.08682650673054332, 0.059895420730006324, -0.037438823240013325, -0.003976822280594566, 0.013773620420766821, 0.02871430356663328, -0.02267611467353763, 0.0160462815866009, -0.08847971060808917, -0.006054820826348815, -0.0019211458485177207, -0.005292597644418213, -0.08210405529989974, -0.07481762654128611, -0.13957352160609815, -0.04305820351095851, -0.09504011178570612, -0.07358269092978144, -0.02236308432422795, 0.0852331460511045, 0.048400368335605404, 0.019411555970207158, 0.009439926555884421, 0.10958166853809219, -0.004514186892406812, -0.036296832377371926, -0.06593693239745324, -0.07185724356635943, -0.07388196323237632, -0.07293694601558726, -0.009110957178588668, -0.01706401107256527, -0.04675224287241968, 2.0352979256006349E-4, -0.03200293065097531, -0.03535117871523186, -0.05654389310677705, -0.07136422080406217, -0.01299031284913623, 0.039945363742423856, -0.08661992075806059, -0.024004115007632575, -0.01860939811144188, 0.06464155222971237, 0.045387404304455176, 0.04954421612738492, 0.04454178881726, 0.0811159635928021, 0.09610537176362137, 0.05039829148923419, 0.11329708510608638, -0.0432384852194632, 0.029101420005684605, -0.02703217468038735, -0.07200809558750164, -0.11052303145609564, -0.043153322330491815, -0.03880888929983289, 0.003158246388056811, 0.0017729249569036693, -0.04185083407485471, -0.013972193876291132, 0.019818413670917072, 0.0410526556739593, 0.016919683293074618, 0.02066302310534933, -0.08919131061077698, -0.02838157548220019, 0.04460808205281869, -0.029164452314650965, -0.01342159672471519, -0.00475031138907335, 0.05336962219704861, 0.03841716692781026, 0.08753012426032439, 0.08881478696709846, 0.04188951134122301, -0.012001369633223834, 0.027914848000604224, 0.024322467355223865, -0.08134239496392073, -0.021235256809476875, -0.0958306372022504, 0.010822227430233379, -0.0016656635944055727, -0.03487642195470304, 0.05654837496986626, -0.0027614639473466833, 0.04711951669946071, 0.0022058231607023104, 0.016520598731879936, -0.010184673508611408, 0.02860275155610136, -0.0545057682474297, 0.014839025936335242, -0.061504596027804705, -0.04707082654434221, -0.059745373433026085, -0.049063084256400054, -0.02102021268050182, -7.972197799132903E-4, 0.030736094515819445, 0.007085358559432137, 0.01371514170983416, -0.05407323090364965, 0.023893297220028167, -0.020471454639920193, -0.012510254026612398, -0.04845541774931077, -0.022250225965325467, -0.011269324122204258, 0.01981932283020423, -0.024646169174437085, 0.04044330124880537, -0.03885733937295511, 0.017403108661859224, -0.022120602820985536, 7.91957208888218E-4, 0.03264823848952445, -0.057174053599957725, 0.052607954341342425, 0.05251783843902197, -0.0037049522268570926, 0.0019326303130784226, -0.03703247896910405, 0.036447368577428925, -0.039419412808026945, -0.057696821466576495, -0.011652776097102968, -0.001968526416795948, 0.08022847301308432, 0.0028851438084715048, 0.02817458997561558, 0.02105486476670384, 0.03566142789818376, 0.005729844271213799, 0.04329892516473864, 0.010774532886110653, -0.03629428919927332, -0.025836821724513067, -0.02300260312012574, -0.0030353479122976214, 0.009689787972821398, -0.04595510925529055, 0.021920485851379724, 0.048072861348422216, 0.0034354138812531785, 0.039476307335479535, 0.032424080665223426, -0.06290660325929087, -0.04130434393390616, 0.011564093204200824, 0.027283131117613196, 0.06147410240254134, 0.028787252398871366, 0.027200252309406602, 0.0033101101083765974, -0.009015154027001562, 6.247988220012953E-4, 0.021017209230056386, 0.058146352380643876, 0.011563648802528559, 0.0662196816439795, 0.008194829538594607, -0.005947670893795035, 0.02970944810306127, 0.07669082221681317, 0.023199888180161825, 0.03942860113721662, 0.037023156116086586, -0.030474412644194888, 0.0034823289205889773, -0.028080812216574495, -0.050221905414226935, 0.060385962046498494, -0.03565610681814151, -0.04530247471415841, 0.03795451628701702, -0.027515686459212377, 0.02929875604062415, 0.05115574564509677, -0.041525854505961544, 0.036871234901038615, 0.06405299890697524, 0.06584909727224941, -0.0024709464707118795, 0.07580641600693866, -0.032971328915782784, 0.03456412406670868, 0.0015521580086350307, 0.03730139571890886, -0.017437091550991612, 0.017141929268986413, 0.012717675181205158, -0.03344904562210271, -0.07625836089611865, -0.011826187536405278, 0.005418470779956626, -0.001454619521566125, -0.02637955985382057, -0.009990829974867995, -0.005238712244260645, 6.020193994890704E-5, 0.03476084710472487, 0.00875964723723533, 0.030557862221600278, -0.05128423017291779, -0.006604599231215852, -0.010000041349150878, -0.023335160285278725, 0.015019258779016584, 0.008829697051340117, 0.0496212063035618, -0.014513888008737716, -0.00826274210593318, 0.05588096183316568, 0.03460714543532889, -0.011245612770809828, 0.05974676292341892, -0.06733915831407125, -0.00867027019199023, 0.043858606234464886, -0.037473768255367426, 0.037366625751243415, -0.013955794448462854, 0.013026199937446007, 0.0020388639126729074, 0.008133122438019348, 0.07178136350502388, 0.0259309179772101, 0.07049241970997715, -0.029925736666669197, 0.006127318358594077, 0.0069719153739734585, 0.018082611125921914, 0.03707179568548003, -0.0010356274869612924, -0.0019744698998798056, 0.03312731851962201, 0.02025939768951578, 0.024963510057397918, -0.013569146531974904, -0.014895388623562024, 0.03321141102281446, 0.027546002291119382, 0.029593889194053553, -3.967136206991132E-4, -0.02370420441236416, -0.02744740410594877, 0.038495717069559496, 0.015502587780829353, -0.010821792158710214, 0.03120317856047305, -0.06012300966948327, 0.015013054285389274, 0.033645988937093425],
